{
    "conv1.bias": [
        0.08599337749183178,
        -0.019126532366499305,
        0.0661991760134697,
        0.10092342644929886,
        -0.04919636342674494,
        0.03267103771213442
    ],
    "conv1.weight": [
        [
            [
                [
                    0.0619321009144187,
                    0.07998915016651154,
                    0.10717047192156315,
                    0.059202472679317,
                    0.028458720655180514
                ],
                [
                    0.010113892611116171,
                    0.0022292056237347424,
                    0.007575864117825404,
                    -0.029402722604572773,
                    0.0262387590482831
                ],
                [
                    -0.026810695184394717,
                    -0.0331922632176429,
                    -0.06906487327069044,
                    -0.057080527767539024,
                    -0.02822329429909587
                ],
                [
                    0.02102957875467837,
                    -0.06831028591841459,
                    0.006878025553305633,
                    -0.011027843924239278,
                    -0.09595502726733685
                ],
                [
                    -0.03188248677179217,
                    0.03805051930248737,
                    -0.015954076778143644,
                    -0.04586785286664963,
                    -0.05699294060468674
                ]
            ],
            [
                [
                    -0.011776875820942223,
                    0.04758656956255436,
                    0.08093241788446903,
                    -0.015703780169133097,
                    -0.006141691410448402
                ],
                [
                    0.036442624405026436,
                    0.010872777900658548,
                    0.005638469010591507,
                    0.06471164990216494,
                    -0.01891057996544987
                ],
                [
                    0.03813452133908868,
                    -0.005142319365404546,
                    0.008050451171584427,
                    -0.027944760164245963,
                    -0.04689927585422993
                ],
                [
                    -0.019135533832013607,
                    0.08034815825521946,
                    0.01874257472809404,
                    0.035638040164485574,
                    -0.07165678031742573
                ],
                [
                    0.050815274938941,
                    -0.020807123510167003,
                    -0.04062273586168885,
                    -0.04074509860947728,
                    -0.036383096128702164
                ]
            ],
            [
                [
                    0.1507507935166359,
                    0.09109098091721535,
                    0.11571450158953667,
                    0.11871562525629997,
                    0.04069081135094166
                ],
                [
                    0.08597185835242271,
                    0.14757384732365608,
                    0.13995789736509323,
                    0.07395163737237453,
                    0.024115585023537278
                ],
                [
                    0.08292779885232449,
                    0.05989697203040123,
                    0.07720525935292244,
                    0.04470301792025566,
                    -0.001566100720083341
                ],
                [
                    0.08062593825161457,
                    0.13413773849606514,
                    0.10136539116501808,
                    0.03262294549494982,
                    0.013062624959275126
                ],
                [
                    0.061920628882944584,
                    0.06042784824967384,
                    0.07591770961880684,
                    0.015292751788365422,
                    0.08615135215222836
                ]
            ]
        ],
        [
            [
                [
                    0.11594610288739204,
                    0.14424989745020866,
                    0.12441978976130486,
                    0.14047857001423836,
                    0.09795672073960304
                ],
                [
                    0.10868463292717934,
                    0.056758579798042774,
                    0.17102479934692383,
                    0.11274441704154015,
                    0.1326603014022112
                ],
                [
                    -0.007131932972697541,
                    0.011257283331360668,
                    0.07213981822133064,
                    -0.00022687545060762204,
                    -0.016249351552687585
                ],
                [
                    0.003595089277951047,
                    -0.015733673819340765,
                    -0.04560210555791855,
                    -0.01835281401872635,
                    -0.06781224720180035
                ],
                [
                    -0.08234204351902008,
                    -0.12252793833613396,
                    -0.1397515945136547,
                    -0.05834448151290417,
                    -0.05384078714996576
                ]
            ],
            [
                [
                    0.02707891771569848,
                    0.06116523873060942,
                    0.0336997271515429,
                    0.06511014886200428,
                    0.023523194948211312
                ],
                [
                    0.034028525929898024,
                    0.027059733867645264,
                    0.00865915382746607,
                    0.003693002203362994,
                    -0.020105792209506035
                ],
                [
                    -0.02497371844947338,
                    -0.018093441845849156,
                    -0.0595583887770772,
                    -0.07375114597380161,
                    -0.06147696264088154
                ],
                [
                    -0.09545424021780491,
                    -0.026491401251405478,
                    0.0008997848490253091,
                    -0.06644737906754017,
                    -0.1410423368215561
                ],
                [
                    -0.12152054533362389,
                    -0.0670367032289505,
                    -0.0823989175260067,
                    -0.0818006657063961,
                    -0.17590879648923874
                ]
            ],
            [
                [
                    0.014783101622015238,
                    0.06491040717810392,
                    0.04035541880875826,
                    0.056669493205845356,
                    0.041384505573660135
                ],
                [
                    0.0697838868945837,
                    0.057052173651754856,
                    0.05520405434072018,
                    0.05590285640209913,
                    -0.02400860982015729
                ],
                [
                    0.029979216866195202,
                    -0.0738876536488533,
                    -0.028811160009354353,
                    0.011727133300155401,
                    0.0006973507151997183
                ],
                [
                    -0.05207110941410065,
                    -0.010161744779907167,
                    -0.03017954435199499,
                    0.008157640811987221,
                    -0.010821765463333577
                ],
                [
                    -0.011776329018175602,
                    -0.052640204317867756,
                    -0.015447028679773211,
                    -0.08885970525443554,
                    -0.01639653614256531
                ]
            ]
        ],
        [
            [
                [
                    -0.0076936268887948245,
                    -0.01990852248854935,
                    -0.08519025146961212,
                    0.013338391087017953,
                    -0.037345622200518847
                ],
                [
                    -0.060950872488319874,
                    -0.06330968998372555,
                    -0.11563939973711967,
                    -0.05179301276803017,
                    -0.08721968904137611
                ],
                [
                    -0.1544426567852497,
                    -0.06011389847844839,
                    -0.06577103398740292,
                    -0.08557268045842648,
                    -0.12086575850844383
                ],
                [
                    -0.0985307339578867,
                    -0.07791604287922382,
                    -0.050329551100730896,
                    -0.05834171827882528,
                    0.014121860964223742
                ],
                [
                    0.03752854326739907,
                    0.03932982170954347,
                    -0.008713408547919244,
                    -0.018700395128689706,
                    -0.015045849489979446
                ]
            ],
            [
                [
                    0.015585885848850012,
                    0.0018683492089621723,
                    0.06857730634510517,
                    0.0223242009524256,
                    0.044476854614913464
                ],
                [
                    0.013267674599774182,
                    -0.019655194599181414,
                    0.012956609250977635,
                    -0.0432183425873518,
                    -0.04102854849770665
                ],
                [
                    0.00025893759448081255,
                    -0.048340012319386005,
                    -0.06529097724705935,
                    -0.00026580113626550883,
                    -0.029563969001173973
                ],
                [
                    0.006172258057631552,
                    0.0033353366306982934,
                    -0.00860748998093186,
                    0.021094167605042458,
                    0.0057937138772103935
                ],
                [
                    0.07555310800671577,
                    0.06424422282725573,
                    0.07141577638685703,
                    0.17442207038402557,
                    0.0786471962928772
                ]
            ],
            [
                [
                    -0.0028142379596829414,
                    0.027929501608014107,
                    0.11658758670091629,
                    0.0767962783575058,
                    0.017072896589525044
                ],
                [
                    -0.00901329139014706,
                    0.05228847358375788,
                    0.0421344842761755,
                    0.08105635270476341,
                    0.06250785011798143
                ],
                [
                    0.004108714172616601,
                    0.07991239242255688,
                    -0.07916106656193733,
                    -0.04569451231509447,
                    -0.04656656365841627
                ],
                [
                    0.02949862787500024,
                    0.029135584831237793,
                    0.06371571868658066,
                    0.015150035382248461,
                    0.0033557498099980876
                ],
                [
                    0.07752336747944355,
                    0.014773807139135897,
                    0.08258598484098911,
                    0.0439238715916872,
                    0.09899447113275528
                ]
            ]
        ],
        [
            [
                [
                    -0.06574610155075788,
                    -0.03193186176940799,
                    0.009331064764410257,
                    -0.01085137499467237,
                    0.02958761458285153
                ],
                [
                    -0.07951398193836212,
                    -0.05297830328345299,
                    -0.05933367274701595,
                    0.09314213506877422,
                    0.03483899775892496
                ],
                [
                    -0.060162113048136234,
                    -0.11005244590342045,
                    -0.013367433683015406,
                    0.09979098103940487,
                    0.06199571955949068
                ],
                [
                    -0.04889718350023031,
                    -0.06837967410683632,
                    -0.01225549541413784,
                    0.07970019802451134,
                    0.038837623316794634
                ],
                [
                    -0.1080649122595787,
                    0.01569608971476555,
                    -0.013234925165306777,
                    0.016845705918967724,
                    0.04258828051388264
                ]
            ],
            [
                [
                    -0.03979396168142557,
                    0.005199871840886772,
                    0.0579823674634099,
                    -0.00027718418277800083,
                    0.0450239609926939
                ],
                [
                    -0.03630289155989885,
                    -0.018907082034274936,
                    0.06576295848935843,
                    0.06812708266079426,
                    0.0495505491271615
                ],
                [
                    -0.03892329381778836,
                    -0.10869107581675053,
                    0.07728676125407219,
                    0.13065136969089508,
                    0.058382101356983185
                ],
                [
                    -0.04100966965779662,
                    -0.04673185013234615,
                    0.05943189933896065,
                    0.15918153151869774,
                    0.05217617843300104
                ],
                [
                    -0.019987246487289667,
                    0.0193867152556777,
                    0.05782443005591631,
                    0.07923446968197823,
                    0.07512695528566837
                ]
            ],
            [
                [
                    -0.06266183964908123,
                    -0.07192905619740486,
                    -0.04444960504770279,
                    0.025853219907730818,
                    -0.0176104421261698
                ],
                [
                    -0.052333065308630466,
                    -0.060595717281103134,
                    -0.014990902738645673,
                    0.01588623388670385,
                    0.029175746254622936
                ],
                [
                    -0.040880193933844566,
                    -0.09268595091998577,
                    -0.039223555475473404,
                    0.037600716575980186,
                    -0.006747360457666218
                ],
                [
                    -0.0019275647355243564,
                    -0.06340285576879978,
                    -0.07172513380646706,
                    0.023645460605621338,
                    0.0728914737701416
                ],
                [
                    -0.07112530898302794,
                    -0.0012347022493486293,
                    0.03491641581058502,
                    -0.035115621984004974,
                    -0.05166767258197069
                ]
            ]
        ],
        [
            [
                [
                    -0.03525008715223521,
                    0.011585669897613116,
                    0.025680898688733578,
                    0.032932788133621216,
                    0.08585944958031178
                ],
                [
                    -0.0507181528955698,
                    -0.00745388405630365,
                    -0.06279008090496063,
                    -0.02804064773954451,
                    0.0888932989910245
                ],
                [
                    -0.03179550589993596,
                    -0.13191956654191017,
                    -0.06998276337981224,
                    -0.027377239428460598,
                    0.0775884622707963
                ],
                [
                    -0.06957597564905882,
                    -0.06704116798937321,
                    -0.019663228798890486,
                    -0.02021520398557186,
                    0.07058915123343468
                ],
                [
                    0.005648198159178719,
                    0.046849220525473356,
                    0.01052931824233383,
                    0.06573632638901472,
                    0.04676044452935457
                ]
            ],
            [
                [
                    -0.028010996989905834,
                    -0.09111985564231873,
                    -0.04877258324995637,
                    -0.0006679380021523684,
                    0.039109020959585905
                ],
                [
                    -0.07938004098832607,
                    -0.15084153413772583,
                    -0.10613415390253067,
                    -0.09088313020765781,
                    -0.02178130019456148
                ],
                [
                    -0.10463892109692097,
                    -0.1162978857755661,
                    -0.03639161167666316,
                    -0.042302053421735764,
                    -0.04716219939291477
                ],
                [
                    -0.03699472249718383,
                    -0.05166598269715905,
                    -0.055077113676816225,
                    -0.028932913293829188,
                    -0.023851192789152265
                ],
                [
                    0.007870207133237273,
                    0.024676085799001157,
                    0.0098741838010028,
                    0.031726760091260076,
                    0.06556551530957222
                ]
            ],
            [
                [
                    0.014942058711312711,
                    -0.02098341635428369,
                    0.0826281737536192,
                    0.008439287747023627,
                    0.029651046497747302
                ],
                [
                    -0.0073913560481742024,
                    -0.030514370184391737,
                    -0.016258832067251205,
                    0.03876725863665342,
                    -0.009530055437608098
                ],
                [
                    -0.08715255185961723,
                    -0.10246853716671467,
                    0.0008068144088611007,
                    -0.0378593266941607,
                    0.08478957414627075
                ],
                [
                    -0.009885773120913655,
                    0.03024629782885313,
                    -0.010841485811397433,
                    0.032340314239263535,
                    0.09002819657325745
                ],
                [
                    0.05182273406535387,
                    0.08082399889826775,
                    0.08369486220180988,
                    0.09763708896934986,
                    0.12810913287103176
                ]
            ]
        ],
        [
            [
                [
                    0.08258742559701204,
                    0.0012191907444503158,
                    -0.04038568213582039,
                    -0.05913301557302475,
                    -0.037104057148098946
                ],
                [
                    -0.03523382171988487,
                    -0.04529786529019475,
                    -0.0888887383043766,
                    -0.07647777535021305,
                    -0.06410347484052181
                ],
                [
                    0.005714351631468162,
                    0.006973915209528059,
                    -0.0658189058303833,
                    -0.07460359763354063,
                    -0.07354928646236658
                ],
                [
                    0.028604663908481598,
                    -0.014615805121138692,
                    0.062071182765066624,
                    0.05420144274830818,
                    0.04881951119750738
                ],
                [
                    -0.0239765839651227,
                    0.022821384016424417,
                    0.05293799564242363,
                    0.06045731948688626,
                    0.079576900228858
                ]
            ],
            [
                [
                    -0.04564712941646576,
                    -0.10121878795325756,
                    -0.08163218200206757,
                    -0.07353086303919554,
                    -0.0805806815624237
                ],
                [
                    -0.052353025414049625,
                    -0.08034374192357063,
                    -0.04146124888211489,
                    -0.10510831698775291,
                    -0.1199023686349392
                ],
                [
                    0.01801339373923838,
                    -0.06863709166646004,
                    0.03130970580969006,
                    -0.03415388870052993,
                    -0.056522343307733536
                ],
                [
                    0.04220095509663224,
                    -0.028077674098312855,
                    0.07431786693632603,
                    -0.0005283550126478076,
                    0.05856045428663492
                ],
                [
                    0.06994587182998657,
                    0.08019223902374506,
                    0.06486480496823788,
                    0.04689287018845789,
                    0.07028260407969356
                ]
            ],
            [
                [
                    -0.03167598322033882,
                    -0.029594080988317728,
                    -0.08372795395553112,
                    -0.021017104387283325,
                    -0.008648665738292038
                ],
                [
                    0.0025436303694732487,
                    -0.131663853302598,
                    -0.09185982123017311,
                    -0.016071841353550553,
                    -0.010909828124567866
                ],
                [
                    -0.024067039747023955,
                    -0.023146687191911042,
                    -0.05256425682455301,
                    -0.09186118468642235,
                    0.0388078298419714
                ],
                [
                    0.11479421518743038,
                    0.012068191426806152,
                    0.0504009360447526,
                    0.043073620647192,
                    -0.013055708725005388
                ],
                [
                    0.12641241401433945,
                    0.0344303292222321,
                    0.08719227835536003,
                    0.008854668354615569,
                    0.08542719669640064
                ]
            ]
        ]
    ],
    "conv2.bias": [
        0.10964391939342022,
        0.14187214523553848,
        0.023039687424898148,
        0.05127228610217571,
        -0.06901893392205238,
        0.13871342316269875,
        -0.03240959346294403,
        0.10096047632396221,
        -0.08734671957790852,
        -0.02797825663583353,
        -0.08820385113358498,
        -0.1137109026312828,
        -0.027226549107581377,
        -0.09162198565900326,
        0.0858979094773531,
        -0.025277495617046952
    ],
    "conv2.weight": [
        [
            [
                [
                    0.031768341548740864,
                    0.06792379170656204,
                    0.04562156833708286,
                    0.046229852363467216,
                    0.08161298371851444
                ],
                [
                    0.030112463049590588,
                    0.039811682887375355,
                    0.011388282233383507,
                    0.04446031711995602,
                    0.06798153091222048
                ],
                [
                    -0.015644875587895513,
                    0.056415408849716187,
                    0.046031055971980095,
                    0.03262251289561391,
                    0.09915879741311073
                ],
                [
                    0.04573923721909523,
                    0.08555779419839382,
                    0.06467415019869804,
                    0.09864477999508381,
                    0.08366432972252369
                ],
                [
                    0.11047680675983429,
                    0.1187265682965517,
                    0.06118971109390259,
                    0.10799935460090637,
                    0.14766323380172253
                ]
            ],
            [
                [
                    0.025157699245028198,
                    0.008634577636257745,
                    0.0010853263374883682,
                    0.011611471913056448,
                    0.018233076203614473
                ],
                [
                    0.009137902525253594,
                    -0.010722891791374423,
                    -0.04809052310883999,
                    -0.06721629574894905,
                    -0.005232053110376
                ],
                [
                    0.0033490238020021934,
                    -0.013414942543022335,
                    -0.0383221791125834,
                    -0.017879131715744734,
                    -0.035575848538428545
                ],
                [
                    -0.005449606687761843,
                    0.02078546234406531,
                    0.05798825528472662,
                    0.004500592243857682,
                    0.05533781507983804
                ],
                [
                    0.011123078467790037,
                    0.027517727576196194,
                    0.09019471518695354,
                    0.010760195727925748,
                    0.011029992019757628
                ]
            ],
            [
                [
                    0.010270013939589262,
                    0.07113648019731045,
                    0.06445153523236513,
                    0.018018791219219565,
                    0.061156551353633404
                ],
                [
                    0.04389646649360657,
                    0.04436433268710971,
                    0.05623351410031319,
                    0.05212124437093735,
                    0.014352202066220343
                ],
                [
                    0.015701442665886134,
                    0.029330831137485802,
                    0.01831682398915291,
                    0.035557124530896544,
                    0.06181880831718445
                ],
                [
                    0.020273527414246928,
                    -0.0015659211203455925,
                    -0.000991757755400613,
                    0.013821009313687682,
                    0.06577293947339058
                ],
                [
                    0.008134475618135184,
                    0.02385652018710971,
                    0.0011603744060266763,
                    -0.00039294076850637794,
                    0.04978494066745043
                ]
            ],
            [
                [
                    -0.018246753854327835,
                    -0.011799721280112863,
                    0.030900349840521812,
                    0.05519724451005459,
                    0.007044107129331678
                ],
                [
                    -0.05045177694410086,
                    -0.020699980901554227,
                    -0.047962688840925694,
                    -0.0024814933130983263,
                    -0.012769643450155854
                ],
                [
                    -0.01993075688369572,
                    -0.043352577835321426,
                    -0.021148035768419504,
                    -0.06067931558936834,
                    -0.07899975869804621
                ],
                [
                    -0.021349529968574643,
                    -0.024286772590130568,
                    -0.06153019331395626,
                    -0.0837518610060215,
                    -0.07833890896290541
                ],
                [
                    -0.04946117755025625,
                    -0.036498566158115864,
                    -0.03768023871816695,
                    -0.054327585734426975,
                    -0.07534489966928959
                ]
            ],
            [
                [
                    0.020698053995147347,
                    -0.018348721554502845,
                    0.006048326089512557,
                    0.09176073223352432,
                    0.014626723546825815
                ],
                [
                    0.016191823640838265,
                    0.051419190131127834,
                    0.06009228527545929,
                    0.05394668132066727,
                    0.031961234752088785
                ],
                [
                    0.05525895208120346,
                    -0.002206495963037014,
                    0.007599563559779199,
                    -0.02676362614147365,
                    -0.0029896630439907312
                ],
                [
                    0.016544480342417955,
                    -0.009433249477297068,
                    -0.05546609126031399,
                    -0.014788803993724287,
                    -0.03939861012622714
                ],
                [
                    -0.01185820618411526,
                    -0.016944115166552365,
                    -0.06890676263719797,
                    -0.03463070560246706,
                    -0.09596600383520126
                ]
            ],
            [
                [
                    -0.03363180812448263,
                    -0.05642961151897907,
                    -0.013894738163799047,
                    0.03619488049298525,
                    -0.009974295739084482
                ],
                [
                    -0.006129882880486548,
                    0.04832475446164608,
                    -0.04387047374621034,
                    -0.0062042176723480225,
                    0.004746162798255682
                ],
                [
                    0.00773514702450484,
                    0.015398084768094122,
                    0.025239051785320044,
                    -0.0005257294396869838,
                    0.03703810274600983
                ],
                [
                    0.005031072942074388,
                    -0.02013902203179896,
                    -0.06508738361299038,
                    -0.03844724013470113,
                    -0.0251413426885847
                ],
                [
                    -0.023728824453428388,
                    -0.041674680542200804,
                    -0.028714369633235037,
                    -0.04119789833202958,
                    -0.05909803742542863
                ]
            ]
        ],
        [
            [
                [
                    -0.04460868705064058,
                    0.0009999813046306372,
                    0.03163537383079529,
                    -0.013564119231887162,
                    -0.031249544583261013
                ],
                [
                    -0.02219735726248473,
                    -0.008202879755117465,
                    -0.031694046687334776,
                    0.010794460773468018,
                    0.07493379525840282
                ],
                [
                    0.0037812589143868536,
                    -0.05942006688565016,
                    0.022833244176581502,
                    0.020984884817153215,
                    0.05724943242967129
                ],
                [
                    0.007470865908544511,
                    0.006143350721686147,
                    0.005631611624266952,
                    -0.0008349381387233734,
                    0.05235170014202595
                ],
                [
                    0.01840041554532945,
                    0.02336410409770906,
                    -0.0022133171587483957,
                    0.011209138785488904,
                    -0.04478854779154062
                ]
            ],
            [
                [
                    0.02324960893020034,
                    0.02207638928666711,
                    0.018918532645329833,
                    0.01489894965197891,
                    0.007953817141242325
                ],
                [
                    -0.021425684913992882,
                    0.017934944247826934,
                    0.01237413752824068,
                    -0.015506561845541,
                    -0.0048422972176922485
                ],
                [
                    -0.0012811688502551988,
                    0.02246360178105533,
                    0.010882700211368501,
                    -0.022290422581136227,
                    0.028232573997229338
                ],
                [
                    0.014543948171194643,
                    -0.08469810523092747,
                    -0.02957790717482567,
                    0.007784850022289902,
                    0.015307901943742763
                ],
                [
                    -0.09163250587880611,
                    -0.0294334446080029,
                    -0.056233713403344154,
                    0.012467554188333452,
                    0.0038673908566124737
                ]
            ],
            [
                [
                    -0.13345873728394508,
                    -0.15336264669895172,
                    -0.08416734263300896,
                    -0.12311383709311485,
                    -0.05620103422552347
                ],
                [
                    -0.11509241722524166,
                    -0.16894424706697464,
                    -0.10559333488345146,
                    -0.05485491082072258,
                    -0.019649637630209327
                ],
                [
                    -0.10177657380700111,
                    -0.14784828945994377,
                    -0.10095321573317051,
                    -0.022230995469726622,
                    -0.09319678507745266
                ],
                [
                    -0.051161606796085835,
                    -0.16976534575223923,
                    -0.15508506447076797,
                    -0.04595775343477726,
                    -0.02693528775125742
                ],
                [
                    -0.08664634451270103,
                    -0.12867547944188118,
                    -0.11359753645956516,
                    -0.08322269096970558,
                    -0.08122782781720161
                ]
            ],
            [
                [
                    -0.0071534765884280205,
                    0.03555747866630554,
                    0.051797496154904366,
                    0.013652442503371276,
                    0.0016778007993707433
                ],
                [
                    -0.050847603008151054,
                    0.05656325537711382,
                    0.07618683017790318,
                    0.020585114369168878,
                    0.02412487776018679
                ],
                [
                    -0.009755449224030599,
                    0.022952176397666335,
                    0.018560741096735,
                    0.02395349438302219,
                    0.029720888007432222
                ],
                [
                    0.08564398065209389,
                    0.063528623431921,
                    -0.016362185822799802,
                    -0.01492240559309721,
                    0.04604107514023781
                ],
                [
                    0.09931861236691475,
                    0.10585463233292103,
                    0.0003502939362078905,
                    0.00855084897193592,
                    0.00032209488563239574
                ]
            ],
            [
                [
                    -0.02726470259949565,
                    0.00942533987108618,
                    0.04800417274236679,
                    -0.028143038041889668,
                    -0.0493078688159585
                ],
                [
                    -0.04583679046481848,
                    -0.028236640617251396,
                    -0.0066010653536068276,
                    0.05930190812796354,
                    -0.012502055033110082
                ],
                [
                    -0.02947581629268825,
                    0.025638592429459095,
                    -0.016203770006541163,
                    -0.01890712371096015,
                    -0.003917838213965297
                ],
                [
                    -0.010948930459562689,
                    0.001588186714798212,
                    -0.03247359022498131,
                    -0.036239312030375004,
                    -0.007844589446904138
                ],
                [
                    0.08068886399269104,
                    0.053294465877115726,
                    -0.035737195517867804,
                    -0.009660110692493618,
                    -0.036070804577320814
                ]
            ],
            [
                [
                    -0.012362228939309716,
                    0.01669757766649127,
                    0.06635842751711607,
                    0.06377588212490082,
                    0.05698186159133911
                ],
                [
                    -0.04087402205914259,
                    0.060342748649418354,
                    0.03878763597458601,
                    0.04188758134841919,
                    0.0053972709574736655
                ],
                [
                    0.011868143337778747,
                    0.00657337810844183,
                    0.06795011088252068,
                    -0.023235788568854332,
                    0.011135447304695845
                ],
                [
                    0.02455838629975915,
                    0.006165087106637657,
                    -0.00036751909647136927,
                    0.006639652303420007,
                    0.004676393931731582
                ],
                [
                    0.004746966355014592,
                    -0.048391603864729404,
                    -0.04282637499272823,
                    0.00868128142610658,
                    0.04638298507779837
                ]
            ]
        ],
        [
            [
                [
                    0.006855072802864015,
                    0.005265532148769125,
                    -0.03228339087218046,
                    -0.06268185656517744,
                    -0.06688171532005072
                ],
                [
                    0.007069875719025731,
                    0.013544653076678514,
                    -0.010962145868688822,
                    -0.06657687854021788,
                    -0.056441170163452625
                ],
                [
                    -0.000448934989776717,
                    -0.01955640478990972,
                    -0.007828352972865105,
                    -0.014224127517081797,
                    -0.06020118296146393
                ],
                [
                    0.053765250369906425,
                    0.03803674131631851,
                    0.039037639275193214,
                    0.027168200816959143,
                    0.026585742831230164
                ],
                [
                    0.02406276168767363,
                    -0.035709498915821314,
                    0.045600234530866146,
                    0.012201288132928312,
                    0.007736514206044376
                ]
            ],
            [
                [
                    0.02011812326963991,
                    0.013190728248446248,
                    0.0568726253695786,
                    0.0334169480483979,
                    0.00967692187987268
                ],
                [
                    0.014965092268539593,
                    0.007230890565551817,
                    0.05216826871037483,
                    0.006482216413132846,
                    0.04231657274067402
                ],
                [
                    -0.026435041218064725,
                    -0.01944935228675604,
                    -0.00178747926838696,
                    0.004860554356127977,
                    -0.019162412732839584
                ],
                [
                    -0.04099252354353666,
                    -0.039198603481054306,
                    -0.016960292938165367,
                    0.03442806284874678,
                    -0.006506542733404785
                ],
                [
                    -0.03507325379177928,
                    -0.07151014264672995,
                    -0.025667882058769464,
                    -0.025973933283239603,
                    0.04684730898588896
                ]
            ],
            [
                [
                    0.035146359354257584,
                    0.005230219918303192,
                    -0.04795148456469178,
                    -0.07292282301932573,
                    -0.011641263961791992
                ],
                [
                    -0.007728265947662294,
                    0.00016217425581999123,
                    0.008558227214962244,
                    0.003834707662463188,
                    -0.028080534073524177
                ],
                [
                    -0.013709495193324983,
                    -0.0427096295170486,
                    0.009153920254902914,
                    -0.08965231664478779,
                    -0.030352838803082705
                ],
                [
                    -0.030522116023348644,
                    -0.037433524848893285,
                    -0.09246774762868881,
                    -0.09755009040236473,
                    -0.08183220122009516
                ],
                [
                    -0.04997477401047945,
                    -0.02249002768076025,
                    -0.06773737166076899,
                    -0.0664363200776279,
                    -0.12379929795861244
                ]
            ],
            [
                [
                    0.08875441178679466,
                    0.09177351929247379,
                    0.001248491695150733,
                    0.028126682620495558,
                    -0.003285328857600689
                ],
                [
                    0.07893908023834229,
                    0.10061313211917877,
                    -0.005515629192814231,
                    0.03989832894876599,
                    0.0051061680424027145
                ],
                [
                    0.048130244947969913,
                    0.11919085308909416,
                    0.025543926749378443,
                    0.027047809679061174,
                    0.08153175562620163
                ],
                [
                    0.050073571503162384,
                    0.06939811259508133,
                    -0.041848571971058846,
                    -0.029000129085034132,
                    0.023874088190495968
                ],
                [
                    0.010794901056215167,
                    0.0045922378776595,
                    -0.028555259807035327,
                    -0.025189305655658245,
                    -0.011739428504370153
                ]
            ],
            [
                [
                    0.08315918873995543,
                    0.05425838194787502,
                    0.016656890511512756,
                    -0.0037499030004255474,
                    0.0008819895228953101
                ],
                [
                    0.07696065120398998,
                    0.03727616323158145,
                    -0.0048973057710099965,
                    0.010599803761579096,
                    0.02609525714069605
                ],
                [
                    0.0004471197025850415,
                    -0.012024224153719842,
                    -0.01488387119024992,
                    -0.04959124233573675,
                    0.011030779452994466
                ],
                [
                    -0.024142867740010843,
                    0.02055190724786371,
                    -0.05239724647253752,
                    -0.007630516134668142,
                    0.006447623251006007
                ],
                [
                    -0.055960283149033785,
                    -0.024356926325708628,
                    -0.0530884675681591,
                    -0.0030958167917560786,
                    0.002108641230734065
                ]
            ],
            [
                [
                    0.05535607226192951,
                    0.07153482548892498,
                    0.08807376213371754,
                    0.016987207112833858,
                    0.01775526958226692
                ],
                [
                    -0.00975004956126213,
                    0.054459248669445515,
                    0.029822586569935083,
                    0.014123419823590666,
                    -0.03353710053488612
                ],
                [
                    0.007409444253426045,
                    -0.00928745442070067,
                    0.008688764763064682,
                    -0.010522266966290772,
                    0.04051937675103545
                ],
                [
                    -0.07127598207443953,
                    -0.08240321651101112,
                    -0.027883173432201147,
                    -0.020227309782058,
                    -0.006291799247264862
                ],
                [
                    -0.03658947581425309,
                    -0.09037061035633087,
                    -0.044465533923357725,
                    -0.04826943762600422,
                    -0.04209533426910639
                ]
            ]
        ],
        [
            [
                [
                    -0.02866143500432372,
                    -0.027190558903384954,
                    0.011724225129000843,
                    -0.025844452087767422,
                    -0.04520261404104531
                ],
                [
                    0.005545079591684043,
                    0.04467078601010144,
                    -0.03538303542882204,
                    0.043283225037157536,
                    -0.013549498718930408
                ],
                [
                    -0.0202897556591779,
                    -0.013852949807187542,
                    -0.025877914275042713,
                    0.012108301161788404,
                    -0.02683815872296691
                ],
                [
                    -0.019089809153228998,
                    -0.09106880612671375,
                    -0.04505091905593872,
                    -0.030400122748687863,
                    -0.08109177835285664
                ],
                [
                    -0.07157576270401478,
                    -0.03573971870355308,
                    -0.03470243443734944,
                    -0.11479096859693527,
                    -0.052560979034751654
                ]
            ],
            [
                [
                    -0.03735104529187083,
                    -0.025167903630062938,
                    -0.08338812552392483,
                    -0.05558059364557266,
                    -0.03174674231559038
                ],
                [
                    -0.0313265067525208,
                    -0.01839636522345245,
                    -0.014413123484700918,
                    0.01522913295775652,
                    0.0019644590211100876
                ],
                [
                    -0.01143528864486143,
                    0.02888042898848653,
                    -0.042093594558537006,
                    0.04242888651788235,
                    0.029811282642185688
                ],
                [
                    -0.02263417700305581,
                    0.02927007293328643,
                    0.04334603063762188,
                    -0.007992497703526169,
                    -0.002995171904331073
                ],
                [
                    -0.03922007326036692,
                    -0.00705388467758894,
                    0.024743201676756144,
                    0.008800764218904078,
                    -0.002425883896648884
                ]
            ],
            [
                [
                    -0.013521465589292347,
                    -0.0677794162184,
                    0.0187380887218751,
                    -0.036427596962312236,
                    -0.04209017154062167
                ],
                [
                    -0.03283851267769933,
                    -0.059235031716525555,
                    -0.0014494396455120295,
                    -0.05969313345849514,
                    0.01976679103972856
                ],
                [
                    -0.04738166369497776,
                    -0.015890387527178973,
                    -0.002005727030336857,
                    0.002405436636763625,
                    -0.04506848659366369
                ],
                [
                    -0.055761161260306835,
                    -0.06158498115837574,
                    0.00527152162976563,
                    0.008877585176378489,
                    0.006235733395442367
                ],
                [
                    -0.04282895289361477,
                    -0.05659314524382353,
                    -0.011149199330247939,
                    -0.03465370507910848,
                    -0.0023287263356905896
                ]
            ],
            [
                [
                    0.048208692111074924,
                    0.060920885764062405,
                    0.03615403873845935,
                    0.03612119797617197,
                    0.04758026450872421
                ],
                [
                    0.08274064399302006,
                    0.09457522071897984,
                    0.08357108291238546,
                    0.07723410241305828,
                    0.06449601799249649
                ],
                [
                    0.12420329824090004,
                    0.09194781817495823,
                    0.04304724850226194,
                    -0.03418499743565917,
                    0.06781878229230642
                ],
                [
                    0.06634715292602777,
                    0.0038274601829471067,
                    0.037342779571190476,
                    0.05699076224118471,
                    0.08655569143593311
                ],
                [
                    0.10667054355144501,
                    0.06380705442279577,
                    0.07539558876305819,
                    0.03354851854965091,
                    0.06770497374236584
                ]
            ],
            [
                [
                    -0.03509974852204323,
                    -0.03779942262917757,
                    -0.0656140772625804,
                    -0.038076356053352356,
                    0.012914675520732999
                ],
                [
                    -0.04728718427941203,
                    -0.04956105025485158,
                    -0.0782749131321907,
                    -0.03879657946527004,
                    0.02625637804158032
                ],
                [
                    -0.02229151362553239,
                    -0.08075870759785175,
                    -0.13718221336603165,
                    -0.08103287871927023,
                    -0.0132031251268927
                ],
                [
                    -0.05866504367440939,
                    -0.17890748754143715,
                    -0.12194020114839077,
                    -0.06571136694401503,
                    0.00947080459445715
                ],
                [
                    -0.06624403595924377,
                    -0.07269068527966738,
                    -0.07340352796018124,
                    -0.060983420349657536,
                    -0.020375065738335252
                ]
            ],
            [
                [
                    0.06540586706250906,
                    0.024357504211366177,
                    0.04872444737702608,
                    0.02868978912010789,
                    0.05180955212563276
                ],
                [
                    0.018494896357879043,
                    0.037946105003356934,
                    0.03321821941062808,
                    0.06831018626689911,
                    0.06570743396878242
                ],
                [
                    -0.013842332176864147,
                    0.004233878236846067,
                    -0.04534498602151871,
                    -0.03121096547693014,
                    -0.0015346765867434442
                ],
                [
                    -0.010474523529410362,
                    -0.022618436254560947,
                    0.01383490499574691,
                    0.03019741363823414,
                    0.028297890909016132
                ],
                [
                    0.004629946430213749,
                    0.008045041817240417,
                    0.0383201208896935,
                    0.05915378965437412,
                    0.04313365276902914
                ]
            ]
        ],
        [
            [
                [
                    0.003984658571425825,
                    0.01486493251286447,
                    0.013740626047365367,
                    0.032061397563666105,
                    0.009855538082774729
                ],
                [
                    0.009924421785399318,
                    0.06780488323420286,
                    0.05031707137823105,
                    0.07347110658884048,
                    0.03515954501926899
                ],
                [
                    0.014743919251486659,
                    0.04013417521491647,
                    0.034900513011962175,
                    -0.0021700247889384627,
                    -0.019824650065856986
                ],
                [
                    0.01592420693486929,
                    0.023688092827796936,
                    -0.0018680157754715765,
                    -0.03883999539539218,
                    -0.008618454216048121
                ],
                [
                    -0.025656835292465985,
                    -0.10135277919471264,
                    -0.06737464107573032,
                    -0.05465447064489126,
                    -0.06142918020486832
                ]
            ],
            [
                [
                    0.0366279655136168,
                    0.059635499492287636,
                    0.05641952622681856,
                    0.06088912021368742,
                    0.1281204354017973
                ],
                [
                    0.06916741328313947,
                    0.08366692531853914,
                    0.10018859058618546,
                    0.06758593581616879,
                    0.07951695099473
                ],
                [
                    0.05963557027280331,
                    0.07388556748628616,
                    0.09439669363200665,
                    0.021677767857909203,
                    0.06505352538079023
                ],
                [
                    0.0551015418022871,
                    0.0069885677366983145,
                    -0.017893831012770534,
                    -0.006750515254680067,
                    -0.026753926882520318
                ],
                [
                    0.03223034553229809,
                    -0.02954606432467699,
                    0.005553094204515219,
                    0.024074932327494025,
                    0.04770965734496713
                ]
            ],
            [
                [
                    -0.05513701308518648,
                    -0.015510794124566019,
                    -0.0024152949335984886,
                    -0.01062718778848648,
                    -0.05343748803716153
                ],
                [
                    -0.06225407123565674,
                    -0.03063370962627232,
                    -0.024639060837216675,
                    -0.01213462429586798,
                    -0.02072641160339117
                ],
                [
                    0.02383212896529585,
                    0.00021272862795740366,
                    0.006422877893783152,
                    -0.028690419858321548,
                    -0.045353369787335396
                ],
                [
                    0.019769593607634306,
                    0.029376261169090867,
                    0.025705013424158096,
                    0.018434416931995656,
                    -0.025871459452901036
                ],
                [
                    -0.016425092006102204,
                    0.013212652847869322,
                    -0.023187545710243285,
                    -0.030531542375683784,
                    -0.018575958732981235
                ]
            ],
            [
                [
                    0.09338507801294327,
                    0.09343276545405388,
                    -0.035103210248053074,
                    0.01016947886091657,
                    -0.02332834037952125
                ],
                [
                    0.057826487347483635,
                    0.05578774958848953,
                    -0.025927716866135597,
                    0.025537360226735473,
                    0.03851608373224735
                ],
                [
                    -0.01682075730059296,
                    0.015206840354949236,
                    -0.008207148079236504,
                    -0.009973569540306926,
                    -0.0000899362494237721
                ],
                [
                    -0.03739335807040334,
                    0.008210395753849298,
                    -0.05652660224586725,
                    -0.01679722184780985,
                    0.039931836538016796
                ],
                [
                    -0.038875692058354616,
                    -0.06540894415229559,
                    -0.0992816761136055,
                    -0.09708867780864239,
                    -0.03658219985663891
                ]
            ],
            [
                [
                    0.08894461952149868,
                    0.015670116990804672,
                    -0.043748557567596436,
                    -0.034512453712522984,
                    0.0017021603416651487
                ],
                [
                    0.017475986387580633,
                    0.01570037624333054,
                    -0.028911992791108787,
                    -0.02863979316316545,
                    -0.028923050267621875
                ],
                [
                    0.05839154217392206,
                    0.05860930122435093,
                    0.05107735004276037,
                    0.08275445736944675,
                    0.0471327668055892
                ],
                [
                    0.04702636459842324,
                    0.018660489935427904,
                    0.02763484977185726,
                    0.02360778540605679,
                    -0.04169053491204977
                ],
                [
                    0.006736790761351585,
                    0.023987800115719438,
                    0.04006072226911783,
                    0.009946370366378687,
                    0.003573795431293547
                ]
            ],
            [
                [
                    -0.008868277189321816,
                    -0.047793261241167784,
                    -0.008612869307398796,
                    -0.028140465496107936,
                    -0.022886473103426397
                ],
                [
                    -0.0021096235723234713,
                    -0.0037250061286613345,
                    -0.046797906048595905,
                    -0.014313210063846782,
                    0.01172014931216836
                ],
                [
                    0.04584186803549528,
                    0.032710153609514236,
                    0.004224243544740602,
                    0.02747259335592389,
                    0.004550188547000289
                ],
                [
                    0.03514070715755224,
                    0.05165537912398577,
                    -0.0314488576259464,
                    0.046609530225396156,
                    -0.017325147819065023
                ],
                [
                    0.04545544367283583,
                    -0.00797865237109363,
                    0.02840340370312333,
                    -0.0385130075737834,
                    -0.07481312565505505
                ]
            ]
        ],
        [
            [
                [
                    -0.0023363168293144554,
                    -0.013642988516949117,
                    -0.015429257182404399,
                    -0.0508196447044611,
                    -0.01836722157895565
                ],
                [
                    0.014009271748363972,
                    0.06559229921549559,
                    -0.029668510891497135,
                    -0.09026937745511532,
                    0.02164968941360712
                ],
                [
                    0.026327979750931263,
                    0.001580948824994266,
                    -0.062391228042542934,
                    -0.05804762523621321,
                    0.02618417050689459
                ],
                [
                    0.030401605181396008,
                    -0.029161718674004078,
                    -0.02527626184746623,
                    -0.0581856295466423,
                    -0.01757296291179955
                ],
                [
                    0.044906831346452236,
                    -0.030920485034585,
                    -0.05834492668509483,
                    -0.027067977003753185,
                    -0.00045668595703318715
                ]
            ],
            [
                [
                    0.015287150512449443,
                    0.000027186062652617693,
                    0.01945410342887044,
                    -0.04203813197091222,
                    0.002150026586605236
                ],
                [
                    0.006274736602790654,
                    0.04357171431183815,
                    -0.029276147484779358,
                    -0.039595398120582104,
                    -0.028484147507697344
                ],
                [
                    0.06209366396069527,
                    -0.05148985888808966,
                    -0.08048016391694546,
                    -0.0754671823233366,
                    -0.010696018551243469
                ],
                [
                    -0.005909554020036012,
                    -0.07407035492360592,
                    -0.02184126921929419,
                    -0.06211274117231369,
                    0.02451335731893778
                ],
                [
                    -0.0005458629384520464,
                    -0.04986041970551014,
                    -0.06966440193355083,
                    -0.08187341503798962,
                    -0.03359956433996558
                ]
            ],
            [
                [
                    0.023818650748580694,
                    -0.04776571458205581,
                    -0.05609711445868015,
                    -0.0744238831102848,
                    -0.030156289227306843
                ],
                [
                    0.004245232295943424,
                    -0.06188713666051626,
                    -0.09122005477547646,
                    -0.08214955776929855,
                    0.02416877867653966
                ],
                [
                    -0.029531362000852823,
                    -0.05164716672152281,
                    -0.09916584007441998,
                    -0.010388781811343506,
                    -0.04177389573305845
                ],
                [
                    -0.050541103817522526,
                    -0.08241427130997181,
                    -0.07056333590298891,
                    -0.009234738667146303,
                    -0.016600232105702162
                ],
                [
                    -0.034931449918076396,
                    -0.05987213086336851,
                    -0.038717413786798716,
                    -0.04290046449750662,
                    0.008654066477902234
                ]
            ],
            [
                [
                    0.017471225932240486,
                    -0.016820274875499308,
                    0.0018740420928224921,
                    0.06491900701075792,
                    0.07725983113050461
                ],
                [
                    0.024055034387856722,
                    0.0061376507801469415,
                    -0.011098293296527117,
                    0.0854696985334158,
                    0.03695597965270281
                ],
                [
                    0.01690218280418776,
                    0.01391471573151648,
                    0.058955819346010685,
                    0.012534692621557042,
                    0.01574459730181843
                ],
                [
                    -0.029665073845535517,
                    0.014057192020118237,
                    0.0043829485948663205,
                    0.02866061357781291,
                    0.004441750468686223
                ],
                [
                    0.03813708946108818,
                    0.08224445022642612,
                    0.015684398356825113,
                    0.013979444978758693,
                    -0.014476171287242323
                ]
            ],
            [
                [
                    -0.00402819030568935,
                    -0.020021882723085582,
                    0.03315655665937811,
                    0.0050400798209011555,
                    0.051500570960342884
                ],
                [
                    -0.06172345392405987,
                    0.010260183596983552,
                    0.0546758659183979,
                    0.039014846086502075,
                    0.02659010235220194
                ],
                [
                    -0.03834202792495489,
                    -0.04225277155637741,
                    0.001600802704160742,
                    -0.0021919319697190076,
                    -0.013965017045848072
                ],
                [
                    -0.028516995022073388,
                    0.00610879878513515,
                    -0.005588972999248654,
                    0.005803727428428829,
                    -0.03952391026541591
                ],
                [
                    -0.029327599331736565,
                    -0.022462853346951306,
                    -0.049719045870006084,
                    -0.011511392483953387,
                    -0.03481259662657976
                ]
            ],
            [
                [
                    0.06893396750092506,
                    0.032208818942308426,
                    0.018222400220111012,
                    0.08122079819440842,
                    0.049412074498832226
                ],
                [
                    0.02806106535717845,
                    0.016319619724527,
                    0.014451583614572883,
                    -0.01362265256466344,
                    0.0133561558322981
                ],
                [
                    0.03117871144786477,
                    0.03463969472795725,
                    0.05931499693542719,
                    0.06345045939087868,
                    0.011326583393383771
                ],
                [
                    -0.03633522987365723,
                    -0.02472588885575533,
                    -0.007513189455494285,
                    0.03737098816782236,
                    0.021588054834865034
                ],
                [
                    0.010110961447935551,
                    0.020063114818185568,
                    0.008992222356027924,
                    0.007225700343042263,
                    0.00962921824248042
                ]
            ]
        ],
        [
            [
                [
                    -0.002172737382352352,
                    0.05873446073383093,
                    0.02031012997031212,
                    0.031452449038624763,
                    0.059089938178658485
                ],
                [
                    -0.016397869680076838,
                    -0.013142607174813747,
                    -0.03161366609856486,
                    -0.020146114184171893,
                    0.025769853265956044
                ],
                [
                    -0.04848342202603817,
                    -0.031999110244214535,
                    -0.018208856927230954,
                    -0.01703596516745165,
                    -0.03591213491745293
                ],
                [
                    -0.09759560972452164,
                    -0.021166349411942065,
                    -0.004711913235951215,
                    0.0026584727711451706,
                    -0.028478721156716347
                ],
                [
                    0.0003835585084743798,
                    -0.025601707864552736,
                    -0.0157271062489599,
                    -0.05135889444500208,
                    0.0070891514478717
                ]
            ],
            [
                [
                    0.0319177508354187,
                    0.032967301551252604,
                    0.04696721117943525,
                    -0.00340794469229877,
                    -0.00960693508386612
                ],
                [
                    0.019185793469659984,
                    0.0009394389344379306,
                    -0.01559871033532545,
                    -0.05624665506184101,
                    0.006890165037475526
                ],
                [
                    0.053960359655320644,
                    0.028300330974161625,
                    0.04543603677302599,
                    -0.028402152005583048,
                    0.008500519223161973
                ],
                [
                    0.05442477110773325,
                    0.05308616627007723,
                    0.04946574103087187,
                    0.011525000736583024,
                    0.01654126783250831
                ],
                [
                    0.0050424475921317935,
                    0.028481327928602695,
                    0.0691902507096529,
                    0.01211583276744932,
                    0.013989309780299664
                ]
            ],
            [
                [
                    0.014491473091766238,
                    0.07062882371246815,
                    0.06268700491636992,
                    0.09144903346896172,
                    0.08861672412604094
                ],
                [
                    0.004034250159747899,
                    0.04766033310443163,
                    -0.0029178024269640446,
                    0.020039520924910903,
                    0.02785557438619435
                ],
                [
                    -0.044448455329984426,
                    -0.05536462739109993,
                    -0.015153185464441776,
                    -0.01675520249409601,
                    -0.0010799899100675248
                ],
                [
                    -0.10474798269569874,
                    0.057927632704377174,
                    0.011390601459424943,
                    0.05550052970647812,
                    -0.0028561141807585955
                ],
                [
                    -0.05062446277588606,
                    0.04040286876261234,
                    0.058203212916851044,
                    0.059148117899894714,
                    0.037028579507023096
                ]
            ],
            [
                [
                    -0.048629808239638805,
                    -0.053534713573753834,
                    -0.06968623399734497,
                    -0.10364636965095997,
                    -0.10895938612520695
                ],
                [
                    0.025067973881959915,
                    -0.02265370823442936,
                    -0.08890564180910587,
                    -0.09736870229244232,
                    -0.09032737463712692
                ],
                [
                    0.055034905672073364,
                    -0.014961625565774739,
                    -0.04780792351812124,
                    -0.10084695555269718,
                    -0.0645023649558425
                ],
                [
                    -0.038950140587985516,
                    -0.03799846163019538,
                    -0.047705356031656265,
                    -0.0705231660977006,
                    -0.05123220104724169
                ],
                [
                    -0.025785936042666435,
                    -0.03776760492473841,
                    -0.023975752759724855,
                    -0.0367229551775381,
                    -0.03187135583721101
                ]
            ],
            [
                [
                    0.07699373550713062,
                    -0.023387492634356022,
                    0.020684109767898917,
                    -0.015943687729304656,
                    0.05601579416543245
                ],
                [
                    0.0161244313349016,
                    0.010660313302651048,
                    0.0071406199131160975,
                    -0.017240084474906325,
                    0.0025085644447244704
                ],
                [
                    0.005517320707440376,
                    0.005142989684827626,
                    0.005304732942022383,
                    -0.02645668014883995,
                    0.04707465507090092
                ],
                [
                    0.03697782289236784,
                    0.047011745162308216,
                    -0.04255055449903011,
                    0.039698388427495956,
                    0.04079854302108288
                ],
                [
                    0.07355185132473707,
                    0.07621409557759762,
                    0.06487834919244051,
                    0.05635117366909981,
                    0.051622011698782444
                ]
            ],
            [
                [
                    0.03527493611909449,
                    -0.037635660730302334,
                    -0.029511261731386185,
                    -0.06784833781421185,
                    0.015064798237290233
                ],
                [
                    0.05208387039601803,
                    0.022665892320219427,
                    0.015378276533738244,
                    -0.00458792905556038,
                    0.010692869022022933
                ],
                [
                    0.08241710625588894,
                    0.025177788687869906,
                    -0.02541090187150985,
                    0.022085154429078102,
                    0.0812949649989605
                ],
                [
                    0.11206990480422974,
                    0.08982577733695507,
                    0.038383211474865675,
                    0.0241217203438282,
                    -0.004816507745999843
                ],
                [
                    0.1167423203587532,
                    0.06849129125475883,
                    0.10362145863473415,
                    0.013901486294344068,
                    -0.01499538030475378
                ]
            ]
        ],
        [
            [
                [
                    -0.08690551482141018,
                    -0.0702498247846961,
                    -0.07757839374244213,
                    -0.0057967509601439815,
                    -0.04374557873234153
                ],
                [
                    -0.07756840251386166,
                    -0.055567325092852116,
                    -0.03402242390438914,
                    0.01090240762277972,
                    0.005289157037623227
                ],
                [
                    -0.05892273038625717,
                    -0.058450120501220226,
                    0.004806399345397949,
                    -0.029579536989331245,
                    0.003717223589774221
                ],
                [
                    -0.021671725015039556,
                    0.010342614084947854,
                    0.03286739648319781,
                    0.0222546821605647,
                    0.02913447842001915
                ],
                [
                    0.07676313072443008,
                    0.09527796320617199,
                    0.09211327880620956,
                    0.11630533635616302,
                    0.12150991149246693
                ]
            ],
            [
                [
                    -0.038658132776618004,
                    -0.04767919052392244,
                    -0.04047115333378315,
                    -0.0020800147904083133,
                    0.007184638408944011
                ],
                [
                    -0.046732328832149506,
                    -0.07092946115881205,
                    0.0411336375400424,
                    0.04153610672801733,
                    0.05154088465496898
                ],
                [
                    -0.0421240720897913,
                    -0.005238374229520559,
                    0.04028136841952801,
                    0.1125142015516758,
                    0.023903665132820606
                ],
                [
                    -0.021864517068024725,
                    -0.016285511723253876,
                    0.0217881744611077,
                    0.013265112560475245,
                    -0.032899966929107904
                ],
                [
                    -0.08062834478914738,
                    -0.053038726560771465,
                    -0.08700932748615742,
                    -0.05409542005509138,
                    -0.034434758592396975
                ]
            ],
            [
                [
                    -0.0877524446696043,
                    -0.06600436009466648,
                    -0.06508923135697842,
                    -0.08092021010816097,
                    0.00669984077103436
                ],
                [
                    -0.01880411827005446,
                    -0.09926190599799156,
                    -0.0390467825345695,
                    -0.06183040887117386,
                    -0.01922807563096285
                ],
                [
                    -0.06765596102923155,
                    -0.1018519476056099,
                    -0.01075680460780859,
                    -0.04508793819695711,
                    0.0270580118522048
                ],
                [
                    -0.06693026330322027,
                    -0.08126488327980042,
                    -0.019672900438308716,
                    0.015948872780427337,
                    -0.005364605400245637
                ],
                [
                    -0.03949434170499444,
                    -0.04449842544272542,
                    0.0385089167393744,
                    -0.021300078718923032,
                    0.014785082312300801
                ]
            ],
            [
                [
                    0.031846368219703436,
                    0.05840441770851612,
                    0.0799049437046051,
                    -0.011919602675334318,
                    -0.0041210155468434095
                ],
                [
                    0.09812566824257374,
                    0.049613735638558865,
                    0.017199451802298427,
                    0.0077097618486732244,
                    -0.00971654534805566
                ],
                [
                    0.06779177021235228,
                    0.03259338019415736,
                    0.011649547319393605,
                    -0.03149065421894193,
                    0.031871140003204346
                ],
                [
                    0.06461807526648045,
                    -0.053674520924687386,
                    -0.023750641150400043,
                    -0.004505573771893978,
                    0.04375600442290306
                ],
                [
                    0.01858629914931953,
                    0.02147856424562633,
                    0.024851118680089712,
                    -0.0078883003880037,
                    0.02796729328110814
                ]
            ],
            [
                [
                    0.0375525807030499,
                    -0.004172110348008573,
                    0.016211670474149287,
                    -0.02944739069789648,
                    -0.05301237106323242
                ],
                [
                    0.031032727918500314,
                    -0.004559227731078863,
                    -0.003257286924053915,
                    -0.029670365620404482,
                    -0.02390053542330861
                ],
                [
                    0.004818298737518489,
                    -0.06309880455955863,
                    -0.1098899357020855,
                    -0.01910478516947478,
                    0.07164562772959471
                ],
                [
                    0.038499190006405115,
                    0.02420988865196705,
                    0.03235886571928859,
                    0.020294413436204195,
                    0.0632062554359436
                ],
                [
                    0.04573005950078368,
                    0.04019119101576507,
                    0.013048040913417935,
                    0.015113481611479074,
                    0.07189384941011667
                ]
            ],
            [
                [
                    -0.05739617720246315,
                    0.00385982176521793,
                    0.009176464518532157,
                    0.05413213185966015,
                    -0.00993072148412466
                ],
                [
                    -0.03392109740525484,
                    -0.0013346963241929188,
                    -0.028223771136254072,
                    -0.003529606336087454,
                    0.054267194122076035
                ],
                [
                    -0.010996626690030098,
                    -0.09191957674920559,
                    -0.012846146710216999,
                    -0.011727719189366326,
                    0.06046671885997057
                ],
                [
                    -0.026858393102884293,
                    0.0055558220483362675,
                    0.062098692171275616,
                    0.03665747959166765,
                    0.019270131218945608
                ],
                [
                    0.017278832499869168,
                    0.08016186952590942,
                    0.08419855125248432,
                    0.04395435471087694,
                    0.00842621538322419
                ]
            ]
        ],
        [
            [
                [
                    -0.05797695182263851,
                    -0.09220217913389206,
                    -0.045577991753816605,
                    -0.06742717046290636,
                    -0.06093698088079691
                ],
                [
                    -0.02597098983824253,
                    -0.04656712803989649,
                    -0.013260671985335648,
                    -0.01748937158845365,
                    0.011825607834907714
                ],
                [
                    -0.04748798534274101,
                    -0.02118027093820274,
                    -0.0324489432387054,
                    -0.019416054361499846,
                    -0.025191299675498158
                ],
                [
                    0.014861036179354414,
                    -0.015538350853603333,
                    -0.017131291970144957,
                    -0.01796000194735825,
                    -0.014964520349167287
                ],
                [
                    -0.020648476667702198,
                    -0.009733603452332318,
                    0.009200520406011492,
                    0.04572840663604438,
                    0.03610421379562467
                ]
            ],
            [
                [
                    0.03953599696978927,
                    0.057321154512465,
                    0.018970140488818288,
                    0.018522738479077816,
                    0.035314868204295635
                ],
                [
                    0.04817836731672287,
                    0.033707402646541595,
                    0.0014662364264950156,
                    0.01693152356892824,
                    0.06585573498159647
                ],
                [
                    0.010138420446310192,
                    0.03864271007478237,
                    0.029301376547664404,
                    0.02383604017086327,
                    0.0782032422721386
                ],
                [
                    0.10019906796514988,
                    0.07643634639680386,
                    0.09862914867699146,
                    0.08242728561162949,
                    0.08465520106256008
                ],
                [
                    0.07659455016255379,
                    0.009410758531885222,
                    0.01845690468326211,
                    0.04772427584975958,
                    0.07121059764176607
                ]
            ],
            [
                [
                    -0.0041488055139780045,
                    0.00001999863889068365,
                    0.013752878410741687,
                    -0.04566968232393265,
                    -0.03524802811443806
                ],
                [
                    0.08160537295043468,
                    0.00865692796651274,
                    0.007808677502907813,
                    -0.011428800993598998,
                    0.0377075313590467
                ],
                [
                    0.03505984926596284,
                    0.01602115179412067,
                    0.011020994512364268,
                    0.05875809118151665,
                    -0.001776617660652846
                ],
                [
                    0.015015296172350645,
                    -0.003262904705479741,
                    0.025691387243568897,
                    -0.012139152968302369,
                    -0.004443973070010543
                ],
                [
                    0.123136717826128,
                    0.13019302673637867,
                    0.09815078787505627,
                    0.10027863457798958,
                    0.0996728390455246
                ]
            ],
            [
                [
                    -0.0019276653183624148,
                    -0.03800888545811176,
                    -0.05301838554441929,
                    -0.09054346568882465,
                    -0.09744377993047237
                ],
                [
                    -0.010480109020136297,
                    -0.03927777009084821,
                    -0.0936141386628151,
                    -0.044151500798761845,
                    0.0027230210544075817
                ],
                [
                    -0.022912187268957496,
                    0.04280965682119131,
                    -0.04701700247824192,
                    -0.047630968503654,
                    -0.025481796357780695
                ],
                [
                    -0.07036128081381321,
                    -0.0028485339134931564,
                    -0.022729411954060197,
                    -0.030492957681417465,
                    -0.01438082754611969
                ],
                [
                    -0.04942705575376749,
                    -0.017606144887395203,
                    0.005433173268102109,
                    -0.0034500265028327703,
                    -0.004579490516334772
                ]
            ],
            [
                [
                    -0.013661239063367248,
                    -0.003985191462561488,
                    -0.03103067586198449,
                    -0.10174358636140823,
                    -0.032123932614922523
                ],
                [
                    -0.014855962945148349,
                    0.008284030336653814,
                    -0.024561295518651605,
                    0.003925030992832035,
                    0.015349759327364154
                ],
                [
                    0.03670898685231805,
                    0.07088324148207903,
                    0.019638655707240105,
                    -0.017148970277048647,
                    0.028287720400840044
                ],
                [
                    -0.004267383483238518,
                    0.0046496579016093165,
                    0.042537382803857327,
                    0.011150943755637854,
                    -0.00872579522547312
                ],
                [
                    0.0006384796579368412,
                    0.07270516827702522,
                    0.08393513038754463,
                    0.13000383973121643,
                    0.07458296418190002
                ]
            ],
            [
                [
                    -0.026819129299838096,
                    -0.020196324912831187,
                    -0.019826406380161643,
                    -0.04473514435812831,
                    -0.05923416931182146
                ],
                [
                    0.02324319235049188,
                    -0.027593362145125866,
                    0.017376781557686627,
                    -0.05639162939041853,
                    0.007515652512665838
                ],
                [
                    0.018980907800141722,
                    0.04807346686720848,
                    0.02763370145112276,
                    0.012205211445689201,
                    0.008267209166660905
                ],
                [
                    -0.027224026154726744,
                    0.04378900770097971,
                    -0.0040038598963292316,
                    0.08778839185833931,
                    0.038020909298211336
                ],
                [
                    0.061591736041009426,
                    0.09760383702814579,
                    0.0859537199139595,
                    0.09682496637105942,
                    0.08770382963120937
                ]
            ]
        ],
        [
            [
                [
                    -0.05731899943202734,
                    -0.03139174869284034,
                    -0.03887869417667389,
                    0.002442792698275298,
                    -0.04210043279454112
                ],
                [
                    -0.039953392930328846,
                    -0.08690634462982416,
                    -0.00929514761082828,
                    -0.06837711576372385,
                    -0.023375209304504097
                ],
                [
                    -0.06786271743476391,
                    0.005817035213112831,
                    0.02672803634777665,
                    0.017487318255007267,
                    -0.048258027993142605
                ],
                [
                    -0.001710345211904496,
                    0.03474200004711747,
                    0.020663640374550596,
                    -0.0032533255871385336,
                    0.024658926762640476
                ],
                [
                    0.01919637550599873,
                    0.008912680146750063,
                    -0.000503959134221077,
                    0.00647761911386624,
                    0.03154441434890032
                ]
            ],
            [
                [
                    0.07087510172277689,
                    0.02210041438229382,
                    0.037838221061974764,
                    0.012791432382073253,
                    0.03258931543678045
                ],
                [
                    -0.05000170785933733,
                    -0.014997670659795403,
                    -0.06024673115462065,
                    -0.0605610185302794,
                    -0.10740512236952782
                ],
                [
                    -0.04693003324791789,
                    -0.04069630382582545,
                    -0.00890111830085516,
                    -0.006951420102268457,
                    0.000627365312539041
                ],
                [
                    0.04654496256262064,
                    0.03844617516733706,
                    0.06336425803601742,
                    0.03517186362296343,
                    0.006027435389114544
                ],
                [
                    0.06424692366272211,
                    0.05936811026185751,
                    0.07069712597876787,
                    0.017802867339923978,
                    0.079622071236372
                ]
            ],
            [
                [
                    0.04383450449677184,
                    0.04198813531547785,
                    0.039275098126381636,
                    0.001515924814157188,
                    0.05878217238932848
                ],
                [
                    0.06305664218962193,
                    0.082450732588768,
                    0.12008746340870857,
                    0.12910936027765274,
                    0.07189716212451458
                ],
                [
                    0.051719482988119125,
                    0.045607294887304306,
                    0.06724867597222328,
                    0.05742205213755369,
                    0.02521012193756178
                ],
                [
                    -0.011454471154138446,
                    0.022288956679403782,
                    -0.012196163646876812,
                    0.008966273511759937,
                    0.03418707061064197
                ],
                [
                    -0.004416694784595165,
                    0.0265130870975554,
                    -0.026563930325210094,
                    0.03401134954765439,
                    -0.0038557632942683995
                ]
            ],
            [
                [
                    0.040465756435878575,
                    -0.02759123081341386,
                    0.04314512200653553,
                    0.022536890348419547,
                    0.04372469428926706
                ],
                [
                    0.017428924213163555,
                    0.03308856673538685,
                    0.04988409113138914,
                    0.025090882438234985,
                    0.004817000823095441
                ],
                [
                    0.022206538124009967,
                    0.020841207122430205,
                    0.01646688810433261,
                    -0.005324945668689907,
                    -0.06013183016330004
                ],
                [
                    -0.01198550894332584,
                    -0.07803784124553204,
                    -0.0849089864641428,
                    -0.08737600035965443,
                    -0.0902795847505331
                ],
                [
                    -0.042048759292811155,
                    -0.08279206603765488,
                    -0.08909975737333298,
                    -0.14238689467310905,
                    -0.11048336327075958
                ]
            ],
            [
                [
                    0.04155209241434932,
                    0.07184277754276991,
                    0.011992607993306592,
                    0.027472028974443674,
                    0.015679790289141238
                ],
                [
                    0.1145001333206892,
                    0.10565039329230785,
                    0.05636396910995245,
                    0.07447587139904499,
                    0.0541832372546196
                ],
                [
                    0.08418491296470165,
                    0.11943516694009304,
                    0.0018234665039926767,
                    0.02408175967866555,
                    0.001653971674386412
                ],
                [
                    -0.037859838048461825,
                    -0.007614621892571449,
                    -0.06411849800497293,
                    -0.04596820625010878,
                    -0.06521270424127579
                ],
                [
                    -0.04232298908755183,
                    -0.04791085375472903,
                    -0.03790945466607809,
                    -0.060793803073465824,
                    -0.09357460401952267
                ]
            ],
            [
                [
                    -0.006211647065356374,
                    0.05824853386729956,
                    0.05486065521836281,
                    0.055714321322739124,
                    -0.019110850524157286
                ],
                [
                    0.061428127810359,
                    0.10095847211778164,
                    0.09797229431569576,
                    0.07687610015273094,
                    0.06127989199012518
                ],
                [
                    0.057188400998711586,
                    0.030631452798843384,
                    0.0375324715860188,
                    0.0396936465986073,
                    -0.003213988267816603
                ],
                [
                    -0.013907705433666706,
                    -0.08140689041465521,
                    -0.07744455151259899,
                    -0.08036027289927006,
                    -0.060646654572337866
                ],
                [
                    -0.07277330011129379,
                    -0.050243117613717914,
                    -0.07154153659939766,
                    -0.10161498747766018,
                    -0.06008524168282747
                ]
            ]
        ],
        [
            [
                [
                    -0.02856440795585513,
                    0.0030959010764490813,
                    0.027273261453956366,
                    -0.018375234911218286,
                    0.022612663044128567
                ],
                [
                    0.03488457063212991,
                    -0.03254146547988057,
                    -0.010560257593169808,
                    0.024381878320127726,
                    -0.00013425975339487195
                ],
                [
                    0.006831367063568905,
                    0.04621818568557501,
                    0.05962723772972822,
                    0.02798346523195505,
                    -0.01339576533791842
                ],
                [
                    -0.06457450799643993,
                    -0.014366642106324434,
                    -0.014677980914711952,
                    0.02557577402330935,
