{
    "conv1.bias": [
        0.08788833767175674,
        -0.009871548973023891,
        0.05892957001924515,
        0.09646619856357574,
        -0.050592925399541855,
        0.007332286331802607
    ],
    "conv1.weight": [
        [
            [
                [
                    0.06487131863832474,
                    0.07836149632930756,
                    0.10791574418544769,
                    0.059153348207473755,
                    0.031254444271326065
                ],
                [
                    0.014071737416088581,
                    0.0022288316395133734,
                    0.008558823727071285,
                    -0.030456962063908577,
                    0.03185354173183441
                ],
                [
                    -0.024909161031246185,
                    -0.038858383893966675,
                    -0.07622990757226944,
                    -0.06466193497180939,
                    -0.03087722323834896
                ],
                [
                    0.02225133404135704,
                    -0.07022899389266968,
                    0.004572203382849693,
                    -0.015353681519627571,
                    -0.1023985743522644
                ],
                [
                    -0.034402381628751755,
                    0.033592961728572845,
                    -0.020983407273888588,
                    -0.05544598028063774,
                    -0.06301987916231155
                ]
            ],
            [
                [
                    -0.00756436912342906,
                    0.04779301956295967,
                    0.08546547591686249,
                    -0.011886154301464558,
                    -0.001394424820318818
                ],
                [
                    0.04690868780016899,
                    0.014894393272697926,
                    0.012415658682584763,
                    0.06979240477085114,
                    -0.010017389431595802
                ],
                [
                    0.04848337918519974,
                    -0.0019943444058299065,
                    0.00933581031858921,
                    -0.025206726044416428,
                    -0.039324596524238586
                ],
                [
                    -0.009537780657410622,
                    0.08882167935371399,
                    0.02670811116695404,
                    0.04354555159807205,
                    -0.06577455997467041
                ],
                [
                    0.05805377662181854,
                    -0.014228944666683674,
                    -0.03475154936313629,
                    -0.04255666956305504,
                    -0.03510093316435814
                ]
            ],
            [
                [
                    0.1552419364452362,
                    0.0912010669708252,
                    0.11895258724689484,
                    0.12286395579576492,
                    0.04379154369235039
                ],
                [
                    0.09237273037433624,
                    0.1511961668729782,
                    0.14382509887218475,
                    0.07836461812257767,
                    0.032029420137405396
                ],
                [
                    0.08760407567024231,
                    0.06060243025422096,
                    0.07486577332019806,
                    0.04200313985347748,
                    0.0007054881425574422
                ],
                [
                    0.08633819222450256,
                    0.14131273329257965,
                    0.10707129538059235,
                    0.03320201858878136,
                    0.011793973855674267
                ],
                [
                    0.06140925735235214,
                    0.06201555207371712,
                    0.07642100006341934,
                    0.004731937777251005,
                    0.07889948040246964
                ]
            ]
        ],
        [
            [
                [
                    0.11743749678134918,
                    0.1562134325504303,
                    0.1314091682434082,
                    0.14920303225517273,
                    0.10846871882677078
                ],
                [
                    0.11356983333826065,
                    0.06702923029661179,
                    0.1752447932958603,
                    0.11590754985809326,
                    0.13696154952049255
                ],
                [
                    0.004285461734980345,
                    0.021422438323497772,
                    0.07814699411392212,
                    0.00019352031813468784,
                    -0.01478178333491087
                ],
                [
                    0.016691608354449272,
                    -0.003830407280474901,
                    -0.03632855787873268,
                    -0.016375765204429626,
                    -0.06911260634660721
                ],
                [
                    -0.08030714094638824,
                    -0.11861301958560944,
                    -0.13897064328193665,
                    -0.06209460645914078,
                    -0.06511647254228592
                ]
            ],
            [
                [
                    0.029834721237421036,
                    0.07610049098730087,
                    0.04342876374721527,
                    0.07303321361541748,
                    0.035488054156303406
                ],
                [
                    0.036753956228494644,
                    0.03492843732237816,
                    0.009305634535849094,
                    0.0010361145250499249,
                    -0.019575677812099457
                ],
                [
                    -0.018302181735634804,
                    -0.01432389859110117,
                    -0.06345827132463455,
                    -0.0795164629817009,
                    -0.061947084963321686
                ],
                [
                    -0.08786921203136444,
                    -0.020965877920389175,
                    0.0033314614556729794,
                    -0.06732694059610367,
                    -0.1438569277524948
                ],
                [
                    -0.12495864182710648,
                    -0.07014511525630951,
                    -0.08798618614673615,
                    -0.0901360809803009,
                    -0.18993541598320007
                ]
            ],
            [
                [
                    0.014292724430561066,
                    0.07320563495159149,
                    0.047594208270311356,
                    0.0650324895977974,
                    0.05360560119152069
                ],
                [
                    0.0693403109908104,
                    0.06216103956103325,
                    0.056203167885541916,
                    0.05697271227836609,
                    -0.020440511405467987
                ],
                [
                    0.03165293112397194,
                    -0.07215328514575958,
                    -0.03000793419778347,
                    0.010100352577865124,
                    0.0021529223304241896
                ],
                [
                    -0.04812891408801079,
                    -0.007202381733804941,
                    -0.02723390981554985,
                    0.006519540213048458,
                    -0.014474960044026375
                ],
                [
                    -0.01892310008406639,
                    -0.05856603384017944,
                    -0.021850967779755592,
                    -0.09799525886774063,
                    -0.029421551153063774
                ]
            ]
        ],
        [
            [
                [
                    -0.0016166822751984,
                    -0.015561236999928951,
                    -0.0801263302564621,
                    0.019849387928843498,
                    -0.030519505962729454
                ],
                [
                    -0.06258067488670349,
                    -0.06636995822191238,
                    -0.11663280427455902,
                    -0.04556365683674812,
                    -0.08418077230453491
                ],
                [
                    -0.15977193415164948,
                    -0.0664445087313652,
                    -0.06957400590181351,
                    -0.08286672830581665,
                    -0.12164624780416489
                ],
                [
                    -0.10757589340209961,
                    -0.08760630339384079,
                    -0.05739620700478554,
                    -0.05777436122298241,
                    0.00954484660178423
                ],
                [
                    0.03411650285124779,
                    0.03388149291276932,
                    -0.013425125740468502,
                    -0.022784238681197166,
                    -0.021945396438241005
                ]
            ],
            [
                [
                    0.026092728599905968,
                    0.010978203266859055,
                    0.08016813546419144,
                    0.03620067983865738,
                    0.056024689227342606
                ],
                [
                    0.012385893613100052,
                    -0.019700007513165474,
                    0.017712311819195747,
                    -0.030767887830734253,
                    -0.031057385727763176
                ],
                [
                    -0.007424239534884691,
                    -0.054581817239522934,
                    -0.06329131871461868,
                    0.007991038262844086,
                    -0.024538975208997726
                ],
                [
                    -0.0028770752251148224,
                    -0.0035296210553497076,
                    -0.01112113893032074,
                    0.02773910015821457,
                    0.007673126179724932
                ],
                [
                    0.07513239234685898,
                    0.06545016169548035,
                    0.0757896676659584,
                    0.1779739409685135,
                    0.07913482934236526
                ]
            ],
            [
                [
                    0.009671137668192387,
                    0.041025396436452866,
                    0.12901844084262848,
                    0.0890800729393959,
                    0.02611987665295601
                ],
                [
                    -0.009785950183868408,
                    0.051635079085826874,
                    0.040735457092523575,
                    0.08482285588979721,
                    0.06401677429676056
                ],
                [
                    -0.007497899699956179,
                    0.06927961111068726,
                    -0.08402048051357269,
                    -0.04698265716433525,
                    -0.05086632817983627
                ],
                [
                    0.017849940806627274,
                    0.020741378888487816,
                    0.05921206250786781,
                    0.01562581956386566,
                    -0.0005660683964379132
                ],
                [
                    0.07582134008407593,
                    0.017089830711483955,
                    0.08523226529359818,
                    0.04437417536973953,
                    0.09766466170549393
                ]
            ]
        ],
        [
            [
                [
                    -0.0655677393078804,
                    -0.03589198738336563,
                    0.003005614969879389,
                    -0.013128184713423252,
                    0.03760372847318649
                ],
                [
                    -0.07956548780202866,
                    -0.057114094495773315,
                    -0.06486108899116516,
                    0.09622687846422195,
                    0.04818364977836609
                ],
                [
                    -0.06583107262849808,
                    -0.11535418778657913,
                    -0.015805834904313087,
                    0.1034909039735794,
                    0.07007208466529846
                ],
                [
                    -0.05612188205122948,
                    -0.07042033970355988,
                    -0.01083451695740223,
                    0.08040633797645569,
                    0.038681041449308395
                ],
                [
                    -0.1145937591791153,
                    0.017490575090050697,
                    -0.009568656794726849,
                    0.017307162284851074,
                    0.04247777536511421
                ]
            ],
            [
                [
                    -0.036995187401771545,
                    0.002988913096487522,
                    0.0516144335269928,
                    -0.003773326752707362,
                    0.0491003543138504
                ],
                [
                    -0.03659406676888466,
                    -0.022683270275592804,
                    0.060056623071432114,
                    0.06752664595842361,
                    0.056802231818437576
                ],
                [
                    -0.04307945445179939,
                    -0.11293242871761322,
                    0.07756756246089935,
                    0.12838439643383026,
                    0.05852801725268364
                ],
                [
                    -0.04663144797086716,
                    -0.04760047048330307,
                    0.06589607149362564,
                    0.15694548189640045,
                    0.04519623890519142
                ],
                [
                    -0.026462122797966003,
                    0.021219871938228607,
                    0.06566344946622849,
                    0.07958538830280304,
                    0.06880653649568558
                ]
            ],
            [
                [
                    -0.054727550595998764,
                    -0.07055758684873581,
                    -0.047650791704654694,
                    0.025521427392959595,
                    -0.01106987800449133
                ],
                [
                    -0.04744784161448479,
                    -0.05832109600305557,
                    -0.01948394626379013,
                    0.016005676239728928,
                    0.035748258233070374
                ],
                [
                    -0.03962639346718788,
                    -0.09193107485771179,
                    -0.039050281047821045,
                    0.03399306908249855,
                    -0.00904683955013752
                ],
                [
                    -0.004365677945315838,
                    -0.06196150183677673,
                    -0.07068032026290894,
                    0.017736902460455894,
                    0.06287543475627899
                ],
                [
                    -0.07345125824213028,
                    0.001568421022966504,
                    0.03760731965303421,
                    -0.03885335475206375,
                    -0.05953507497906685
                ]
            ]
        ],
        [
            [
                [
                    -0.044486962258815765,
                    0.0019894542638212442,
                    0.019922442734241486,
                    0.03659287840127945,
                    0.0892830416560173
                ],
                [
                    -0.05199791118502617,
                    -0.010194504633545876,
                    -0.060068655759096146,
                    -0.009932772256433964,
                    0.10640840232372284
                ],
                [
                    -0.027877580374479294,
                    -0.1324796974658966,
                    -0.0662442296743393,
                    -0.010294916108250618,
                    0.09674035012722015
                ],
                [
                    -0.07668960839509964,
                    -0.0802512913942337,
                    -0.02839554473757744,
                    -0.014582963660359383,
                    0.0795288160443306
                ],
                [
                    -0.011360232718288898,
                    0.028858846053481102,
                    -0.005794743075966835,
                    0.06112968921661377,
                    0.04592948779463768
                ]
            ],
            [
                [
                    -0.04904662072658539,
                    -0.1132708191871643,
                    -0.06534925103187561,
                    -0.009746037423610687,
                    0.029179785400629044
                ],
                [
                    -0.0940382182598114,
                    -0.16564512252807617,
                    -0.11811033636331558,
                    -0.08996757864952087,
                    -0.018273675814270973
                ],
                [
                    -0.11584889888763428,
                    -0.1301235854625702,
                    -0.048117924481630325,
                    -0.041163261979818344,
                    -0.040996816009283066
                ],
                [
                    -0.060964103788137436,
                    -0.0803670808672905,
                    -0.0803295150399208,
                    -0.03768814727663994,
                    -0.02839445136487484
                ],
                [
                    -0.022348277270793915,
                    -0.007330024149268866,
                    -0.02082192525267601,
                    0.014134797267615795,
                    0.05331561714410782
                ]
            ],
            [
                [
                    0.01496200542896986,
                    -0.020728707313537598,
                    0.08572204411029816,
                    0.019861582666635513,
                    0.04253131151199341
                ],
                [
                    -0.004574690014123917,
                    -0.02744392119348049,
                    -0.01009382028132677,
                    0.05635974183678627,
                    0.012219035066664219
                ],
                [
                    -0.08454035222530365,
                    -0.10235649347305298,
                    0.0038253541570156813,
                    -0.023675033822655678,
                    0.1033400148153305
                ],
                [
                    -0.01776685193181038,
                    0.016943594440817833,
                    -0.01934734173119068,
                    0.037561506032943726,
                    0.10127615928649902
                ],
                [
                    0.038944099098443985,
                    0.06522157043218613,
                    0.07259312272071838,
                    0.1027471274137497,
                    0.13811278343200684
                ]
            ]
        ],
        [
            [
                [
                    0.08463723212480545,
                    0.009809424169361591,
                    -0.038181185722351074,
                    -0.06175865978002548,
                    -0.036119937896728516
                ],
                [
                    -0.03683651238679886,
                    -0.03462726250290871,
                    -0.07817228138446808,
                    -0.06430768966674805,
                    -0.054445452988147736
                ],
                [
                    0.0014121737331151962,
                    0.01662365160882473,
                    -0.04628297686576843,
                    -0.053227100521326065,
                    -0.058836985379457474
                ],
                [
                    0.020402750000357628,
                    -0.007524150423705578,
                    0.08612337708473206,
                    0.07305637001991272,
                    0.06052328273653984
                ],
                [
                    -0.029954420402646065,
                    0.03268680348992348,
                    0.07280971854925156,
                    0.07839933782815933,
                    0.09379515051841736
                ]
            ],
            [
                [
                    -0.04173845052719116,
                    -0.09551239013671875,
                    -0.08371333032846451,
                    -0.07849862426519394,
                    -0.08136627823114395
                ],
                [
                    -0.056199707090854645,
                    -0.07670419663190842,
                    -0.03827758878469467,
                    -0.09745010733604431,
                    -0.11170267313718796
                ],
                [
                    0.00874133687466383,
                    -0.06499183923006058,
                    0.047486208379268646,
                    -0.011286520399153233,
                    -0.03762030601501465
                ],
                [
                    0.028080834075808525,
                    -0.022424085065722466,
                    0.09636431187391281,
                    0.018611518666148186,
                    0.07273367792367935
                ],
                [
                    0.06421184539794922,
                    0.09081391990184784,
                    0.08499439805746078,
                    0.06465210020542145,
                    0.08531048148870468
                ]
            ],
            [
                [
                    -0.029237987473607063,
                    -0.025187484920024872,
                    -0.08763334900140762,
                    -0.02614857815206051,
                    -0.007780188228935003
                ],
                [
                    -0.007493975572288036,
                    -0.1339341253042221,
                    -0.09386418759822845,
                    -0.01306336373090744,
                    -0.005083688534796238
                ],
                [
                    -0.046478673815727234,
                    -0.029148075729608536,
                    -0.04463167488574982,
                    -0.07897727191448212,
                    0.0506339855492115
                ],
                [
                    0.08920147269964218,
                    0.006460167001932859,
                    0.06175265461206436,
                    0.052890025079250336,
                    -0.007123271934688091
                ],
                [
                    0.10815158486366272,
                    0.03233072906732559,
                    0.0953536331653595,
                    0.017338741570711136,
                    0.09042264521121979
                ]
            ]
        ]
    ],
    "conv2.bias": [
        0.10746795684099197,
        0.13286612927913666,
        0.016522232443094254,
        0.04727168381214142,
        -0.0708642527461052,
        0.13866281509399414,
        -0.03027927875518799,
        0.09683560580015182,
        -0.0870734378695488,
        -0.05552288144826889,
        -0.08013718575239182,
        -0.11162622272968292,
        -0.044699810445308685,
        -0.09304381906986237,
        0.0932115688920021,
        -0.03713320568203926
    ],
    "conv2.weight": [
        [
            [
                [
                    0.03190375119447708,
                    0.0658421739935875,
                    0.042544711381196976,
                    0.038537293672561646,
                    0.0662330687046051
                ],
                [
                    0.032576266676187515,
                    0.03280561417341232,
                    0.003742446657270193,
                    0.03869376331567764,
                    0.06399013102054596
                ],
                [
                    -0.013924609869718552,
                    0.0529470331966877,
                    0.043218255043029785,
                    0.03566734492778778,
                    0.10408546030521393
                ],
                [
                    0.04834410175681114,
                    0.08904566615819931,
                    0.07110510021448135,
                    0.10712055116891861,
                    0.08561187237501144
                ],
                [
                    0.11626525968313217,
                    0.13018231093883514,
                    0.07635420560836792,
                    0.12062455713748932,
                    0.15188194811344147
                ]
            ],
            [
                [
                    0.034895140677690506,
                    0.01808229833841324,
                    0.006852858699858189,
                    0.009958581998944283,
                    0.011928793042898178
                ],
                [
                    0.004675575066357851,
                    -0.02451971173286438,
                    -0.06215091422200203,
                    -0.07688917964696884,
                    -0.0021861654240638018
                ],
                [
                    -0.00030584525666199625,
                    -0.02779817394912243,
                    -0.04447415843605995,
                    -0.013130529783666134,
                    -0.021177047863602638
                ],
                [
                    -0.012693103402853012,
                    0.01700768433511257,
                    0.06417673081159592,
                    0.015713434666395187,
                    0.07144301384687424
                ],
                [
                    0.021354684606194496,
                    0.041567590087652206,
                    0.10930860787630081,
                    0.03133992478251457,
                    0.030263395980000496
                ]
            ],
            [
                [
                    0.024120569229125977,
                    0.08256698399782181,
                    0.07778387516736984,
                    0.02888779155910015,
                    0.06638651341199875
                ],
                [
                    0.05884383246302605,
                    0.05289262533187866,
                    0.06581977009773254,
                    0.05737016722559929,
                    0.011667036451399326
                ],
                [
                    0.036310579627752304,
                    0.049624934792518616,
                    0.0385286808013916,
                    0.052126072347164154,
                    0.06758608669042587
                ],
                [
                    0.03770739212632179,
                    0.007347166538238525,
                    0.006508796475827694,
                    0.016336791217327118,
                    0.06399192661046982
                ],
                [
                    0.01795988902449608,
                    0.028022710233926773,
                    0.004118839744478464,
                    -0.012076199986040592,
                    0.03692099079489708
                ]
            ],
            [
                [
                    -0.03326209634542465,
                    -0.01956445723772049,
                    0.03659962862730026,
                    0.04469717666506767,
                    0.0023479319643229246
                ],
                [
                    -0.0665573924779892,
                    -0.024415982887148857,
                    -0.039915475994348526,
                    -0.007369623985141516,
                    -0.01794162392616272
                ],
                [
                    -0.02661457285284996,
                    -0.03981979563832283,
                    -0.020792203024029732,
                    -0.07075738161802292,
                    -0.08797892183065414
                ],
                [
                    -0.018940426409244537,
                    -0.009166808798909187,
                    -0.06722583621740341,
                    -0.09469891339540482,
                    -0.08285357803106308
                ],
                [
                    -0.0443413220345974,
                    -0.031117025762796402,
                    -0.0465555302798748,
                    -0.059486109763383865,
                    -0.07700184732675552
                ]
            ],
            [
                [
                    0.023177871480584145,
                    -0.008920385502278805,
                    0.007575139869004488,
                    0.0861213356256485,
                    0.0157114639878273
                ],
                [
                    0.016349270939826965,
                    0.05302463471889496,
                    0.05961738899350166,
                    0.04547019675374031,
                    0.02308264933526516
                ],
                [
                    0.049614012241363525,
                    -0.007935685105621815,
                    0.004541092086583376,
                    -0.034905821084976196,
                    -0.011766787618398666
                ],
                [
                    0.0073029650375247,
                    -0.019121626392006874,
                    -0.06809020042419434,
                    -0.024652106687426567,
                    -0.05124327167868614
                ],
                [
                    -0.0034711139742285013,
                    -0.01017141155898571,
                    -0.06406407058238983,
                    -0.028144747018814087,
                    -0.09383601695299149
                ]
            ],
            [
                [
                    -0.03514023870229721,
                    -0.058029092848300934,
                    -0.019406216219067574,
                    0.0359916090965271,
                    -0.015010504052042961
                ],
                [
                    0.005794443190097809,
                    0.06995316594839096,
                    -0.02939424104988575,
                    0.00015583494678139687,
                    -0.0019445549696683884
                ],
                [
                    0.00627227034419775,
                    0.023231230676174164,
                    0.03276602923870087,
                    -0.0030727654229849577,
                    0.027447188273072243
                ],
                [
                    -0.008467448875308037,
                    -0.024648001417517662,
                    -0.06558269262313843,
                    -0.035124048590660095,
                    -0.021024184301495552
                ],
                [
                    -0.04690776392817497,
                    -0.05796940252184868,
                    -0.04902103170752525,
                    -0.05354543402791023,
                    -0.07927834242582321
                ]
            ]
        ],
        [
            [
                [
                    -0.037535883486270905,
                    0.011207247152924538,
                    0.040479958057403564,
                    -0.006883671972900629,
                    -0.021951094269752502
                ],
                [
                    -0.021854259073734283,
                    -0.007179646752774715,
                    -0.03899051249027252,
                    0.006100770086050034,
                    0.07342389971017838
                ],
                [
                    0.012322424910962582,
                    -0.053912483155727386,
                    0.024877529591321945,
                    0.02089545875787735,
                    0.05743808299303055
                ],
                [
                    0.01591195911169052,
                    0.012066896073520184,
                    0.010915093123912811,
                    0.0027193280402570963,
                    0.053197190165519714
                ],
                [
                    0.024168992415070534,
                    0.031860142946243286,
                    0.007587912026792765,
                    0.018270239233970642,
                    -0.037937551736831665
                ]
            ],
            [
                [
                    0.027575548738241196,
                    0.02441626600921154,
                    0.017236892133951187,
                    0.015715869143605232,
                    0.016977675259113312
                ],
                [
                    -0.025541186332702637,
                    0.01728411391377449,
                    0.012714849784970284,
                    -0.014358812011778355,
                    0.0034351530484855175
                ],
                [
                    0.0003340595285408199,
                    0.025037264451384544,
                    0.014695271849632263,
                    -0.019560430198907852,
                    0.03215179964900017
                ],
                [
                    0.011568466201424599,
                    -0.08918386697769165,
                    -0.025282997637987137,
                    0.01310998946428299,
                    0.02425975538790226
                ],
                [
                    -0.09150310605764389,
                    -0.02922932617366314,
                    -0.05143090710043907,
                    0.018999619409441948,
                    0.010504231788218021
                ]
            ],
            [
                [
                    -0.13161298632621765,
                    -0.1512647569179535,
                    -0.08640526235103607,
                    -0.1213119626045227,
                    -0.05003415420651436
                ],
                [
                    -0.10533694177865982,
                    -0.166818767786026,
                    -0.11171720176935196,
                    -0.05728350207209587,
                    -0.014579837210476398
                ],
                [
                    -0.091361865401268,
                    -0.1466699242591858,
                    -0.11173588782548904,
                    -0.03450550138950348,
                    -0.09672050178050995
                ],
                [
                    -0.038980673998594284,
                    -0.15336033701896667,
                    -0.15144583582878113,
                    -0.043215762823820114,
                    -0.025109339505434036
                ],
                [
                    -0.08311517536640167,
                    -0.12725888192653656,
                    -0.11758134514093399,
                    -0.08200685679912567,
                    -0.07883846759796143
                ]
            ],
            [
                [
                    -0.011118413880467415,
                    0.029855597764253616,
                    0.0395943820476532,
                    0.0003707334981299937,
                    -0.010917301289737225
                ],
                [
                    -0.050317514687776566,
                    0.05600357800722122,
                    0.07322084158658981,
                    0.017433036118745804,
                    0.01447212602943182
                ],
                [
                    -0.010840000584721565,
                    0.02653910405933857,
                    0.01668241247534752,
                    0.02444053813815117,
                    0.024286676198244095
                ],
                [
                    0.08375363051891327,
                    0.06737642735242844,
                    -0.014113450422883034,
                    -0.011178492568433285,
                    0.05113610252737999
                ],
                [
                    0.10001254826784134,
                    0.11069247871637344,
                    0.001363892573863268,
                    0.01110014971345663,
                    0.00916021503508091
                ]
            ],
            [
                [
                    -0.024008911103010178,
                    0.013069121167063713,
                    0.04955921322107315,
                    -0.02440025471150875,
                    -0.04008721560239792
                ],
                [
                    -0.03237828612327576,
                    -0.023855868726968765,
                    -0.0008991044596768916,
                    0.06361107528209686,
                    -0.005158841609954834
                ],
                [
                    -0.017429618164896965,
                    0.03151276335120201,
                    -0.012881805188953876,
                    -0.017899183556437492,
                    -0.009476784616708755
                ],
                [
                    -0.0077663264237344265,
                    0.010220778174698353,
                    -0.030066438019275665,
                    -0.034195177257061005,
                    -0.006522560957819223
                ],
                [
                    0.08602049201726913,
                    0.058370545506477356,
                    -0.03324148431420326,
                    -0.012062698602676392,
                    -0.03504499793052673
                ]
            ],
            [
                [
                    -0.019142277538776398,
                    0.009704606607556343,
                    0.061465784907341,
                    0.06600601226091385,
                    0.06005415320396423
                ],
                [
                    -0.03621276468038559,
                    0.06424672901630402,
                    0.0424930602312088,
                    0.048596903681755066,
                    0.016350867226719856
                ],
                [
                    0.013845345005393028,
                    0.007402300368994474,
                    0.06397242099046707,
                    -0.03185877948999405,
                    0.008519232273101807
                ],
                [
                    0.027446052059531212,
                    0.007787188980728388,
                    -0.006646695081144571,
                    -0.00742116617038846,
                    -0.0047483863309025764
                ],
                [
                    0.006255296524614096,
                    -0.047812141478061676,
                    -0.05272149294614792,
                    -0.0005382203380577266,
                    0.04309336841106415
                ]
            ]
        ],
        [
            [
                [
                    0.01265126746147871,
                    -0.0008027084404602647,
                    -0.05011352524161339,
                    -0.06921075284481049,
                    -0.0494849719107151
                ],
                [
                    0.011345895007252693,
                    0.002478000707924366,
                    -0.02870151400566101,
                    -0.07367030531167984,
                    -0.04394124820828438
                ],
                [
                    -0.0005525552551262081,
                    -0.022059619426727295,
                    -0.009710258804261684,
                    -0.010767503641545773,
                    -0.0457703098654747
                ],
                [
                    0.04986356571316719,
                    0.030625328421592712,
                    0.03133821859955788,
                    0.019665783271193504,
                    0.0204717256128788
                ],
                [
                    0.0253839623183012,
                    -0.03725231811404228,
                    0.03978559002280235,
                    0.009570008143782616,
                    0.010853904299438
                ]
            ],
            [
                [
                    0.010731037706136703,
                    -0.007388987112790346,
                    0.02995716594159603,
                    0.013724938966333866,
                    0.010659839026629925
                ],
                [
                    0.013077751733362675,
                    -0.009067513979971409,
                    0.03807413950562477,
                    0.0021881486754864454,
                    0.049437668174505234
                ],
                [
                    -0.053652383387088776,
                    -0.03380497545003891,
                    0.013588492758572102,
                    0.030083680525422096,
                    0.008010566234588623
                ],
                [
                    -0.07525911927223206,
                    -0.06582410633563995,
                    -0.02585579827427864,
                    0.03861586004495621,
                    0.0022683346178382635
                ],
                [
                    -0.03732448071241379,
                    -0.07439906150102615,
                    -0.02210005186498165,
                    -0.02238692156970501,
                    0.04687132686376572
                ]
            ],
            [
                [
                    0.04211156442761421,
                    0.020380517467856407,
                    -0.04084847494959831,
                    -0.07893059402704239,
                    -0.01688510552048683
                ],
                [
                    0.005924986209720373,
                    0.0014760709600523114,
                    -0.00513831153512001,
                    -0.016002977266907692,
                    -0.04668358340859413
                ],
                [
                    0.01920757070183754,
                    -0.02377329021692276,
                    0.012785415165126324,
                    -0.09783810377120972,
                    -0.03773137181997299
                ],
                [
                    0.0018862987635657191,
                    -0.01500230748206377,
                    -0.08182486891746521,
                    -0.09931273758411407,
                    -0.08329667150974274
                ],
                [
                    -0.047074753791093826,
                    -0.037927404046058655,
                    -0.08794566243886948,
                    -0.08684051781892776,
                    -0.1441173106431961
                ]
            ],
            [
                [
                    0.07307042926549911,
                    0.08905643969774246,
                    0.006695059593766928,
                    0.021984171122312546,
                    -0.015901215374469757
                ],
                [
                    0.06554054468870163,
                    0.10873030871152878,
                    0.003984892275184393,
                    0.02908788062632084,
                    -0.00285697472281754
                ],
                [
                    0.04063798859715462,
                    0.12229312211275101,
                    0.027176853269338608,
                    0.02183150127530098,
                    0.08535034209489822
                ],
                [
                    0.039669934660196304,
                    0.06716607511043549,
                    -0.05246342346072197,
                    -0.024988383054733276,
                    0.03855125606060028
                ],
                [
                    0.008289269171655178,
                    0.006987135857343674,
                    -0.04202371463179588,
                    -0.014094827696681023,
                    0.007869296707212925
                ]
            ],
            [
                [
                    0.05544232949614525,
                    0.03599502146244049,
                    0.008130370639264584,
                    -0.0012093416880816221,
                    0.004137514159083366
                ],
                [
                    0.061890773475170135,
                    0.019405486062169075,
                    -0.0308364387601614,
                    -0.007445104885846376,
                    0.013962926343083382
                ],
                [
                    -0.00327186263166368,
                    -0.01691579818725586,
                    -0.030326075851917267,
                    -0.05263252928853035,
                    0.0069519514217972755
                ],
                [
                    -0.03701181709766388,
                    0.015042213723063469,
                    -0.06803902983665466,
                    -0.003676661988720298,
                    0.01761290244758129
                ],
                [
                    -0.07297169417142868,
                    -0.046433448791503906,
                    -0.0711449384689331,
                    0.0005260772304609418,
                    0.011253826320171356
                ]
            ],
            [
                [
                    0.06292399019002914,
                    0.09514589607715607,
                    0.11671073734760284,
                    0.036720629781484604,
                    0.02836042270064354
                ],
                [
                    -0.004878518637269735,
                    0.06447478383779526,
                    0.033829446882009506,
                    0.019733795896172523,
                    -0.021612046286463737
                ],
                [
                    0.016251571476459503,
                    -0.0067451451905071735,
                    -0.005715131293982267,
                    -0.020615853369235992,
                    0.039199043065309525
                ],
                [
                    -0.058474160730838776,
                    -0.0737062469124794,
                    -0.030383657664060593,
                    -0.015095746144652367,
                    0.009319034405052662
                ],
                [
                    -0.0370376855134964,
                    -0.09250045567750931,
                    -0.047859128564596176,
                    -0.03648188337683678,
                    -0.02355915680527687
                ]
            ]
        ],
        [
            [
                [
                    -0.019805237650871277,
                    -0.012936542741954327,
                    0.02427336573600769,
                    0.003978801425546408,
                    0.0037911636754870415
                ],
                [
                    0.01279985811561346,
                    0.04694557562470436,
                    -0.04858619347214699,
                    0.04543308913707733,
                    0.0014197231503203511
                ],
                [
                    -0.017374955117702484,
                    -0.024697335436940193,
                    -0.04096159711480141,
                    0.005526301916688681,
                    -0.02301132306456566
                ],
                [
                    -0.017010293900966644,
                    -0.09998081624507904,
                    -0.06565653532743454,
                    -0.04053685814142227,
                    -0.0847879946231842
                ],
                [
                    -0.07844647765159607,
                    -0.04700779169797897,
                    -0.05219237133860588,
                    -0.1323055624961853,
                    -0.06188327446579933
                ]
            ],
            [
                [
                    -0.015650933608412743,
                    -0.007929555140435696,
                    -0.07172286510467529,
                    -0.04284591227769852,
                    -0.01736670918762684
                ],
                [
                    -0.03197099640965462,
                    -0.012763437815010548,
                    -0.01094711571931839,
                    0.032120853662490845,
                    0.028803715482354164
                ],
                [
                    -0.023383567109704018,
                    0.018271980807185173,
                    -0.051682889461517334,
                    0.04615619406104088,
                    0.038426320999860764
                ],
                [
                    -0.021874599158763885,
                    0.032325346022844315,
                    0.043732549995183945,
                    -0.0033505328465253115,
                    0.0006672391900792718
                ],
                [
                    -0.036299463361501694,
                    -0.00792444683611393,
                    0.015084188431501389,
                    -0.012611237354576588,
                    -0.021517347544431686
                ]
            ],
            [
                [
                    0.006044185254722834,
                    -0.04357392340898514,
                    0.05336860194802284,
                    -0.0010603457922115922,
                    -0.002532089361920953
                ],
                [
                    -0.010885551571846008,
                    -0.03542178496718407,
                    0.020277168601751328,
                    -0.0384487584233284,
                    0.05600789934396744
                ],
                [
                    -0.04294324293732643,
                    -0.004073956049978733,
                    -0.00524136982858181,
                    -0.0006127490778453648,
                    -0.03473735228180885
                ],
                [
                    -0.046237677335739136,
                    -0.04980534687638283,
                    0.018031062558293343,
                    0.024363650009036064,
                    0.024422662332654
                ],
                [
                    -0.03598199412226677,
                    -0.0494910329580307,
                    0.0011823098175227642,
                    -0.022569483146071434,
                    0.008531691506505013
                ]
            ],
            [
                [
                    0.053616005927324295,
                    0.060382865369319916,
                    0.051273081451654434,
                    0.04130750149488449,
                    0.05018942430615425
                ],
                [
                    0.08995863795280457,
                    0.1009264588356018,
                    0.10401409864425659,
                    0.07892835140228271,
                    0.07588668167591095
                ],
                [
                    0.1314620077610016,
                    0.10083989053964615,
                    0.06278158724308014,
                    -0.03543206676840782,
                    0.08692185580730438
                ],
                [
                    0.07069838792085648,
                    0.00988000724464655,
                    0.05062919482588768,
                    0.06401172280311584,
                    0.11158022284507751
                ],
                [
                    0.11364170163869858,
                    0.07115128636360168,
                    0.0914788767695427,
                    0.052248671650886536,
                    0.09375300258398056
                ]
            ],
            [
                [
                    -0.05684087797999382,
                    -0.05147241801023483,
                    -0.06361927837133408,
                    -0.034499309957027435,
                    0.009638762101531029
                ],
                [
                    -0.05759371817111969,
                    -0.057508111000061035,
                    -0.09018445760011673,
                    -0.0461900569498539,
                    0.02737339958548546
                ],
                [
                    -0.04038591682910919,
                    -0.097869873046875,
                    -0.1600014865398407,
                    -0.09290681034326553,
                    -0.006161983124911785
                ],
                [
                    -0.07244018465280533,
                    -0.18939140439033508,
                    -0.13553017377853394,
                    -0.06001300737261772,
                    0.027421245351433754
                ],
                [
                    -0.09373753517866135,
                    -0.09357428550720215,
                    -0.07640672475099564,
                    -0.05370991304516792,
                    -0.009284348227083683
                ]
            ],
            [
                [
                    0.06695326417684555,
                    0.035756684839725494,
                    0.06296128779649734,
                    0.04076068475842476,
                    0.06859845668077469
                ],
                [
                    0.02892010472714901,
                    0.051069632172584534,
                    0.0389464870095253,
                    0.06868311762809753,
                    0.07817329466342926
                ],
                [
                    -0.013365679420530796,
                    0.0012134468415752053,
                    -0.05562850087881088,
                    -0.04370259493589401,
                    -0.004399327095597982
                ],
                [
                    -0.010302377864718437,
                    -0.028940942138433456,
                    0.004575566854327917,
                    0.021899405866861343,
                    0.020868249237537384
                ],
                [
                    0.007223667111247778,
                    0.008777461014688015,
                    0.047734830528497696,
                    0.07414558529853821,
                    0.056251052767038345
                ]
            ]
        ],
        [
            [
                [
                    -0.002414591843262315,
                    0.012971429154276848,
                    0.011673422530293465,
                    0.029639506712555885,
                    0.012154975906014442
                ],
                [
                    -0.009290874935686588,
                    0.05612200126051903,
                    0.04293965548276901,
                    0.06308657675981522,
                    0.024107594043016434
                ],
                [
                    0.0026183025911450386,
                    0.03109392710030079,
                    0.023990077897906303,
                    -0.019514987245202065,
                    -0.03784610703587532
                ],
                [
                    0.02071339078247547,
                    0.030743272975087166,
                    0.006421640980988741,
                    -0.04254509136080742,
                    -0.005459157284349203
                ],
                [
                    -0.04085591062903404,
                    -0.1266983598470688,
                    -0.08714041113853455,
                    -0.06968377530574799,
                    -0.07820989191532135
                ]
            ],
            [
                [
                    0.02499883435666561,
                    0.06637786328792572,
                    0.06789321452379227,
                    0.07899630069732666,
                    0.15271151065826416
                ],
                [
                    0.026163602247834206,
                    0.05743233487010002,
                    0.08685872703790665,
                    0.06745395064353943,
                    0.07931442558765411
                ],
                [
                    0.04591904580593109,
                    0.06281065195798874,
                    0.09529513865709305,
                    0.028297819197177887,
                    0.06659375876188278
                ],
                [
                    0.05486990883946419,
                    -0.0009972736006602645,
                    -0.037046246230602264,
                    -0.03513164445757866,
                    -0.04028618335723877
                ],
                [
                    0.01734686642885208,
                    -0.052360303699970245,
                    -0.019091561436653137,
                    0.006311680190265179,
                    0.023633869364857674
                ]
            ],
            [
                [
                    -0.09026268124580383,
                    -0.04253288730978966,
                    -0.038472674787044525,
                    -0.05349550023674965,
                    -0.09373968094587326
                ],
                [
                    -0.04710101708769798,
                    -0.009777138940989971,
                    -0.010428965091705322,
                    0.0037945485673844814,
                    -0.006988087669014931
                ],
                [
                    0.0021922332234680653,
                    -0.020534783601760864,
                    -0.01751793548464775,
                    -0.04916289448738098,
                    -0.06444831937551498
                ],
                [
                    0.03442738950252533,
                    0.06419221311807632,
                    0.06643352657556534,
                    0.051343996077775955,
                    -0.0032980090472847223
                ],
                [
                    -0.01315448246896267,
                    0.012004472315311432,
                    -0.04151976481080055,
                    -0.05362947657704353,
                    -0.04091344028711319
                ]
            ],
            [
                [
                    0.10753967612981796,
                    0.09360328316688538,
                    -0.01875946670770645,
                    0.021383868530392647,
                    -0.03878766670823097
                ],
                [
                    0.06297972798347473,
                    0.05801649019122124,
                    -0.026064179837703705,
                    0.04322022199630737,
                    0.03907756134867668
                ],
                [
                    -0.004193250555545092,
                    0.013920973986387253,
                    -0.019187726080417633,
                    0.01211497001349926,
                    0.01766979694366455
                ],
                [
                    -0.02349613793194294,
                    -0.00241537275724113,
                    -0.07443888485431671,
                    -0.004966807086020708,
                    0.051682766526937485
                ],
                [
                    -0.022770807147026062,
                    -0.06665921956300735,
                    -0.10959424078464508,
                    -0.09679348021745682,
                    -0.031160317361354828
                ]
            ],
            [
                [
                    0.06471884995698929,
                    -0.026125669479370117,
                    -0.08211053907871246,
                    -0.0924154594540596,
                    -0.05333435535430908
                ],
                [
                    0.01708865538239479,
                    0.022436877712607384,
                    -0.028167666867375374,
                    -0.029040170833468437,
                    -0.036044828593730927
                ],
                [
                    0.05174174904823303,
                    0.0433005727827549,
                    0.039718739688396454,
                    0.08095857501029968,
                    0.03912399709224701
                ],
                [
                    0.06342856585979462,
                    0.033937033265829086,
                    0.05389440059661865,
                    0.0523303858935833,
                    -0.02083137258887291
                ],
                [
                    0.021646970883011818,
                    0.028213363140821457,
                    0.03603142499923706,
                    -0.003113092388957739,
                    -0.002436653710901737
                ]
            ],
            [
                [
                    -0.020927466452121735,
                    -0.047607727348804474,
                    -0.0064374785870313644,
                    -0.03444652631878853,
                    -0.030474284663796425
                ],
                [
                    0.003686930052936077,
                    0.012394177727401257,
                    -0.031617771834135056,
                    0.0014762653736397624,
                    0.04151071235537529
                ],
                [
                    0.04166724905371666,
                    0.017288802191615105,
                    0.0006529873935505748,
                    0.0342036709189415,
                    0.012912645936012268
                ],
                [
                    0.0426955409348011,
                    0.06292518973350525,
                    -0.011618788354098797,
                    0.06350210309028625,
                    -0.01050201803445816
                ],
                [
                    0.049776893109083176,
                    0.0024940064176917076,
                    0.039289362728595734,
                    -0.03432181850075722,
                    -0.0689828172326088
                ]
            ]
        ],
        [
            [
                [
                    0.007608581334352493,
                    -0.006071059498935938,
                    -0.014458443969488144,
                    -0.05071352422237396,
                    -0.022630322724580765
                ],
                [
                    0.02396475523710251,
                    0.0739499181509018,
                    -0.04575682803988457,
                    -0.11586739122867584,
                    0.01228167675435543
                ],
                [
                    0.040642786771059036,
                    0.005745981354266405,
                    -0.0826040655374527,
                    -0.0686393678188324,
                    0.024420617148280144
                ],
                [
                    0.05433199927210808,
                    -0.01832103542983532,
                    -0.029417255893349648,
                    -0.06528197228908539,
                    -0.025437025353312492
                ],
                [
                    0.06276247650384903,
                    -0.01972218230366707,
                    -0.05108688771724701,
                    -0.02538800612092018,
                    -0.002400208031758666
                ]
            ],
            [
                [
                    0.019931437447667122,
                    0.0024676485918462276,
                    0.01632198877632618,
                    -0.0520559698343277,
                    -0.014352573081851006
                ],
                [
                    0.01578526943922043,
                    0.05246124044060707,
                    -0.029350372031331062,
                    -0.05645310878753662,
                    -0.04638156667351723
                ],
                [
                    0.07062525302171707,
                    -0.047670308500528336,
                    -0.08839350193738937,
                    -0.08885885775089264,
                    -0.012987551279366016
                ],
                [
                    0.0015851168427616358,
                    -0.06908679008483887,
                    -0.021211043000221252,
                    -0.06372785568237305,
                    0.033513251692056656
                ],
                [
                    0.002284145914018154,
                    -0.052834536880254745,
                    -0.06796097010374069,
                    -0.08049002289772034,
                    -0.030405819416046143
                ]
            ],
            [
                [
                    0.01960795186460018,
                    -0.051507480442523956,
                    -0.06032700091600418,
                    -0.07077676057815552,
                    -0.0185428224503994
                ],
                [
                    0.009946822188794613,
                    -0.04996810853481293,
                    -0.07852399349212646,
                    -0.07638587057590485,
                    0.028109028935432434
                ],
                [
                    -0.022426092997193336,
                    -0.03581811487674713,
                    -0.08273740112781525,
                    -0.0063674901612102985,
                    -0.042328208684921265
                ],
                [
                    -0.039218969643116,
                    -0.0720667764544487,
                    -0.06726151704788208,
                    -0.015981225296854973,
                    -0.02178238332271576
                ],
                [
                    -0.026494063436985016,
                    -0.05425376817584038,
                    -0.038384612649679184,
                    -0.04922530800104141,
                    0.009020152501761913
                ]
            ],
            [
                [
                    0.01808587647974491,
                    -0.02232823520898819,
                    -0.014987892471253872,
                    0.05384247750043869,
                    0.0837615430355072
                ],
                [
                    0.025754641741514206,
                    0.0008307885145768523,
                    -0.016354132443666458,
                    0.08851546794176102,
                    0.049708470702171326
                ],
                [
                    0.020915156230330467,
                    0.01913388818502426,
                    0.06333773583173752,
                    0.018046613782644272,
                    0.028549889102578163
                ],
                [
                    -0.024499697610735893,
                    0.029407691210508347,
                    0.011973043903708458,
                    0.029621131718158722,
                    0.015367514453828335
                ],
                [
                    0.04488186165690422,
                    0.10072197020053864,
                    0.022763507440686226,
                    0.015913689509034157,
                    -0.0030022531282156706
                ]
            ],
            [
                [
                    -0.008754770271480083,
                    -0.021132981404662132,
                    0.03441178798675537,
                    0.015752417966723442,
                    0.07785355299711227
                ],
                [
                    -0.054007936269044876,
                    0.017614295706152916,
                    0.06230941787362099,
                    0.051417604088783264,
                    0.050015851855278015
                ],
                [
                    -0.03173162788152695,
                    -0.03320158272981644,
                    0.012818106450140476,
                    0.00765657564625144,
                    -0.002866745926439762
                ],
                [
                    -0.01487955916672945,
                    0.0160782802850008,
                    -0.004975578747689724,
                    0.006135947536677122,
                    -0.03476138412952423
                ],
                [
                    -0.016259022057056427,
                    -0.004750291351228952,
                    -0.045748550444841385,
                    -0.009267384186387062,
                    -0.02115110121667385
                ]
            ],
            [
                [
                    0.06352115422487259,
                    0.01959967613220215,
                    0.0078085483983159065,
                    0.08542568236589432,
                    0.054774414747953415
                ],
                [
                    0.027822550386190414,
                    0.015556816942989826,
                    0.018039120361208916,
                    -0.0023568563628941774,
                    0.020596245303750038
                ],
                [
                    0.03148845583200455,
                    0.04441755264997482,
                    0.06880805641412735,
                    0.06946442276239395,
                    0.0031130791176110506
                ],
                [
                    -0.035949643701314926,
                    -0.021397236734628677,
                    -0.004271536599844694,
                    0.0373816080391407,
                    0.006940649356693029
                ],
                [
                    0.016183700412511826,
                    0.023531174287199974,
                    0.006284134462475777,
                    0.007196005433797836,
                    0.008997953496873379
                ]
            ]
        ],
        [
            [
                [
                    0.008490665815770626,
                    0.06666392087936401,
                    0.020489878952503204,
                    0.026262467727065086,
                    0.046746715903282166
                ],
                [
                    -0.011664830148220062,
                    -0.00797025952488184,
                    -0.0340074859559536,
                    -0.033750277012586594,
                    0.0026174290105700493
                ],
                [
                    -0.037727274000644684,
                    -0.014372160658240318,
                    -0.00925846491008997,
                    -0.015456180088222027,
                    -0.038379818201065063
                ],
                [
                    -0.09300694614648819,
                    -0.001785042230039835,
                    0.016156278550624847,
                    0.02136853337287903,
                    -0.01806436851620674
                ],
                [
                    0.0037095649167895317,
                    -0.008446178399026394,
                    0.009602985344827175,
                    -0.026594650000333786,
                    0.022696197032928467
                ]
            ],
            [
                [
                    0.02359764650464058,
                    0.026991885155439377,
                    0.04063485935330391,
                    -0.01239775400608778,
                    -0.020142486318945885
                ],
                [
                    0.01590481959283352,
                    -0.0023472928442060947,
                    -0.008687860332429409,
                    -0.05113733187317848,
                    0.004340377636253834
                ],
                [
                    0.05018899217247963,
                    0.01669437251985073,
                    0.02688024193048477,
                    -0.04704840108752251,
                    -0.008915659040212631
                ],
                [
                    0.05626319348812103,
                    0.0400267168879509,
                    0.03345346078276634,
                    -0.002892616903409362,
                    0.001816630712710321
                ],
                [
                    0.0031750411726534367,
                    0.015959851443767548,
                    0.056650348007678986,
                    0.0028196540661156178,
                    0.002695702947676182
                ]
            ],
            [
                [
                    0.015680547803640366,
                    0.0761490985751152,
                    0.07612432539463043,
                    0.10914553701877594,
                    0.11133423447608948
                ],
                [
                    0.00804403517395258,
                    0.05140489339828491,
                    0.015201076865196228,
                    0.0415378101170063,
                    0.052928224205970764
                ],
                [
                    -0.06727150082588196,
                    -0.06781376153230667,
                    -0.011601808480918407,
                    -0.0098583297803998,
                    0.00038036928162910044
                ],
                [
                    -0.13701793551445007,
                    0.04373614862561226,
                    0.014778446406126022,
                    0.05733795836567879,
                    -0.004232943058013916
                ],
                [
                    -0.07923156023025513,
                    0.02164313569664955,
                    0.05155143886804581,
                    0.05498213320970535,
                    0.036706484854221344
                ]
            ],
            [
                [
                    -0.042687613517045975,
                    -0.05405782535672188,
                    -0.07690300792455673,
                    -0.13000473380088806,
                    -0.13798733055591583
                ],
                [
                    0.026371091604232788,
                    -0.024553688243031502,
                    -0.10018523037433624,
                    -0.12223419547080994,
                    -0.1224164143204689
                ],
                [
                    0.0539468415081501,
                    -0.01537315547466278,
                    -0.05561044067144394,
                    -0.12604345381259918,
                    -0.10032662004232407
                ],
                [
                    -0.026091255247592926,
                    -0.025933029130101204,
                    -0.04776826873421669,
                    -0.08754152059555054,
                    -0.07951154559850693
                ],
                [
                    0.0020680278539657593,
                    -0.011881228536367416,
                    -0.01815066486597061,
                    -0.05736448988318443,
                    -0.052818406373262405
                ]
            ],
            [
                [
                    0.0873076319694519,
                    -0.018487796187400818,
                    0.014247117564082146,
                    -0.030258653685450554,
                    0.043585799634456635
                ],
                [
                    0.026726529002189636,
                    0.01845378987491131,
                    0.015692122280597687,
                    -0.014232243411242962,
                    -0.010376072488725185
                ],
                [
                    0.007101410999894142,
                    0.004442994017153978,
                    0.011023439466953278,
                    -0.021974759176373482,
                    0.03350868448615074
                ],
                [
                    0.03604152426123619,
                    0.0486297532916069,
                    -0.043966468423604965,
                    0.03135988861322403,
                    0.033999133855104446
                ],
                [
                    0.08186721801757812,
                    0.07592210918664932,
                    0.057641301304101944,
                    0.04205062985420227,
                    0.04528961330652237
                ]
            ],
            [
                [
                    0.010832936502993107,
                    -0.06191815808415413,
                    -0.05683549866080284,
                    -0.09047891199588776,
                    -0.0005396942142397165
                ],
                [
                    0.045259151607751846,
                    0.013252233155071735,
                    -0.0013603384140878916,
                    -0.019802574068307877,
                    0.004516390152275562
                ],
                [
                    0.07201583683490753,
                    0.010076598264276981,
                    -0.03996497392654419,
                    0.010345999151468277,
                    0.07511860877275467
                ],
                [
                    0.11049110442399979,
                    0.09227486699819565,
                    0.04230804368853569,
                    0.026427727192640305,
                    0.0024273463059216738
                ],
                [
                    0.1242988184094429,
                    0.07730532437562943,
                    0.1090063601732254,
                    0.020224297419190407,
                    -0.003081651870161295
                ]
            ]
        ],
        [
            [
                [
                    -0.07262784242630005,
                    -0.06306517869234085,
                    -0.07633283734321594,
                    0.0013336031697690487,
                    -0.022673925384879112
                ],
                [
                    -0.08450152724981308,
                    -0.06719626486301422,
                    -0.03837870433926582,
                    0.01046232134103775,
                    0.014911889098584652
                ],
                [
                    -0.07209384441375732,
                    -0.06516262888908386,
                    0.000730056781321764,
                    -0.03006581962108612,
                    0.00702062901109457
                ],
                [
                    -0.0285181924700737,
                    0.0038891250733286142,
                    0.02763756923377514,
                    0.021493952721357346,
                    0.030871998518705368
                ],
                [
                    0.07827991247177124,
                    0.09462284296751022,
                    0.083619624376297,
                    0.1102496013045311,
                    0.12176204472780228
                ]
            ],
            [
                [
                    -0.034869592636823654,
                    -0.048321302980184555,
                    -0.051090072840452194,
                    -0.005293371621519327,
                    0.019792599603533745
                ],
                [
                    -0.07280979305505753,
                    -0.08861731737852097,
                    0.03759686276316643,
                    0.04988783225417137,
                    0.07418078184127808
                ],
                [
                    -0.07968730479478836,
                    -0.03630019724369049,
                    0.024030271917581558,
                    0.10555322468280792,
                    0.027054883539676666
                ],
                [
                    -0.045149922370910645,
                    -0.04091693088412285,
                    0.0029925766866654158,
                    0.0011560061248019338,
                    -0.042391516268253326
                ],
                [
                    -0.07677778601646423,
                    -0.045244984328746796,
                    -0.07017580419778824,
                    -0.03555963188409805,
                    -0.025163156911730766
                ]
            ],
            [
                [
                    -0.07659530639648438,
                    -0.0646640956401825,
                    -0.0741509273648262,
                    -0.10217680782079697,
                    -0.022220885381102562
                ],
                [
                    -0.008370202966034412,
                    -0.10655916482210159,
                    -0.05943611264228821,
                    -0.0861591324210167,
                    -0.03714609146118164
                ],
                [
                    -0.04430294409394264,
                    -0.09324481338262558,
                    -0.01594899781048298,
                    -0.04416570067405701,
                    0.034025318920612335
                ],
                [
                    -0.08447936177253723,
                    -0.09560106694698334,
                    -0.02845086343586445,
                    0.01615462265908718,
                    -0.0037835135590285063
                ],
                [
                    -0.025800839066505432,
                    -0.04575368016958237,
                    0.024386119097471237,
                    -0.032428156584501266,
                    0.00904365535825491
                ]
            ],
            [
                [
                    0.03302859142422676,
                    0.0636320561170578,
                    0.095454141497612,
                    -0.00020812351431231946,
                    -0.011872963048517704
                ],
                [
                    0.10644567012786865,
                    0.06609604507684708,
                    0.03778330609202385,
                    0.010894096456468105,
                    -0.02003517933189869
                ],
                [
                    0.07736442238092422,
                    0.04872913286089897,
                    0.025989878922700882,
                    -0.036795806139707565,
                    0.03521798923611641
                ],
                [
                    0.07903800159692764,
                    -0.034831393510103226,
                    -0.01364970300346613,
                    -0.003214986063539982,
                    0.05918377265334129
                ],
                [
                    0.034424491226673126,
                    0.03214080259203911,
                    0.03395276144146919,
                    -0.00010286335600540042,
                    0.04806137457489967
                ]
            ],
            [
                [
                    0.07383259385824203,
                    0.017810475081205368,
                    0.04371699318289757,
                    -0.021063275635242462,
                    -0.06430311501026154
                ],
                [
                    0.06829095631837845,
                    0.02254812978208065,
                    0.01663612760603428,
                    -0.029316004365682602,
                    -0.03280562907457352
                ],
                [
                    0.03856693208217621,
                    -0.02846645377576351,
                    -0.09443097561597824,
                    -0.019288958981633186,
                    0.08582862466573715
                ],
                [
                    0.04843540117144585,
                    0.02705557830631733,
                    0.026030799373984337,
                    0.011230440810322762,
                    0.07074680924415588
                ],
                [
                    0.0596160888671875,
                    0.036600179970264435,
                    0.003943460062146187,
                    0.007530438248068094,
                    0.07147730886936188
                ]
            ],
            [
                [
                    -0.06365373730659485,
                    0.012631014920771122,
                    0.028578035533428192,
                    0.05927736684679985,
                    -0.013615057803690434
                ],
                [
                    -0.012508813291788101,
                    0.01704004965722561,
                    -0.02148314192891121,
                    -0.020388469099998474,
                    0.036008939146995544
                ],
                [
                    0.023663848638534546,
                    -0.07911817729473114,
                    -0.02225836180150509,
                    -0.018461106345057487,
                    0.06839282065629959
                ],
                [
                    -0.016195859760046005,
                    0.001198930200189352,
                    0.05127489194273949,
                    0.037122078239917755,
                    0.03207811713218689
                ],
                [
                    0.013835971243679523,
                    0.06340668350458145,
                    0.0648244321346283,
                    0.03620295599102974,
                    0.005073308013379574
                ]
            ]
        ],
        [
            [
                [
                    -0.03836511820554733,
                    -0.07913444936275482,
                    -0.03732505440711975,
                    -0.060907866805791855,
                    -0.05533692240715027
                ],
                [
                    -0.028097890317440033,
                    -0.04626695439219475,
                    -0.015892157331109047,
                    -0.023415198549628258,
                    0.006178427953273058
                ],
                [
                    -0.04649417847394943,
                    -0.014055757783353329,
                    -0.03377103433012962,
                    -0.02470262534916401,
                    -0.03283502906560898
                ],
                [
                    0.024647435173392296,
                    0.002762008225545287,
                    0.002794745611026883,
                    -0.004912672098726034,
                    -0.003977357875555754
                ],
                [
                    -0.019487930461764336,
                    -0.0069007170386612415,
                    0.013884622603654861,
                    0.05215393006801605,
                    0.047011859714984894
                ]
            ],
            [
                [
                    0.048769958317279816,
                    0.06860630214214325,
                    0.028451820835471153,
                    0.026929691433906555,
                    0.045157913118600845
                ],
                [
                    0.04051969572901726,
                    0.03181220218539238,
                    0.0077570220455527306,
                    0.023349139839410782,
                    0.07310567796230316
                ],
                [
                    -0.0021583482157438993,
                    0.03398104012012482,
                    0.023930471390485764,
                    0.018811209127306938,
                    0.0793703943490982
                ],
                [
                    0.09510362893342972,
                    0.07531043887138367,
                    0.1017371118068695,
                    0.0821966826915741,
                    0.08686260879039764
                ],
                [
                    0.07056369632482529,
                    0.0005709017859771848,
                    0.013352515175938606,
                    0.04380827024579048,
                    0.07724948227405548
                ]
            ],
            [
                [
                    -0.021818194538354874,
                    -0.016678914427757263,
                    -0.005635131616145372,
                    -0.06487566232681274,
                    -0.04659230262041092
                ],
                [
                    0.08958867937326431,
                    0.022154951468110085,
                    0.01888529397547245,
                    -0.004250707570463419,
                    0.04086031764745712
                ],
                [
                    0.01573558710515499,
                    0.008333724923431873,
                    0.007186069153249264,
                    0.05482396483421326,
                    -0.002678545191884041
                ],
                [
                    0.0027720665093511343,
                    -0.00876874290406704,
                    0.013666249811649323,
                    -0.029864894226193428,
                    -0.025291452184319496
                ],
                [
                    0.13322770595550537,
                    0.1437874138355255,
                    0.11297775059938431,
                    0.10763672739267349,
                    0.10199327766895294
                ]
            ],
            [
                [
                    -0.0052046505734324455,
                    -0.03919792175292969,
                    -0.04930547624826431,
                    -0.09693984687328339,
                    -0.10845441371202469
                ],
                [
                    -0.012056318111717701,
                    -0.04333660751581192,
                    -0.09186754375696182,
                    -0.045769039541482925,
                    -0.007110867649316788
                ],
                [
                    -0.017485272139310837,
                    0.04500773921608925,
                    -0.04647821560502052,
                    -0.04504053667187691,
                    -0.028364520519971848
                ],
                [
                    -0.05883129686117172,
                    0.006371348164975643,
                    -0.021628467366099358,
                    -0.019919604063034058,
                    -0.016247572377324104
                ],
                [
                    -0.03268866613507271,
                    -0.009084620513021946,
                    0.0046533546410501,
                    0.006398252211511135,
                    -0.007801069878041744
                ]
            ],
            [
                [
                    -0.016472363844513893,
                    -0.0078023443929851055,
                    -0.043730635195970535,
                    -0.12708702683448792,
                    -0.05545350909233093
                ],
                [
                    -0.009153485298156738,
                    0.01325176004320383,
                    -0.027576293796300888,
                    -0.003538343124091625,
                    0.0005064935539849102
                ],
                [
                    0.029669297859072685,
                    0.059066686779260635,
                    0.01116093061864376,
                    -0.0194543544203043,
                    0.023173494264483452
                ],
                [
                    -0.010374519973993301,
                    -0.0010827475925907493,
                    0.03171508014202118,
                    0.0029416780453175306,
                    -0.0164768248796463
                ],
                [
                    0.009323331527411938,
                    0.07304065674543381,
                    0.08196114003658295,
                    0.12802277505397797,
                    0.06913098692893982
                ]
            ],
            [
                [
                    -0.04280709847807884,
                    -0.02092345617711544,
                    -0.021193763241171837,
                    -0.04514596611261368,
                    -0.055487338453531265
                ],
                [
                    0.025168728083372116,
                    -0.019355280324816704,
                    0.028478140011429787,
                    -0.04248082637786865,
                    0.023065235465765
                ],
                [
                    0.019687071442604065,
                    0.053163494914770126,
                    0.04269859567284584,
                    0.03107449971139431,
                    0.031358685344457626
                ],
                [
                    -0.03054242581129074,
                    0.043418191373348236,
                    0.00048498896649107337,
                    0.09646257013082504,
                    0.05175071582198143
                ],
                [
                    0.06886588782072067,
                    0.10458444803953171,
                    0.09266474843025208,
                    0.10436762124300003,
                    0.0950416848063469
                ]
            ]
        ],
        [
            [
                [
                    -0.05568554252386093,
                    -0.0165061354637146,
                    -0.01848989725112915,
                    0.02918962389230728,
                    -0.01703464426100254
                ],
                [
                    -0.048743754625320435,
                    -0.08642108738422394,
                    0.008262836374342442,
                    -0.04352465644478798,
                    0.002745943609625101
                ],
                [
                    -0.1310528665781021,
                    -0.02741512842476368,
                    0.018404364585876465,
                    0.02531185746192932,
                    -0.03456573560833931
                ],
                [
                    -0.02218628115952015,
                    0.029247049242258072,
                    0.02295299991965294,
                    0.012209730222821236,
                    0.044636256992816925
                ],
                [
                    0.028581103309988976,
                    0.023190824314951897,
                    0.018032284453511238,
                    0.0274489875882864,
                    0.060126226395368576
                ]
            ],
            [
                [
                    0.0635964646935463,
                    0.008977752178907394,
                    0.016898205503821373,
                    -0.00848883856087923,
                    0.01852407678961754
                ],
                [
                    -0.039708785712718964,
                    -0.0070678312331438065,
                    -0.03240467235445976,
                    -0.02004600130021572,
                    -0.06214447319507599
                ],
                [
                    -0.08210431784391403,
                    -0.053873054683208466,
                    0.02581392601132393,
                    0.045322515070438385,
                    0.05348486825823784
                ],
                [
                    0.01200174167752266,
                    0.01507954765111208,
                    0.06160786375403404,
                    0.04951697960495949,
                    0.020260203629732132
                ],
                [
                    0.046830955892801285,
                    0.04701390489935875,
                    0.06666111201047897,
                    0.017683085054159164,
                    0.07697094231843948
                ]
            ],
            [
                [
                    -0.0018439337145537138,
                    0.0227216687053442,
                    0.03855159878730774,
                    -0.002797025255858898,
                    0.04862603172659874
                ],
                [
                    0.05117325857281685,
                    0.07628779113292694,
                    0.12419167160987854,
                    0.12644995748996735,
                    0.05595346540212631
                ],
                [
                    0.05069201439619064,
                    0.05209769681096077,
                    0.06486576050519943,
                    0.04503205791115761,
                    0.002640326740220189
                ],
                [
                    -0.020352913066744804,
                    0.0200336966663599,
                    -0.016491640359163284,
                    0.005747231189161539,
                    0.023204412311315536
                ],
                [
                    0.00047166459262371063,
                    0.03913471847772598,
                    -0.023462286219000816,
                    0.0306339543312788,
                    -0.022061482071876526
                ]
            ],
            [
                [
                    0.0635596364736557,
                    -0.017986347898840904,
                    0.058932941406965256,
                    0.03541645407676697,
                    0.05823969841003418
                ],
                [
                    0.029377738013863564,
                    0.04375346004962921,
                    0.06135743483901024,
                    0.01935703679919243,
                    0.007812101393938065
                ],
                [
                    0.03545466810464859,
                    0.03076818771660328,
                    0.02190963737666607,
                    -0.016278287395834923,
                    -0.06720098853111267
                ],
                [
                    0.0009273915202356875,
                    -0.06517090648412704,
                    -0.08125929534435272,
                    -0.09589923173189163,
                    -0.10063759237527847
                ],
                [
                    -0.03864312171936035,
                    -0.07999569177627563,
                    -0.09475628286600113,
                    -0.16361775994300842,
                    -0.12736943364143372
                ]
            ],
            [
                [
                    0.05154068022966385,
                    0.08139700442552567,
                    0.030141182243824005,
                    0.031115006655454636,
                    0.002872014883905649
                ],
                [
                    0.14304159581661224,
                    0.12822555005550385,
                    0.07060358673334122,
                    0.07268604636192322,
                    0.047050826251506805
                ],
                [
                    0.12919142842292786,
                    0.15313449501991272,
                    0.020887523889541626,
                    0.01499576959758997,
                    0.0034579432103782892
                ],
                [
                    -0.011615724302828312,
                    0.018594052642583847,
                    -0.026718609035015106,
                    -0.0077501763589680195,
                    -0.023046305403113365
                ],
                [
                    -0.0157173965126276,
                    -0.016304509714245796,
                    -0.00805775448679924,
                    -0.039105795323848724,
                    -0.06664065271615982
                ]
            ],
            [
                [
                    -0.034488745033741,
                    0.04096800088882446,
                    0.05246579647064209,
                    0.04754120111465454,
                    -0.025428306311368942
                ],
                [
                    0.07292236387729645,
                    0.11132637411355972,
                    0.1042625680565834,
                    0.07629180699586868,
                    0.053036727011203766
                ],
                [
                    0.10586806386709213,
                    0.06417007744312286,
                    0.05402896925806999,
                    0.04840895161032677,
                    0.006781697738915682
                ],
                [
                    0.035240575671195984,
                    -0.037969429045915604,
                    -0.044577859342098236,
                    -0.047225698828697205,
                    -0.02295883558690548
                ],
                [
                    -0.03345014154911041,
                    -0.013939804397523403,
                    -0.04266023635864258,
                    -0.07877053320407867,
                    -0.04338628426194191
                ]
            ]
        ],
        [
            [
                [
                    -0.019307192414999008,
                    0.01251347828656435,
                    0.03862084448337555,
                    -0.007782463915646076,
                    0.03987491875886917
                ],
                [
                    0.03572952002286911,
                    -0.02850579470396042,
                    -0.00409409636631608,
                    0.03383173421025276,
                    0.012009373866021633
                ],
                [
                    0.003130529774352908,
                    0.042112596333026886,
                    0.06211000680923462,
                    0.028330769389867783,
                    -0.008316471241414547
                ],
                [
                    -0.053519587963819504,
                    -0.004918508231639862,
                    -0.010016107931733131,
                    0.019794167950749397,
                    0.008329128846526146
