{
    "conv1.bias": [
        0.07241357862949371,
        -0.027128757908940315,
        0.07326124608516693,
        0.08341344445943832,
        -0.05335238575935364,
        0.0432281419634819
    ],
    "conv1.weight": [
        [
            [
                [
                    0.04407890886068344,
                    0.06379132717847824,
                    0.09441486746072769,
                    0.045904725790023804,
                    0.018416665494441986
                ],
                [
                    -0.008888713084161282,
                    -0.01969025284051895,
                    -0.01603940688073635,
                    -0.05253257602453232,
                    0.01089646015316248
                ],
                [
                    -0.041999250650405884,
                    -0.055598072707653046,
                    -0.09363692253828049,
                    -0.08289112150669098,
                    -0.05244164541363716
                ],
                [
                    0.0010384235065430403,
                    -0.09121423959732056,
                    -0.013853451237082481,
                    -0.030965857207775116,
                    -0.11241673678159714
                ],
                [
                    -0.05657096579670906,
                    0.01732022687792778,
                    -0.03126304969191551,
                    -0.05773140490055084,
                    -0.07048992812633514
                ]
            ],
            [
                [
                    -0.014504075981676579,
                    0.04571764916181564,
                    0.07898109406232834,
                    -0.01970316283404827,
                    -0.007576305419206619
                ],
                [
                    0.03932679444551468,
                    0.007521829567849636,
                    -0.0027396848890930414,
                    0.055151890963315964,
                    -0.024137722328305244
                ],
                [
                    0.04775591194629669,
                    -0.006394622381776571,
                    -0.00009754293569130823,
                    -0.039947450160980225,
                    -0.05923197790980339
                ],
                [
                    -0.016529032960534096,
                    0.07375721633434296,
                    0.007872813381254673,
                    0.021243274211883545,
                    -0.08384110033512115
                ],
                [
                    0.039403285831213,
                    -0.027780089527368546,
                    -0.04859551787376404,
                    -0.05365218594670296,
                    -0.05083509907126427
                ]
            ],
            [
                [
                    0.15528912842273712,
                    0.09668201208114624,
                    0.12146762013435364,
                    0.1175779178738594,
                    0.04048215597867966
                ],
                [
                    0.09967643767595291,
                    0.15719996392726898,
                    0.1437111347913742,
                    0.07472559064626694,
                    0.029150981456041336
                ],
                [
                    0.1082381159067154,
                    0.07763414084911346,
                    0.08812525123357773,
                    0.047866884618997574,
                    0.0018048094352707267
                ],
                [
                    0.10686812549829483,
                    0.1490621417760849,
                    0.11051638424396515,
                    0.03669700026512146,
                    0.018558287993073463
                ],
                [
                    0.07618454843759537,
                    0.07900448143482208,
                    0.0887758880853653,
                    0.02209417149424553,
                    0.08873787522315979
                ]
            ]
        ],
        [
            [
                [
                    0.11211568862199783,
                    0.14706280827522278,
                    0.11881782114505768,
                    0.13113448023796082,
                    0.0823649913072586
                ],
                [
                    0.1172204241156578,
                    0.0689842477440834,
                    0.17434236407279968,
                    0.11424551904201508,
                    0.12450607866048813
                ],
                [
                    0.010864106938242912,
                    0.027837827801704407,
                    0.08367547392845154,
                    0.005929111503064632,
                    -0.015224344097077847
                ],
                [
                    0.006867717951536179,
                    -0.010711945593357086,
                    -0.044169746339321136,
                    -0.017649559304118156,
                    -0.0664161816239357
                ],
                [
                    -0.08242405205965042,
                    -0.12037487328052521,
                    -0.14040084183216095,
                    -0.057912103831768036,
                    -0.05248714238405228
                ]
            ],
            [
                [
                    0.021824965253472328,
                    0.05636607110500336,
                    0.017943816259503365,
                    0.047485481947660446,
                    0.004171376116573811
                ],
                [
                    0.04041264206171036,
                    0.03173843398690224,
                    -0.001017034868709743,
                    -0.0035162202548235655,
                    -0.027038682252168655
                ],
                [
                    -0.014395260252058506,
                    -0.010375113226473331,
                    -0.058767009526491165,
                    -0.07030536234378815,
                    -0.06026681140065193
                ],
                [
                    -0.0899643748998642,
                    -0.02263195440173149,
                    -0.0003655806358437985,
                    -0.06719384342432022,
                    -0.13677802681922913
                ],
                [
                    -0.116432324051857,
                    -0.05976422131061554,
                    -0.08329945057630539,
                    -0.07968876510858536,
                    -0.17277392745018005
                ]
            ],
            [
                [
                    0.011492578312754631,
                    0.06379842013120651,
                    0.030236879363656044,
                    0.04561057314276695,
                    0.03040790744125843
                ],
                [
                    0.06896369159221649,
                    0.057103320956230164,
                    0.0472353994846344,
                    0.05097756162285805,
                    -0.027469968423247337
                ],
                [
                    0.03742710500955582,
                    -0.06617004424333572,
                    -0.027454562485218048,
                    0.013516557402908802,
                    0.0006142380880191922
                ],
                [
                    -0.04596314951777458,
                    -0.002746561309322715,
                    -0.02688729576766491,
                    0.010542299598455429,
                    -0.0075089698657393456
                ],
                [
                    0.00004247197648510337,
                    -0.043854519724845886,
                    -0.010890364646911621,
                    -0.08323274552822113,
                    -0.010785005055367947
                ]
            ]
        ],
        [
            [
                [
                    0.0046964604407548904,
                    -0.004836782347410917,
                    -0.07182235270738602,
                    0.0222616083920002,
                    -0.031194321811199188
                ],
                [
                    -0.051525041460990906,
                    -0.055835507810115814,
                    -0.10801772028207779,
                    -0.049028605222702026,
                    -0.08229780942201614
                ],
                [
                    -0.15119299292564392,
                    -0.0576828196644783,
                    -0.06433451920747757,
                    -0.08610450476408005,
                    -0.11427302658557892
                ],
                [
                    -0.09779041260480881,
                    -0.07915858179330826,
                    -0.051675885915756226,
                    -0.06114986911416054,
                    0.01990213803946972
                ],
                [
                    0.043884895741939545,
                    0.046523865312337875,
                    -0.00484976964071393,
                    -0.013990803621709347,
                    -0.008206400088965893
                ]
            ],
            [
                [
                    0.026313798502087593,
                    0.014038828201591969,
                    0.07928866147994995,
                    0.03076115809381008,
                    0.04468915984034538
                ],
                [
                    0.02345823124051094,
                    -0.01568635366857052,
                    0.016309713944792747,
                    -0.04271567985415459,
                    -0.041205424815416336
                ],
                [
                    0.0027085018809884787,
                    -0.046565886586904526,
                    -0.06829661130905151,
                    -0.005635009612888098,
                    -0.03126111626625061
                ],
                [
                    0.00460911076515913,
                    -0.0021644725929945707,
                    -0.017619799822568893,
                    0.008327582851052284,
                    -0.0011659904848784208
                ],
                [
                    0.0724334791302681,
                    0.05990840494632721,
                    0.06362121552228928,
                    0.1662580519914627,
                    0.07157190889120102
                ]
            ],
            [
                [
                    0.014891319908201694,
                    0.046006809920072556,
                    0.1307784914970398,
                    0.08316846936941147,
                    0.012482613325119019
                ],
                [
                    0.00011742980859708041,
                    0.06117778271436691,
                    0.04950566217303276,
                    0.07730504125356674,
                    0.0552077479660511
                ],
                [
                    -0.0002237386943306774,
                    0.080875463783741,
                    -0.07994581758975983,
                    -0.055860720574855804,
                    -0.05026588961482048
                ],
                [
                    0.024923739954829216,
                    0.026648426428437233,
                    0.057147230952978134,
                    0.007676704786717892,
                    -0.00002718813448154833
                ],
                [
                    0.07103326171636581,
                    0.013080189004540443,
                    0.08049716055393219,
                    0.04107571393251419,
                    0.09772011637687683
                ]
            ]
        ],
        [
            [
                [
                    -0.05850393325090408,
                    -0.02176399901509285,
                    0.022663166746497154,
                    0.002775968983769417,
                    0.03535877913236618
                ],
                [
                    -0.07539405673742294,
                    -0.0399911105632782,
                    -0.04500776529312134,
                    0.10053052008152008,
                    0.03571828827261925
                ],
                [
                    -0.05637248605489731,
                    -0.09632205218076706,
                    0.000014782371181354392,
                    0.10389500111341476,
                    0.06192382425069809
                ],
                [
                    -0.04336399585008621,
                    -0.05686306208372116,
                    -0.004919630941003561,
                    0.07648728042840958,
                    0.032800380140542984
                ],
                [
                    -0.1080813780426979,
                    0.01539359800517559,
                    -0.010382176376879215,
                    0.017387697473168373,
                    0.0368734672665596
                ]
            ],
            [
                [
                    -0.046351369470357895,
                    0.005739831365644932,
                    0.06692631542682648,
                    0.014043747447431087,
                    0.05395941808819771
                ],
                [
                    -0.041398756206035614,
                    -0.016234340146183968,
                    0.0760837122797966,
                    0.08084143698215485,
                    0.05660824477672577
                ],
                [
                    -0.044364359229803085,
                    -0.10302943736314774,
                    0.08770564943552017,
                    0.13703122735023499,
                    0.06568305939435959
                ],
                [
                    -0.04656074568629265,
                    -0.042800553143024445,
                    0.06511206179857254,
                    0.1592826098203659,
                    0.052009567618370056
                ],
                [
                    -0.029713913798332214,
                    0.013952351175248623,
                    0.05885705724358559,
                    0.07985328882932663,
                    0.07258622348308563
                ]
            ],
            [
                [
                    -0.062088724225759506,
                    -0.06515876948833466,
                    -0.03391525149345398,
                    0.040459055453538895,
                    -0.006331271026283503
                ],
                [
                    -0.05219734460115433,
                    -0.05489768832921982,
                    -0.00442521832883358,
                    0.022819312289357185,
                    0.03187023103237152
                ],
                [
                    -0.04286963492631912,
                    -0.0867825448513031,
                    -0.03177037090063095,
                    0.03435796871781349,
                    -0.011238576844334602
                ],
                [
                    -0.005419247318059206,
                    -0.06028414145112038,
                    -0.06967315077781677,
                    0.015072261914610863,
                    0.060472749173641205
                ],
                [
                    -0.07789748162031174,
                    -0.005316147580742836,
                    0.0336211659014225,
                    -0.04055803269147873,
                    -0.06205061823129654
                ]
            ]
        ],
        [
            [
                [
                    -0.01834833435714245,
                    0.032120414078235626,
                    0.043812345713377,
                    0.05229293555021286,
                    0.1112060546875
                ],
                [
                    -0.041192926466464996,
                    0.006236000917851925,
                    -0.055145081132650375,
                    -0.02872232347726822,
                    0.08953537791967392
                ],
                [
                    -0.031092042103409767,
                    -0.12766973674297333,
                    -0.07327638566493988,
                    -0.045073844492435455,
                    0.06132503226399422
                ],
                [
                    -0.06581276655197144,
                    -0.06214988976716995,
                    -0.03353755548596382,
                    -0.042420536279678345,
                    0.047220587730407715
                ],
                [
                    0.00791940651834011,
                    0.052973292768001556,
                    0.005873396992683411,
                    0.05236004665493965,
                    0.029065638780593872
                ]
            ],
            [
                [
                    -0.014333219267427921,
                    -0.07363556325435638,
                    -0.03310440480709076,
                    0.019037261605262756,
                    0.06313712894916534
                ],
                [
                    -0.0685381218791008,
                    -0.13550123572349548,
                    -0.09455880522727966,
                    -0.08363007009029388,
                    -0.01384294219315052
                ],
                [
                    -0.09737439453601837,
                    -0.10721556842327118,
                    -0.033099327236413956,
                    -0.047446928918361664,
                    -0.05059905722737312
                ],
                [
                    -0.019814791157841682,
                    -0.035727936774492264,
                    -0.05435739457607269,
                    -0.039535220712423325,
                    -0.03319968283176422
                ],
                [
                    0.02127990871667862,
                    0.041556306183338165,
                    0.018108800053596497,
                    0.030717015266418457,
                    0.060970380902290344
                ]
            ],
            [
                [
                    0.016671428456902504,
                    -0.014981145970523357,
                    0.08633419871330261,
                    0.01240941695868969,
                    0.034304212778806686
                ],
                [
                    -0.0069157336838543415,
                    -0.02507840283215046,
                    -0.01467240508645773,
                    0.03419557958841324,
                    -0.017115237191319466
                ],
                [
                    -0.08858438581228256,
                    -0.10021895915269852,
                    -0.001897112000733614,
                    -0.05000404641032219,
                    0.07127812504768372
                ],
                [
                    -0.004818795248866081,
                    0.0357392281293869,
                    -0.01786557026207447,
                    0.016156701371073723,
                    0.06964604556560516
                ],
                [
                    0.05220097303390503,
                    0.08232249319553375,
                    0.07564709335565567,
                    0.07720280438661575,
                    0.10417984426021576
                ]
            ]
        ],
        [
            [
                [
                    0.0990743339061737,
                    0.009181858971714973,
                    -0.03515639528632164,
                    -0.0648178905248642,
                    -0.04213928058743477
                ],
                [
                    -0.025836000218987465,
                    -0.040128640830516815,
                    -0.08738087862730026,
                    -0.08752764761447906,
                    -0.07874167710542679
                ],
                [
                    0.005196499638259411,
                    0.002076698001474142,
                    -0.07694445550441742,
                    -0.09759427607059479,
                    -0.09382117539644241
                ],
                [
                    0.025878215208649635,
                    -0.02506403811275959,
                    0.04673079773783684,
                    0.03564535081386566,
                    0.027583712711930275
                ],
                [
                    -0.04064330831170082,
                    0.0073630474507808685,
                    0.04214446246623993,
                    0.0532933808863163,
                    0.07136441767215729
                ]
            ],
            [
                [
                    -0.04690178111195564,
                    -0.1095317006111145,
                    -0.08726513385772705,
                    -0.08622154593467712,
                    -0.08558282256126404
                ],
                [
                    -0.04690602421760559,
                    -0.08106929063796997,
                    -0.042446576058864594,
                    -0.11605750769376755,
                    -0.1315980702638626
                ],
                [
                    0.026735587045550346,
                    -0.06822214275598526,
                    0.025784818455576897,
                    -0.05262252688407898,
                    -0.06708316504955292
                ],
                [
                    0.04369138181209564,
                    -0.0357191264629364,
                    0.06165463104844093,
                    -0.013990228064358234,
                    0.050377197563648224
                ],
                [
                    0.06220114603638649,
                    0.07432223111391068,
                    0.06339997798204422,
                    0.051730189472436905,
                    0.08100108802318573
                ]
            ],
            [
                [
                    -0.043734826147556305,
                    -0.04245360195636749,
                    -0.0965808555483818,
                    -0.03798551857471466,
                    -0.019372111186385155
                ],
                [
                    -0.004094777628779411,
                    -0.1372378021478653,
                    -0.0974755808711052,
                    -0.028126120567321777,
                    -0.019291067495942116
                ],
                [
                    -0.02503632940351963,
                    -0.027579979971051216,
                    -0.059391286224126816,
                    -0.1061093658208847,
                    0.031222309917211533
                ],
                [
                    0.10745806992053986,
                    0.004347220063209534,
                    0.03862791135907173,
                    0.028259241953492165,
                    -0.02129509299993515
                ],
                [
                    0.10848788172006607,
                    0.02096049301326275,
                    0.07633323967456818,
                    0.003500851569697261,
                    0.08806415647268295
                ]
            ]
        ]
    ],
    "conv2.bias": [
        0.11979478597640991,
        0.1399260312318802,
        0.006786497309803963,
        0.03650594875216484,
        -0.08388575911521912,
        0.1272459179162979,
        -0.025625906884670258,
        0.0880446657538414,
        -0.09018795192241669,
        -0.019061045721173286,
        -0.08765366673469543,
        -0.12801752984523773,
        -0.02901436947286129,
        -0.11636287719011307,
        0.08041641116142273,
        -0.01978778839111328
    ],
    "conv2.weight": [
        [
            [
                [
                    0.037947483360767365,
                    0.07372650504112244,
                    0.05276695638895035,
                    0.04564632847905159,
                    0.0833699181675911
                ],
                [
                    0.028096016496419907,
                    0.038486793637275696,
                    0.008008025586605072,
                    0.0425105020403862,
                    0.06939330697059631
                ],
                [
                    -0.013156362809240818,
                    0.057656049728393555,
                    0.044931553304195404,
                    0.021989673376083374,
                    0.09003334492444992
                ],
                [
                    0.057774849236011505,
                    0.09216193109750748,
                    0.07264336943626404,
                    0.09514317661523819,
                    0.07432983070611954
                ],
                [
                    0.10365112870931625,
                    0.11849763989448547,
                    0.06004041060805321,
                    0.10008440166711807,
                    0.13645993173122406
                ]
            ],
            [
                [
                    0.023495245724916458,
                    -0.0027455270756036043,
                    -0.005715951323509216,
                    0.00837080366909504,
                    0.02079162932932377
                ],
                [
                    -0.007837370969355106,
                    -0.02750103734433651,
                    -0.05655970796942711,
                    -0.061810605227947235,
                    0.000667793967295438
                ],
                [
                    0.0080760158598423,
                    -0.003768767463043332,
                    -0.028519513085484505,
                    -0.009756972081959248,
                    -0.025614231824874878
                ],
                [
                    0.0006229791906662285,
                    0.025452658534049988,
                    0.059750158339738846,
                    0.009641474112868309,
                    0.07183894515037537
                ],
                [
                    0.0026513126213103533,
                    0.015049121342599392,
                    0.07780762761831284,
                    0.0012797046219930053,
                    0.012738854624330997
                ]
            ],
            [
                [
                    0.03066292591392994,
                    0.0920594334602356,
                    0.07530707120895386,
                    0.017942387610673904,
                    0.051912855356931686
                ],
                [
                    0.05716748163104057,
                    0.055991414934396744,
                    0.06373168528079987,
                    0.05222173035144806,
                    0.010290903970599174
                ],
                [
                    0.015058186836540699,
                    0.02630750648677349,
                    0.01255474891513586,
                    0.022341039031744003,
                    0.046474359929561615
                ],
                [
                    0.011628198437392712,
                    -0.019461866468191147,
                    -0.027509532868862152,
                    -0.02435612864792347,
                    0.019761402159929276
                ],
                [
                    -0.009225058369338512,
                    0.013351354748010635,
                    -0.014059317298233509,
                    -0.020349709317088127,
                    0.02838350459933281
                ]
            ],
            [
                [
                    0.008886601775884628,
                    0.031410228461027145,
                    0.06321535259485245,
                    0.08297339826822281,
                    0.030547672882676125
                ],
                [
                    -0.018450094386935234,
                    0.015039099380373955,
                    -0.028996802866458893,
                    0.01035975106060505,
                    0.007358561735600233
                ],
                [
                    0.004515663720667362,
                    -0.022686926648020744,
                    -0.01820005662739277,
                    -0.04702487587928772,
                    -0.05079006403684616
                ],
                [
                    -0.012232684530317783,
                    -0.011316522024571896,
                    -0.061178043484687805,
                    -0.07900948077440262,
                    -0.06581394374370575
                ],
                [
                    -0.039236996322870255,
                    -0.03196067363023758,
                    -0.030475035309791565,
                    -0.0641229897737503,
                    -0.07681144028902054
                ]
            ],
            [
                [
                    0.053059909492731094,
                    0.016328731551766396,
                    0.026478450745344162,
                    0.10555766522884369,
                    0.02101239562034607
                ],
                [
                    0.05063459277153015,
                    0.07075715065002441,
                    0.07799503952264786,
                    0.0706745907664299,
                    0.048975564539432526
                ],
                [
                    0.07070042937994003,
                    0.0033350063022226095,
                    0.011282915249466896,
                    -0.014817344956099987,
                    0.0152469202876091
                ],
                [
                    0.022375857457518578,
                    -0.0014878285583108664,
                    -0.050178494304418564,
                    -0.01351001113653183,
                    -0.04264373704791069
                ],
                [
                    -0.0036686225794255733,
                    -0.007518272381275892,
                    -0.05537489801645279,
                    -0.03531012311577797,
                    -0.08294972777366638
                ]
            ],
            [
                [
                    -0.024424180388450623,
                    -0.05838155373930931,
                    -0.021396946161985397,
                    0.015846015885472298,
                    -0.03213443234562874
                ],
                [
                    0.004182214383035898,
                    0.049007561057806015,
                    -0.04972592368721962,
                    -0.014022774063050747,
                    -0.004770772065967321
                ],
                [
                    0.0021710158325731754,
                    0.004282727371901274,
                    0.017181051895022392,
                    -0.0011034127091988921,
                    0.03402573615312576
                ],
                [
                    -0.005065356381237507,
                    -0.03516333922743797,
                    -0.07084344327449799,
                    -0.04596690461039543,
                    -0.03596500679850578
                ],
                [
                    -0.011011330410838127,
                    -0.027809331193566322,
                    -0.020211346447467804,
                    -0.034391142427921295,
                    -0.05542723089456558
                ]
            ]
        ],
        [
            [
                [
                    -0.05275840684771538,
                    -0.008829970844089985,
                    0.019230812788009644,
                    -0.026288367807865143,
                    -0.039969369769096375
                ],
                [
                    -0.029321234673261642,
                    -0.01606948859989643,
                    -0.02596033737063408,
                    0.019139118492603302,
                    0.07957842200994492
                ],
                [
                    -0.009743737056851387,
                    -0.06906202435493469,
                    0.021635744720697403,
                    0.017565608024597168,
                    0.054022882133722305
                ],
                [
                    0.001151700154878199,
                    0.00997686106711626,
                    0.011849578469991684,
                    0.005243455059826374,
                    0.056444790214300156
                ],
                [
                    0.017461875453591347,
                    0.02909059450030327,
                    0.0013608051231130958,
                    0.013404293917119503,
                    -0.03181808441877365
                ]
            ],
            [
                [
                    0.030577052384614944,
                    0.026220625266432762,
                    0.01795048452913761,
                    0.004650680348277092,
                    -0.0028196247294545174
                ],
                [
                    -0.014659315347671509,
                    0.019901856780052185,
                    0.01198495365679264,
                    -0.01648067496716976,
                    -0.004187443293631077
                ],
                [
                    -0.00738238962367177,
                    0.02174661122262478,
                    0.00809063296765089,
                    -0.02561676874756813,
                    0.02522859163582325
                ],
                [
                    0.01500026322901249,
                    -0.07927731424570084,
                    -0.024178525432944298,
                    0.009098554961383343,
                    0.014109302312135696
                ],
                [
                    -0.09002764523029327,
                    -0.01922905445098877,
                    -0.04342857003211975,
                    0.022655554115772247,
                    0.00992550328373909
                ]
            ],
            [
                [
                    -0.1417548507452011,
                    -0.15593810379505157,
                    -0.07562645524740219,
                    -0.11649981141090393,
                    -0.0451192669570446
                ],
                [
                    -0.11881380528211594,
                    -0.17796848714351654,
                    -0.11608865857124329,
                    -0.06435824185609818,
                    -0.013522069901227951
                ],
                [
                    -0.10399499535560608,
                    -0.14211763441562653,
                    -0.10638616234064102,
                    -0.018980277702212334,
                    -0.07497795671224594
                ],
                [
                    -0.04311162978410721,
                    -0.14599353075027466,
                    -0.13292813301086426,
                    -0.029216380789875984,
                    -0.018365528434515
                ],
                [
                    -0.08498890697956085,
                    -0.11226402223110199,
                    -0.09732332080602646,
                    -0.08277349919080734,
                    -0.09522300958633423
                ]
            ],
            [
                [
                    -0.006542884279042482,
                    0.04578692466020584,
                    0.05560954660177231,
                    0.01223000418394804,
                    0.008385345339775085
                ],
                [
                    -0.04161582887172699,
                    0.06564895808696747,
                    0.0832044929265976,
                    0.02221018448472023,
                    0.0315718874335289
                ],
                [
                    -0.0016630677273496985,
                    0.02823203057050705,
                    0.023036589846014977,
                    0.03137708082795143,
                    0.04308956861495972
                ],
                [
                    0.0875667929649353,
                    0.06644774973392487,
                    -0.011872307397425175,
                    0.008439471945166588,
                    0.065386563539505
                ],
                [
                    0.10394488275051117,
                    0.10719139873981476,
                    0.008903761394321918,
                    0.03645436465740204,
                    0.016903936862945557
                ]
            ],
            [
                [
                    -0.03877238929271698,
                    0.007449228782206774,
                    0.04828639701008797,
                    -0.025005551055073738,
                    -0.04244149848818779
                ],
                [
                    -0.04009613022208214,
                    -0.037343598902225494,
                    -0.018275367096066475,
                    0.051300764083862305,
                    -0.013338511809706688
                ],
                [
                    -0.034096214920282364,
                    0.012773074209690094,
                    -0.029296940192580223,
                    -0.01966293901205063,
                    -0.004333962686359882
                ],
                [
                    -0.015556895174086094,
                    -0.0018212387803941965,
                    -0.021849816665053368,
                    -0.015397214330732822,
                    -0.0021586930379271507
                ],
                [
                    0.07084237039089203,
                    0.05081804841756821,
                    -0.019805166870355606,
                    0.007880904711782932,
                    -0.03476165607571602
                ]
            ],
            [
                [
                    -0.009967569261789322,
                    0.0169964749366045,
                    0.0714101642370224,
                    0.0745558813214302,
                    0.0626789778470993
                ],
                [
                    -0.046183615922927856,
                    0.04738328978419304,
                    0.025556322187185287,
                    0.03411656245589256,
                    0.0009068535873666406
                ],
                [
                    0.006939857266843319,
                    -0.0025349692441523075,
                    0.05750878155231476,
                    -0.02831621654331684,
                    0.009279005229473114
                ],
                [
                    0.025302773341536522,
                    0.004818818066269159,
                    -0.0002783251111395657,
                    0.004848039243370295,
                    0.007232776843011379
                ],
                [
                    -0.0021276508923619986,
                    -0.047202207148075104,
                    -0.04200809821486473,
                    0.004637708887457848,
                    0.04184749722480774
                ]
            ]
        ],
        [
            [
                [
                    -0.005886504892259836,
                    -0.0037747095339000225,
                    -0.05167410150170326,
                    -0.087215855717659,
                    -0.10043328255414963
                ],
                [
                    0.015695767477154732,
                    0.017922760918736458,
                    -0.01958327740430832,
                    -0.07907955348491669,
                    -0.07605180144309998
                ],
                [
                    -0.004460756201297045,
                    -0.02543262392282486,
                    -0.018579179421067238,
                    -0.026760462671518326,
                    -0.09158841520547867
                ],
                [
                    0.0653415098786354,
                    0.032800253480672836,
                    0.03737897798418999,
                    0.02495553344488144,
                    0.006149867549538612
                ],
                [
                    0.03077533096075058,
                    -0.03172312304377556,
                    0.05353213846683502,
                    0.03072504699230194,
                    0.010685608722269535
                ]
            ],
            [
                [
                    0.027086935937404633,
                    0.027838900685310364,
                    0.06611737608909607,
                    0.033594850450754166,
                    0.008781877346336842
                ],
                [
                    0.05217884108424187,
                    0.04865456372499466,
                    0.08374505490064621,
                    0.015407663770020008,
                    0.05514999106526375
                ],
                [
                    -0.024645132943987846,
                    -0.014727472327649593,
                    0.004760880023241043,
                    0.004624870140105486,
                    -0.02528296411037445
                ],
                [
                    -0.0715961679816246,
                    -0.08051984012126923,
                    -0.059248507022857666,
                    -0.0000961009573074989,
                    -0.03537337854504585
                ],
                [
                    -0.06085413321852684,
                    -0.09103871136903763,
                    -0.041729383170604706,
                    -0.0323527529835701,
                    0.03886733949184418
                ]
            ],
            [
                [
                    0.04126090556383133,
                    0.014161973260343075,
                    -0.04617311432957649,
                    -0.08232535421848297,
                    -0.024563012644648552
                ],
                [
                    0.008405002765357494,
                    0.010515506379306316,
                    0.010470698587596416,
                    0.004991055931895971,
                    -0.027132321149110794
                ],
                [
                    0.03525605797767639,
                    -0.005889001302421093,
                    0.04913485050201416,
                    -0.045004718005657196,
                    0.008406410925090313
                ],
                [
                    0.02532743103802204,
                    0.01361530739814043,
                    -0.05229118466377258,
                    -0.059087928384542465,
                    -0.051073040813207626
                ],
                [
                    -0.005280673038214445,
                    0.008223277516663074,
                    -0.04740464687347412,
                    -0.0562279038131237,
                    -0.11548122763633728
                ]
            ],
            [
                [
                    0.0988939180970192,
                    0.07630018889904022,
                    -0.011794454418122768,
                    0.03708811104297638,
                    0.02593432180583477
                ],
                [
                    0.09398286789655685,
                    0.09403321146965027,
                    -0.007540377322584391,
                    0.05406548082828522,
                    0.030041925609111786
                ],
                [
                    0.0711987242102623,
                    0.1213616132736206,
                    0.031215736642479897,
                    0.03258092701435089,
                    0.08939540386199951
                ],
                [
                    0.08026330173015594,
                    0.08385482430458069,
                    -0.02506273053586483,
                    -0.02219236083328724,
                    0.03137828782200813
                ],
                [
                    0.036717627197504044,
                    0.027273429557681084,
                    -0.012328927405178547,
                    -0.01631859876215458,
                    -0.006806489080190659
                ]
            ],
            [
                [
                    0.09281591325998306,
                    0.05083675682544708,
                    0.02779287099838257,
                    0.021120112389326096,
                    0.013905421830713749
                ],
                [
                    0.06890687346458435,
                    0.01951613277196884,
                    0.000742773583624512,
                    0.02120613306760788,
                    0.018296748399734497
                ],
                [
                    0.004284463822841644,
                    -0.028965217992663383,
                    -0.015919145196676254,
                    -0.038166217505931854,
                    0.006573396734893322
                ],
                [
                    -0.025401359423995018,
                    -0.001365063595585525,
                    -0.07457372546195984,
                    -0.018255574628710747,
                    -0.006910053547471762
                ],
                [
                    -0.08865512907505035,
                    -0.06945353001356125,
                    -0.09578357636928558,
                    -0.022567830979824066,
                    -0.01836966723203659
                ]
            ],
            [
                [
                    0.0651058480143547,
                    0.07863370329141617,
                    0.09897693991661072,
                    0.025378569960594177,
                    0.014969692565500736
                ],
                [
                    -0.015318424440920353,
                    0.05646069720387459,
                    0.0354352705180645,
                    0.014716544188559055,
                    -0.04799582436680794
                ],
                [
                    -0.001889717415906489,
                    -0.012109242379665375,
                    0.014100284315645695,
                    -0.012874087318778038,
                    0.03296400606632233
                ],
                [
                    -0.08856085687875748,
                    -0.09421167522668839,
                    -0.02869187667965889,
                    -0.02387157268822193,
                    -0.002015091245993972
                ],
                [
                    -0.06203644722700119,
                    -0.12164510786533356,
                    -0.06472138315439224,
                    -0.07168904691934586,
                    -0.06040925532579422
                ]
            ]
        ],
        [
            [
                [
                    -0.015444779768586159,
                    -0.012234564870595932,
                    0.002173492219299078,
                    -0.03451041504740715,
                    -0.05531425029039383
                ],
                [
                    -0.015501697547733784,
                    0.021519428119063377,
                    -0.055093392729759216,
                    0.02420402318239212,
                    -0.02841673605144024
                ],
                [
                    -0.05238088592886925,
                    -0.03555360436439514,
                    -0.030095888301730156,
                    0.008050144650042057,
                    -0.0208485946059227
                ],
                [
                    -0.037617865949869156,
                    -0.10788833349943161,
                    -0.05306065455079079,
                    -0.03827713802456856,
                    -0.06641023606061935
                ],
                [
                    -0.08099470287561417,
                    -0.03825819119811058,
                    -0.032335758209228516,
                    -0.11083179712295532,
                    -0.03270112723112106
                ]
            ],
            [
                [
                    -0.02201976254582405,
                    -0.016314778476953506,
                    -0.09464281797409058,
                    -0.07521507889032364,
                    -0.05011167749762535
                ],
                [
                    -0.018931103870272636,
                    -0.013769914396107197,
                    -0.004364976659417152,
                    0.019564319401979446,
                    0.002400963334366679
                ],
                [
                    -0.014877303503453732,
                    0.02112513780593872,
                    -0.034704603254795074,
                    0.045625023543834686,
                    0.03375862538814545
                ],
                [
                    -0.02867805026471615,
                    0.022515665739774704,
                    0.040221478790044785,
                    -0.021955182775855064,
                    -0.013685852289199829
                ],
                [
                    -0.031527187675237656,
                    -0.0007624034769833088,
                    0.02762477472424507,
                    -0.0032788882963359356,
                    -0.015251393429934978
                ]
            ],
            [
                [
                    -0.022893520072102547,
                    -0.06362927705049515,
                    0.02765502780675888,
                    -0.028031624853610992,
                    -0.019603939726948738
                ],
                [
                    -0.03942667692899704,
                    -0.051358599215745926,
                    0.0036621277686208487,
                    -0.05187303572893143,
                    0.024725817143917084
                ],
                [
                    -0.036025889217853546,
                    -0.0109008913859725,
                    0.0124729685485363,
                    0.021708203479647636,
                    -0.04917631298303604
                ],
                [
                    -0.0349254310131073,
                    -0.04856035113334656,
                    0.012446301989257336,
                    0.017927661538124084,
                    0.024653635919094086
                ],
                [
                    -0.02519388496875763,
                    -0.040306057780981064,
                    -0.002273106947541237,
                    -0.03772612661123276,
                    -0.011143799871206284
                ]
            ],
            [
                [
                    0.023629605770111084,
                    0.047121811658144,
                    0.02936365269124508,
                    0.027520079165697098,
                    0.0515458770096302
                ],
                [
                    0.06546618789434433,
                    0.0855722576379776,
                    0.08624205738306046,
                    0.07683068513870239,
                    0.06604018807411194
                ],
                [
                    0.11388497054576874,
                    0.08283255249261856,
                    0.0427754782140255,
                    -0.033152882009744644,
                    0.06936503201723099
                ],
                [
                    0.06264200061559677,
                    0.0015383942518383265,
                    0.04165622219443321,
                    0.0631018579006195,
                    0.08381278812885284
                ],
                [
                    0.10561852157115936,
                    0.06732185930013657,
                    0.08437909930944443,
                    0.04662084951996803,
                    0.07171115279197693
                ]
            ],
            [
                [
                    -0.04437452182173729,
                    -0.03794197365641594,
                    -0.062473759055137634,
                    -0.03497340530157089,
                    0.019320227205753326
                ],
                [
                    -0.06698346883058548,
                    -0.05493118241429329,
                    -0.07171552628278732,
                    -0.04951336234807968,
                    0.01607437990605831
                ],
                [
                    -0.02784196473658085,
                    -0.07582709938287735,
                    -0.1288590133190155,
                    -0.0708443820476532,
                    -0.014404483139514923
                ],
                [
                    -0.06450099498033524,
                    -0.17192736268043518,
                    -0.11818761378526688,
                    -0.04996871575713158,
                    0.02317938022315502
                ],
                [
                    -0.07508842647075653,
                    -0.0653223767876625,
                    -0.07151564210653305,
                    -0.04845527559518814,
                    -0.01588509976863861
                ]
            ],
            [
                [
                    0.055873189121484756,
                    0.017807068303227425,
                    0.04488470405340195,
                    0.02457168884575367,
                    0.046400487422943115
                ],
                [
                    0.01935787871479988,
                    0.04100676625967026,
                    0.025885239243507385,
                    0.061506543308496475,
                    0.057246264070272446
                ],
                [
                    -0.016575193032622337,
                    0.008300588466227055,
                    -0.04058177024126053,
                    -0.027094073593616486,
                    -0.003872275585308671
                ],
                [
                    -0.013145513832569122,
                    -0.021983066573739052,
                    0.023386551067233086,
                    0.04061751812696457,
                    0.03542570769786835
                ],
                [
                    0.00029237609123811126,
                    0.0061891996301710606,
                    0.039814263582229614,
                    0.06491243839263916,
                    0.05180344730615616
                ]
            ]
        ],
        [
            [
                [
                    0.008712922222912312,
                    0.01713462360203266,
                    0.014776903204619884,
                    0.04182124137878418,
                    0.02377021498978138
                ],
                [
                    0.023192614316940308,
                    0.07163963466882706,
                    0.057125274091959,
                    0.08704055100679398,
                    0.051142845302820206
                ],
                [
                    0.008657095022499561,
                    0.023663900792598724,
                    0.02547597698867321,
                    -0.006109197624027729,
                    -0.015889853239059448
                ],
                [
                    0.03069184720516205,
                    0.03590117767453194,
                    0.017854200676083565,
                    -0.018063785508275032,
                    0.00672478973865509
                ],
                [
                    -0.0042581032030284405,
                    -0.07889730483293533,
                    -0.04724128544330597,
                    -0.045718591660261154,
                    -0.05038221552968025
                ]
            ],
            [
                [
                    0.038780368864536285,
                    0.057694774121046066,
                    0.049015674740076065,
                    0.06336918473243713,
                    0.1353224664926529
                ],
                [
                    0.07083137333393097,
                    0.07538243383169174,
                    0.08960019052028656,
                    0.06708730757236481,
                    0.0716710090637207
                ],
                [
                    0.04723639041185379,
                    0.04722002148628235,
                    0.063942089676857,
                    0.01038470957428217,
                    0.05276753008365631
                ],
                [
                    0.0798649787902832,
                    0.03636287525296211,
                    0.015093079768121243,
                    0.03136260434985161,
                    0.0026147121097892523
                ],
                [
                    0.03874139115214348,
                    -0.011546394787728786,
                    0.026702258735895157,
                    0.04047762602567673,
                    0.05887394770979881
                ]
            ],
            [
                [
                    -0.060854554176330566,
                    -0.017310258001089096,
                    -0.007126189302653074,
                    -0.017550639808177948,
                    -0.05566117912530899
                ],
                [
                    -0.04004984349012375,
                    -0.008135208860039711,
                    -0.005559892859309912,
                    0.017829859629273415,
                    0.0032648954074829817
                ],
                [
                    0.025561824440956116,
                    -0.006326610688120127,
                    -0.006591493729501963,
                    -0.04607107490301132,
                    -0.06206308305263519
                ],
                [
                    -0.0020576699171215296,
                    -0.01976737007498741,
                    -0.02926570363342762,
                    -0.027968568727374077,
                    -0.05413791537284851
                ],
                [
                    -0.04609543830156326,
                    -0.0269307978451252,
                    -0.05757291615009308,
                    -0.06423037499189377,
                    -0.05081680417060852
                ]
            ],
            [
                [
                    0.09131661802530289,
                    0.08829423040151596,
                    -0.015007110312581062,
                    0.013635852374136448,
                    -0.052909642457962036
                ],
                [
                    0.05381045863032341,
                    0.06064048409461975,
                    0.005378870293498039,
                    0.023164382204413414,
                    0.01529859658330679
                ],
                [
                    -0.011545687913894653,
                    0.01944497413933277,
                    0.011793461628258228,
                    -0.011977685615420341,
                    -0.02379768155515194
                ],
                [
                    -0.04777250066399574,
                    0.011734124273061752,
                    -0.050778601318597794,
                    -0.027945278212428093,
                    0.022675488144159317
                ],
                [
                    -0.059190455824136734,
                    -0.06971124559640884,
                    -0.10191874951124191,
                    -0.11920642107725143,
                    -0.05891847610473633
                ]
            ],
            [
                [
                    0.09550951421260834,
                    0.016028983518481255,
                    -0.03751035034656525,
                    -0.042160339653491974,
                    -0.006905234884470701
                ],
                [
                    0.034063588827848434,
                    0.03610449284315109,
                    -0.0049486951902508736,
                    -0.011749370023608208,
                    -0.012677516788244247
                ],
                [
                    0.06998619437217712,
                    0.07171022146940231,
                    0.05140388756990433,
                    0.08118320256471634,
                    0.03756672888994217
                ],
                [
                    0.0552109070122242,
                    0.025376861914992332,
                    0.028830891475081444,
                    0.027415109798312187,
                    -0.02131173387169838
                ],
                [
                    0.01836809515953064,
                    0.041993360966444016,
                    0.06733255833387375,
                    0.033536817878484726,
                    0.036896564066410065
                ]
            ],
            [
                [
                    -0.012685392051935196,
                    -0.05910171940922737,
                    -0.03601337969303131,
                    -0.06233980506658554,
                    -0.0474519319832325
                ],
                [
                    0.015469379723072052,
                    0.014305384829640388,
                    -0.047234248369932175,
                    -0.015884974971413612,
                    0.01796140894293785
                ],
                [
                    0.06982892751693726,
                    0.047388721257448196,
                    0.0061271050944924355,
                    0.01939545013010502,
                    0.0027098602149635553
                ],
                [
                    0.04730614647269249,
                    0.04838525131344795,
                    -0.03841053694486618,
                    0.0455305352807045,
                    -0.00533066364005208
                ],
                [
                    0.055591270327568054,
                    -0.004123725462704897,
                    0.033221181482076645,
                    -0.03236905112862587,
                    -0.06847691535949707
                ]
            ]
        ],
        [
            [
                [
                    -0.014435096643865108,
                    -0.018782146275043488,
                    -0.021197963505983353,
                    -0.06311294436454773,
                    -0.023809107020497322
                ],
                [
                    -0.008290385827422142,
                    0.05722864717245102,
                    -0.02322637103497982,
                    -0.09095088392496109,
                    0.037019893527030945
                ],
                [
                    0.01883496530354023,
                    0.00325185339897871,
                    -0.06506727635860443,
                    -0.05058983713388443,
                    0.042519982904195786
                ],
                [
                    0.04401184245944023,
                    -0.012552324682474136,
                    -0.00415588915348053,
                    -0.04318183660507202,
                    -0.0052125887013971806
                ],
                [
                    0.05889273062348366,
                    -0.020843863487243652,
                    -0.045962799340486526,
                    -0.022367335855960846,
                    0.005038530565798283
                ]
            ],
            [
                [
                    0.016430333256721497,
                    0.009493369609117508,
                    0.03009154461324215,
                    -0.05366337671875954,
                    -0.027987638488411903
                ],
                [
                    -0.0027753666508942842,
                    0.04674995318055153,
                    -0.014656266197562218,
                    -0.030469432473182678,
                    -0.030821844935417175
                ],
                [
                    0.04598132520914078,
                    -0.05741238594055176,
                    -0.07931113243103027,
                    -0.070343978703022,
                    -0.00464476877823472
                ],
                [
                    -0.00890109222382307,
                    -0.06618031114339828,
                    -0.014805343933403492,
                    -0.058854054659605026,
                    0.02495979517698288
                ],
                [
                    0.005763583816587925,
                    -0.04175964370369911,
                    -0.05990617722272873,
                    -0.08091045916080475,
                    -0.03528511896729469
                ]
            ],
            [
                [
                    0.025376679375767708,
                    -0.04806511476635933,
                    -0.0680144652724266,
                    -0.09172463417053223,
                    -0.04154890403151512
                ],
                [
                    0.006356716156005859,
                    -0.058588895946741104,
                    -0.10201108455657959,
                    -0.10586807876825333,
                    0.009620272554457188
                ],
                [
                    -0.029837623238563538,
                    -0.04552944377064705,
                    -0.09677156805992126,
                    -0.0035356231965124607,
                    -0.03193439915776253
                ],
                [
                    -0.04743332415819168,
                    -0.07224561274051666,
                    -0.06070609763264656,
                    -0.0040633901953697205,
                    -0.014446309767663479
                ],
                [
                    -0.05183396115899086,
                    -0.06566029042005539,
                    -0.04257731884717941,
                    -0.06452921032905579,
                    -0.021206336095929146
                ]
            ],
            [
                [
                    0.016600191593170166,
                    -0.019121915102005005,
                    -0.011335819959640503,
                    0.063059963285923,
                    0.08813246339559555
                ],
                [
                    0.023524098098278046,
                    -0.008744633756577969,
                    -0.03116597980260849,
                    0.09010091423988342,
                    0.05430107191205025
                ],
                [
                    0.01000314112752676,
                    -0.0028120321221649647,
                    0.03617088496685028,
                    0.0059087867848575115,
                    0.033275969326496124
                ],
                [
                    -0.03567725792527199,
                    -0.0006480123265646398,
                    -0.014309958554804325,
                    0.016323328018188477,
                    0.016695132479071617
                ],
                [
                    0.027178199961781502,
                    0.07258334010839462,
                    0.0032298399601131678,
                    0.005308158695697784,
                    -0.020047714933753014
                ]
            ],
            [
                [
                    -0.0007701021386310458,
                    -0.015434417873620987,
                    0.03433315455913544,
                    0.002780826762318611,
                    0.03810971602797508
                ],
                [
                    -0.05715147405862808,
                    0.012661167420446873,
                    0.0507052056491375,
                    0.03529417887330055,
                    0.01733674295246601
                ],
                [
                    -0.047289784997701645,
                    -0.05511855334043503,
                    -0.01219895202666521,
                    0.0024515436962246895,
                    0.0006167939864099026
                ],
                [
                    -0.034879691898822784,
                    -0.0031037665903568268,
                    -0.010155301541090012,
                    0.011966108344495296,
                    -0.017574450001120567
                ],
                [
                    -0.035287074744701385,
                    -0.027323134243488312,
                    -0.04729436710476875,
                    -0.009113394655287266,
                    -0.0300864540040493
                ]
            ],
            [
                [
                    0.07302246987819672,
                    0.03671848401427269,
                    0.023353347554802895,
                    0.08650072664022446,
                    0.051209572702646255
                ],
                [
                    0.03386842459440231,
                    0.018908003345131874,
                    0.014305058866739273,
                    -0.017365409061312675,
                    0.006727778818458319
                ],
                [
                    0.027341213077306747,
                    0.02733166329562664,
                    0.053501199930906296,
                    0.06278302520513535,
                    0.00518791563808918
                ],
                [
                    -0.0418032705783844,
                    -0.03208877891302109,
                    -0.011209671385586262,
                    0.04310132563114166,
                    0.02747967466711998
                ],
                [
                    0.006299822591245174,
                    0.01869143173098564,
                    0.011974399909377098,
                    0.013140724040567875,
                    0.012759566307067871
                ]
            ]
        ],
        [
            [
                [
                    0.008074573241174221,
                    0.06632623821496964,
                    0.026927893981337547,
                    0.04233298823237419,
                    0.06991024315357208
                ],
                [
                    -0.012459509074687958,
                    -0.016274118795990944,
                    -0.02469533123075962,
                    -0.005575734190642834,
                    0.041356831789016724
                ],
                [
                    -0.04889523237943649,
                    -0.039511699229478836,
                    -0.023576946929097176,
                    -0.012825299054384232,
                    -0.021967533975839615
                ],
                [
                    -0.09431752562522888,
                    -0.01545846089720726,
                    0.0026813410222530365,
                    0.01932166889309883,
                    -0.008911892771720886
                ],
                [
                    -0.017624685540795326,
                    -0.04293592646718025,
                    -0.019106820225715637,
                    -0.04318802431225777,
                    0.017721155658364296
                ]
            ],
            [
                [
                    0.014619202353060246,
                    0.03614380583167076,
                    0.053850483149290085,
                    -0.0002199590380769223,
                    -0.015984870493412018
                ],
                [
                    -0.011687756516039371,
                    -0.02430100366473198,
                    -0.03878401219844818,
                    -0.06961118429899216,
                    -0.00700664147734642
                ],
                [
                    0.04850813373923302,
                    0.012765380553901196,
                    0.027756432071328163,
                    -0.037759196013212204,
                    0.0050848727114498615
                ],
                [
                    0.08211333304643631,
                    0.06394143402576447,
                    0.058267295360565186,
                    0.02124742791056633,
                    0.022298891097307205
                ],
                [
                    0.025658829137682915,
                    0.02876860834658146,
                    0.064299575984478,
                    0.01747073046863079,
                    0.020358357578516006
                ]
            ],
            [
                [
                    0.04620388150215149,
                    0.10031753033399582,
                    0.08938547968864441,
                    0.11609894782304764,
                    0.11576590687036514
                ],
                [
                    0.04449929669499397,
                    0.0963481068611145,
                    0.04045025631785393,
                    0.05655569210648537,
                    0.05694424360990524
                ],
                [
                    -0.024055898189544678,
                    -0.035252705216407776,
                    0.008833244442939758,
                    0.01819523610174656,
                    0.03705471009016037
                ],
                [
                    -0.10365471243858337,
                    0.06293466687202454,
                    0.02004464901983738,
                    0.0722733661532402,
                    0.022325996309518814
                ],
                [
                    -0.05239412561058998,
                    0.0332736112177372,
                    0.06695546954870224,
                    0.08167384564876556,
                    0.059827398508787155
                ]
            ],
            [
                [
                    -0.0791236087679863,
                    -0.06651187688112259,
                    -0.07610591500997543,
                    -0.09905731678009033,
                    -0.1254754364490509
                ],
                [
                    -0.017522940412163734,
                    -0.04802602529525757,
                    -0.09582392871379852,
                    -0.08933619409799576,
                    -0.08669727295637131
                ],
                [
                    0.015409017913043499,
                    -0.046178482472896576,
                    -0.05847807973623276,
                    -0.10628878325223923,
                    -0.06397313624620438
                ],
                [
                    -0.06055570766329765,
                    -0.0719849020242691,
                    -0.0543537400662899,
                    -0.07002754509449005,
                    -0.05697442591190338
                ],
                [
                    -0.028199050575494766,
                    -0.05985386297106743,
                    -0.038517262786626816,
                    -0.03131866827607155,
                    -0.030543209984898567
                ]
            ],
            [
                [
                    0.09035896509885788,
                    0.012620890513062477,
                    0.0522502064704895,
                    0.014311048202216625,
                    0.06714564561843872
                ],
                [
                    -0.0033965844195336103,
                    0.025184273719787598,
                    0.024272002279758453,
                    -0.011932109482586384,
                    -0.0171570535749197
                ],
                [
                    -0.03364550694823265,
                    -0.023137036710977554,
                    -0.018331745639443398,
                    -0.03428875654935837,
                    0.03654569014906883
                ],
                [
                    0.0068141319788992405,
                    0.021008873358368874,
                    -0.060779325664043427,
                    0.03332480043172836,
                    0.04106719046831131
                ],
                [
                    0.0708455741405487,
                    0.0710456445813179,
                    0.06977897137403488,
                    0.07496748119592667,
                    0.06282687932252884
                ]
            ],
            [
                [
                    0.057635847479104996,
                    -0.023870939388871193,
                    -0.020512068644165993,
                    -0.062200840562582016,
                    0.028184959664940834
                ],
                [
                    0.061382804065942764,
                    0.04437343403697014,
                    0.03228161484003067,
                    0.0019924077205359936,
                    0.012301231734454632
                ],
                [
                    0.07070039212703705,
                    0.03162585198879242,
                    -0.012701534666121006,
                    0.029175151139497757,
                    0.08188964426517487
                ],
                [
                    0.07701913267374039,
                    0.07046358287334442,
                    0.0262228325009346,
                    0.015822485089302063,
                    -0.0004462646320462227
                ],
                [
                    0.09969804435968399,
                    0.05404963344335556,
                    0.09581451863050461,
                    0.01199142262339592,
                    -0.011811360716819763
                ]
            ]
        ],
        [
            [
                [
                    -0.08661480247974396,
                    -0.07955201715230942,
                    -0.08776870369911194,
                    -0.024005252867937088,
                    -0.05048838630318642
                ],
                [
                    -0.10985125601291656,
                    -0.07863040268421173,
                    -0.0409538671374321,
                    0.0006514834240078926,
                    0.004165326245129108
                ],
                [
                    -0.07271531224250793,
                    -0.06289489567279816,
                    -0.002203261014074087,
                    -0.039077457040548325,
                    -0.010226039215922356
                ],
                [
                    -0.011589971370995045,
                    0.017757417634129524,
                    0.037242647260427475,
                    0.025117231532931328,
                    0.0312868133187294
                ],
                [
                    0.08448977023363113,
                    0.1011018231511116,
                    0.10484252125024796,
                    0.1341732293367386,
                    0.1362832635641098
                ]
            ],
            [
                [
                    -0.02156335487961769,
                    -0.02661113068461418,
                    -0.019130045548081398,
                    0.012268220074474812,
                    0.025951018556952477
                ],
                [
                    -0.06036612018942833,
                    -0.07169806957244873,
                    0.048589885234832764,
                    0.040029678493738174,
                    0.04199289157986641
                ],
                [
                    -0.03254074603319168,
                    0.00542592816054821,
                    0.043581023812294006,
                    0.1020292118191719,
                    -0.00727576669305563
                ],
                [
                    0.00003289723099442199,
                    -0.00130214705131948,
                    0.023180104792118073,
                    -0.000966317136771977,
                    -0.05745517462491989
                ],
                [
                    -0.04955701529979706,
                    -0.035389844328165054,
                    -0.07083684206008911,
                    -0.04185952618718147,
                    -0.0237693153321743
                ]
            ],
            [
                [
                    -0.0947260856628418,
                    -0.06995982676744461,
                    -0.06548875570297241,
                    -0.09129875898361206,
                    -0.0019464610377326608
                ],
                [
                    -0.02099909819662571,
                    -0.10761348903179169,
                    -0.050377652049064636,
                    -0.06196587532758713,
                    -0.020480787381529808
                ],
                [
                    -0.05031081661581993,
                    -0.0712098702788353,
                    0.025554828345775604,
                    -0.01516195759177208,
                    0.03535190969705582
                ],
                [
                    -0.04392301291227341,
                    -0.051903169602155685,
                    -0.00718107121065259,
                    0.028888270258903503,
                    -0.00006789625331293792
                ],
                [
                    -0.03089187853038311,
                    -0.03470528498291969,
                    0.0389869250357151,
                    -0.022204386070370674,
                    0.017407488077878952
                ]
            ],
            [
                [
                    0.03397414833307266,
                    0.07377859205007553,
                    0.08494003117084503,
                    -0.007050736807286739,
                    0.0024615770671516657
                ],
                [
                    0.09393183887004852,
                    0.05874617397785187,
                    0.029261643067002296,
                    0.01326798927038908,
                    0.0007913312874734402
                ],
                [
                    0.058653946965932846,
                    0.025839312002062798,
                    0.00845152884721756,
                    -0.036097217351198196,
                    0.036711327731609344
                ],
                [
                    0.05005989968776703,
                    -0.06333556026220322,
                    -0.020967716351151466,
                    -0.0021691848523914814,
                    0.04733792319893837
                ],
                [
                    -0.004205306991934776,
                    0.014321093447506428,
                    0.02745915576815605,
                    -0.005367893259972334,
                    0.02513272874057293
                ]
            ],
            [
                [
                    0.033742982894182205,
                    -0.010031191632151604,
                    -0.007343633566051722,
                    -0.05120820552110672,
                    -0.07614899426698685
                ],
                [
                    0.031099166721105576,
                    -0.011971180327236652,
                    -0.029565269127488136,
                    -0.04560646414756775,
                    -0.0376531258225441
                ],
                [
                    -0.021316353231668472,
                    -0.07773054391145706,
                    -0.1071806475520134,
                    -0.015415002591907978,
                    0.07226088643074036
                ],
                [
                    0.004412571433931589,
                    0.009830671362578869,
                    0.030472924932837486,
                    0.01723690889775753,
                    0.04914841055870056
                ],
                [
                    0.02967103384435177,
                    0.03606366366147995,
                    0.008276654407382011,
                    0.008007104508578777,
                    0.06401356309652328
                ]
            ],
            [
                [
                    -0.05553989112377167,
                    -0.006161502096801996,
                    0.004780966322869062,
                    0.05417802929878235,
                    -0.010928378440439701
                ],
                [
                    -0.022024482488632202,
                    -0.001197441597469151,
                    -0.030040554702281952,
                    0.0027657474856823683,
                    0.05901554599404335
                ],
                [
                    -0.02028389647603035,
                    -0.09164705872535706,
                    -0.0013503889786079526,
                    0.003344073425978422,
                    0.07297684997320175
                ],
                [
                    -0.037025779485702515,
                    0.013135108165442944,
                    0.07404003292322159,
                    0.048677749931812286,
                    0.03098817728459835
                ],
                [
                    0.010728651657700539,
                    0.0783245861530304,
                    0.08074547350406647,
                    0.03194299712777138,
                    0.009928812272846699
                ]
            ]
        ],
        [
            [
                [
                    -0.054373010993003845,
                    -0.09839999675750732,
                    -0.05666356161236763,
                    -0.07080744206905365,
                    -0.06819803267717361
                ],
                [
                    -0.01833939738571644,
                    -0.04176899418234825,
                    -0.009617435745894909,
                    -0.004441745579242706,
                    0.012903733178973198
                ],
                [
                    -0.033402614295482635,
                    -0.011665801517665386,
                    -0.024682670831680298,
                    -0.0050761159509420395,
                    -0.020642636343836784
                ],
                [
                    0.024619609117507935,
                    -0.007837643846869469,
                    -0.007028668187558651,
                    -0.02520165964961052,
                    -0.03378641605377197
                ],
                [
                    -0.01920010894536972,
                    -0.012995820492506027,
                    0.01135943178087473,
                    0.04032906889915466,
                    0.017542008310556412
                ]
            ],
            [
                [
                    0.01993836835026741,
                    0.043865419924259186,
                    0.005731962621212006,
                    0.0061026387847959995,
                    0.013417040929198265
                ],
                [
                    0.03801634535193443,
                    0.025264248251914978,
                    -0.0009992538252845407,
                    0.018899688497185707,
                    0.061054032295942307
                ],
                [
                    0.007195801939815283,
                    0.0311783067882061,
                    0.018874118104577065,
                    0.020049428567290306,
                    0.06643154472112656
                ],
                [
                    0.10931771993637085,
                    0.08676529675722122,
                    0.10732763260602951,
                    0.09378201514482498,
                    0.07864051312208176
                ],
                [
                    0.09375592321157455,
                    0.028231456875801086,
                    0.031225211918354034,
                    0.05427497625350952,
                    0.07022342830896378
                ]
            ],
            [
                [
                    -0.0015644782688468695,
                    -0.00523724127560854,
                    0.010931855998933315,
                    -0.0382092222571373,
                    -0.013660143129527569
                ],
                [
                    0.0986674353480339,
                    0.027256174013018608,
                    0.01862877979874611,
                    0.01989361084997654,
                    0.06338407844305038
                ],
                [
                    0.03505656123161316,
                    0.014163770712912083,
                    0.014963018707931042,
                    0.08443804830312729,
                    0.02445901744067669
                ],
                [
                    0.03309285268187523,
                    0.012647035531699657,
                    0.034826893359422684,
                    0.005130542442202568,
                    0.017943963408470154
                ],
                [
                    0.1323406994342804,
                    0.13638484477996826,
                    0.11074083298444748,
                    0.12834785878658295,
                    0.11099089682102203
                ]
            ],
            [
                [
                    -0.02056790143251419,
                    -0.040632545948028564,
                    -0.047947149723768234,
                    -0.10129297524690628,
                    -0.1073874905705452
                ],
                [
                    -0.008965429849922657,
                    -0.04323615878820419,
                    -0.08796864002943039,
                    -0.041806939989328384,
                    0.008021136745810509
                ],
                [
                    -0.02077164314687252,
                    0.02750180847942829,
                    -0.05081133171916008,
                    -0.04394419118762016,
                    -0.015781410038471222
                ],
                [
                    -0.07217162847518921,
                    -0.024059267714619637,
                    -0.023343438282608986,
                    -0.021947218105196953,
                    0.0015854830853641033
                ],
                [
                    -0.0648563876748085,
                    -0.0442742258310318,
                    0.006951655726879835,
                    0.003623252734541893,
                    0.008487080223858356
                ]
            ],
            [
                [
                    -0.016155874356627464,
                    0.003867227351292968,
                    -0.02316831797361374,
                    -0.11198509484529495,
                    -0.027341464534401894
                ],
                [
                    -0.013209964148700237,
                    0.013073394075036049,
                    -0.019636929035186768,
                    0.00023510021856054664,
                    0.01662571169435978
                ],
                [
                    0.015576815232634544,
                    0.04561717435717583,
                    -0.003472990123555064,
                    -0.022767024114727974,
                    0.03497369587421417
                ],
                [
                    -0.022028272971510887,
                    -0.006987585686147213,
                    0.03797478601336479,
                    0.013687784783542156,
                    0.0032548145391047
                ],
                [
                    0.00932412501424551,
                    0.08883053809404373,
                    0.10516029596328735,
                    0.15392336249351501,
                    0.0970376506447792
                ]
            ],
            [
                [
                    -0.0253505427390337,
                    -0.019280560314655304,
                    -0.02041836641728878,
                    -0.03842053562402725,
                    -0.036201026290655136
                ],
                [
                    0.021139098331332207,
                    -0.01995168998837471,
                    0.023833895102143288,
                    -0.0501532256603241,
                    0.01939348317682743
                ],
                [
                    0.006614119745790958,
                    0.04095044732093811,
                    0.033590544015169144,
                    0.019322998821735382,
                    0.014172757975757122
                ],
                [
                    -0.04386849328875542,
                    0.034749798476696014,
                    -0.004705533850938082,
                    0.09282451868057251,
                    0.05092267692089081
                ],
                [
                    0.05608200281858444,
                    0.0970691367983818,
                    0.09182528406381607,
                    0.10379538685083389,
                    0.09590906649827957
                ]
            ]
        ],
        [
            [
                [
                    -0.0628284364938736,
                    -0.031085606664419174,
                    -0.04633677750825882,
                    -0.02033519186079502,
                    -0.06505661457777023
                ],
                [
                    -0.03775133192539215,
                    -0.08819124102592468,
                    -0.025450292974710464,
                    -0.0833197608590126,
                    -0.04032767564058304
                ],
                [
                    -0.056065429002046585,
                    0.0007846393855288625,
                    0.013095038011670113,
                    0.0015960133168846369,
                    -0.07158644497394562
                ],
                [
                    0.04864433780312538,
                    0.06745605915784836,
                    0.05017601326107979,
                    0.019889086484909058,
                    0.03660716861486435
                ],
                [
                    0.04058726504445076,
                    0.024179603904485703,
                    0.005627275910228491,
                    0.010869266465306282,
                    0.031610023230314255
                ]
            ],
            [
                [
                    0.0568901002407074,
                    0.01887579634785652,
                    0.04304982349276543,
                    0.02342381328344345,
                    0.03408344089984894
                ],
                [
                    -0.032744184136390686,
                    0.02169371396303177,
                    -0.0117426086217165,
                    -0.01613674685359001,
                    -0.08182138204574585
                ],
                [
                    -0.028631482273340225,
                    -0.03336123004555702,
                    -0.017321228981018066,
                    -0.024558132514357567,
                    -0.03204404190182686
                ],
                [
                    0.0705643966794014,
                    0.04773910716176033,
                    0.07189256697893143,
                    0.04260842874646187,
                    0.013770125806331635
                ],
                [
                    0.04751696437597275,
                    0.03355606645345688,
                    0.041633863002061844,
                    -0.005272043403238058,
                    0.06856056302785873
                ]
            ],
            [
                [
                    0.028846263885498047,
                    0.027174005284905434,
                    0.014866502955555916,
                    -0.03859025985002518,
                    0.009745527058839798
                ],
                [
                    0.06974196434020996,
                    0.08787187933921814,
                    0.12772999703884125,
                    0.14238469302654266,
                    0.08046534657478333
                ],
                [
                    0.030296601355075836,
                    0.016435964033007622,
                    0.048547305166721344,
                    0.055243026465177536,
                    0.02413242869079113
                ],
                [
                    -0.030334066599607468,
                    0.002461471827700734,
                    -0.03127550706267357,
                    -0.007808346766978502,
                    0.03750324994325638
                ],
                [
                    -0.0073890965431928635,
                    0.022566471248865128,
                    -0.035129133611917496,
                    0.029398152604699135,
                    -0.004212032072246075
                ]
            ],
            [
                [
                    0.052480440586805344,
                    -0.020118843764066696,
                    0.05574752762913704,
                    0.038011547178030014,
                    0.06573886424303055
                ],
                [
                    0.009079067967832088,
                    0.013271048665046692,
                    0.041970621794462204,
                    0.017346767708659172,
                    0.03221747279167175
                ],
                [
                    0.007888835854828358,
                    0.014281722716987133,
                    0.014390736818313599,
                    -0.011364524252712727,
                    -0.0378248505294323
                ],
                [
                    -0.030911024659872055,
                    -0.07598094642162323,
                    -0.08733340352773666,
                    -0.08420515805482864,
                    -0.09203941375017166
                ],
                [
                    -0.05357133597135544,
                    -0.07306970655918121,
                    -0.08851425349712372,
                    -0.14224381744861603,
                    -0.10985929518938065
                ]
            ],
            [
                [
                    0.04518670588731766,
                    0.07116537541151047,
                    0.00004078407437191345,
                    0.00833106692880392,
                    0.004859195090830326
                ],
                [
                    0.11798438429832458,
                    0.10803864896297455,
                    0.07258860021829605,
                    0.10169325023889542,
                    0.097093865275383
                ],
                [
                    0.05915497988462448,
                    0.0855904370546341,
                    -0.01229674369096756,
                    0.029624154791235924,
                    0.034432657063007355
                ],
                [
                    -0.04972616955637932,
                    -0.017059020698070526,
                    -0.06574546545743942,
                    -0.05994226038455963,
                    -0.07907681167125702
                ],
                [
                    -0.03752614185214043,
                    -0.040709350258111954,
                    -0.02977874130010605,
                    -0.043724823743104935,
                    -0.08854574710130692
                ]
            ],
            [
                [
                    0.0057785725221037865,
                    0.05643260478973389,
                    0.04473055526614189,
                    0.038084205240011215,
                    -0.03820796310901642
                ],
                [
                    0.0533246174454689,
                    0.08786589652299881,
                    0.0834745541214943,
                    0.06214987859129906,
                    0.045757394284009933
                ],
                [
                    0.039744336158037186,
                    0.012285195291042328,
                    0.026795074343681335,
                    0.047532714903354645,
                    0.00486622704192996
                ],
                [
                    -0.031315118074417114,
                    -0.09383849799633026,
                    -0.08966691792011261,
                    -0.09255014359951019,
                    -0.07115575671195984
                ],
                [
                    -0.05936267599463463,
                    -0.03276965022087097,
                    -0.061131030321121216,
                    -0.10011475533246994,
                    -0.06437196582555771
                ]
            ]
        ],
        [
            [
                [
                    -0.05281754210591316,
                    -0.0234922356903553,
                    0.012685510329902172,
                    -0.018610456958413124,
                    0.0238846093416214
                ],
                [
                    0.012870419770479202,
                    -0.053675200790166855,
                    -0.020836424082517624,
                    0.029782364144921303,
                    0.006882332265377045
                ],
                [
                    0.004804988391697407,
                    0.03727589547634125,
                    0.0527036227285862,
                    0.021212929859757423,
                    -0.021070830523967743
                ],
                [
                    -0.0631120353937149,
                    -0.01418561115860939,
                    -0.011695319786667824,
                    0.03190271556377411,
                    0.03201039507985115
