{
    "conv1.bias": [
        0.09961451590061188,
        -0.05204548314213753,
        0.07223799079656601,
        0.11003629118204117,
        -0.061794769018888474,
        0.08514335751533508
    ],
    "conv1.weight": [
        [
            [
                [
                    0.032436057925224304,
                    0.06653190404176712,
                    0.09816180169582367,
                    0.04877450317144394,
                    0.009032858535647392
                ],
                [
                    -0.007252199575304985,
                    -0.004003302659839392,
                    0.0016109817661345005,
                    -0.03883148729801178,
                    0.01641121692955494
                ],
                [
                    -0.038080599159002304,
                    -0.03122403658926487,
                    -0.0702652707695961,
                    -0.06071551889181137,
                    -0.01835949718952179
                ],
                [
                    0.010019984096288681,
                    -0.07574060559272766,
                    -0.003160246182233095,
                    -0.015271230600774288,
                    -0.0824417769908905
                ],
                [
                    -0.04889713227748871,
                    0.023482048884034157,
                    -0.03204057738184929,
                    -0.06062338873744011,
                    -0.06534948945045471
                ]
            ],
            [
                [
                    -0.04000036418437958,
                    0.03963128477334976,
                    0.07774674892425537,
                    -0.027065055444836617,
                    -0.03040536493062973
                ],
                [
                    0.024676306173205376,
                    0.017332369461655617,
                    0.012335597537457943,
                    0.06670387089252472,
                    -0.025237804278731346
                ],
                [
                    0.03380625694990158,
                    0.010596798732876778,
                    0.01620352827012539,
                    -0.0222514308989048,
                    -0.02828720584511757
                ],
                [
                    -0.02269420213997364,
                    0.08334526419639587,
                    0.01663418486714363,
                    0.04241074621677399,
                    -0.0501384362578392
                ],
                [
                    0.04586362466216087,
                    -0.023780135437846184,
                    -0.04269052669405937,
                    -0.04226498305797577,
                    -0.035711079835891724
                ]
            ],
            [
                [
                    0.12478433549404144,
                    0.09306729584932327,
                    0.12257146090269089,
                    0.11997739225625992,
                    0.01984853297472
                ],
                [
                    0.08167673647403717,
                    0.16802307963371277,
                    0.15964184701442719,
                    0.08902443200349808,
                    0.024596044793725014
                ],
                [
                    0.08929501473903656,
                    0.09079206734895706,
                    0.10431397706270218,
                    0.06605221331119537,
                    0.0252538975328207
                ],
                [
                    0.09075190871953964,
                    0.15328562259674072,
                    0.11393272876739502,
                    0.050107136368751526,
                    0.04573806747794151
                ],
                [
                    0.06862831115722656,
                    0.07288675010204315,
                    0.08195757865905762,
                    0.019165867939591408,
                    0.08933974802494049
                ]
            ]
        ],
        [
            [
                [
                    0.12190864980220795,
                    0.15921086072921753,
                    0.14980442821979523,
                    0.1709291636943817,
                    0.11651468276977539
                ],
                [
                    0.1239495798945427,
                    0.0798097476363182,
                    0.2006600797176361,
                    0.14751967787742615,
                    0.15698236227035522
                ],
                [
                    -0.006105797365307808,
                    0.014465637505054474,
                    0.07263609766960144,
                    0.004599872510880232,
                    -0.01241623517125845
                ],
                [
                    -0.008638712577521801,
                    -0.02999371849000454,
                    -0.07056878507137299,
                    -0.04048287868499756,
                    -0.0779569074511528
                ],
                [
                    -0.09352866560220718,
                    -0.1443781852722168,
                    -0.16827626526355743,
                    -0.08213997632265091,
                    -0.06744115054607391
                ]
            ],
            [
                [
                    0.026502730324864388,
                    0.06844647973775864,
                    0.051373306661844254,
                    0.08906049281358719,
                    0.0391693040728569
                ],
                [
                    0.045922812074422836,
                    0.03854740411043167,
                    0.02394488826394081,
                    0.021488424390554428,
                    -0.011284932494163513
                ],
                [
                    -0.02155337668955326,
                    -0.01867353357374668,
                    -0.06814160943031311,
                    -0.07903890311717987,
                    -0.06329450011253357
                ],
                [
                    -0.09357292950153351,
                    -0.032142676413059235,
                    -0.015261603519320488,
                    -0.07768012583255768,
                    -0.1432752013206482
                ],
                [
                    -0.10755223035812378,
                    -0.06744012981653214,
                    -0.09300673007965088,
                    -0.08909153938293457,
                    -0.17484743893146515
                ]
            ],
            [
                [
                    0.0037249831948429346,
                    0.055974118411540985,
                    0.03958730027079582,
                    0.059007368981838226,
                    0.035096656531095505
                ],
                [
                    0.06828765571117401,
                    0.05200875923037529,
                    0.052417293190956116,
                    0.05470454320311546,
                    -0.030575523152947426
                ],
                [
                    0.03601162135601044,
                    -0.0749121904373169,
                    -0.037210963666439056,
                    0.006542665883898735,
                    -0.00044793239794671535
                ],
                [
                    -0.03940989077091217,
                    -0.003939301241189241,
                    -0.03272153437137604,
                    0.009227017872035503,
                    -0.0013773778919130564
                ],
                [
                    0.008334136568009853,
                    -0.042707741260528564,
                    -0.011432097293436527,
                    -0.08080340921878815,
                    -0.00007396731234621257
                ]
            ]
        ],
        [
            [
                [
                    -0.016828356310725212,
                    -0.025143129751086235,
                    -0.09148362278938293,
                    0.011799406260251999,
                    -0.037995729595422745
                ],
                [
                    -0.07829070836305618,
                    -0.07809527963399887,
                    -0.1299530267715454,
                    -0.06413783878087997,
                    -0.09980367124080658
                ],
                [
                    -0.17145377397537231,
                    -0.07692812383174896,
                    -0.08396835625171661,
                    -0.09881507605314255,
                    -0.13963280618190765
                ],
                [
                    -0.10517485439777374,
                    -0.08771392703056335,
                    -0.06602182239294052,
                    -0.07005704939365387,
                    -0.0003278480435255915
                ],
                [
                    0.037688493728637695,
                    0.03932647779583931,
                    -0.011308463290333748,
                    -0.018200529739260674,
                    -0.010664885863661766
                ]
            ],
            [
                [
                    0.01871037296950817,
                    0.011106066405773163,
                    0.07904592156410217,
                    0.03896364942193031,
                    0.05678563192486763
                ],
                [
                    0.013817022554576397,
                    -0.016140807420015335,
                    0.017365865409374237,
                    -0.03578675538301468,
                    -0.03880389407277107
                ],
                [
                    0.0013517860788851976,
                    -0.04689881205558777,
                    -0.06626897305250168,
                    0.0043767415918409824,
                    -0.034348953515291214
                ],
                [
                    0.01413437258452177,
                    0.008862167596817017,
                    -0.009454612620174885,
                    0.026474066078662872,
                    0.002762144198641181
                ],
                [
                    0.08086716383695602,
                    0.0697690099477768,
                    0.07425510138273239,
                    0.18153849244117737,
                    0.08371865004301071
                ]
            ],
            [
                [
                    0.0002566091134212911,
                    0.039765700697898865,
                    0.13161033391952515,
                    0.09697723388671875,
                    0.03463481366634369
                ],
                [
                    -0.002049659611657262,
                    0.0639428123831749,
                    0.057116005569696426,
                    0.10121457278728485,
                    0.07849850505590439
                ],
                [
                    0.013608074747025967,
                    0.0918869748711586,
                    -0.06781339645385742,
                    -0.02736343815922737,
                    -0.03632454201579094
                ],
                [
                    0.03503093123435974,
                    0.037758003920316696,
                    0.06836920231580734,
                    0.027354134246706963,
                    0.010230150073766708
                ],
                [
                    0.06505418568849564,
                    0.0057720765471458435,
                    0.07490111887454987,
                    0.043241195380687714,
                    0.09953269362449646
                ]
            ]
        ],
        [
            [
                [
                    -0.07933042198419571,
                    -0.04387527331709862,
                    0.006939103361219168,
                    -0.007883588783442974,
                    0.02891145646572113
                ],
                [
                    -0.1049860492348671,
                    -0.08696063607931137,
                    -0.06447445601224899,
                    0.10835812240839005,
                    0.035049572587013245
                ],
                [
                    -0.08462890982627869,
                    -0.15416643023490906,
                    -0.013193141669034958,
                    0.13684159517288208,
                    0.0656692162156105
                ],
                [
                    -0.07334531843662262,
                    -0.10356152802705765,
                    -0.0061545236967504025,
                    0.116630420088768,
                    0.05082983523607254
                ],
                [
                    -0.12939293682575226,
                    0.008422961458563805,
                    -0.006242285016924143,
                    0.02305929735302925,
                    0.04004697501659393
                ]
            ],
            [
                [
                    -0.04750121757388115,
                    -0.0003158650652039796,
                    0.06104990839958191,
                    0.006497323978692293,
                    0.049760084599256516
                ],
                [
                    -0.05375855043530464,
                    -0.04336545243859291,
                    0.07076866924762726,
                    0.09090665727853775,
                    0.05664065107703209
                ],
                [
                    -0.05178523436188698,
                    -0.14109788835048676,
                    0.08804258704185486,
                    0.1765727996826172,
                    0.06810557842254639
                ],
                [
                    -0.05430150777101517,
                    -0.06887394189834595,
                    0.07644245028495789,
                    0.20394116640090942,
                    0.07180783152580261
                ],
                [
                    -0.029470356181263924,
                    0.02350415661931038,
                    0.07506409287452698,
                    0.09555090218782425,
                    0.0872158333659172
                ]
            ],
            [
                [
                    -0.06310898810625076,
                    -0.07344428449869156,
                    -0.04296551272273064,
                    0.029553096741437912,
                    -0.016085848212242126
                ],
                [
                    -0.058941032737493515,
                    -0.07421614229679108,
                    -0.007584914565086365,
                    0.03894149884581566,
                    0.04230058193206787
                ],
                [
                    -0.044228650629520416,
                    -0.11100704222917557,
                    -0.022460125386714935,
                    0.08471638709306717,
                    0.011891169473528862
                ],
                [
                    -0.00355950347147882,
                    -0.07242946326732635,
                    -0.051046814769506454,
                    0.07142536342144012,
                    0.09739133715629578
                ],
                [
                    -0.07089969515800476,
                    0.009185838513076305,
                    0.0538950152695179,
                    -0.015756404027342796,
                    -0.03910534456372261
                ]
            ]
        ],
        [
            [
                [
                    -0.01919490657746792,
                    0.01901780441403389,
                    0.03465709462761879,
                    0.06576292216777802,
                    0.13702048361301422
                ],
                [
                    -0.04115146026015282,
                    -0.0065442705526947975,
                    -0.05244934558868408,
                    0.010463535785675049,
                    0.1508917659521103
                ],
                [
                    -0.02925657108426094,
                    -0.13315626978874207,
                    -0.06531418859958649,
                    0.010852592065930367,
                    0.13722142577171326
                ],
                [
                    -0.0774216279387474,
                    -0.07081890106201172,
                    -0.007853171788156033,
                    0.013614683412015438,
                    0.10926705598831177
                ],
                [
                    -0.014479193836450577,
                    0.031180011108517647,
                    0.01811208203434944,
                    0.08145900070667267,
                    0.0676342248916626
                ]
            ],
            [
                [
                    -0.03913272172212601,
                    -0.10922158509492874,
                    -0.06548283249139786,
                    0.007854941301047802,
                    0.07290413975715637
                ],
                [
                    -0.09615498036146164,
                    -0.17324060201644897,
                    -0.12017825990915298,
                    -0.07364635914564133,
                    0.024643005803227425
                ],
                [
                    -0.12435229122638702,
                    -0.13904590904712677,
                    -0.05494971200823784,
                    -0.025243528187274933,
                    -0.00566532788798213
                ],
                [
                    -0.06469392776489258,
                    -0.07554040104150772,
                    -0.06746070832014084,
                    -0.017243942245841026,
                    0.00039335081237368286
                ],
                [
                    -0.028857743367552757,
                    -0.006841808557510376,
                    -0.004925601650029421,
                    0.030702171847224236,
                    0.07498917728662491
                ]
            ],
            [
                [
                    0.0043473015539348125,
                    -0.036399971693754196,
                    0.06817718595266342,
                    0.01574159972369671,
                    0.05291059985756874
                ],
                [
                    -0.020984837785363197,
                    -0.048315610736608505,
                    -0.026606546714901924,
                    0.052713219076395035,
                    0.027372034266591072
                ],
                [
                    -0.1041044369339943,
                    -0.12215084582567215,
                    -0.014429992064833641,
                    -0.024541137740015984,
                    0.12141275405883789
                ],
                [
                    -0.03166067227721214,
                    0.009408533573150635,
                    -0.020329434424638748,
                    0.04206763952970505,
                    0.10934764891862869
                ],
                [
                    0.02180645987391472,
                    0.057586945593357086,
                    0.07343406230211258,
                    0.09420342743396759,
                    0.13578754663467407
                ]
            ]
        ],
        [
            [
                [
                    0.12379907816648483,
                    0.017755309119820595,
                    -0.04509662091732025,
                    -0.06800565868616104,
                    -0.0498640201985836
                ],
                [
                    -0.033455584198236465,
                    -0.07567403465509415,
                    -0.13404664397239685,
                    -0.10889876633882523,
                    -0.07900820672512054
                ],
                [
                    -0.030911549925804138,
                    -0.026164572685956955,
                    -0.08539789915084839,
                    -0.08112843334674835,
                    -0.06866996735334396
                ],
                [
                    0.004045115318149328,
                    -0.006459837779402733,
                    0.10056456923484802,
                    0.09254195541143417,
                    0.0750107690691948
                ],
                [
                    -0.02291814424097538,
                    0.04723060876131058,
                    0.08272138983011246,
                    0.08462601900100708,
                    0.09741461277008057
                ]
            ],
            [
                [
                    0.0031439373269677162,
                    -0.07573068141937256,
                    -0.07856262475252151,
                    -0.07497916370630264,
                    -0.08504672348499298
                ],
                [
                    -0.03561524301767349,
                    -0.0925975888967514,
                    -0.07148319482803345,
                    -0.12300419807434082,
                    -0.1157110407948494
                ],
                [
                    -0.005639994982630014,
                    -0.08241713047027588,
                    0.031475361436605453,
                    -0.02326505444943905,
                    -0.03461702913045883
                ],
                [
                    0.029175208881497383,
                    -0.004460324998944998,
                    0.13448025286197662,
                    0.05529630929231644,
                    0.09777186065912247
                ],
                [
                    0.07826945930719376,
                    0.11571658402681351,
                    0.11028199642896652,
                    0.08217985183000565,
                    0.09397611021995544
                ]
            ],
            [
                [
                    -0.003833448514342308,
                    -0.01694348454475403,
                    -0.0829152837395668,
                    -0.01712646707892418,
                    -0.0074554369784891605
                ],
                [
                    0.004474172368645668,
                    -0.15022090077400208,
                    -0.11891427636146545,
                    -0.0297726821154356,
                    -0.00804999377578497
                ],
                [
                    -0.05240562558174133,
                    -0.043005362153053284,
                    -0.06162398308515549,
                    -0.090976282954216,
                    0.05343548208475113
                ],
                [
                    0.09226322919130325,
                    0.01788601092994213,
                    0.08568289875984192,
                    0.07972151041030884,
                    0.014063762500882149
                ],
                [
                    0.12013403326272964,
                    0.051637183874845505,
                    0.11373384296894073,
                    0.030341675505042076,
                    0.09908995032310486
                ]
            ]
        ]
    ],
    "conv2.bias": [
        0.1501723825931549,
        0.1834236979484558,
        -0.011686943471431732,
        0.07130030542612076,
        -0.0978153869509697,
        0.19386900961399078,
        -0.04256321117281914,
        0.12889625132083893,
        -0.11815883219242096,
        -0.046371255069971085,
        -0.13076967000961304,
        -0.15146611630916595,
        -0.024365266785025597,
        -0.10580407828092575,
        0.10327205061912537,
        0.007948916405439377
    ],
    "conv2.weight": [
        [
            [
                [
                    0.030589690431952477,
                    0.06747686862945557,
                    0.03725157678127289,
                    0.03388382866978645,
                    0.08181273192167282
                ],
                [
                    0.017269205302000046,
                    0.018852105364203453,
                    -0.007936147041618824,
                    0.029242046177387238,
                    0.06441892683506012
                ],
                [
                    -0.03861582279205322,
                    0.029881594702601433,
                    0.03486659750342369,
                    0.03410438820719719,
                    0.10316424071788788
                ],
                [
                    0.022993087768554688,
                    0.0689115971326828,
                    0.062363144010305405,
                    0.10124586522579193,
                    0.08403638750314713
                ],
                [
                    0.10690467059612274,
                    0.12174032628536224,
                    0.06508451700210571,
                    0.11506040394306183,
                    0.1598455309867859
                ]
            ],
            [
                [
                    0.03938028961420059,
                    0.025956429541110992,
                    0.007312860805541277,
                    -0.012500163167715073,
                    -0.021432887762784958
                ],
                [
                    0.03925100713968277,
                    0.006151795852929354,
                    -0.05828612670302391,
                    -0.09704844653606415,
                    -0.02949208766222
                ],
                [
                    0.0155055932700634,
                    -0.010900725610554218,
                    -0.035014234483242035,
                    -0.010355358943343163,
                    -0.03350804001092911
                ],
                [
                    0.009677864611148834,
                    0.034783776849508286,
                    0.0747508630156517,
                    0.014684904366731644,
                    0.04781729355454445
                ],
                [
                    0.0095101622864604,
                    0.031487204134464264,
                    0.09652978926897049,
                    0.0010825938079506159,
                    -0.001534170238301158
                ]
            ],
            [
                [
                    -0.015877675265073776,
                    0.042890314012765884,
                    0.040591396391391754,
                    -0.001509763184003532,
                    0.04991864040493965
                ],
                [
                    0.03440523147583008,
                    0.03693215176463127,
                    0.04166017845273018,
                    0.025477563962340355,
                    -0.005711191333830357
                ],
                [
                    -0.02039886824786663,
                    -0.007172269746661186,
                    -0.019808154553174973,
                    -0.004192438907921314,
                    0.039282944053411484
                ],
                [
                    0.03351997211575508,
                    0.004336443264037371,
                    0.013641190715134144,
                    0.03189053758978844,
                    0.10053069144487381
                ],
                [
                    0.04178796708583832,
                    0.04476086050271988,
                    0.02028695121407509,
                    0.026040714234113693,
                    0.08622201532125473
                ]
            ],
            [
                [
                    -0.03870541602373123,
                    -0.020346257835626602,
                    0.03169114515185356,
                    0.06372664868831635,
                    0.0044687893241643906
                ],
                [
                    -0.07919825613498688,
                    -0.021998392418026924,
                    -0.029294317588210106,
                    0.005772119853645563,
                    -0.041266508400440216
                ],
                [
                    -0.03541594743728638,
                    -0.038318946957588196,
                    -0.008705900982022285,
                    -0.0690138190984726,
                    -0.13217571377754211
                ],
                [
                    -0.01686965674161911,
                    -0.016695572063326836,
                    -0.05065491795539856,
                    -0.10429342836141586,
                    -0.112554170191288
                ],
                [
                    -0.03939148783683777,
                    -0.039721615612506866,
                    -0.03726308047771454,
                    -0.06577849388122559,
                    -0.09206392616033554
                ]
            ],
            [
                [
                    -0.02790522761642933,
                    -0.05093653127551079,
                    -0.017784100025892258,
                    0.07704076170921326,
                    -0.013657800853252411
                ],
                [
                    -0.035205498337745667,
                    0.04477296397089958,
                    0.0655350312590599,
                    0.044405173510313034,
                    -0.0225681085139513
                ],
                [
                    0.0265510231256485,
                    -0.0027495892718434334,
                    0.010707476176321507,
                    -0.06469278037548065,
                    -0.0719732716679573
                ],
                [
                    0.03651656210422516,
                    0.016180599108338356,
                    -0.02946947142481804,
                    -0.03192928060889244,
                    -0.05097992345690727
                ],
                [
                    0.002849376993253827,
                    -0.017833126708865166,
                    -0.07789238542318344,
                    -0.0705915167927742,
                    -0.12686274945735931
                ]
            ],
            [
                [
                    -0.03699440136551857,
                    -0.06070538982748985,
                    -0.005437715444713831,
                    0.049598149955272675,
                    -0.01651943475008011
                ],
                [
                    -0.010289429686963558,
                    0.06311796605587006,
                    -0.022394271567463875,
                    0.010637338273227215,
                    -0.003883073339238763
                ],
                [
                    0.004733007866889238,
                    0.028638340532779694,
                    0.029578395187854767,
                    -0.0026473773177713156,
                    0.02908703126013279
                ],
                [
                    0.0046930983662605286,
                    -0.008403475396335125,
                    -0.05450822040438652,
                    -0.013359936885535717,
                    0.012897821143269539
                ],
                [
                    -0.028747960925102234,
                    -0.04503854736685753,
                    -0.06254428625106812,
                    -0.045317601412534714,
                    -0.052920371294021606
                ]
            ]
        ],
        [
            [
                [
                    -0.037400681525468826,
                    0.002932072849944234,
                    0.03287310153245926,
                    -0.005394901614636183,
                    -0.02661416307091713
                ],
                [
                    -0.01890377886593342,
                    -0.008075534366071224,
                    -0.036159079521894455,
                    0.014107930473983288,
                    0.07262379676103592
                ],
                [
                    0.01780972070991993,
                    -0.05463600158691406,
                    0.019587229937314987,
                    0.018815742805600166,
                    0.04693760350346565
                ],
                [
                    0.015897389501333237,
                    0.005540595855563879,
                    0.0014183336170390248,
                    -0.009233099408447742,
                    0.03642707318067551
                ],
                [
                    0.02969323843717575,
                    0.029065176844596863,
                    -0.0016622627153992653,
                    0.001171473995782435,
                    -0.06472213566303253
                ]
            ],
            [
                [
                    0.03367956355214119,
                    0.038782887160778046,
                    0.03461873531341553,
                    0.029308278113603592,
                    0.014165228232741356
                ],
                [
                    -0.020034555345773697,
                    0.019253013655543327,
                    0.020369360223412514,
                    -0.00438750721514225,
                    0.0007210817420855165
                ],
                [
                    0.011307958513498306,
                    0.017673026770353317,
                    0.00987914763391018,
                    -0.015812480822205544,
                    0.03677315264940262
                ],
                [
                    0.0264453012496233,
                    -0.09061238914728165,
                    -0.03905145823955536,
                    0.007214545737951994,
                    0.02243761345744133
                ],
                [
                    -0.09397408366203308,
                    -0.024409202858805656,
                    -0.05280950292944908,
                    0.010146155022084713,
                    0.00454774871468544
                ]
            ],
            [
                [
                    -0.1736968606710434,
                    -0.19796165823936462,
                    -0.12802481651306152,
                    -0.1661578267812729,
                    -0.09262711554765701
                ],
                [
                    -0.14691951870918274,
                    -0.20692825317382812,
                    -0.14317089319229126,
                    -0.08965473622083664,
                    -0.05090367794036865
                ],
                [
                    -0.12140767276287079,
                    -0.16695672273635864,
                    -0.104041688144207,
                    -0.029032407328486443,
                    -0.10205522924661636
                ],
                [
                    -0.059572815895080566,
                    -0.20180878043174744,
                    -0.19107931852340698,
                    -0.07184824347496033,
                    -0.04402276128530502
                ],
                [
                    -0.08685749024152756,
                    -0.15278643369674683,
                    -0.15430930256843567,
                    -0.09914866089820862,
                    -0.08099762350320816
                ]
            ],
            [
                [
                    -0.035933274775743484,
                    0.0154764074832201,
                    0.05993746966123581,
                    0.015936333686113358,
                    -0.0018633276922628284
                ],
                [
                    -0.07061536610126495,
                    0.042309291660785675,
                    0.07670432329177856,
                    0.019516821950674057,
                    0.02689412422478199
                ],
                [
                    -0.01806383952498436,
                    0.015315349213778973,
                    0.007829810492694378,
                    0.01512899436056614,
                    0.03482123836874962
                ],
                [
                    0.09606483578681946,
                    0.0715164989233017,
                    -0.03162048012018204,
                    -0.037238579243421555,
                    0.050168778747320175
                ],
                [
                    0.11543463170528412,
                    0.12005665153265,
                    -0.009657747112214565,
                    -0.006374122109264135,
                    0.008220589719712734
                ]
            ],
            [
                [
                    -0.03743935748934746,
                    0.010033576749265194,
                    0.059594664722681046,
                    -0.02397952415049076,
                    -0.06348031759262085
                ],
                [
                    -0.05861958861351013,
                    -0.029024282470345497,
                    0.0017175733810290694,
                    0.06611382216215134,
                    -0.01098609622567892
                ],
                [
                    -0.028352148830890656,
                    0.02552802674472332,
                    -0.015392704866826534,
                    -0.008659075945615768,
                    0.009261091239750385
                ],
                [
                    0.011061875149607658,
                    0.013009520247578621,
                    -0.03904632478952408,
                    -0.03583211079239845,
                    0.006262642797082663
                ],
                [
                    0.1091003492474556,
                    0.06776587665081024,
                    -0.054233700037002563,
                    -0.013400275260210037,
                    -0.017311902716755867
                ]
            ],
            [
                [
                    -0.023279407992959023,
                    0.006336736027151346,
                    0.05420278012752533,
                    0.041415587067604065,
                    0.0356786884367466
                ],
                [
                    -0.04459773749113083,
                    0.0632089152932167,
                    0.03612252697348595,
                    0.02123407833278179,
                    -0.019438307732343674
                ],
                [
                    -0.00433377455919981,
                    0.007390867453068495,
                    0.07202579081058502,
                    -0.03386718034744263,
                    -0.005875707603991032
                ],
                [
                    0.018609201535582542,
                    0.012298629619181156,
                    0.006913929712027311,
                    0.013250963762402534,
                    0.004767271224409342
                ],
                [
                    0.014684387482702732,
                    -0.051474399864673615,
                    -0.04365374147891998,
                    0.02198965661227703,
                    0.06306690722703934
                ]
            ]
        ],
        [
            [
                [
                    0.0010067871771752834,
                    0.008977802470326424,
                    -0.017504006624221802,
                    -0.06932590901851654,
                    -0.09861300140619278
                ],
                [
                    0.013079894706606865,
                    0.03974827006459236,
                    0.008715593256056309,
                    -0.0775325670838356,
                    -0.08639883995056152
                ],
                [
                    0.01126037910580635,
                    0.001240550191141665,
                    -0.006393210496753454,
                    -0.033466216176748276,
                    -0.07646121084690094
                ],
                [
                    0.05459757149219513,
                    0.05304274335503578,
                    0.03632885590195656,
                    0.012105640955269337,
                    0.024119284003973007
                ],
                [
                    0.03209200128912926,
                    -0.021860912442207336,
                    0.04937002435326576,
                    0.00682834442704916,
                    0.008441920392215252
                ]
            ],
            [
                [
                    0.0240943506360054,
                    0.024489937350153923,
                    0.07795963436365128,
                    0.04206939786672592,
                    0.006079352926462889
                ],
                [
                    0.005907721817493439,
                    0.007809869013726711,
                    0.0593109093606472,
                    0.002514258259907365,
                    0.02630096860229969
                ],
                [
                    -0.07614892721176147,
                    -0.07201074063777924,
                    -0.0381496362388134,
                    -0.03715384379029274,
                    -0.05675297975540161
                ],
                [
                    -0.09131722152233124,
                    -0.07000001519918442,
                    -0.049260061234235764,
                    0.0023087235167622566,
                    -0.028090935200452805
                ],
                [
                    -0.04848400875926018,
                    -0.07184138894081116,
                    -0.03062676265835762,
                    -0.016968365758657455,
                    0.07115308195352554
                ]
            ],
            [
                [
                    0.07944635301828384,
                    0.042447708547115326,
                    -0.02410031668841839,
                    -0.0561467669904232,
                    -0.013201362453401089
                ],
                [
                    0.02549874037504196,
                    0.03177478536963463,
                    0.03279340639710426,
                    0.028743157163262367,
                    -0.007013170979917049
                ],
                [
                    0.06193278729915619,
                    0.019678926095366478,
                    0.049045998603105545,
                    -0.07034846395254135,
                    -0.032673172652721405
                ],
                [
                    -0.013212937861680984,
                    -0.021745555102825165,
                    -0.0953933447599411,
                    -0.11295896768569946,
                    -0.12375840544700623
                ],
                [
                    -0.03888050839304924,
                    -0.009665575809776783,
                    -0.0706431046128273,
                    -0.07733789086341858,
                    -0.16539309918880463
                ]
            ],
            [
                [
                    0.10246039927005768,
                    0.133859321475029,
                    -0.04765492305159569,
                    -0.019414998590946198,
                    -0.0055357106029987335
                ],
                [
                    0.11939609050750732,
                    0.14645008742809296,
                    -0.055448416620492935,
                    0.02582378126680851,
                    0.010819096118211746
                ],
                [
                    0.10231097787618637,
                    0.15427392721176147,
                    -0.0333794467151165,
                    0.04390991851687431,
                    0.10291431099176407
                ],
                [
                    0.09261845797300339,
                    0.07764244824647903,
                    -0.10188058018684387,
                    -0.015231190249323845,
                    0.044128868728876114
                ],
                [
                    0.034770332276821136,
                    0.0006042573950253427,
                    -0.09089712798595428,
                    -0.054251253604888916,
                    -0.011950022540986538
                ]
            ],
            [
                [
                    0.11776667088270187,
                    0.1013885959982872,
                    -0.017034346237778664,
                    -0.01574101485311985,
                    0.022490624338388443
                ],
                [
                    0.12746745347976685,
                    0.08708652853965759,
                    -0.04900376871228218,
                    0.02724880538880825,
                    0.054710712283849716
                ],
                [
                    0.06256172060966492,
                    0.023772595450282097,
                    -0.07519734650850296,
                    -0.019526036456227303,
                    0.024999670684337616
                ],
                [
                    0.006398724392056465,
                    0.0035883712116628885,
                    -0.14712519943714142,
                    0.0039178659208118916,
                    0.012579933740198612
                ],
                [
                    -0.05615238472819328,
                    -0.06081681326031685,
                    -0.15070071816444397,
                    -0.04473298788070679,
                    -0.015702717006206512
                ]
            ],
            [
                [
                    0.06765240430831909,
                    0.0907636508345604,
                    0.10863547772169113,
                    0.03933157026767731,
                    0.037431880831718445
                ],
                [
                    -0.0019112903391942382,
                    0.04961693659424782,
                    0.030131801962852478,
                    0.0349980965256691,
                    -0.007366319186985493
                ],
                [
                    0.029151689261198044,
                    -0.025607606396079063,
                    -0.00260332808829844,
                    0.0031296508386731148,
                    0.055339522659778595
                ],
                [
                    -0.07500708103179932,
                    -0.1414729505777359,
                    -0.06071744114160538,
                    -0.04485847055912018,
                    -0.0386156290769577
                ],
                [
                    -0.06692640483379364,
                    -0.1337968111038208,
                    -0.06541743129491806,
                    -0.0738859623670578,
                    -0.0747244581580162
                ]
            ]
        ],
        [
            [
                [
                    -0.05108725652098656,
                    -0.04081055894494057,
                    0.015096459537744522,
                    -0.013765031471848488,
                    -0.03011796623468399
                ],
                [
                    0.004225923214107752,
                    0.06319231539964676,
                    -0.010842354968190193,
                    0.05460603907704353,
                    0.004538214299827814
                ],
                [
                    -0.018661074340343475,
                    0.011820961721241474,
                    -0.009145569987595081,
                    0.022062251344323158,
                    -0.004039265215396881
                ],
                [
                    -0.013275678269565105,
                    -0.0835331529378891,
                    -0.04941273480653763,
                    -0.03899442404508591,
                    -0.0873396173119545
                ],
                [
                    -0.06736665219068527,
                    -0.04049014300107956,
                    -0.03950328752398491,
                    -0.14098258316516876,
                    -0.08802000433206558
                ]
            ],
            [
                [
                    -0.059255000203847885,
                    -0.04654131457209587,
                    -0.10544528812170029,
                    -0.0616278238594532,
                    -0.04295765236020088
                ],
                [
                    -0.060638636350631714,
                    -0.05275649204850197,
                    -0.054134685546159744,
                    -0.015912499278783798,
                    -0.02579192817211151
                ],
                [
                    -0.011978009715676308,
                    0.026047300547361374,
                    -0.040653638541698456,
                    0.05639861896634102,
                    0.05860266834497452
                ],
                [
                    -0.006170876324176788,
                    0.04457191005349159,
                    0.05338085815310478,
                    0.012042708694934845,
                    0.028321772813796997
                ],
                [
                    -0.04376475140452385,
                    -0.00884708296507597,
                    0.012957758270204067,
                    -0.011525118723511696,
                    -0.016156470403075218
                ]
            ],
            [
                [
                    -0.03738601133227348,
                    -0.09190156310796738,
                    -0.00456075556576252,
                    -0.057079996913671494,
                    -0.06472393125295639
                ],
                [
                    0.009373811073601246,
                    -0.012128070928156376,
                    0.036461539566516876,
                    -0.030030900612473488,
                    0.036325205117464066
                ],
                [
                    0.004884358029812574,
                    0.02998954802751541,
                    0.02964426949620247,
                    0.017475854605436325,
                    -0.061355043202638626
                ],
                [
                    -0.022257991135120392,
                    -0.023769350722432137,
                    0.030007045716047287,
                    0.025210900232195854,
                    0.0011195243569090962
                ],
                [
                    -0.011414488777518272,
                    -0.022487936541438103,
                    0.017091356217861176,
                    -0.01485892292112112,
                    0.002190473722293973
                ]
            ],
            [
                [
                    0.05786394700407982,
                    0.08995547890663147,
                    0.04566962271928787,
                    0.05665391683578491,
                    0.044901683926582336
                ],
                [
                    0.09954999387264252,
                    0.12220244109630585,
                    0.09212873131036758,
                    0.10417873412370682,
                    0.07174834609031677
                ],
                [
                    0.143251433968544,
                    0.1050579696893692,
                    0.054012544453144073,
                    -0.015706121921539307,
                    0.08498575538396835
                ],
                [
                    0.07519208639860153,
                    -0.004145663231611252,
                    0.03538142889738083,
                    0.05551769584417343,
                    0.10215777158737183
                ],
                [
                    0.10162366181612015,
                    0.05670970678329468,
                    0.07267791032791138,
                    0.04216556251049042,
                    0.07695895433425903
                ]
            ],
            [
                [
                    -0.057730790227651596,
                    -0.03665154427289963,
                    -0.08307622373104095,
                    -0.05116100236773491,
                    -0.022019796073436737
                ],
                [
                    -0.056767355650663376,
                    -0.05213820934295654,
                    -0.09927897155284882,
                    -0.04928659647703171,
                    -0.0021899191197007895
                ],
                [
                    -0.040917858481407166,
                    -0.10699326545000076,
                    -0.18117104470729828,
                    -0.10911398380994797,
                    -0.051310811191797256
                ],
                [
                    -0.09382031112909317,
                    -0.234530970454216,
                    -0.15962404012680054,
                    -0.08475930988788605,
                    -0.012628838419914246
                ],
                [
                    -0.10869181156158447,
                    -0.10707484185695648,
                    -0.08864080905914307,
                    -0.07481816411018372,
                    -0.038035109639167786
                ]
            ],
            [
                [
                    0.061478305608034134,
                    0.024202585220336914,
                    0.04622284322977066,
                    0.026036549359560013,
                    0.04877142608165741
                ],
                [
                    0.024270249530673027,
                    0.036336500197649,
                    0.027843600139021873,
                    0.06398351490497589,
                    0.06458929926156998
                ],
                [
                    0.0162490401417017,
                    0.012635104358196259,
                    -0.050943780690431595,
                    -0.04245692119002342,
                    -0.009164422750473022
                ],
                [
                    0.006860869470983744,
                    -0.020768294110894203,
                    0.010725180618464947,
                    0.02723083831369877,
                    0.024915657937526703
                ],
                [
                    0.032377224415540695,
                    0.02873547188937664,
                    0.06485084444284439,
                    0.08201385289430618,
                    0.061001189053058624
                ]
            ]
        ],
        [
            [
                [
                    0.0036714912857860327,
                    0.00860847532749176,
                    0.003309674095362425,
                    0.01936575397849083,
                    0.012160063721239567
                ],
                [
                    0.0003347527817822993,
                    0.05666244775056839,
                    0.03551812842488289,
                    0.06762538850307465,
                    0.045153889805078506
                ],
                [
                    0.012943652458488941,
                    0.03778298199176788,
                    0.023473357781767845,
                    0.006706019397825003,
                    -0.005305506754666567
                ],
                [
                    -0.0003286820137873292,
                    0.008005358278751373,
                    -0.02296084724366665,
                    -0.040859855711460114,
                    -0.005111070349812508
                ],
                [
                    -0.06451474875211716,
                    -0.13248752057552338,
                    -0.0842655748128891,
                    -0.04789518937468529,
                    -0.056475959718227386
                ]
            ],
            [
                [
                    0.056452445685863495,
                    0.064992755651474,
                    0.056508347392082214,
                    0.05513707548379898,
                    0.13023601472377777
                ],
                [
                    0.07729293406009674,
                    0.1013728529214859,
                    0.12178074568510056,
                    0.0777837485074997,
                    0.08759455382823944
                ],
                [
                    0.07910783588886261,
                    0.09356629103422165,
                    0.11248340457677841,
                    0.03826625272631645,
                    0.07848227024078369
                ],
                [
                    0.056290287524461746,
                    -0.010819272138178349,
                    -0.049966223537921906,
                    -0.03256947174668312,
                    -0.038980633020401
                ],
                [
                    0.022363116964697838,
                    -0.04337380453944206,
                    -0.006063432432711124,
                    0.014286786317825317,
                    0.04131101816892624
                ]
            ],
            [
                [
                    -0.0350693017244339,
                    -0.0016024194192141294,
                    0.008215605281293392,
                    -0.004505245480686426,
                    -0.053865738213062286
                ],
                [
                    -0.0494028702378273,
                    -0.02213684469461441,
                    -0.025058524683117867,
                    -0.01999952644109726,
                    -0.032249778509140015
                ],
                [
                    0.034073371440172195,
                    0.02089322730898857,
                    0.03197344020009041,
                    -0.002407571766525507,
                    -0.024868493899703026
                ],
                [
                    0.018089542165398598,
                    0.02808034047484398,
                    0.03914641588926315,
                    0.0342860072851181,
                    -0.009748744778335094
                ],
                [
                    -0.00980862695723772,
                    0.03558897227048874,
                    0.02074081264436245,
                    0.01324150338768959,
                    0.019886545836925507
                ]
            ],
            [
                [
                    0.11223428696393967,
                    0.11059843748807907,
                    -0.031371746212244034,
                    0.03304378688335419,
                    0.003481120802462101
                ],
                [
                    0.07119618356227875,
                    0.05044889077544212,
                    -0.03181587904691696,
                    0.03334657475352287,
                    0.05685458704829216
                ],
                [
                    -0.016216596588492393,
                    -0.007953940890729427,
                    -0.026963578537106514,
                    -0.01025340985506773,
                    0.012616121210157871
                ],
                [
                    -0.041377563029527664,
                    -0.024171432480216026,
                    -0.08472631126642227,
                    -0.032204918563365936,
                    0.05725837126374245
                ],
                [
                    -0.049439687281847,
                    -0.10400377959012985,
                    -0.1377716362476349,
                    -0.12846434116363525,
                    -0.025701045989990234
                ]
            ],
            [
                [
                    0.11156376451253891,
                    0.02774910070002079,
                    -0.055988430976867676,
                    -0.00789046660065651,
                    0.015082194469869137
                ],
                [
                    0.018839657306671143,
                    0.0014973707729950547,
                    -0.05344872921705246,
                    -0.04722347855567932,
                    -0.039686013013124466
                ],
                [
                    0.04226914420723915,
                    0.048402659595012665,
                    0.04309554770588875,
                    0.07743936032056808,
                    0.042623016983270645
                ],
                [
                    0.01576555147767067,
                    -0.013222647830843925,
                    -0.007335976231843233,
                    -0.0016228382010012865,
                    -0.03927738964557648
                ],
                [
                    -0.03543425723910332,
                    -0.024189505726099014,
                    0.005335974972695112,
                    -0.01234859973192215,
                    0.01625807210803032
                ]
            ],
            [
                [
                    0.004728649742901325,
                    -0.0376318134367466,
                    0.014435204677283764,
                    0.008385815657675266,
                    0.007880914025008678
                ],
                [
                    0.023383989930152893,
                    0.014450771734118462,
                    -0.013087024912238121,
                    0.020210329443216324,
                    0.03885675594210625
                ],
                [
                    0.0403163768351078,
                    0.03788188844919205,
                    0.022709716111421585,
                    0.035790275782346725,
                    0.0051155127584934235
                ],
                [
                    0.020229710265994072,
                    0.04683521017432213,
                    -0.03555340692400932,
                    0.04648440331220627,
                    -0.019720422104001045
                ],
                [
                    0.022103775292634964,
                    -0.019384797662496567,
                    0.023292526602745056,
                    -0.03112933225929737,
                    -0.06653182953596115
                ]
            ]
        ],
        [
            [
                [
                    -0.0014868732541799545,
                    0.012638506479561329,
                    0.021262740716338158,
                    -0.017738407477736473,
                    0.006027550902217627
                ],
                [
                    0.010728239081799984,
                    0.0643441304564476,
                    -0.01729390397667885,
                    -0.0787293016910553,
                    0.03683058172464371
                ],
                [
                    0.015284551307559013,
                    -0.0041481913067400455,
                    -0.0770377591252327,
                    -0.07652091234922409,
                    0.020339416339993477
                ],
                [
                    -0.008848190307617188,
                    -0.053282465785741806,
                    -0.06399013102054596,
                    -0.0860758125782013,
                    -0.03756508231163025
                ],
                [
                    -0.003388714510947466,
                    -0.06669445335865021,
                    -0.11593527346849442,
                    -0.07157949358224869,
                    -0.04081049934029579
                ]
            ],
            [
                [
                    0.016148945316672325,
                    0.011549212969839573,
                    0.03673289716243744,
                    -0.02184608206152916,
                    0.024961650371551514
                ],
                [
                    0.0012828090693801641,
                    0.03845582529902458,
                    -0.04103400185704231,
                    -0.035869259387254715,
                    -0.003251421730965376
                ],
                [
                    0.05072622001171112,
                    -0.07929547876119614,
                    -0.1158972680568695,
                    -0.08029091358184814,
                    -0.005392161663621664
                ],
                [
                    0.001249784487299621,
                    -0.07813809812068939,
                    -0.03783811628818512,
                    -0.06846964359283447,
                    0.01665055751800537
                ],
                [
                    0.00006388932524714619,
                    -0.04795549437403679,
                    -0.07397112995386124,
                    -0.0890556052327156,
                    -0.046277519315481186
                ]
            ],
            [
                [
                    0.04317456856369972,
                    -0.03255997970700264,
                    -0.04849906265735626,
                    -0.07935761660337448,
                    -0.037206221371889114
                ],
                [
                    0.039396241307258606,
                    -0.025094859302043915,
                    -0.059854164719581604,
                    -0.0560784786939621,
                    0.05463535711169243
                ],
                [
                    -0.009250322356820107,
                    -0.03193918988108635,
                    -0.1025967001914978,
                    -0.018315408378839493,
                    -0.036271605640649796
                ],
                [
                    -0.05127997323870659,
                    -0.09882032126188278,
                    -0.09301438182592392,
                    -0.01749345473945141,
                    -0.0021300537046045065
                ],
                [
                    -0.03844534605741501,
                    -0.08281880617141724,
                    -0.0692053884267807,
                    -0.06462744623422623,
                    0.003594145877286792
                ]
            ],
            [
                [
                    0.012864140793681145,
                    -0.012715944088995457,
                    -0.003765600500628352,
                    0.07443474233150482,
                    0.077506884932518
                ],
                [
                    0.012000332586467266,
                    -0.0015970133244991302,
                    -0.010344147682189941,
                    0.08852327615022659,
                    0.024746660143136978
                ],
                [
                    0.00831005908548832,
                    0.010273399762809277,
                    0.05366000533103943,
                    -0.0023965700529515743,
                    -0.003311913227662444
                ],
                [
                    -0.029402822256088257,
                    0.006458516698330641,
                    -0.01101065892726183,
                    -0.001555690192617476,
                    -0.015676137059926987
                ],
                [
                    0.044706203043460846,
                    0.07435090094804764,
                    0.004887380171567202,
                    -0.01591362990438938,
                    -0.034081075340509415
                ]
            ],
            [
                [
                    0.019072437658905983,
                    -0.0015850344207137823,
                    0.042984653264284134,
                    0.018012136220932007,
                    0.05350031331181526
                ],
                [
                    -0.04652487114071846,
                    0.029506713151931763,
                    0.07329036295413971,
                    0.05654005706310272,
                    0.03567762300372124
                ],
                [
                    -0.02541540190577507,
                    -0.02762005664408207,
                    0.0017497141379863024,
                    -0.012188958935439587,
                    -0.018124395981431007
                ],
                [
                    -0.021964605897665024,
                    0.002917671110481024,
                    -0.024216866120696068,
                    -0.015217624604701996,
                    -0.04023588076233864
                ],
                [
                    -0.008456803858280182,
                    -0.02365676872432232,
                    -0.067986860871315,
                    -0.047212064266204834,
                    -0.038570042699575424
                ]
            ],
            [
                [
                    0.07278604060411453,
                    0.028349360451102257,
                    0.013513211160898209,
                    0.07114145904779434,
                    0.03526335209608078
                ],
                [
                    0.037866201251745224,
                    0.0303389523178339,
                    0.03531615808606148,
                    -0.005954461637884378,
                    -0.0007401554030366242
                ],
                [
                    0.04229231923818588,
                    0.04965491592884064,
                    0.07294359803199768,
                    0.06302202492952347,
                    0.006317113060504198
                ],
                [
                    -0.030327223241329193,
                    -0.02176247350871563,
                    -0.0025748407933861017,
                    0.04532518610358238,
                    0.02603304758667946
                ],
                [
                    0.028904378414154053,
                    0.025825103744864464,
                    0.015038574114441872,
                    0.025856783613562584,
                    0.03008258529007435
                ]
            ]
        ],
        [
            [
                [
                    0.018505539745092392,
                    0.06862518936395645,
                    0.024350732564926147,
                    0.04423483461141586,
                    0.08932112902402878
                ],
                [
                    -0.015029758214950562,
                    -0.0014517257222905755,
                    -0.019714055582880974,
                    0.007169454358518124,
                    0.07159527391195297
                ],
                [
                    -0.06571277976036072,
                    -0.033365264534950256,
                    -0.01837613806128502,
                    -0.006140420679003,
                    -0.02268640510737896
                ],
                [
                    -0.08111149817705154,
                    -0.014786181040108204,
                    -0.009780766442418098,
                    -0.002675397088751197,
                    -0.036482807248830795
                ],
                [
                    0.03903249651193619,
                    0.0013709006598219275,
                    -0.022047709673643112,
                    -0.07644770294427872,
                    -0.04035355523228645
                ]
            ],
            [
                [
                    0.01816204935312271,
                    0.004489969927817583,
                    0.012862705625593662,
                    -0.042183972895145416,
                    -0.038394082337617874
                ],
                [
                    -0.003761455649510026,
                    -0.027733420953154564,
                    -0.0537114180624485,
                    -0.08012025058269501,
                    0.008007751777768135
                ],
                [
                    0.03551642224192619,
                    0.02741982974112034,
                    0.05062690004706383,
                    -0.02450026571750641,
                    0.024960681796073914
                ],
                [
                    0.024199213832616806,
                    0.06299655884504318,
                    0.0659685879945755,
                    0.013568178750574589,
                    0.009854025207459927
                ],
                [
                    -0.03541703149676323,
                    0.016103731468319893,
                    0.08332175761461258,
                    0.027411147952079773,
                    0.023801429197192192
                ]
            ],
            [
                [
                    -0.004846953321248293,
                    0.059588391333818436,
                    0.06714126467704773,
                    0.11273491382598877,
                    0.13227368891239166
                ],
                [
                    0.0011137921828776598,
                    0.05178750306367874,
                    0.006452468689531088,
                    0.021290164440870285,
                    0.05595482513308525
                ],
                [
                    -0.0699855163693428,
                    -0.07756461948156357,
                    -0.02113978937268257,
                    -0.008088862523436546,
                    0.024680588394403458
                ],
                [
                    -0.09115990251302719,
                    0.08165007829666138,
                    0.02260512299835682,
                    0.04135197773575783,
                    -0.01346337329596281
                ],
                [
                    -0.08157820999622345,
                    0.028823701664805412,
                    0.04663610830903053,
                    0.04798055812716484,
                    0.037351060658693314
                ]
            ],
            [
                [
                    -0.06088939681649208,
                    -0.08417338132858276,
                    -0.08639383316040039,
                    -0.093101866543293,
                    -0.06803698092699051
                ],
                [
                    0.03778379037976265,
                    -0.03751806542277336,
                    -0.12812542915344238,
                    -0.1147371232509613,
                    -0.08880184590816498
                ],
                [
                    0.08049482852220535,
                    -0.017462722957134247,
                    -0.07489050179719925,
                    -0.11915303021669388,
                    -0.08297431468963623
                ],
                [
                    -0.03701528161764145,
                    -0.06919731944799423,
                    -0.1054537370800972,
                    -0.12830382585525513,
                    -0.0710020661354065
                ],
                [
                    -0.030808892101049423,
                    -0.09835626929998398,
                    -0.1108112558722496,
                    -0.08742211014032364,
                    -0.05621752515435219
                ]
            ],
            [
                [
                    0.07708010077476501,
                    -0.019169630482792854,
                    0.02185834012925625,
                    0.0029495181515812874,
                    0.12172603607177734
                ],
                [
                    0.04623523727059364,
                    0.03435496985912323,
                    0.006060779560357332,
                    0.015415528789162636,
                    0.04308747872710228
                ],
                [
                    0.04263582453131676,
                    0.026157507672905922,
                    0.017330996692180634,
                    0.004619999323040247,
                    0.08082129061222076
                ],
                [
                    0.06242580711841583,
                    0.059455905109643936,
                    -0.033711131662130356,
                    0.03286465257406235,
                    0.052520982921123505
                ],
                [
                    0.04571569710969925,
                    0.039134491235017776,
                    0.03651392459869385,
                    0.046503033488988876,
                    0.054674919694662094
                ]
            ],
            [
                [
                    0.0027278647758066654,
                    -0.07105335593223572,
                    -0.07214190810918808,
                    -0.11116864532232285,
                    -0.012240421026945114
                ],
                [
                    0.04072650521993637,
                    0.0018540270393714309,
                    -0.003518019337207079,
                    -0.030312372371554375,
                    -0.009531094692647457
                ],
                [
                    0.10921015590429306,
                    0.029444845393300056,
                    -0.022315319627523422,
                    0.010904640890657902,
                    0.07019346207380295
                ],
                [
                    0.15855318307876587,
                    0.13655942678451538,
                    0.06439922004938126,
                    0.023856695741415024,
                    -0.008963226340711117
                ],
                [
                    0.13096433877944946,
                    0.0910976305603981,
                    0.12211346626281738,
                    0.02573053538799286,
                    -0.0023253567051142454
                ]
            ]
        ],
        [
            [
                [
                    -0.07438191771507263,
                    -0.06409306824207306,
                    -0.07613786309957504,
                    -0.000980046228505671,
                    -0.029858287423849106
                ],
                [
                    -0.07132484763860703,
                    -0.04712987318634987,
                    -0.018504615873098373,
                    0.023566709831357002,
                    0.02271292731165886
                ],
                [
                    -0.06462647020816803,
                    -0.051722027361392975,
                    0.017233956605196,
                    -0.020695017650723457,
                    0.011316679418087006
                ],
                [
                    -0.0237556304782629,
                    0.008244738914072514,
                    0.028331205248832703,
                    0.021747177466750145,
                    0.03794783353805542
                ],
                [
                    0.08506318926811218,
                    0.10234196484088898,
                    0.10715579241514206,
                    0.1432548612356186,
                    0.15347783267498016
                ]
            ],
            [
                [
                    -0.038854196667671204,
                    -0.07095619291067123,
                    -0.07552807778120041,
                    -0.011951182968914509,
                    0.011379898525774479
                ],
                [
                    -0.06337272375822067,
                    -0.09826910495758057,
                    0.05394811928272247,
                    0.07566772401332855,
                    0.07958853244781494
                ],
                [
                    -0.07631515711545944,
                    0.00013073597801849246,
                    0.07265399396419525,
                    0.1328374743461609,
                    0.01583988405764103
                ],
                [
                    0.0033537354320287704,
                    0.009796727448701859,
                    0.012650962918996811,
                    -0.04619552567601204,
                    -0.09068754315376282
                ],
                [
                    -0.06617958098649979,
                    -0.06537850946187973,
                    -0.12694525718688965,
                    -0.07291795313358307,
                    -0.021029364317655563
                ]
            ],
            [
                [
                    -0.10502701252698898,
                    -0.07431010901927948,
                    -0.07467416673898697,
                    -0.09819424152374268,
                    0.007186494302004576
                ],
                [
                    -0.002929272362962365,
                    -0.08065716177225113,
                    -0.05217414349317551,
                    -0.08963827043771744,
                    -0.036682553589344025
                ],
                [
                    -0.10338493436574936,
                    -0.1409934163093567,
                    -0.0257757268846035,
                    -0.03944740444421768,
                    0.029782671481370926
                ],
                [
                    -0.06996916979551315,
                    -0.05824851244688034,
                    0.011472553014755249,
                    0.04520847275853157,
                    0.018026461824774742
                ],
                [
                    -0.03169786557555199,
                    -0.02838735841214657,
                    0.043977100402116776,
                    -0.03208606690168381,
                    -0.009675843641161919
                ]
            ],
            [
                [
                    0.00741037679836154,
                    0.0521087720990181,
                    0.10307261347770691,
                    -0.012177182361483574,
                    -0.05789841338992119
                ],
                [
                    0.10625943541526794,
                    0.07070352882146835,
                    0.0189304668456316,
                    -0.04456310346722603,
                    -0.04044230654835701
                ],
                [
                    0.08821144700050354,
                    0.029292458668351173,
                    -0.03226180374622345,
                    -0.0642043948173523,
                    0.037861332297325134
                ],
                [
                    0.05861411616206169,
                    -0.11593912541866302,
                    -0.03809811547398567,
                    -0.0016592007596045732,
                    0.03895944356918335
                ],
                [
                    0.00210164044983685,
                    -0.01421904843300581,
                    0.03496922552585602,
                    -0.00818247627466917,
                    -0.0013789907097816467
                ]
            ],
            [
                [
                    0.03390207514166832,
                    0.016638655215501785,
                    0.05329382047057152,
                    -0.0379573293030262,
                    -0.06495137512683868
                ],
                [
                    0.06239408999681473,
                    0.03997380658984184,
                    -0.00849429052323103,
                    -0.08688249439001083,
                    -0.01577412709593773
                ],
                [
                    0.031353794038295746,
                    -0.07476124912500381,
                    -0.16541314125061035,
                    -0.005443596746772528,
                    0.1017192155122757
                ],
                [
                    0.0423281155526638,
                    0.010987337678670883,
                    0.05726068094372749,
                    0.054441675543785095,
                    0.0738709345459938
                ],
                [
                    0.046707335859537125,
                    0.043075080960989,
                    0.029422160238027573,
                    0.010338402353227139,
                    0.03994273021817207
                ]
            ],
            [
                [
                    -0.06948035210371017,
                    0.017213350161910057,
                    0.012620559893548489,
                    0.024850772693753242,
                    -0.02612094208598137
                ],
                [
                    -0.02484448067843914,
                    0.01298673078417778,
                    -0.056976281106472015,
                    -0.03880711644887924,
                    0.07512321323156357
                ],
                [
                    -0.015414511784911156,
                    -0.14807821810245514,
                    -0.07203765958547592,
                    -0.017495565116405487,
                    0.07128430902957916
                ],
                [
                    -0.08042190223932266,
                    -0.02295854687690735,
                    0.08635112643241882,
                    0.07402562350034714,
                    0.041367217898368835
                ],
                [
                    0.010317095555365086,
                    0.09925613552331924,
                    0.1047031506896019,
                    0.04972083121538162,
                    -0.00030771418823860586
                ]
            ]
        ],
        [
            [
                [
                    -0.038588523864746094,
                    -0.07509173452854156,
                    -0.029468920081853867,
                    -0.05848850682377815,
                    -0.05274369940161705
                ],
                [
                    -0.009371600113809109,
                    -0.031630318611860275,
                    0.0009282639948651195,
                    -0.005004460923373699,
                    0.016222264617681503
                ],
                [
                    -0.05949362367391586,
                    -0.03348708525300026,
                    -0.033442091196775436,
                    -0.01944858580827713,
                    -0.031970225274562836
                ],
                [
                    0.005657413508743048,
                    -0.02663380652666092,
                    -0.02402753382921219,
                    -0.015934327617287636,
                    -0.008326640352606773
                ],
                [
                    -0.03224250674247742,
                    -0.016238413751125336,
                    0.0020612026564776897,
                    0.05050784721970558,
                    0.04649512469768524
                ]
            ],
            [
                [
                    0.03445262089371681,
                    0.03705839440226555,
                    -0.00676776934415102,
                    0.0030717519111931324,
                    0.029709752649068832
                ],
                [
                    0.06133291870355606,
                    0.04433220624923706,
                    0.006215550005435944,
                    0.024308210238814354,
                    0.08399935811758041
                ],
                [
                    0.0018650012789294124,
                    0.031418945640325546,
                    0.023969974368810654,
                    0.018143439665436745,
                    0.06928963959217072
                ],
                [
                    0.10606130212545395,
                    0.09082955121994019,
                    0.11631859093904495,
                    0.09753364324569702,
                    0.08744025975465775
                ],
                [
                    0.0749073177576065,
                    0.018273960798978806,
                    0.03575694188475609,
                    0.0731249749660492,
                    0.09386851638555527
                ]
            ],
            [
                [
                    -0.002988274907693267,
                    0.009155229665338993,
                    0.03240396827459335,
                    -0.03468048572540283,
                    -0.04621470347046852
                ],
                [
                    0.09163912385702133,
                    0.030765600502490997,
                    0.033745329827070236,
                    -0.0031498363241553307,
                    0.03605533391237259
                ],
                [
                    0.03181705251336098,
                    0.024382196366786957,
                    0.023551180958747864,
                    0.06275757402181625,
                    -0.001328720711171627
                ],
                [
                    -0.00048547424376010895,
                    -0.020429017022252083,
                    0.004719353746622801,
                    -0.04370777681469917,
                    -0.03501231223344803
                ],
                [
                    0.12764650583267212,
                    0.13434985280036926,
                    0.10395736247301102,
                    0.10415197163820267,
                    0.09570929408073425
                ]
            ],
            [
                [
                    0.01617201417684555,
                    -0.03914567455649376,
                    -0.058657415211200714,
                    -0.08180546015501022,
                    -0.09595904499292374
                ],
                [
                    -0.0006281562964431942,
                    -0.03129688277840614,
                    -0.0930294319987297,
                    -0.07552503049373627,
                    -0.004989014472812414
                ],
                [
                    -0.02017543464899063,
                    0.04618632420897484,
                    -0.04692618176341057,
                    -0.06846968084573746,
                    -0.036252982914447784
                ],
                [
                    -0.08437825739383698,
                    -0.01864170841872692,
                    -0.04112078621983528,
                    -0.05014920234680176,
                    -0.01896570809185505
                ],
                [
                    -0.10536639392375946,
                    -0.05896468833088875,
                    -0.02209681086242199,
                    -0.025036372244358063,
                    -0.0044269803911447525
                ]
            ],
            [
                [
                    0.006186137441545725,
                    0.0017895017517730594,
                    -0.033442385494709015,
                    -0.10517440736293793,
                    -0.030889879912137985
                ],
                [
                    -0.008437970653176308,
                    0.01716076396405697,
                    -0.028531154617667198,
                    0.001961258240044117,
                    0.018333500251173973
                ],
                [
                    0.03401165083050728,
                    0.08651584386825562,
                    0.03274300694465637,
                    -0.014430454932153225,
                    0.03356526792049408
                ],
                [
                    -0.02030780538916588,
                    0.004359039012342691,
                    0.0404994823038578,
                    0.004083813168108463,
                    -0.010820381343364716
                ],
                [
                    -0.03512074798345566,
                    0.06360641121864319,
                    0.07445049285888672,
                    0.12744881212711334,
                    0.08363061398267746
                ]
            ],
            [
                [
                    -0.034002963453531265,
                    -0.03131052106618881,
                    -0.031307633966207504,
                    -0.061050835996866226,
                    -0.08078047633171082
                ],
                [
                    0.010677885264158249,
                    -0.05770851671695709,
                    -0.013813800178468227,
                    -0.08443775773048401,
                    -0.007384737022221088
                ],
                [
                    0.020654482766985893,
                    0.0424792617559433,
                    0.011460402980446815,
                    -0.0041913134045898914,
                    0.0050911386497318745
                ],
                [
                    -0.030652983114123344,
                    0.03478546440601349,
                    -0.020139239728450775,
                    0.08101779967546463,
                    0.03568589314818382
                ],
                [
                    0.057061705738306046,
                    0.0961994007229805,
                    0.08559732884168625,
                    0.09914818406105042,
                    0.0875014141201973
                ]
            ]
        ],
        [
            [
                [
                    -0.06691840291023254,
                    -0.041570521891117096,
                    -0.04835902526974678,
                    -0.0009038245189003646,
                    -0.037789277732372284
                ],
                [
                    -0.05885818228125572,
                    -0.1033085361123085,
                    -0.020302826538681984,
                    -0.07232097536325455,
                    -0.03439190238714218
                ],
                [
                    -0.08806062489748001,
                    0.009272091090679169,
                    0.04058621823787689,
                    0.0270437840372324,
                    -0.05184582620859146
                ],
                [
                    -0.008266306482255459,
                    0.04611977934837341,
                    0.03391663357615471,
                    0.005664814729243517,
                    0.03218741714954376
                ],
                [
                    0.041242729872465134,
                    0.0295412540435791,
                    0.010409094393253326,
                    0.02307947352528572,
                    0.055685341358184814
                ]
            ],
            [
                [
                    0.059449054300785065,
                    -0.0023935544304549694,
                    0.016623403877019882,
                    0.002912563504651189,
                    0.029482223093509674
                ],
                [
                    -0.07136941701173782,
                    -0.06480317562818527,
                    -0.11909225583076477,
                    -0.08959715813398361,
                    -0.13830557465553284
                ],
                [
                    -0.010904224589467049,
                    -0.017537390813231468,
                    0.010346043854951859,
                    0.008877569809556007,
                    -0.019554952159523964
                ],
                [
                    0.07493437081575394,
                    0.0710991844534874,
                    0.07761045545339584,
                    0.03171220421791077,
                    -0.01849297620356083
                ],
                [
                    0.07684995234012604,
                    0.08007574826478958,
                    0.08735374361276627,
                    0.03386315703392029,
                    0.09520058333873749
                ]
            ],
            [
                [
                    0.05614898353815079,
                    0.061299748718738556,
                    0.05951822176575661,
                    0.010970204137265682,
                    0.05407820641994476
                ],
                [
                    0.08300112187862396,
                    0.10746967792510986,
                    0.13184493780136108,
                    0.12832506000995636,
                    0.0712147057056427
                ],
                [
                    0.06508052349090576,
                    0.04210638999938965,
                    0.04118024557828903,
                    0.029749523848295212,
                    0.009149519726634026
                ],
                [
                    -0.020392104983329773,
                    0.010007579810917377,
                    -0.011446809396147728,
                    0.009627077728509903,
                    0.04476407170295715
                ],
                [
                    0.009455080144107342,
                    0.039060380309820175,
                    -0.012305305339396,
                    0.050418149679899216,
                    0.016631675884127617
                ]
            ],
            [
                [
                    0.01725846901535988,
                    -0.05222948640584946,
                    0.05007566511631012,
                    -0.0026053511537611485,
                    0.026426076889038086
                ],
                [
                    0.019206982105970383,
                    0.027651820331811905,
                    0.060728639364242554,
                    0.0017824380192905664,
                    -0.010886338539421558
                ],
                [
                    0.033894531428813934,
                    0.01386471837759018,
                    0.009291066788136959,
                    -0.02591811679303646,
                    -0.08247033506631851
                ],
                [
                    -0.005194106139242649,
                    -0.10064481943845749,
                    -0.11295576393604279,
                    -0.10398134589195251,
                    -0.07831030339002609
                ],
                [
                    -0.05838432535529137,
                    -0.10723765939474106,
                    -0.10904349386692047,
                    -0.1551184356212616,
                    -0.07733689993619919
                ]
            ],
            [
                [
                    0.018690526485443115,
                    0.07147514820098877,
                    0.039061933755874634,
                    0.023596616461873055,
                    0.022584065794944763
                ],
                [
                    0.10208554565906525,
                    0.1039048433303833,
                    0.06376484781503677,
                    0.05142679437994957,
                    0.05707339569926262
                ],
                [
                    0.07614530622959137,
                    0.10438646376132965,
                    -0.02739376574754715,
                    -0.022136235609650612,
                    -0.014378765597939491
                ],
                [
                    -0.03590041399002075,
                    -0.03887487202882767,
                    -0.08835811167955399,
                    -0.061459239572286606,
                    -0.05851096659898758
                ],
                [
                    -0.06754602491855621,
                    -0.08088347315788269,
                    -0.047163527458906174,
                    -0.06320066750049591,
                    -0.06296489387750626
                ]
            ],
            [
                [
                    0.023811213672161102,
                    0.08604230731725693,
                    0.0767965242266655,
                    0.07497710734605789,
                    -0.008942045271396637
                ],
                [
                    0.09910031408071518,
                    0.1431945413351059,
                    0.13168716430664062,
                    0.10847999900579453,
                    0.09759019315242767
                ],
                [
                    0.07766527682542801,
                    0.04763086885213852,
                    0.04069347307085991,
                    0.052250511944293976,
                    0.027688264846801758
                ],
                [
                    -0.017470963299274445,
                    -0.10406604409217834,
                    -0.09781267493963242,
                    -0.08169759809970856,
                    -0.05593900755047798
                ],
                [
                    -0.07038747519254684,
                    -0.06663685292005539,
                    -0.10399573296308517,
                    -0.12865012884140015,
                    -0.09561002999544144
                ]
            ]
        ],
        [
            [
                [
                    -0.011943214572966099,
                    0.003821199992671609,
                    0.024654623121023178,
                    -0.02739677019417286,
                    0.02969590574502945
                ],
                [
                    0.04478335753083229,
                    -0.03228902071714401,
                    -0.012676983140408993,
                    0.019843852147459984,
                    0.011592600494623184
                ],
                [
                    0.017095055431127548,
                    0.05261045694351196,
                    0.06419182568788528,
                    0.044685374945402145,
                    0.012341143563389778
                ],
                [
                    -0.06756124645471573,
                    -0.02331981062889099,
                    -0.017002781853079796,
                    0.0427413210272789,
                    0.04417698085308075
                ],
                [
                    -0.05098073557019234,
