{
    "conv1.bias": [
        0.12189585715532303,
        -0.05736664682626724,
        0.07010886818170547,
        0.10900465399026871,
        -0.07667643576860428,
        0.05731287598609924
    ],
    "conv1.weight": [
        [
            [
                [
                    0.047153353691101074,
                    0.071064792573452,
                    0.09903246909379959,
                    0.044026341289281845,
                    0.007330780383199453
                ],
                [
                    0.007036211900413036,
                    0.00873861089348793,
                    0.010216670110821724,
                    -0.040841881185770035,
                    0.011529889889061451
                ],
                [
                    -0.02002124674618244,
                    -0.018999069929122925,
                    -0.06107297167181969,
                    -0.06329028308391571,
                    -0.03278126195073128
                ],
                [
                    0.029137400910258293,
                    -0.060163307934999466,
                    0.0003233076131436974,
                    -0.02485281229019165,
                    -0.09977202862501144
                ],
                [
                    -0.03323637321591377,
                    0.04035254195332527,
                    -0.029198847711086273,
                    -0.07044851034879684,
                    -0.07290880382061005
                ]
            ],
            [
                [
                    -0.05242060869932175,
                    0.020108716562390327,
                    0.053121354430913925,
                    -0.050400640815496445,
                    -0.05082402005791664
                ],
                [
                    0.015413840301334858,
                    0.005393394734710455,
                    -0.00288537610322237,
                    0.04308554157614708,
                    -0.05367150530219078
                ],
                [
                    0.03429609537124634,
                    0.004632117226719856,
                    0.010033947415649891,
                    -0.04242204502224922,
                    -0.06845615804195404
                ],
                [
                    -0.012932111509144306,
                    0.09161709249019623,
                    0.011045046150684357,
                    0.015050661750137806,
                    -0.09073233604431152
                ],
                [
                    0.0467093251645565,
                    -0.017172856256365776,
                    -0.05426105856895447,
                    -0.07631333917379379,
                    -0.0701233446598053
                ]
            ],
            [
                [
                    0.13948731124401093,
                    0.0961160734295845,
                    0.1207217201590538,
                    0.11622890830039978,
                    0.01786256954073906
                ],
                [
                    0.09311415255069733,
                    0.17505714297294617,
                    0.1677226722240448,
                    0.08206751197576523,
                    0.013624242506921291
                ],
                [
                    0.11000188440084457,
                    0.10426510870456696,
                    0.11877003312110901,
                    0.06504107266664505,
                    0.004759599920362234
                ],
                [
                    0.12015717476606369,
                    0.180254265666008,
                    0.13122110068798065,
                    0.044831495732069016,
                    0.01849670335650444
                ],
                [
                    0.09179438650608063,
                    0.09816625714302063,
                    0.09344206005334854,
                    0.008158674463629723,
                    0.07066293060779572
                ]
            ]
        ],
        [
            [
                [
                    0.11573287844657898,
                    0.16320480406284332,
                    0.15183846652507782,
                    0.173546701669693,
                    0.13528349995613098
                ],
                [
                    0.10602834820747375,
                    0.0693206638097763,
                    0.18863238394260406,
                    0.13449455797672272,
                    0.1549406498670578
                ],
                [
                    -0.012438790872693062,
                    0.002974995644763112,
                    0.06221958249807358,
                    -0.00688193691894412,
                    -0.014036320149898529
                ],
                [
                    0.0006986812222748995,
                    -0.028176242485642433,
                    -0.06218152493238449,
                    -0.03103761374950409,
                    -0.07104366272687912
                ],
                [
                    -0.09523990750312805,
                    -0.14417602121829987,
                    -0.16219358146190643,
                    -0.0726972222328186,
                    -0.06375621259212494
                ]
            ],
            [
                [
                    0.029290365055203438,
                    0.07914824783802032,
                    0.06037865951657295,
                    0.09718301892280579,
                    0.0571795254945755
                ],
                [
                    0.03197987750172615,
                    0.03324505686759949,
                    0.01663190685212612,
                    0.014963608235120773,
                    -0.009928090497851372
                ],
                [
                    -0.025268089026212692,
                    -0.027164801955223083,
                    -0.0730663612484932,
                    -0.08435918390750885,
                    -0.06618378311395645
                ],
                [
                    -0.08846704661846161,
                    -0.031145023182034492,
                    -0.011047246865928173,
                    -0.07379508018493652,
                    -0.13968858122825623
                ],
                [
                    -0.1191863939166069,
                    -0.07281805574893951,
                    -0.09250469505786896,
                    -0.08313072472810745,
                    -0.17183564603328705
                ]
            ],
            [
                [
                    -0.0018667883705347776,
                    0.05708827078342438,
                    0.038283947855234146,
                    0.058949392288923264,
                    0.0449959933757782
                ],
                [
                    0.05665285885334015,
                    0.047271035611629486,
                    0.044867295771837234,
                    0.04779202491044998,
                    -0.03241773322224617
                ],
                [
                    0.03126527741551399,
                    -0.08003034442663193,
                    -0.042562127113342285,
                    0.002178352791815996,
                    -0.005121615249663591
                ],
                [
                    -0.041319720447063446,
                    -0.00853812787681818,
                    -0.03273535519838333,
                    0.008095338940620422,
                    -0.005342020187526941
                ],
                [
                    -0.0012441474245861173,
                    -0.04893959313631058,
                    -0.013913406990468502,
                    -0.08330298215150833,
                    -0.007058445829898119
                ]
            ]
        ],
        [
            [
                [
                    -0.014052962884306908,
                    -0.023174883797764778,
                    -0.0879310816526413,
                    0.02087399922311306,
                    -0.022549929097294807
                ],
                [
                    -0.07790545374155045,
                    -0.07726799696683884,
                    -0.13416697084903717,
                    -0.0604555569589138,
                    -0.09677314013242722
                ],
                [
                    -0.1812007874250412,
                    -0.0817946344614029,
                    -0.09374284744262695,
                    -0.1027568131685257,
                    -0.1432839035987854
                ],
                [
                    -0.12594327330589294,
                    -0.10014011710882187,
                    -0.07405280321836472,
                    -0.07374393194913864,
                    0.001574225607328117
                ],
                [
                    0.024755187332630157,
                    0.036754999309778214,
                    -0.012055400758981705,
                    -0.022994771599769592,
                    -0.012976993806660175
                ]
            ],
            [
                [
                    0.03208988532423973,
                    0.025876153260469437,
                    0.09721393138170242,
                    0.05841365084052086,
                    0.08343781530857086
                ],
                [
                    0.021043026819825172,
                    -0.004825268872082233,
                    0.026029512286186218,
                    -0.02054847776889801,
                    -0.021657394245266914
                ],
                [
                    -0.004959014244377613,
                    -0.044745635241270065,
                    -0.06539624184370041,
                    0.012221338227391243,
                    -0.021935101598501205
                ],
                [
                    -0.001971122808754444,
                    0.005217076279222965,
                    -0.002619649050757289,
                    0.039203085005283356,
                    0.02542533539235592
                ],
                [
                    0.07567065954208374,
                    0.07935405522584915,
                    0.09058298170566559,
                    0.19225262105464935,
                    0.10313336551189423
                ]
            ],
            [
                [
                    0.008867137134075165,
                    0.05048802122473717,
                    0.1440698355436325,
                    0.1103847473859787,
                    0.05263901501893997
                ],
                [
                    -0.00145348918158561,
                    0.06779011338949203,
                    0.056329939514398575,
                    0.10298586636781693,
                    0.08328323811292648
                ],
                [
                    -0.0007249254267662764,
                    0.08096351474523544,
                    -0.07931282371282578,
                    -0.03353840857744217,
                    -0.03978719934821129
                ],
                [
                    0.013966040685772896,
                    0.02246849797666073,
                    0.0602339468896389,
                    0.022388527169823647,
                    0.01084230188280344
                ],
                [
                    0.05704617500305176,
                    0.00854403618723154,
                    0.0807458683848381,
                    0.04211985692381859,
                    0.10279808193445206
                ]
            ]
        ],
        [
            [
                [
                    -0.06735862791538239,
                    -0.04310278594493866,
                    0.012737627141177654,
                    -0.002272241748869419,
                    0.03634335845708847
                ],
                [
                    -0.09522764384746552,
                    -0.08997074514627457,
                    -0.06678098440170288,
                    0.11178801208734512,
                    0.04298900440335274
                ],
                [
                    -0.08140541613101959,
                    -0.1600014865398407,
                    -0.01720687374472618,
                    0.13262821733951569,
                    0.06769677251577377
                ],
                [
                    -0.07085207104682922,
                    -0.0980820432305336,
                    0.003385082818567753,
                    0.11262857168912888,
                    0.04183231666684151
                ],
                [
                    -0.12331900745630264,
                    0.019408395513892174,
                    0.009100195951759815,
                    0.026269840076565742,
                    0.03873596712946892
                ]
            ],
            [
                [
                    -0.042985424399375916,
                    -0.009946638718247414,
                    0.05569874867796898,
                    0.007372056599706411,
                    0.04691378399729729
                ],
                [
                    -0.04888174682855606,
                    -0.05346021056175232,
                    0.056522123515605927,
                    0.08560144901275635,
                    0.05215169116854668
                ],
                [
                    -0.052613407373428345,
                    -0.14992956817150116,
                    0.07443103194236755,
                    0.16475890576839447,
                    0.055921100080013275
                ],
                [
                    -0.05282345414161682,
                    -0.06822944432497025,
                    0.07740842550992966,
                    0.19337652623653412,
                    0.04809003695845604
                ],
                [
                    -0.025621576234698296,
                    0.029155895113945007,
                    0.0849599838256836,
                    0.0927816852927208,
                    0.06940595805644989
                ]
            ],
            [
                [
                    -0.06206239014863968,
                    -0.07599178701639175,
                    -0.03795236721634865,
                    0.041059769690036774,
                    -0.005713931750506163
                ],
                [
                    -0.057951509952545166,
                    -0.08037776499986649,
                    -0.011873354203999043,
                    0.04215764254331589,
                    0.042456503957509995
                ],
                [
                    -0.043442267924547195,
                    -0.1159844845533371,
                    -0.03295544907450676,
                    0.07384800910949707,
                    -0.001410299097187817
                ],
                [
                    -0.0036065587773919106,
                    -0.07323706895112991,
                    -0.054480649530887604,
                    0.056256286799907684,
                    0.0722307413816452
                ],
                [
                    -0.07073696702718735,
                    0.009893418289721012,
                    0.055715881288051605,
                    -0.021764660254120827,
                    -0.05318009480834007
                ]
            ]
        ],
        [
            [
                [
                    -0.040187086910009384,
                    0.0023066378198564053,
                    0.030692828819155693,
                    0.06479985266923904,
                    0.1318855881690979
                ],
                [
                    -0.045580390840768814,
                    -0.0060910810716450214,
                    -0.046451665461063385,
                    0.019405512139201164,
                    0.1499902904033661
                ],
                [
                    -0.02108827605843544,
                    -0.12482044845819473,
                    -0.053155187517404556,
                    0.017563827335834503,
                    0.130326047539711
                ],
                [
                    -0.07433345168828964,
                    -0.07403780519962311,
                    -0.007418288383632898,
                    0.010375731624662876,
                    0.09761667996644974
                ],
                [
                    -0.009326376020908356,
                    0.029879450798034668,
                    0.01518179289996624,
                    0.08492159098386765,
                    0.06331506371498108
                ]
            ],
            [
                [
                    -0.05864875763654709,
                    -0.13153840601444244,
                    -0.08097357302904129,
                    -0.009052511304616928,
                    0.049229227006435394
                ],
                [
                    -0.10106499493122101,
                    -0.18043427169322968,
                    -0.12790623307228088,
                    -0.0857013389468193,
                    0.0015144880162552
                ],
                [
                    -0.12356247007846832,
                    -0.13869568705558777,
                    -0.05378467217087746,
                    -0.032654423266649246,
                    -0.026859784498810768
                ],
                [
                    -0.07126202434301376,
                    -0.08935204148292542,
                    -0.07521938532590866,
                    -0.030617166310548782,
                    -0.026774071156978607
                ],
                [
                    -0.03749849274754524,
                    -0.02681557461619377,
                    -0.019380124285817146,
                    0.012981914915144444,
                    0.04479062557220459
                ]
            ],
            [
                [
                    0.006676552351564169,
                    -0.03926043212413788,
                    0.07134360820055008,
                    0.014874696731567383,
                    0.045057374984025955
                ],
                [
                    -0.011744550429284573,
                    -0.04271310567855835,
                    -0.02037147991359234,
                    0.05575530603528023,
                    0.02293294668197632
                ],
                [
                    -0.09346884489059448,
                    -0.11229367554187775,
                    -0.0029853375162929296,
                    -0.019893381744623184,
                    0.11465788632631302
                ],
                [
                    -0.02751295268535614,
                    0.010954607278108597,
                    -0.014369760639965534,
                    0.04882591590285301,
                    0.10570140928030014
                ],
                [
                    0.03148274123668671,
                    0.058822330087423325,
                    0.08201311528682709,
                    0.10678497701883316,
                    0.13553063571453094
                ]
            ]
        ],
        [
            [
                [
                    0.10086135566234589,
                    0.002026091329753399,
                    -0.06874828040599823,
                    -0.09539119154214859,
                    -0.06657426059246063
                ],
                [
                    -0.05578414350748062,
                    -0.07290144264698029,
                    -0.12161573767662048,
                    -0.10076652467250824,
                    -0.08183402568101883
                ],
                [
                    -0.03908878192305565,
                    -0.023842791095376015,
                    -0.08106040954589844,
                    -0.08903803676366806,
                    -0.09157472103834152
                ],
                [
                    0.003546003717929125,
                    -0.008396139368414879,
                    0.09625039249658585,
                    0.08925789594650269,
                    0.056047938764095306
                ],
                [
                    -0.027929091826081276,
                    0.05589385703206062,
                    0.1063421294093132,
                    0.11512795835733414,
                    0.10500020533800125
                ]
            ],
            [
                [
                    -0.00043317428207956254,
                    -0.08570227026939392,
                    -0.09677234292030334,
                    -0.09690824151039124,
                    -0.09830814599990845
                ],
                [
                    -0.05214286223053932,
                    -0.09129403531551361,
                    -0.06317100673913956,
                    -0.11784534156322479,
                    -0.12163285911083221
                ],
                [
                    -0.01075158454477787,
                    -0.08087561279535294,
                    0.0346183143556118,
                    -0.02716177888214588,
                    -0.05228253826498985
                ],
                [
                    0.028812546283006668,
                    -0.008085634559392929,
                    0.11966682970523834,
                    0.046360842883586884,
                    0.0769352987408638
                ],
                [
                    0.07293099910020828,
                    0.12351087480783463,
                    0.1234969049692154,
                    0.10531886667013168,
                    0.0993625670671463
                ]
            ],
            [
                [
                    -0.001322576659731567,
                    -0.02144244872033596,
                    -0.09666071832180023,
                    -0.036124154925346375,
                    -0.01572779379785061
                ],
                [
                    -0.010738948360085487,
                    -0.15292797982692719,
                    -0.1158912256360054,
                    -0.02836056612432003,
                    -0.014202508144080639
                ],
                [
                    -0.06599660217761993,
                    -0.0478416346013546,
                    -0.06378449499607086,
                    -0.09259767085313797,
                    0.03942713513970375
                ],
                [
                    0.08488009870052338,
                    0.014711515046656132,
                    0.07484833896160126,
                    0.07337415963411331,
                    -0.0007503447122871876
                ],
                [
                    0.11033520847558975,
                    0.054793715476989746,
                    0.12301430106163025,
                    0.04824618622660637,
                    0.10745779424905777
                ]
            ]
        ]
    ],
    "conv2.bias": [
        0.1508358269929886,
        0.17567184567451477,
        -0.0019247931195423007,
        0.0720883384346962,
        -0.10398709774017334,
        0.18564879894256592,
        -0.04551273211836815,
        0.12265308201313019,
        -0.1151515543460846,
        -0.05268287658691406,
        -0.13046039640903473,
        -0.15472668409347534,
        -0.048743922263383865,
        -0.12685038149356842,
        0.11258941888809204,
        -0.009943446144461632
    ],
    "conv2.weight": [
        [
            [
                [
                    0.02748200111091137,
                    0.054305609315633774,
                    0.02620958909392357,
                    0.021938299760222435,
                    0.0564848817884922
                ],
                [
                    0.02464749477803707,
                    0.01649761013686657,
                    -0.008537912741303444,
                    0.032987985759973526,
                    0.06158139929175377
                ],
                [
                    -0.02644428238272667,
                    0.04092734679579735,
                    0.046529725193977356,
                    0.04054801166057587,
                    0.10271923989057541
                ],
                [
                    0.03291638195514679,
                    0.0794549286365509,
                    0.07160124182701111,
                    0.11032218486070633,
                    0.09025528281927109
                ],
                [
                    0.11352624744176865,
                    0.1286720484495163,
                    0.07460302114486694,
                    0.12059935927391052,
                    0.15675242245197296
                ]
            ],
            [
                [
                    0.030925529077649117,
                    0.0260671004652977,
                    0.005186023656278849,
                    -0.007697431370615959,
                    -0.0162576325237751
                ],
                [
                    0.01778467558324337,
                    -0.021276498213410378,
                    -0.09547755122184753,
                    -0.11991418898105621,
                    -0.0330948568880558
                ],
                [
                    0.0030017676763236523,
                    -0.033415503799915314,
                    -0.057647429406642914,
                    -0.027423659339547157,
                    -0.03272158280014992
                ],
                [
                    -0.041601087898015976,
                    -0.002955931704491377,
                    0.04383492469787598,
                    -0.01388420071452856,
                    0.03456182777881622
                ],
                [
                    0.007825926877558231,
                    0.02855021134018898,
                    0.09481164813041687,
                    0.005705172661691904,
                    -0.0007141808746382594
                ]
            ],
            [
                [
                    0.0012124247150495648,
                    0.0596197284758091,
                    0.05154436454176903,
                    -0.00016965622489806265,
                    0.04292187839746475
                ],
                [
                    0.00278274342417717,
                    0.014022370800375938,
                    0.022412071004509926,
                    0.010918375104665756,
                    -0.020425332710146904
                ],
                [
                    -0.006519184913486242,
                    0.009434652514755726,
                    0.0037147318944334984,
                    0.019005924463272095,
                    0.04798064008355141
                ],
                [
                    0.029443923383951187,
                    -0.0037433088291436434,
                    -0.00880912784487009,
                    0.005943699274212122,
                    0.0647505521774292
                ],
                [
                    0.019472727552056313,
                    0.028242340311408043,
                    -0.004537726286798716,
                    -0.009357928298413754,
                    0.05421566590666771
                ]
            ],
            [
                [
                    -0.035064697265625,
                    -0.030211659148335457,
                    0.04114561900496483,
                    0.05498838052153587,
                    0.013505454175174236
                ],
                [
                    -0.08145006000995636,
                    -0.018345573917031288,
                    -0.025556840002536774,
                    -0.005986595526337624,
                    -0.02322036400437355
                ],
                [
                    -0.030416596680879593,
                    -0.015610032714903355,
                    -0.007165085058659315,
                    -0.08469628542661667,
                    -0.12954279780387878
                ],
                [
                    -0.010686971247196198,
                    0.012800322845578194,
                    -0.049565140157938004,
                    -0.10882596671581268,
                    -0.12197832763195038
                ],
                [
                    -0.0323474146425724,
                    -0.020316459238529205,
                    -0.03858185186982155,
                    -0.05955709517002106,
                    -0.1272113025188446
                ]
            ],
            [
                [
                    -0.007425758056342602,
                    -0.03790946677327156,
                    0.003718420397490263,
                    0.08226575702428818,
                    0.0018117937725037336
                ],
                [
                    -0.025037411600351334,
                    0.052284158766269684,
                    0.0709327682852745,
                    0.04377756640315056,
                    -0.0027713256422430277
                ],
                [
                    0.04901716485619545,
                    0.017371270805597305,
                    0.014319341629743576,
                    -0.04766884446144104,
                    -0.05388018488883972
                ],
                [
                    0.0407952256500721,
                    0.02162187360227108,
                    -0.06572546809911728,
                    -0.020812783390283585,
                    -0.06537041068077087
                ],
                [
                    0.009022539481520653,
                    -0.0013926015235483646,
                    -0.08973199129104614,
                    -0.06085937097668648,
                    -0.1544749140739441
                ]
            ],
            [
                [
                    -0.03565317392349243,
                    -0.06138189136981964,
                    -0.017009809613227844,
                    0.04824505001306534,
                    -0.0017551574856042862
                ],
                [
                    -0.010738876648247242,
                    0.06595926731824875,
                    -0.02995951473712921,
                    -0.010163354687392712,
                    -0.026179635897278786
                ],
                [
                    0.0010596208740025759,
                    0.029652060940861702,
                    0.030942091718316078,
                    -0.0161952693015337,
                    0.005276200827211142
                ],
                [
                    0.018752239644527435,
                    -0.004025430418550968,
                    -0.04721805080771446,
                    -0.010770842432975769,
                    0.002507131779566407
                ],
                [
                    -0.019071416929364204,
                    -0.05151720345020294,
                    -0.06013308838009834,
                    -0.04559904336929321,
                    -0.06593133509159088
                ]
            ]
        ],
        [
            [
                [
                    -0.03427302464842796,
                    0.009725281968712807,
                    0.036653514951467514,
                    -0.0050872452557086945,
                    -0.01666712947189808
                ],
                [
                    -0.010593525134027004,
                    -0.007139379624277353,
                    -0.045633211731910706,
                    0.010980149731040001,
                    0.08030438423156738
                ],
                [
                    0.021052980795502663,
                    -0.0608125664293766,
                    0.015848085284233093,
                    0.022585749626159668,
                    0.05908562242984772
                ],
                [
                    0.008907707408070564,
                    -0.0037131288554519415,
                    -0.005388174671679735,
                    -0.008943602442741394,
                    0.04721670597791672
                ],
                [
                    0.007626550272107124,
                    0.02446228824555874,
                    -0.007422934751957655,
                    -0.001356223481707275,
                    -0.04681653156876564
                ]
            ],
            [
                [
                    0.03995943069458008,
                    0.03911054879426956,
                    0.03291771188378334,
                    0.027773462235927582,
                    0.030880743637681007
                ],
                [
                    -0.009276246652007103,
                    0.03351202979683876,
                    0.0250786691904068,
                    -0.0049423216842114925,
                    0.01079060323536396
                ],
                [
                    0.00973073672503233,
                    0.029963193461298943,
                    0.01642734371125698,
                    -0.01595582626760006,
                    0.03212807700037956
                ],
                [
                    0.012520615942776203,
                    -0.0936630368232727,
                    -0.037725407630205154,
                    0.008052737452089787,
                    0.022586558014154434
                ],
                [
                    -0.10381609946489334,
                    -0.0324917733669281,
                    -0.05496838688850403,
                    0.017486965283751488,
                    0.015799539163708687
                ]
            ],
            [
                [
                    -0.14441464841365814,
                    -0.1795651763677597,
                    -0.11335021257400513,
                    -0.14806629717350006,
                    -0.07393154501914978
                ],
                [
                    -0.12929914891719818,
                    -0.1988966315984726,
                    -0.13209334015846252,
                    -0.08460040390491486,
                    -0.05204825475811958
                ],
                [
                    -0.11614380776882172,
                    -0.1618088036775589,
                    -0.12102919816970825,
                    -0.05847681313753128,
                    -0.13071094453334808
                ],
                [
                    -0.047109413892030716,
                    -0.17590747773647308,
                    -0.17967289686203003,
                    -0.07927337288856506,
                    -0.05376662313938141
                ],
                [
                    -0.09680645912885666,
                    -0.1711817979812622,
                    -0.16852708160877228,
                    -0.12607252597808838,
                    -0.10916328430175781
                ]
            ],
            [
                [
                    -0.020475955680012703,
                    0.01682409644126892,
                    0.040545910596847534,
                    -0.005607475992292166,
                    -0.028949396684765816
                ],
                [
                    -0.06341762095689774,
                    0.05051891878247261,
                    0.07552490383386612,
                    0.00957924872636795,
                    -0.008667380549013615
                ],
                [
                    -0.010584499686956406,
                    0.032764703035354614,
                    0.020257486030459404,
                    0.011864092200994492,
                    0.0033995341509580612
                ],
                [
                    0.10034345090389252,
                    0.08326048403978348,
                    -0.019131172448396683,
                    -0.03323271870613098,
                    0.03764164075255394
                ],
                [
                    0.12407700717449188,
                    0.12575547397136688,
                    -0.004878532141447067,
                    -0.009627540595829487,
                    -0.0075919171795248985
                ]
            ],
            [
                [
                    -0.02318568155169487,
                    0.006446269806474447,
                    0.04905836656689644,
                    -0.026804443448781967,
                    -0.048216115683317184
                ],
                [
                    -0.052196115255355835,
                    -0.02693830616772175,
                    0.0025940872728824615,
                    0.056626297533512115,
                    -0.030389143154025078
                ],
                [
                    -0.033796921372413635,
                    0.028252121061086655,
                    -0.013834078796207905,
                    -0.03099835105240345,
                    -0.017166301608085632
                ],
                [
                    0.007683704607188702,
                    0.018985621631145477,
                    -0.04212740436196327,
                    -0.05936388298869133,
                    -0.012809200212359428
                ],
                [
                    0.10278990119695663,
                    0.06297200918197632,
                    -0.062022123485803604,
                    -0.04238901659846306,
                    -0.046674247831106186
                ]
            ],
            [
                [
                    -0.022523194551467896,
                    0.0095774345099926,
                    0.0644126608967781,
                    0.06511736661195755,
                    0.059682171791791916
                ],
                [
                    -0.048866886645555496,
                    0.06788881123065948,
                    0.052460528910160065,
                    0.049447931349277496,
                    0.005617165006697178
                ],
                [
                    -0.004035679157823324,
                    0.002927161054685712,
                    0.06820221245288849,
                    -0.03803638741374016,
                    -0.003040675539523363
                ],
                [
                    0.023606661707162857,
                    0.005664631724357605,
                    -0.001127330120652914,
                    0.0009467221098020673,
                    0.00010260150884278119
                ],
                [
                    0.0172507856041193,
                    -0.053081806749105453,
                    -0.0549413226544857,
                    0.010632103309035301,
                    0.05739149823784828
                ]
            ]
        ],
        [
            [
                [
                    -0.009298938326537609,
                    -0.009330756030976772,
                    -0.03264669328927994,
                    -0.07452557235956192,
                    -0.058265965431928635
                ],
                [
                    -0.0059616160579025745,
                    0.001979249995201826,
                    -0.01149081066250801,
                    -0.08830507099628448,
                    -0.05993795394897461
                ],
                [
                    0.007508459966629744,
                    -0.020024124532938004,
                    0.004841954912990332,
                    -0.023082127794623375,
                    -0.06254912912845612
                ],
                [
                    0.058497846126556396,
                    0.04284535348415375,
                    0.05489550530910492,
                    0.030700501054525375,
                    0.0378996767103672
                ],
                [
                    0.028570277616381645,
                    -0.028227753937244415,
                    0.05788221210241318,
                    0.03263409063220024,
                    0.03163662925362587
                ]
            ],
            [
                [
                    0.024446411058306694,
                    0.01249233353883028,
                    0.06208600103855133,
                    0.03902876004576683,
                    0.019679777324199677
                ],
                [
                    0.013151145540177822,
                    0.007204296067357063,
                    0.050378184765577316,
                    -0.006758891511708498,
                    0.029564518481492996
                ],
                [
                    -0.0628838762640953,
                    -0.02718813717365265,
                    0.014595936983823776,
                    0.021182291209697723,
                    -0.0005598122952505946
                ],
                [
                    -0.10036452114582062,
                    -0.08290619403123856,
                    -0.03429924696683884,
                    0.023023739457130432,
                    -0.012417941354215145
                ],
                [
                    -0.07962863892316818,
                    -0.09405762702226639,
                    -0.028327465057373047,
                    -0.026379965245723724,
                    0.04676670953631401
                ]
            ],
            [
                [
                    0.08070637285709381,
                    0.04868635907769203,
                    -0.021211402490735054,
                    -0.0589318685233593,
                    -0.016282467171549797
                ],
                [
                    0.020516935735940933,
                    0.02295265719294548,
                    0.005549211986362934,
                    -0.016054661944508553,
                    -0.0491066500544548
                ],
                [
                    0.03407953679561615,
                    -0.0032900182995945215,
                    0.015466080978512764,
                    -0.09849623590707779,
                    -0.04106316715478897
                ],
                [
                    -0.0014428130816668272,
                    -0.01589863933622837,
                    -0.10756853222846985,
                    -0.14205045998096466,
                    -0.13391509652137756
                ],
                [
                    -0.03653972968459129,
                    -0.031188011169433594,
                    -0.10063974559307098,
                    -0.11504640430212021,
                    -0.1838287115097046
                ]
            ],
            [
                [
                    0.10497350990772247,
                    0.12835337221622467,
                    -0.03935752809047699,
                    -0.0038788809906691313,
                    0.008481528609991074
                ],
                [
                    0.09900451451539993,
                    0.15483316779136658,
                    -0.04682612419128418,
                    0.03041253797709942,
                    0.026477277278900146
                ],
                [
                    0.06693319231271744,
                    0.16401764750480652,
                    -0.0077071175910532475,
                    0.037129100412130356,
                    0.11049464344978333
                ],
                [
                    0.06682807207107544,
                    0.10288858413696289,
                    -0.07662959396839142,
                    -0.019920101389288902,
                    0.04929230734705925
                ],
                [
                    0.03379078954458237,
                    0.01931660622358322,
                    -0.07816071808338165,
                    -0.03687126934528351,
                    -0.0032584615983068943
                ]
            ],
            [
                [
                    0.12080354988574982,
                    0.0918547511100769,
                    -0.000275854195933789,
                    0.014890152029693127,
                    0.028719879686832428
                ],
                [
                    0.12203624844551086,
                    0.08025146275758743,
                    -0.046923406422138214,
                    0.03368447721004486,
                    0.049012791365385056
                ],
                [
                    0.0416334830224514,
                    0.03620122745633125,
                    -0.03112422302365303,
                    -0.00007087369885994121,
                    0.04992646723985672
                ],
                [
                    -0.004295624792575836,
                    0.06032861769199371,
                    -0.0688764676451683,
                    0.041023313999176025,
                    0.04398411884903908
                ],
                [
                    -0.042747192084789276,
                    -0.019350500777363777,
                    -0.08572721481323242,
                    0.016487034037709236,
                    0.006802583113312721
                ]
            ],
            [
                [
                    0.08348199725151062,
                    0.11246588826179504,
                    0.12342037260532379,
                    0.040608372539281845,
                    0.03361755982041359
                ],
                [
                    -0.004415631759911776,
                    0.051908377557992935,
                    0.03499000892043114,
                    0.03293958678841591,
                    -0.012133019044995308
                ],
                [
                    0.011350946500897408,
                    -0.03666025027632713,
                    -0.013059626333415508,
                    -0.008935736492276192,
                    0.046091217547655106
                ],
                [
                    -0.07661599665880203,
                    -0.11462202668190002,
                    -0.04793765768408775,
                    -0.009545689448714256,
                    0.005877904128283262
                ],
                [
                    -0.06326016783714294,
                    -0.11290121078491211,
                    -0.06345292180776596,
                    -0.05643712356686592,
                    -0.06085827201604843
                ]
            ]
        ],
        [
            [
                [
                    -0.03615453466773033,
                    -0.02474047988653183,
                    0.016387782990932465,
                    -0.006257913541048765,
                    -0.014307956211268902
                ],
                [
                    0.007533081341534853,
                    0.04224516078829765,
                    -0.05410289764404297,
                    0.044673483818769455,
                    -0.008522315882146358
                ],
                [
                    -0.008315347135066986,
                    -0.028468836098909378,
                    -0.06075748801231384,
                    0.007862298749387264,
                    -0.02994559518992901
                ],
                [
                    -0.021833263337612152,
                    -0.12271838635206223,
                    -0.09755688160657883,
                    -0.05098865181207657,
                    -0.11100413650274277
                ],
                [
                    -0.12291451543569565,
                    -0.10113180428743362,
                    -0.09972420334815979,
                    -0.15656252205371857,
                    -0.10649795830249786
                ]
            ],
            [
                [
                    -0.026079416275024414,
                    -0.005121177062392235,
                    -0.059486694633960724,
                    -0.03560084104537964,
                    -0.030177393928170204
                ],
                [
                    -0.06833026558160782,
                    -0.03619079291820526,
                    -0.028942367061972618,
                    0.02412272058427334,
                    0.029911987483501434
                ],
                [
                    -0.03140994906425476,
                    0.016408439725637436,
                    -0.04887954890727997,
                    0.057973798364400864,
                    0.05645351856946945
                ],
                [
                    -0.00955993589013815,
                    0.032716795802116394,
                    0.045299775898456573,
                    0.009318054653704166,
                    0.02012486569583416
                ],
                [
                    -0.02834041230380535,
                    -0.004752111155539751,
                    0.014905705116689205,
                    -0.005390819162130356,
                    -0.008854170329868793
                ]
            ],
            [
                [
                    0.008916538208723068,
                    -0.042069211602211,
                    0.059923749417066574,
                    -0.00951786246150732,
                    -0.02672325074672699
                ],
                [
                    0.00689029460772872,
                    -0.020077351480722427,
                    0.047004785388708115,
                    -0.009779723361134529,
                    0.06650521606206894
                ],
                [
                    -0.04320089891552925,
                    0.009308479726314545,
                    0.013012783601880074,
                    -0.004290847107768059,
                    -0.04852844774723053
                ],
                [
                    -0.003773047123104334,
                    -0.007983192801475525,
                    0.052267346531152725,
                    0.04957300424575806,
                    0.04197456315159798
                ],
                [
                    -0.0439441092312336,
                    -0.06082933396100998,
                    0.00591982202604413,
                    -0.009615875780582428,
                    0.016332369297742844
                ]
            ],
            [
                [
                    0.05691611394286156,
                    0.06354588270187378,
                    0.06960396468639374,
                    0.051123298704624176,
                    0.05730240046977997
                ],
                [
                    0.10128151625394821,
                    0.10237457603216171,
                    0.12382114678621292,
                    0.09595733880996704,
                    0.09104877710342407
                ],
                [
                    0.13997329771518707,
                    0.09798429161310196,
                    0.08239385485649109,
                    -0.03089122474193573,
                    0.1024462953209877
                ],
                [
                    0.07406380772590637,
                    0.012786300852894783,
                    0.0641404464840889,
                    0.05792594701051712,
                    0.12037348747253418
                ],
                [
                    0.10857189446687698,
                    0.06483038514852524,
                    0.0938413068652153,
                    0.04549366980791092,
                    0.09554556757211685
                ]
            ],
            [
                [
                    -0.08269742876291275,
                    -0.06538260728120804,
                    -0.08171093463897705,
                    -0.06755366921424866,
                    -0.020412998273968697
                ],
                [
                    -0.07783378660678864,
                    -0.06874579191207886,
                    -0.10013686865568161,
                    -0.0750863254070282,
                    0.01797792688012123
                ],
                [
                    -0.07282590866088867,
                    -0.13488532602787018,
                    -0.20273973047733307,
                    -0.14736104011535645,
                    -0.026098603382706642
                ],
                [
                    -0.09437823295593262,
                    -0.20686766505241394,
                    -0.15320546925067902,
                    -0.09393831342458725,
                    0.010349584743380547
                ],
                [
                    -0.11898806691169739,
                    -0.12011756002902985,
                    -0.10547314584255219,
                    -0.07553143799304962,
                    -0.017843833193182945
                ]
            ],
            [
                [
                    0.05407163128256798,
                    0.02558780647814274,
                    0.053172413259744644,
                    0.0377032645046711,
                    0.0716400071978569
                ],
                [
                    0.02680126205086708,
                    0.045798201113939285,
                    0.040519312024116516,
                    0.06645907461643219,
                    0.07165313512086868
                ],
                [
                    -0.03466125205159187,
                    -0.016660697758197784,
                    -0.07338892668485641,
                    -0.0633189007639885,
                    -0.012004421092569828
                ],
                [
                    -0.0007921618525870144,
                    -0.00796525552868843,
                    0.024123214185237885,
                    0.03433356434106827,
                    0.030137093737721443
                ],
                [
                    0.018604721873998642,
                    0.017103098332881927,
                    0.059465594589710236,
                    0.09209198504686356,
                    0.0677441731095314
                ]
            ]
        ],
        [
            [
                [
                    -0.007579633966088295,
                    0.011426104232668877,
                    0.01214578840881586,
                    0.037054289132356644,
                    0.024643659591674805
                ],
                [
                    -0.002141352742910385,
                    0.06217142194509506,
                    0.04371730610728264,
                    0.0658126175403595,
                    0.04084131866693497
                ],
                [
                    0.010343578644096851,
                    0.038411304354667664,
                    0.023124320432543755,
                    -0.02878822758793831,
                    -0.018082067370414734
                ],
                [
                    0.008116539567708969,
                    0.003936079330742359,
                    -0.0291034746915102,
                    -0.061267681419849396,
                    -0.002600687788799405
                ],
                [
                    -0.06408616155385971,
                    -0.15759578347206116,
                    -0.10730020701885223,
                    -0.07381804287433624,
                    -0.06088906154036522
                ]
            ],
            [
                [
                    0.026253748685121536,
                    0.06832147389650345,
                    0.08074302226305008,
                    0.09456691890954971,
                    0.16517412662506104
                ],
                [
                    0.05120497941970825,
                    0.08093475550413132,
                    0.11469986289739609,
                    0.08107750117778778,
                    0.08572408556938171
                ],
                [
                    0.06426061689853668,
                    0.08903057873249054,
                    0.11948262155056,
                    0.048389654606580734,
                    0.0910523310303688
                ],
                [
                    0.052219457924366,
                    -0.016054846346378326,
                    -0.05027257651090622,
                    -0.021662365645170212,
                    -0.01799643039703369
                ],
                [
                    0.01961323991417885,
                    -0.055332474410533905,
                    -0.013189103454351425,
                    0.01327380258589983,
                    0.04599045589566231
                ]
            ],
            [
                [
                    -0.05203228071331978,
                    -0.0110310148447752,
                    -0.013486664742231369,
                    -0.020495595410466194,
                    -0.06520866602659225
                ],
                [
                    -0.043636806309223175,
                    -0.01899626851081848,
                    -0.017414052039384842,
                    -0.00022350202198140323,
                    -0.01090744324028492
                ],
                [
                    0.00936041958630085,
                    -0.010823715478181839,
                    0.0029886290431022644,
                    -0.03218500688672066,
                    -0.04635794460773468
                ],
                [
                    0.0355643555521965,
                    0.05923973768949509,
                    0.05360303446650505,
                    0.048782866448163986,
                    0.004331279080361128
                ],
                [
                    0.014158297330141068,
                    0.03818503022193909,
                    -0.026219382882118225,
                    -0.03424091637134552,
                    -0.022725913673639297
                ]
            ],
            [
                [
                    0.11595802009105682,
                    0.11224208772182465,
                    0.0002686390944290906,
                    0.037335049360990524,
                    -0.0016705886228010058
                ],
                [
                    0.06851553171873093,
                    0.06343354284763336,
                    -0.029528450220823288,
                    0.058360449969768524,
                    0.05206795036792755
                ],
                [
                    -0.01561138965189457,
                    -0.0014193396782502532,
                    -0.03708258643746376,
                    0.01700284332036972,
                    0.02291996404528618
                ],
                [
                    -0.03611321002244949,
                    -0.004268843214958906,
                    -0.09167158603668213,
                    -0.01052470039576292,
                    0.05433161184191704
                ],
                [
                    -0.028216322883963585,
                    -0.07106862962245941,
                    -0.1365492045879364,
                    -0.11163648962974548,
                    -0.03558613732457161
                ]
            ],
            [
                [
                    0.09958181530237198,
                    0.013906827196478844,
                    -0.05310826748609543,
                    -0.044233471155166626,
                    -0.008161868900060654
                ],
                [
                    0.02416904643177986,
                    0.011556419543921947,
                    -0.04149002954363823,
                    -0.029236644506454468,
                    -0.04557310417294502
                ],
                [
                    0.05491972714662552,
                    0.030956273898482323,
                    0.03528665006160736,
                    0.0863875150680542,
                    0.02764846384525299
                ],
                [
                    0.05481724813580513,
                    0.011558125726878643,
                    0.02868092618882656,
                    0.031622666865587234,
                    -0.04739219695329666
                ],
                [
                    0.022064831107854843,
                    0.018773436546325684,
                    0.005620560143142939,
                    -0.016564473509788513,
                    -0.0185712780803442
                ]
            ],
            [
                [
                    -0.011191164143383503,
                    -0.03714868426322937,
                    -0.0006936346180737019,
                    -0.03308704122900963,
                    -0.03444429486989975
                ],
                [
                    0.0033298623748123646,
                    0.00994190014898777,
                    -0.03166031092405319,
                    -0.00046681074309162796,
                    0.023554066196084023
                ],
                [
                    0.030163340270519257,
                    0.008419687859714031,
                    -0.0058016180992126465,
                    0.027054311707615852,
                    -0.0007884535007178783
                ],
                [
                    0.03069479949772358,
                    0.0596386156976223,
                    -0.012332129292190075,
                    0.059432502835989,
                    -0.013941969722509384
                ],
                [
                    0.04282406345009804,
                    -0.0030447125900536776,
                    0.029045527800917625,
                    -0.03367016837000847,
                    -0.07208503782749176
                ]
            ]
        ],
        [
            [
                [
                    0.015693988651037216,
                    0.006345006171613932,
                    0.005785391200333834,
                    -0.05417480319738388,
                    -0.047033414244651794
                ],
                [
                    0.023628341034054756,
                    0.06089599058032036,
                    -0.05285486578941345,
                    -0.15502534806728363,
                    0.0017214784165844321
                ],
                [
                    0.03409168869256973,
                    -0.025234198197722435,
                    -0.1110675111413002,
                    -0.10867413133382797,
                    -0.007622357923537493
                ],
                [
                    0.03088906593620777,
                    -0.05316583439707756,
                    -0.04247647523880005,
                    -0.08999195694923401,
                    -0.05396918207406998
                ],
                [
                    0.038385048508644104,
                    -0.05648043751716614,
                    -0.072142094373703,
                    -0.05085612088441849,
                    -0.0310664139688015
                ]
            ],
            [
                [
                    0.032626211643218994,
                    0.02160354144871235,
                    0.03410495072603226,
                    -0.04139306768774986,
                    -0.014709333889186382
                ],
                [
                    0.023336943238973618,
                    0.054619427770376205,
                    -0.04324115067720413,
                    -0.09672607481479645,
                    -0.06870342791080475
                ],
                [
                    0.06885715574026108,
                    -0.06111498177051544,
                    -0.1179034411907196,
                    -0.11464010924100876,
                    -0.030133388936519623
                ],
                [
                    -0.013206505216658115,
                    -0.09252442419528961,
                    -0.042341820895671844,
                    -0.08212818950414658,
                    0.01690521277487278
                ],
                [
                    -0.013899662531912327,
                    -0.07048500329256058,
                    -0.07724812626838684,
                    -0.08608640730381012,
                    -0.025470614433288574
                ]
            ],
            [
                [
                    0.028915688395500183,
                    -0.054525576531887054,
                    -0.053426921367645264,
                    -0.04443981125950813,
                    0.018196426331996918
                ],
                [
                    0.014303441159427166,
                    -0.039578650146722794,
                    -0.06787293404340744,
                    -0.0604376494884491,
                    0.06098490580916405
                ],
                [
                    -0.022220436483621597,
                    -0.04019514471292496,
                    -0.08505182713270187,
                    0.007916591130197048,
                    -0.00706584332510829
                ],
                [
                    -0.030885325744748116,
                    -0.07521339505910873,
                    -0.06884060800075531,
                    -0.01451649609953165,
                    -0.008108197711408138
                ],
                [
                    -0.018946470692753792,
                    -0.05078893154859543,
                    -0.020282691344618797,
                    -0.01934463158249855,
                    0.04708468168973923
                ]
            ],
            [
                [
                    0.002896359656006098,
                    -0.05196056142449379,
                    -0.043878283351659775,
                    0.05007651075720787,
                    0.08910588175058365
                ],
                [
                    0.0017387556144967675,
                    -0.009147966280579567,
                    -0.020220594480633736,
                    0.08736186474561691,
                    0.045118264853954315
                ],
                [
                    -0.0014425409026443958,
                    0.023859089240431786,
                    0.07031485438346863,
                    0.005635929759591818,
                    0.013510974124073982
                ],
                [
                    -0.03716157749295235,
                    0.03539087250828743,
                    0.015620967373251915,
                    0.008092917501926422,
                    -0.008598965592682362
                ],
                [
                    0.04447164759039879,
                    0.1016756072640419,
                    0.029280023649334908,
                    -0.005977834574878216,
                    -0.026753351092338562
                ]
            ],
            [
                [
                    -0.018337760120630264,
                    -0.04341229051351547,
                    0.01026623323559761,
                    0.012385810725390911,
                    0.08767211437225342
                ],
                [
                    -0.07520848512649536,
                    0.010874931700527668,
                    0.05678732320666313,
                    0.05262482166290283,
                    0.04473687708377838
                ],
                [
                    -0.03895232826471329,
                    -0.037675030529499054,
                    -0.002537204185500741,
                    -0.010883302427828312,
                    -0.02534354105591774
                ],
                [
                    -0.0197280365973711,
                    0.02095220424234867,
                    -0.011635242961347103,
                    -0.02321094647049904,
                    -0.06028665602207184
                ],
                [
                    -0.015650739893317223,
                    -0.011482260189950466,
                    -0.05703664943575859,
                    -0.043880462646484375,
                    -0.052622269839048386
                ]
            ],
            [
                [
                    0.05741068348288536,
                    0.010453058406710625,
                    0.006577650550752878,
                    0.0996619462966919,
                    0.07788953930139542
                ],
                [
                    0.01884523406624794,
                    0.025107605382800102,
                    0.037684254348278046,
                    0.01619047112762928,
                    0.028076818212866783
                ],
                [
                    0.024031290784478188,
                    0.046906977891922,
                    0.07778193801641464,
                    0.0727858692407608,
                    -0.0010280405404046178
                ],
                [
                    -0.036238305270671844,
                    -0.022847654297947884,
                    -0.00536658288910985,
                    0.03378972038626671,
                    0.00013894432049710304
                ],
                [
                    0.020573971793055534,
                    0.022958017885684967,
                    0.007401596289128065,
                    0.017351694405078888,
                    0.020860908553004265
                ]
            ]
        ],
        [
            [
                [
                    0.04288503900170326,
                    0.10395637154579163,
                    0.05125543102622032,
                    0.038135550916194916,
                    0.0567774623632431
                ],
                [
                    0.025874946266412735,
                    0.04228316247463226,
                    0.011703649535775185,
                    -0.004713455215096474,
                    0.026034753769636154
                ],
                [
                    -0.03329479321837425,
                    -0.009894329123198986,
                    -0.004234109539538622,
                    -0.021486353129148483,
                    -0.0397966206073761
                ],
                [
                    -0.120097316801548,
                    -0.04498157277703285,
                    -0.034745022654533386,
                    -0.0350843109190464,
                    -0.04999297112226486
                ],
                [
                    -0.002297906670719385,
                    -0.05937454104423523,
                    -0.07296410948038101,
                    -0.11387954652309418,
                    -0.039406511932611465
                ]
            ],
            [
                [
                    0.02214147336781025,
                    0.0026144145522266626,
                    -0.000560922606382519,
                    -0.06113031879067421,
                    -0.040850862860679626
                ],
                [
                    0.043716561049222946,
                    0.013789653778076172,
                    -0.030486909672617912,
                    -0.08934208005666733,
                    -0.03217184916138649
                ],
                [
                    0.033434443175792694,
                    0.027356283739209175,
                    0.034948695451021194,
                    -0.053535670042037964,
                    -0.02632332406938076
                ],
                [
                    0.019462063908576965,
                    0.02388308383524418,
                    0.031468335539102554,
                    -0.009655250236392021,
                    -0.008420596830546856
                ],
                [
                    -0.023870689794421196,
                    0.001348214689642191,
                    0.05708565562963486,
                    0.015787985175848007,
                    0.028623024001717567
                ]
            ],
            [
                [
                    -0.013753623701632023,
                    0.0573652945458889,
                    0.0713435560464859,
                    0.11666391044855118,
                    0.13677674531936646
                ],
                [
                    -0.003226387081667781,
                    0.047348301857709885,
                    0.03612646088004112,
                    0.07715637236833572,
                    0.09676015377044678
                ],
                [
                    -0.08154149353504181,
                    -0.07414713501930237,
                    -0.01661057583987713,
                    -0.007471519522368908,
                    0.03075726516544819
                ],
                [
                    -0.1925727128982544,
                    0.03405863791704178,
                    0.014657381922006607,
                    0.06264186650514603,
                    0.005117607302963734
                ],
                [
                    -0.11757880449295044,
                    0.012200389057397842,
                    0.056620042771101,
                    0.06307602673768997,
                    0.0369148775935173
                ]
            ],
            [
                [
                    -0.027976131066679955,
                    -0.056966304779052734,
                    -0.09208917617797852,
                    -0.15797114372253418,
                    -0.13508187234401703
                ],
                [
                    0.052350085228681564,
                    -0.020412864163517952,
                    -0.11066804081201553,
                    -0.15724194049835205,
                    -0.12665602564811707
                ],
                [
                    0.05525502189993858,
                    -0.012109743431210518,
                    -0.06815795600414276,
                    -0.15272560715675354,
                    -0.08999849110841751
                ],
                [
                    -0.06960298120975494,
                    -0.027845235541462898,
                    -0.08542009443044662,
                    -0.10115180909633636,
                    -0.053243398666381836
                ],
                [
                    -0.033664558082818985,
                    -0.019735533744096756,
                    -0.06193707883358002,
                    -0.05753456801176071,
                    -0.0400736927986145
                ]
            ],
            [
                [
                    0.10105786472558975,
                    -0.00931517407298088,
                    0.006200503092259169,
                    -0.04222772270441055,
                    0.06884542852640152
                ],
                [
                    0.044863153249025345,
                    0.028201406821608543,
                    0.011968839913606644,
                    -0.017352819442749023,
                    0.009892242960631847
                ],
                [
                    0.012423818930983543,
                    0.019502906128764153,
                    -0.000787559780292213,
                    -0.017521023750305176,
                    0.057606182992458344
                ],
                [
                    0.0232339259237051,
                    0.07813314348459244,
                    -0.029396902769804,
                    0.057784516364336014,
                    0.045577943325042725
                ],
                [
                    0.06416238099336624,
                    0.1015704795718193,
                    0.08094057440757751,
                    0.062373191118240356,
                    0.059487562626600266
                ]
            ],
            [
                [
                    0.019960550591349602,
                    -0.05770392343401909,
                    -0.06398821622133255,
                    -0.11311068385839462,
                    -0.01642395555973053
                ],
                [
                    0.04929961636662483,
                    -0.014792357571423054,
                    -0.028563447296619415,
                    -0.039885878562927246,
                    0.007156852632761002
                ],
                [
                    0.13443678617477417,
                    0.02835521660745144,
                    -0.047269005328416824,
                    0.0029036428313702345,
                    0.09038365632295609
                ],
                [
                    0.15541017055511475,
                    0.13503503799438477,
                    0.07352964580059052,
                    0.03464759513735771,
                    -0.0030699565540999174
                ],
                [
                    0.16555382311344147,
                    0.135311558842659,
                    0.16635555028915405,
                    0.05940275639295578,
                    0.0013424414210021496
                ]
            ]
        ],
        [
            [
                [
                    -0.08443240821361542,
                    -0.06892180442810059,
                    -0.08978383243083954,
                    0.020851261913776398,
                    -0.012554552406072617
                ],
                [
                    -0.06862027943134308,
                    -0.054424647241830826,
                    -0.03100847266614437,
                    0.03211513161659241,
                    0.022644657641649246
                ],
                [
                    -0.040722090750932693,
                    -0.03621457889676094,
                    0.005155959632247686,
                    -0.031166408210992813,
                    0.003803547006100416
                ],
                [
                    0.002885635942220688,
                    0.02329656109213829,
                    0.024286283180117607,
                    0.02549057826399803,
                    0.04272117093205452
                ],
                [
                    0.10325220227241516,
                    0.10260730236768723,
                    0.09012797474861145,
                    0.12630942463874817,
                    0.13716217875480652
                ]
            ],
            [
                [
                    -0.05647483095526695,
                    -0.0933687686920166,
                    -0.09453064203262329,
                    0.004419524688273668,
                    0.04849068447947502
                ],
                [
                    -0.09815683215856552,
                    -0.10507307946681976,
                    0.05048453435301781,
                    0.08144984394311905,
                    0.08752845227718353
                ],
                [
                    -0.0948043242096901,
                    -0.02704644948244095,
                    0.04679565131664276,
                    0.11705196648836136,
                    0.009895548224449158
                ],
                [
                    -0.03522546961903572,
                    -0.032932840287685394,
                    -0.01581723615527153,
                    -0.028825726360082626,
                    -0.07207075506448746
                ],
                [
                    -0.07107008993625641,
                    -0.07073359936475754,
                    -0.13466694951057434,
                    -0.09442473202943802,
                    -0.053157560527324677
                ]
            ],
            [
                [
                    -0.07114946097135544,
                    -0.05993001163005829,
                    -0.04858597368001938,
                    -0.0804988443851471,
                    -0.018914978951215744
                ],
                [
                    -0.005564897321164608,
                    -0.104051373898983,
                    -0.02361338771879673,
                    -0.02245643362402916,
                    0.03473024442791939
                ],
                [
                    -0.07276472449302673,
                    -0.10577185451984406,
                    -0.0006130467518232763,
                    -0.013716262765228748,
                    0.06438561528921127
                ],
                [
                    -0.10001464188098907,
                    -0.08958205580711365,
                    0.00379413110204041,
                    0.040718935430049896,
                    0.011462747119367123
                ],
                [
                    -0.02421010099351406,
                    -0.04442285746335983,
                    0.03173569217324257,
                    -0.021140342578291893,
                    0.02156629040837288
                ]
            ],
            [
                [
                    0.03410554677248001,
                    0.06833983957767487,
                    0.1324446201324463,
                    -0.005636294838041067,
                    -0.0681883916258812
                ],
                [
                    0.12146899849176407,
                    0.06313205510377884,
                    0.038631364703178406,
                    -0.03945111110806465,
                    -0.07153043895959854
                ],
                [
                    0.08145494759082794,
                    0.01783781871199608,
                    -0.004257448948919773,
                    -0.06781326979398727,
                    0.0303257517516613
                ],
                [
                    0.05860601365566254,
                    -0.10524967312812805,
                    -0.04665154218673706,
                    -0.009311775676906109,
                    0.054064467549324036
                ],
                [
                    -0.002473218832165003,
                    -0.022518379613757133,
                    0.023440420627593994,
                    -0.006257167551666498,
                    0.026420196518301964
                ]
            ],
            [
                [
                    0.06109710410237312,
                    0.026105912402272224,
                    0.07777056097984314,
                    -0.04719110205769539,
                    -0.107401542365551
                ],
                [
                    0.07224196195602417,
                    0.014571167528629303,
                    0.012202349491417408,
                    -0.08875118941068649,
                    -0.03710538148880005
                ],
                [
                    0.020606135949492455,
                    -0.09050071239471436,
                    -0.12592270970344543,
                    -0.027246005833148956,
                    0.10874252766370773
                ],
                [
                    0.019220558926463127,
                    -0.010598970577120781,
                    0.04601309821009636,
                    0.042812272906303406,
                    0.0876295268535614
                ],
                [
                    0.04242844879627228,
                    0.01499065849930048,
                    0.03424818441271782,
                    0.03382119908928871,
                    0.06660213321447372
                ]
            ],
            [
                [
                    -0.05650229752063751,
                    0.018373603001236916,
                    0.008842667564749718,
                    0.017144350335001945,
                    -0.03770286962389946
                ],
                [
                    -0.020961524918675423,
                    -0.0036676093004643917,
                    -0.07973767071962357,
                    -0.06747084856033325,
                    0.05591852590441704
                ],
                [
                    -0.007165483199059963,
                    -0.12740494310855865,
                    -0.04544908180832863,
                    0.01523282565176487,
                    0.11790594458580017
                ],
                [
                    -0.0734398365020752,
                    -0.019366053864359856,
                    0.06507537513971329,
                    0.0612146221101284,
                    0.044051393866539
                ],
                [
                    -0.02748318947851658,
                    0.05698971822857857,
                    0.07492979615926743,
                    0.0479336716234684,
                    0.006465735379606485
                ]
            ]
        ],
        [
            [
                [
                    -0.042252685874700546,
                    -0.07892954349517822,
                    -0.04382728040218353,
                    -0.06626927107572556,
                    -0.060816939920186996
                ],
                [
                    -0.0345822237432003,
                    -0.04193209111690521,
                    -0.005161623004823923,
                    -0.01036700140684843,
                    0.013964776881039143
                ],
                [
                    -0.06426776200532913,
                    -0.026814429089426994,
                    -0.02489715814590454,
                    -0.011802500113844872,
                    -0.02983376570045948
                ],
                [
                    0.00447009177878499,
                    -0.016091415658593178,
                    -0.006887900177389383,
                    -0.014250832609832287,
                    -0.004546635318547487
                ],
                [
                    -0.03283624351024628,
                    -0.022672852501273155,
                    -0.0013274799566715956,
                    0.0460372157394886,
                    0.057381771504879
                ]
            ],
            [
                [
                    0.05861832946538925,
                    0.06241312995553017,
                    0.013935520313680172,
                    0.012539474293589592,
                    0.04775825887918472
                ],
                [
                    0.0552472360432148,
                    0.03852160647511482,
                    0.0025646279100328684,
                    0.018911996856331825,
                    0.0712280124425888
                ],
                [
                    -0.007499333005398512,
                    0.03134634345769882,
                    0.02222701534628868,
                    0.016287168487906456,
                    0.06743203848600388
                ],
                [
                    0.09587974846363068,
                    0.08938084542751312,
                    0.12028393894433975,
                    0.09932412207126617,
                    0.09601641446352005
                ],
                [
                    0.07277978956699371,
                    0.019896546378731728,
                    0.049642082303762436,
                    0.08203479647636414,
                    0.11117511242628098
                ]
            ],
            [
                [
                    -0.028808606788516045,
                    -0.017466947436332703,
                    0.0064683291129767895,
                    -0.05507688224315643,
                    -0.05093842372298241
                ],
                [
                    0.08945824950933456,
                    0.026328735053539276,
                    0.03377358242869377,
                    0.009071237407624722,
                    0.04664432257413864
                ],
                [
                    0.01851867139339447,
                    0.009400452487170696,
                    0.015701113268733025,
                    0.055732712149620056,
                    -0.0031720399856567383
                ],
                [
                    -0.027457814663648605,
                    -0.04012896493077278,
                    -0.017257193103432655,
                    -0.05667546018958092,
                    -0.0425206795334816
                ],
                [
                    0.124556764960289,
                    0.14649613201618195,
                    0.11160250008106232,
                    0.10104378312826157,
                    0.08550181984901428
                ]
            ],
            [
                [
                    0.00741915125399828,
                    -0.03806376829743385,
                    -0.03351422771811485,
                    -0.0966978520154953,
                    -0.1113603487610817
                ],
                [
                    -0.004151288885623217,
                    -0.03904930129647255,
                    -0.08267053961753845,
                    -0.0658322125673294,
                    -0.010315070860087872
                ],
                [
                    -0.016856085509061813,
                    0.050610486418008804,
                    -0.044665224850177765,
                    -0.05591978877782822,
                    -0.027166955173015594
                ],
                [
                    -0.08747655153274536,
                    -0.0058455271646380424,
                    -0.03512902185320854,
                    -0.027079235762357712,
                    -0.008782341144979
                ],
                [
                    -0.08158636093139648,
                    -0.031030382961034775,
                    -0.011943847872316837,
                    -0.008496872149407864,
                    0.000056046155805233866
                ]
            ],
            [
                [
                    -0.010307256132364273,
                    -0.011628476902842522,
                    -0.03860615938901901,
                    -0.13796208798885345,
                    -0.0648449957370758
                ],
                [
                    -0.000499914342071861,
                    0.01739959418773651,
                    -0.02201523259282112,
                    -0.014658765867352486,
                    0.0005404541152529418
                ],
                [
                    0.03295867145061493,
                    0.07435285300016403,
                    0.022325262427330017,
                    -0.019939173012971878,
                    0.020687216892838478
                ],
                [
                    -0.020535072311758995,
                    0.0018043647287413478,
                    0.030331002548336983,
                    0.010626786388456821,
                    -0.01506421435624361
                ],
                [
                    -0.000926561770029366,
                    0.08245306462049484,
                    0.0895688384771347,
                    0.13989625871181488,
                    0.07791068404912949
                ]
            ],
            [
                [
                    -0.05028285086154938,
                    -0.03282849118113518,
                    -0.03456488251686096,
                    -0.06421845406293869,
                    -0.07154970616102219
                ],
                [
                    0.01868395134806633,
                    -0.04068256542086601,
                    -0.00032711142557673156,
                    -0.06508052349090576,
                    0.009902928955852985
                ],
                [
                    0.019525213167071342,
                    0.05027873441576958,
                    0.024956097826361656,
                    0.013062477111816406,
                    0.01953386887907982
                ],
                [
                    -0.04484705999493599,
                    0.029760213568806648,
                    -0.010815467685461044,
                    0.08184215426445007,
                    0.03452348709106445
                ],
                [
                    0.06724342703819275,
                    0.10743372142314911,
                    0.09402342140674591,
                    0.09804201126098633,
                    0.07306473702192307
                ]
            ]
        ],
        [
            [
                [
                    -0.0331551656126976,
                    -0.013776121661067009,
                    -0.05065379664301872,
                    -0.0025404791813343763,
                    -0.03370785713195801
                ],
                [
                    -0.05513960123062134,
                    -0.10608657449483871,
                    -0.030385291203856468,
                    -0.07139264047145844,
                    -0.019439134746789932
                ],
                [
                    -0.11978643387556076,
                    -0.022623218595981598,
                    0.010445541702210903,
                    0.006693488918244839,
                    -0.06059452146291733
                ],
                [
                    -0.016330095008015633,
                    0.03258022665977478,
                    0.020188627764582634,
                    -0.0010304043535143137,
                    0.023459743708372116
                ],
                [
                    0.03541048988699913,
                    0.0284655150026083,
                    0.011073724366724491,
                    0.022996583953499794,
                    0.058637600392103195
                ]
            ],
            [
                [
                    0.1052992045879364,
                    0.041491758078336716,
                    0.0371331088244915,
                    0.009344883263111115,
                    0.039968013763427734
                ],
                [
                    -0.03854576125741005,
                    -0.03757695108652115,
                    -0.10240684449672699,
                    -0.07962371408939362,
                    -0.10628192126750946
                ],
                [
                    -0.07602211833000183,
                    -0.06388743221759796,
                    0.008125804364681244,
                    0.029438180848956108,
                    0.012180370278656483
                ],
                [
                    0.03998764604330063,
                    0.041995372623205185,
                    0.07383791357278824,
                    0.0487247109413147,
                    0.009195607155561447
                ],
                [
                    0.08432477712631226,
                    0.07853467762470245,
                    0.09192673861980438,
                    0.03073888085782528,
                    0.0821242406964302
                ]
            ],
            [
                [
                    0.020438089966773987,
                    0.03876420855522156,
                    0.05287894234061241,
                    0.004726892337203026,
                    0.05698615685105324
                ],
                [
                    0.08076170831918716,
                    0.10634099692106247,
                    0.14807617664337158,
                    0.1512967348098755,
                    0.08886300772428513
                ],
                [
                    0.043547745794057846,
                    0.04157060757279396,
                    0.05147470161318779,
                    0.04285294935107231,
                    0.02083609066903591
                ],
                [
                    -0.01594366505742073,
                    0.002185284160077572,
                    -0.03248484805226326,
                    0.003295663744211197,
                    0.020664721727371216
                ],
                [
                    -0.010489950887858868,
                    0.02093099057674408,
                    -0.0315888412296772,
                    0.040581174194812775,
                    0.009661424905061722
                ]
            ],
            [
                [
                    0.022045906633138657,
                    -0.05682464316487312,
                    0.050891004502773285,
                    0.018144667148590088,
                    0.05087116360664368
                ],
                [
                    0.005675900261849165,
                    0.024360794574022293,
                    0.04646489396691322,
                    0.00353816244751215,
                    -0.031721387058496475
                ],
                [
                    0.027953382581472397,
                    0.010968613438308239,
                    -0.008282406255602837,
                    -0.03772914037108421,
                    -0.11366752535104752
                ],
                [
                    -0.0012525757774710655,
                    -0.08804599940776825,
                    -0.12829412519931793,
                    -0.1241377741098404,
                    -0.1173810139298439
                ],
                [
                    -0.04173337295651436,
                    -0.09198053181171417,
                    -0.1334015280008316,
                    -0.16821658611297607,
                    -0.12018030881881714
                ]
            ],
            [
                [
                    -0.013570291921496391,
                    0.03657665103673935,
                    0.0011110304621979594,
                    0.001071263337507844,
                    -0.0057242694310843945
                ],
                [
                    0.11353033781051636,
                    0.10818702727556229,
                    0.05310557782649994,
                    0.05566314607858658,
                    0.02802332490682602
                ],
                [
                    0.09313289821147919,
                    0.10246175527572632,
                    -0.04876507818698883,
                    -0.03274768590927124,
                    -0.04056035354733467
                ],
                [
                    -0.021652908995747566,
                    -0.03741162270307541,
                    -0.10886796563863754,
                    -0.057297464460134506,
                    -0.04977894201874733
                ],
                [
                    -0.02417057193815708,
                    -0.057377416640520096,
                    -0.06035638973116875,
                    -0.05576089397072792,
                    -0.07674755156040192
                ]
            ],
            [
                [
                    -0.05701678991317749,
                    0.037577297538518906,
                    0.04394418001174927,
                    0.04596377909183502,
                    -0.03469625860452652
                ],
                [
                    0.0765877366065979,
                    0.1284109354019165,
                    0.12160099297761917,
                    0.1007855162024498,
                    0.07901065796613693
                ],
                [
                    0.08234249800443649,
                    0.0560641810297966,
                    0.048829302191734314,
                    0.06396901607513428,
                    0.04215092957019806
                ],
                [
                    -0.0033564313780516386,
                    -0.07949396222829819,
                    -0.06867598742246628,
                    -0.07001043111085892,
                    -0.03756964951753616
                ],
                [
                    -0.0734252855181694,
                    -0.06247495859861374,
                    -0.09112951159477234,
                    -0.12495588511228561,
                    -0.09951134771108627
                ]
            ]
        ],
        [
            [
                [
                    -0.029214000329375267,
                    0.0008714519208297133,
                    0.031046628952026367,
                    -0.025300290435552597,
                    0.025908054783940315
                ],
                [
                    0.03662747144699097,
                    -0.0322890430688858,
                    -0.005158582702279091,
                    0.019186604768037796,
                    -0.0009181139757856727
                ],
                [
                    0.02293114922940731,
                    0.051922205835580826,
                    0.06231824308633804,
                    0.016519490629434586,
                    -0.014243117533624172
                ],
                [
                    -0.03764653578400612,
                    -0.011543096974492073,
                    -0.022601088508963585,
                    0.015269700437784195,
                    0.00856680329889059
                ],
                [
                    -0.033765748143196106,
