{
    "conv1.bias": [
        0.09923047572374344,
        -0.02319398708641529,
        0.07336673885583878,
        0.0995115116238594,
        -0.04586505517363548,
        0.029701929539442062
    ],
    "conv1.weight": [
        [
            [
                [
                    0.05911223217844963,
                    0.06979703158140182,
                    0.09155308455228806,
                    0.03879088535904884,
                    0.004938578698784113
                ],
                [
                    0.005487767979502678,
                    -0.0056763640604913235,
                    -0.0025394796393811703,
                    -0.040373120456933975,
                    0.00866946205496788
                ],
                [
                    -0.034229129552841187,
                    -0.04124869778752327,
                    -0.07552988082170486,
                    -0.06828821450471878,
                    -0.04314827919006348
                ],
                [
                    0.013204976916313171,
                    -0.0739687830209732,
                    0.0011613192036747932,
                    -0.018853645771741867,
                    -0.10374083369970322
                ],
                [
                    -0.030253088101744652,
                    0.0388927198946476,
                    -0.013521406799554825,
                    -0.040677279233932495,
                    -0.049939416348934174
                ]
            ],
            [
                [
                    -0.010262560099363327,
                    0.04082489386200905,
                    0.06559118628501892,
                    -0.03985949233174324,
                    -0.032347600907087326
                ],
                [
                    0.03502102941274643,
                    0.006197237875312567,
                    -0.002585095353424549,
                    0.051131971180438995,
                    -0.038364477455616
                ],
                [
                    0.03553809970617294,
                    -0.005665876436978579,
                    0.008381843566894531,
                    -0.03320528566837311,
                    -0.06048953905701637
                ],
                [
                    -0.02046586014330387,
                    0.0790051817893982,
                    0.019076863303780556,
                    0.03330257907509804,
                    -0.07901740074157715
                ],
                [
                    0.057330694049596786,
                    -0.015744375064969063,
                    -0.03285082057118416,
                    -0.02989105135202408,
                    -0.028148522600531578
                ]
            ],
            [
                [
                    0.16123051941394806,
                    0.09329449385404587,
                    0.10656493902206421,
                    0.10274934768676758,
                    0.023514099419116974
                ],
                [
                    0.09253624081611633,
                    0.1506931185722351,
                    0.1387699991464615,
                    0.06799312680959702,
                    0.012240579351782799
                ],
                [
                    0.0873933881521225,
                    0.0661197081208229,
                    0.08648144453763962,
                    0.0504227876663208,
                    -0.004970154259353876
                ],
                [
                    0.08409830927848816,
                    0.13758717477321625,
                    0.10783400386571884,
                    0.0400250181555748,
                    0.01711108162999153
                ],
                [
                    0.07842329144477844,
                    0.07452420145273209,
                    0.09327273815870285,
                    0.03780745714902878,
                    0.10596929490566254
                ]
            ]
        ],
        [
            [
                [
                    0.10642442107200623,
                    0.13252706825733185,
                    0.11685896664857864,
                    0.13557973504066467,
                    0.09150837361812592
                ],
                [
                    0.10948730260133743,
                    0.05663341283798218,
                    0.16756460070610046,
                    0.10944928973913193,
                    0.12426776438951492
                ],
                [
                    -0.0017639290308579803,
                    0.014575615525245667,
                    0.07479013502597809,
                    0.002550051547586918,
                    -0.020519427955150604
                ],
                [
                    0.007131468504667282,
                    -0.015671879053115845,
                    -0.0432603657245636,
                    -0.01432364247739315,
                    -0.06628699600696564
                ],
                [
                    -0.08036336302757263,
                    -0.12461956590414047,
                    -0.13312850892543793,
                    -0.04791294038295746,
                    -0.04247518628835678
                ]
            ],
            [
                [
                    0.017971090972423553,
                    0.04444943368434906,
                    0.02021331526339054,
                    0.05856044590473175,
                    0.012273083440959454
                ],
                [
                    0.03375735506415367,
                    0.025383340194821358,
                    0.00698067294433713,
                    0.0030761288944631815,
                    -0.029804695397615433
                ],
                [
                    -0.022445309907197952,
                    -0.015522057190537453,
                    -0.05502406880259514,
                    -0.0712769478559494,
                    -0.07014093548059464
                ],
                [
                    -0.09866368025541306,
                    -0.03435894846916199,
                    -0.005708732176572084,
                    -0.06989981979131699,
                    -0.14544816315174103
                ],
                [
                    -0.12461172789335251,
                    -0.07332401722669601,
                    -0.08262461423873901,
                    -0.07745254784822464,
                    -0.16897720098495483
                ]
            ],
            [
                [
                    0.01793024316430092,
                    0.06357575207948685,
                    0.04090508446097374,
                    0.06183059886097908,
                    0.04555526003241539
                ],
                [
                    0.07763999700546265,
                    0.0631927028298378,
                    0.0627683475613594,
                    0.06467587500810623,
                    -0.021113546565175056
                ],
                [
                    0.03820668160915375,
                    -0.06568847596645355,
                    -0.019957371056079865,
                    0.017404720187187195,
                    -0.0012768732849508524
                ],
                [
                    -0.05398356541991234,
                    -0.014560608193278313,
                    -0.0336960032582283,
                    0.005978460889309645,
                    -0.013256661593914032
                ],
                [
                    -0.014672264456748962,
                    -0.05735073611140251,
                    -0.016527002677321434,
                    -0.08627831935882568,
                    -0.012127765454351902
                ]
            ]
        ],
        [
            [
                [
                    -0.012249584309756756,
                    -0.023864077404141426,
                    -0.09013628214597702,
                    0.01105685718357563,
                    -0.03632263094186783
                ],
                [
                    -0.06504922360181808,
                    -0.06874991208314896,
                    -0.12017522007226944,
                    -0.05264503136277199,
                    -0.08357854932546616
                ],
                [
                    -0.1596178561449051,
                    -0.06493222713470459,
                    -0.06860356032848358,
                    -0.08456236124038696,
                    -0.11424960941076279
                ],
                [
                    -0.09353648871183395,
                    -0.073900006711483,
                    -0.038882941007614136,
                    -0.04031740874052048,
                    0.03421029821038246
                ],
                [
                    0.04494089633226395,
                    0.048403725028038025,
                    0.0029496329370886087,
                    -0.004777621012181044,
                    -0.0020304801873862743
                ]
            ],
            [
                [
                    -0.0022358857095241547,
                    -0.015861039981245995,
                    0.05010870099067688,
                    0.005633349530398846,
                    0.029845912009477615
                ],
                [
                    0.0041133868508040905,
                    -0.02820214070379734,
                    0.003728048875927925,
                    -0.05220075324177742,
                    -0.04855744168162346
                ],
                [
                    -0.004621180240064859,
                    -0.05370349809527397,
                    -0.06798584759235382,
                    -0.0004998576478101313,
                    -0.02798590064048767
                ],
                [
                    0.007873049937188625,
                    0.0037033988628536463,
                    -0.0032516070641577244,
                    0.02785545028746128,
                    0.012473922222852707
                ],
                [
                    0.07445741444826126,
                    0.06378253549337387,
                    0.07162986695766449,
                    0.17412598431110382,
                    0.077772356569767
                ]
            ],
            [
                [
                    -0.011250731535255909,
                    0.01918250136077404,
                    0.10629767924547195,
                    0.06804610043764114,
                    0.010617167688906193
                ],
                [
                    -0.014579277485609055,
                    0.04732789471745491,
                    0.03582599014043808,
                    0.07303072512149811,
                    0.055315155535936356
                ],
                [
                    0.004633031319826841,
                    0.07973414659500122,
                    -0.07910104095935822,
                    -0.04768592491745949,
                    -0.04609851911664009
                ],
                [
                    0.03522518649697304,
                    0.032433152198791504,
                    0.06784447282552719,
                    0.018124019727110863,
                    0.005599796772003174
                ],
                [
                    0.08377495408058167,
                    0.01869729533791542,
                    0.08595641702413559,
                    0.04545646533370018,
                    0.09814832359552383
                ]
            ]
        ],
        [
            [
                [
                    -0.06874124705791473,
                    -0.034076642245054245,
                    0.006375506054610014,
                    -0.018915779888629913,
                    0.014484274201095104
                ],
                [
                    -0.07596693187952042,
                    -0.05132520943880081,
                    -0.061817098408937454,
                    0.08360123634338379,
                    0.020053740590810776
                ],
                [
                    -0.05396856367588043,
                    -0.10712766647338867,
                    -0.019714443013072014,
                    0.08487193286418915,
                    0.044525809586048126
                ],
                [
                    -0.041995901614427567,
                    -0.0644213855266571,
                    -0.015413639135658741,
                    0.0681457370519638,
                    0.028945613652467728
                ],
                [
                    -0.10080357640981674,
                    0.013646170496940613,
                    -0.0184722151607275,
                    0.012671516276896,
                    0.04030527547001839
                ]
            ],
            [
                [
                    -0.04004256799817085,
                    0.006054382771253586,
                    0.05925660580396652,
                    -0.0023030380252748728,
                    0.03547296300530434
                ],
                [
                    -0.030000057071447372,
                    -0.014268682338297367,
                    0.06810059398412704,
                    0.06642568111419678,
                    0.04206971824169159
                ],
                [
                    -0.030404122546315193,
                    -0.10273931920528412,
                    0.0771649032831192,
                    0.1269071102142334,
                    0.05182228237390518
                ],
                [
                    -0.0303433146327734,
                    -0.039459917694330215,
                    0.05907737463712692,
                    0.15670256316661835,
                    0.05143202468752861
                ],
                [
                    -0.009313592687249184,
                    0.021202942356467247,
                    0.054951950907707214,
                    0.07994624227285385,
                    0.07777632772922516
                ]
            ],
            [
                [
                    -0.06809311360120773,
                    -0.07616337388753891,
                    -0.046159837394952774,
                    0.020901110023260117,
                    -0.028841504827141762
                ],
                [
                    -0.05171309784054756,
                    -0.06178734824061394,
                    -0.01499854028224945,
                    0.011714030988514423,
                    0.0181406382471323
                ],
                [
                    -0.037699971348047256,
                    -0.09130614250898361,
                    -0.041206538677215576,
                    0.03074115887284279,
                    -0.016466110944747925
                ],
                [
                    0.006466808263212442,
                    -0.059834472835063934,
                    -0.07319982349872589,
                    0.017089402303099632,
                    0.06538816541433334
                ],
                [
                    -0.06139450892806053,
                    -0.00037315537338145077,
                    0.03341136500239372,
                    -0.03625674918293953,
                    -0.054265476763248444
                ]
            ]
        ],
        [
            [
                [
                    -0.0393901951611042,
                    0.009765824303030968,
                    0.029879171401262283,
                    0.04098733887076378,
                    0.1005115956068039
                ],
                [
                    -0.046048909425735474,
                    -0.002764315577223897,
                    -0.05354355648159981,
                    -0.0145372673869133,
                    0.10663331300020218
                ],
                [
                    -0.02915649302303791,
                    -0.1262465864419937,
                    -0.062128253281116486,
                    -0.015406740829348564,
                    0.09200217574834824
                ],
                [
                    -0.06972869485616684,
                    -0.06319507211446762,
                    -0.014615523628890514,
                    -0.013765832409262657,
                    0.07961396127939224
                ],
                [
                    -0.0013105819234624505,
                    0.04373043403029442,
                    0.005234996322542429,
                    0.05827486142516136,
                    0.043105799704790115
                ]
            ],
            [
                [
                    -0.034693643450737,
                    -0.09748271852731705,
                    -0.051461078226566315,
                    0.0014494751812890172,
                    0.047091614454984665
                ],
                [
                    -0.0775623470544815,
                    -0.15204966068267822,
                    -0.10198459774255753,
                    -0.07981709390878677,
                    -0.00801917165517807
                ],
                [
                    -0.10380233079195023,
                    -0.1163775771856308,
                    -0.03381030634045601,
                    -0.03291236609220505,
                    -0.03578879311680794
                ],
                [
                    -0.04019681364297867,
                    -0.053950127214193344,
                    -0.05705808848142624,
                    -0.028108814731240273,
                    -0.0225847028195858
                ],
                [
                    -0.0020089324098080397,
                    0.014366847462952137,
                    -0.004807419143617153,
                    0.015115266665816307,
                    0.05308433622121811
                ]
            ],
            [
                [
                    0.011007868684828281,
                    -0.025460300967097282,
                    0.0834401324391365,
                    0.013028719462454319,
                    0.03840159252285957
                ],
                [
                    -0.0065906536765396595,
                    -0.03305872157216072,
                    -0.013668584637343884,
                    0.04713858291506767,
                    0.00004402787089929916
                ],
                [
                    -0.0870802029967308,
                    -0.10440938919782639,
                    0.00178920931648463,
                    -0.03206058591604233,
                    0.09183996170759201
                ],
                [
                    -0.015106543898582458,
                    0.02458963170647621,
                    -0.01677362620830536,
                    0.028753502294421196,
                    0.08739342540502548
                ],
                [
                    0.04348078370094299,
                    0.07222115993499756,
                    0.06920256465673447,
                    0.0787351205945015,
                    0.11474388837814331
                ]
            ]
        ],
        [
            [
                [
                    0.08706613630056381,
                    0.001042590825818479,
                    -0.03692490980029106,
                    -0.0541975274682045,
                    -0.03644108772277832
                ],
                [
                    -0.04429836943745613,
                    -0.05610690638422966,
                    -0.09458393603563309,
                    -0.076506607234478,
                    -0.05989208072423935
                ],
                [
                    0.0011242952896282077,
                    0.0022893219720572233,
                    -0.06302763521671295,
                    -0.0564810186624527,
                    -0.05143456906080246
                ],
                [
                    0.03198038786649704,
                    -0.008315464481711388,
                    0.07810676842927933,
                    0.08295851945877075,
                    0.07740772515535355
                ],
                [
                    -0.021568764001131058,
                    0.026949435472488403,
                    0.06575807183980942,
                    0.0817255973815918,
                    0.10063505917787552
                ]
            ],
            [
                [
                    -0.036035336554050446,
                    -0.0962432399392128,
                    -0.07582733035087585,
                    -0.0696873813867569,
                    -0.0786675363779068
                ],
                [
                    -0.053816940635442734,
                    -0.08323588222265244,
                    -0.04056096822023392,
                    -0.10162489861249924,
                    -0.11196345835924149
                ],
                [
                    0.01908145286142826,
                    -0.06584981083869934,
                    0.041077401489019394,
                    -0.010905930772423744,
                    -0.030162163078784943
                ],
                [
                    0.05223165825009346,
                    -0.018397202715277672,
                    0.09161368012428284,
                    0.030756717547774315,
                    0.08926001191139221
                ],
                [
                    0.07604385167360306,
                    0.08552098274230957,
                    0.07887622714042664,
                    0.06896460056304932,
                    0.092215396463871
                ]
            ],
            [
                [
                    -0.022414254024624825,
                    -0.0248294435441494,
                    -0.07920705527067184,
                    -0.02037806622684002,
                    -0.012576320208609104
                ],
                [
                    -0.0010554231703281403,
                    -0.13584718108177185,
                    -0.09234072268009186,
                    -0.015468268655240536,
                    -0.011028921231627464
                ],
                [
                    -0.028963372111320496,
                    -0.02698233537375927,
                    -0.049567192792892456,
                    -0.07871907204389572,
                    0.04996142536401749
                ],
                [
                    0.10763663053512573,
                    0.006161424331367016,
                    0.05205733701586723,
                    0.05389682948589325,
                    -0.006214209832251072
                ],
                [
                    0.11051411926746368,
                    0.017970068380236626,
                    0.08107219636440277,
                    0.006056295242160559,
                    0.07889267057180405
                ]
            ]
        ]
    ],
    "conv2.bias": [
        0.13195709884166718,
        0.1422496736049652,
        0.03155628964304924,
        0.05407191812992096,
        -0.07284699380397797,
        0.13342556357383728,
        -0.03287474066019058,
        0.09485705196857452,
        -0.08102312684059143,
        -0.01981273666024208,
        -0.09012497216463089,
        -0.12754149734973907,
        -0.01954137533903122,
        -0.10449380427598953,
        0.07822929322719574,
        -0.022268587723374367
    ],
    "conv2.weight": [
        [
            [
                [
                    0.03107832744717598,
                    0.06650550663471222,
                    0.04660294950008392,
                    0.04847854748368263,
                    0.08345597237348557
                ],
                [
                    0.03168845921754837,
                    0.04436131939291954,
                    0.015281517058610916,
                    0.049715183675289154,
                    0.0691772922873497
                ],
                [
                    -0.011755802668631077,
                    0.05805308744311333,
                    0.04316023737192154,
                    0.032026927918195724,
                    0.1001318022608757
                ],
                [
                    0.04422011226415634,
                    0.07908828556537628,
                    0.05509132519364357,
                    0.09514331072568893,
                    0.0886707603931427
                ],
                [
                    0.1225903332233429,
                    0.12394590675830841,
                    0.06653919070959091,
                    0.11796499788761139,
                    0.16582255065441132
                ]
            ],
            [
                [
                    0.004227462690323591,
                    -0.0065701804123818874,
                    -0.0007604829734191298,
                    0.017149653285741806,
                    0.02757301740348339
                ],
                [
                    0.01773913763463497,
                    0.00016885920194908977,
                    -0.03501548990607262,
                    -0.05499394237995148,
                    0.0021818180102854967
                ],
                [
                    0.007182852830737829,
                    -0.005645051598548889,
                    -0.03817937150597572,
                    -0.031700361520051956,
                    -0.05644403025507927
                ],
                [
                    -0.009724347852170467,
                    0.010403997264802456,
                    0.03775525465607643,
                    -0.020075147971510887,
                    0.024970686063170433
                ],
                [
                    0.001047035213559866,
                    0.017209868878126144,
                    0.07565387338399887,
                    -0.006136511918157339,
                    -0.011695893481373787
                ]
            ],
            [
                [
                    0.015983859077095985,
                    0.07655774801969528,
                    0.06790328025817871,
                    0.02111165039241314,
                    0.056809332221746445
                ],
                [
                    0.03698254004120827,
                    0.043721526861190796,
                    0.05794656276702881,
                    0.05890367552638054,
                    0.018119245767593384
                ],
                [
                    0.02995762974023819,
                    0.04569096863269806,
                    0.03470955044031143,
                    0.05085170641541481,
                    0.07645558565855026
                ],
                [
                    0.027779821306467056,
                    0.009393219836056232,
                    0.0088835833594203,
                    0.030857758596539497,
                    0.08024723827838898
                ],
                [
                    0.0032292006071656942,
                    0.024669505655765533,
                    0.0024293207097798586,
                    0.0072529735043644905,
                    0.05713276565074921
                ]
            ],
            [
                [
                    -0.02225692942738533,
                    -0.022731125354766846,
                    0.024024423211812973,
                    0.05802227929234505,
                    0.023085709661245346
                ],
                [
                    -0.047644518315792084,
                    -0.03365972265601158,
                    -0.045718394219875336,
                    0.0013506062095984817,
                    0.0051019322127103806
                ],
                [
                    -0.01987237110733986,
                    -0.044228553771972656,
                    -0.00928548350930214,
                    -0.050433311611413956,
                    -0.05882054939866066
                ],
                [
                    -0.026200685650110245,
                    -0.018865667283535004,
                    -0.04552139341831207,
                    -0.07707075774669647,
                    -0.05329640582203865
                ],
                [
                    -0.05203261598944664,
                    -0.02316398173570633,
                    -0.008104448206722736,
                    -0.034433573484420776,
                    -0.05199906975030899
                ]
            ],
            [
                [
                    0.020918214693665504,
                    -0.016180098056793213,
                    0.013192154467105865,
                    0.10642398148775101,
                    0.02606542408466339
                ],
                [
                    0.00995954405516386,
                    0.0481952466070652,
                    0.06892258673906326,
                    0.06704434007406235,
                    0.04699253290891647
                ],
                [
                    0.05987513065338135,
                    0.008615233935415745,
                    0.023331915959715843,
                    -0.00972121860831976,
                    0.020677819848060608
                ],
                [
                    0.020908065140247345,
                    0.00879452284425497,
                    -0.04855503514409065,
                    -0.011895786039531231,
                    -0.03560716286301613
                ],
                [
                    -0.005907013081014156,
                    0.006095928605645895,
                    -0.05113797262310982,
                    -0.024951502680778503,
                    -0.09049604833126068
                ]
            ],
            [
                [
                    -0.04668556526303291,
                    -0.06324908137321472,
                    -0.018877699971199036,
                    0.027852533385157585,
                    -0.025481117889285088
                ],
                [
                    -0.026931794360280037,
                    0.03562156856060028,
                    -0.04831362143158913,
                    -0.007426268421113491,
                    -0.0028413422405719757
                ],
                [
                    -0.0019306223839521408,
                    0.013798133470118046,
                    0.030968669801950455,
                    0.009586820378899574,
                    0.04630507156252861
                ],
                [
                    0.004658584017306566,
                    -0.02109091728925705,
                    -0.06893778592348099,
                    -0.04125235229730606,
                    -0.030755873769521713
                ],
                [
                    -0.02341379038989544,
                    -0.05612040311098099,
                    -0.04367314279079437,
                    -0.05514376610517502,
                    -0.07182926684617996
                ]
            ]
        ],
        [
            [
                [
                    -0.05423687398433685,
                    -0.008205902762711048,
                    0.030875399708747864,
                    -0.012257874011993408,
                    -0.02822670340538025
                ],
                [
                    -0.03672023117542267,
                    -0.017729684710502625,
                    -0.025441564619541168,
                    0.01676967926323414,
                    0.08195733278989792
                ],
                [
                    -0.010868009179830551,
                    -0.0672268271446228,
                    0.028188761323690414,
                    0.029357273131608963,
                    0.06511613726615906
                ],
                [
                    0.0010846378281712532,
                    0.0016181011451408267,
                    0.010494222864508629,
                    0.00695868069306016,
                    0.061323944479227066
                ],
                [
                    0.015042419545352459,
                    0.009478623978793621,
                    -0.01006177719682455,
                    0.011132088489830494,
                    -0.03695191442966461
                ]
            ],
            [
                [
                    0.023156296461820602,
                    0.017955077812075615,
                    0.01828950271010399,
                    0.017603831365704536,
                    0.013255652040243149
                ],
                [
                    -0.018520629033446312,
                    0.013583659194409847,
                    0.01038429606705904,
                    -0.012253708206117153,
                    -0.00007557772187283263
                ],
                [
                    -0.009882169775664806,
                    0.01381747331470251,
                    0.00559438718482852,
                    -0.026197724044322968,
                    0.021464630961418152
                ],
                [
                    0.0030209419783204794,
                    -0.08480315655469894,
                    -0.02909197099506855,
                    -0.00031295535154640675,
                    0.0002960499550681561
                ],
                [
                    -0.10233208537101746,
                    -0.037450339645147324,
                    -0.05957255885004997,
                    0.0061589437536895275,
                    -0.0016536101466044784
                ]
            ],
            [
                [
                    -0.13196039199829102,
                    -0.1374988555908203,
                    -0.058149322867393494,
                    -0.10303500294685364,
                    -0.04283199459314346
                ],
                [
                    -0.11530067771673203,
                    -0.15464207530021667,
                    -0.08819109946489334,
                    -0.04553810507059097,
                    -0.01935472898185253
                ],
                [
                    -0.11317817121744156,
                    -0.15128013491630554,
                    -0.09921626001596451,
                    -0.013841393403708935,
                    -0.08801881223917007
                ],
                [
                    -0.0571332648396492,
                    -0.18613865971565247,
                    -0.16554032266139984,
                    -0.048638343811035156,
                    -0.024965550750494003
                ],
                [
                    -0.09369169920682907,
                    -0.13117778301239014,
                    -0.11837416142225266,
                    -0.0999498963356018,
                    -0.09532341361045837
                ]
            ],
            [
                [
                    -0.0029431600123643875,
                    0.047745782881975174,
                    0.05740378797054291,
                    0.016460783779621124,
                    0.005144693423062563
                ],
                [
                    -0.04140978679060936,
                    0.07092732936143875,
                    0.07628881186246872,
                    0.014540066011250019,
                    0.028763527050614357
                ],
                [
                    0.0018297290662303567,
                    0.0330948568880558,
                    0.01823248714208603,
                    0.010334919206798077,
                    0.03145401552319527
                ],
                [
                    0.09023986756801605,
                    0.06435144692659378,
                    -0.0169818215072155,
                    -0.0210498608648777,
                    0.04122600704431534
                ],
                [
                    0.1013750359416008,
                    0.10569236427545547,
                    0.0033519454300403595,
                    0.01202068105340004,
                    -0.008958972990512848
                ]
            ],
            [
                [
                    -0.020854957401752472,
                    0.01658824272453785,
                    0.054817598313093185,
                    -0.016905369237065315,
                    -0.04119977355003357
                ],
                [
                    -0.027813445776700974,
                    -0.02168310061097145,
                    -0.012679290026426315,
                    0.0615270771086216,
                    -0.004063326399773359
                ],
                [
                    -0.015457534231245518,
                    0.02868487872183323,
                    -0.028299778699874878,
                    -0.021417785435914993,
                    0.018812838941812515
                ],
                [
                    0.003483006963506341,
                    0.0043896897695958614,
                    -0.033068981021642685,
                    -0.038955770432949066,
                    -0.0005017202929593623
                ],
                [
                    0.09080754965543747,
                    0.06436476111412048,
                    -0.02400916814804077,
                    -0.010902006179094315,
                    -0.046245940029621124
                ]
            ],
            [
                [
                    -0.011361130513250828,
                    0.021589476615190506,
                    0.07600574195384979,
                    0.07221990823745728,
                    0.06405584514141083
                ],
                [
                    -0.03858758509159088,
                    0.06113745644688606,
                    0.04032175987958908,
                    0.04025956615805626,
                    -0.002975697396323085
                ],
                [
                    0.015807973220944405,
                    0.002471726853400469,
                    0.06636451184749603,
                    -0.019946644082665443,
                    0.011806677095592022
                ],
                [
                    0.021794451400637627,
                    -0.005337315611541271,
                    -0.009779964573681355,
                    0.011183159425854683,
                    0.01047424040734768
                ],
                [
                    0.003587196348235011,
                    -0.04729766398668289,
                    -0.04242895916104317,
                    0.008106744848191738,
                    0.03994040563702583
                ]
            ]
        ],
        [
            [
                [
                    -0.0010351031087338924,
                    0.005370043683797121,
                    -0.024810563772916794,
                    -0.06979642808437347,
                    -0.08930670469999313
                ],
                [
                    0.010581579059362411,
                    0.022207491099834442,
                    0.003176406491547823,
                    -0.06890543550252914,
                    -0.06925567984580994
                ],
                [
                    -0.000004180159066891065,
                    -0.014569643884897232,
                    -0.0043798694387078285,
                    -0.016770683228969574,
                    -0.06584661453962326
                ],
                [
                    0.0372396819293499,
                    0.022407405078411102,
                    0.030048135668039322,
                    0.01741638407111168,
                    0.016322137787938118
                ],
                [
                    0.006880725268274546,
                    -0.04949076473712921,
                    0.03899789974093437,
                    0.005029240157455206,
                    -0.005865961313247681
                ]
            ],
            [
                [
                    0.006688590627163649,
                    -0.0007827962399460375,
                    0.04398756101727486,
                    0.0199649166315794,
                    -0.01120765507221222
                ],
                [
                    0.029522355645895004,
                    0.024644866585731506,
                    0.06905987858772278,
                    0.010367156006395817,
                    0.02963610738515854
                ],
                [
                    0.00550020532682538,
                    0.016602011397480965,
                    0.03545977175235748,
                    0.031294167041778564,
                    -0.012387488037347794
                ],
                [
                    -0.04337938502430916,
                    -0.04107529670000076,
                    -0.020336581394076347,
                    0.0320700965821743,
                    -0.005296447314321995
                ],
                [
                    -0.05218008533120155,
                    -0.09074210375547409,
                    -0.031834714114665985,
                    -0.02380802109837532,
                    0.0588357038795948
                ]
            ],
            [
                [
                    0.03058006800711155,
                    -0.010520673356950283,
                    -0.06414301693439484,
                    -0.08380119502544403,
                    -0.02651835046708584
                ],
                [
                    -0.03235696628689766,
                    -0.02532542496919632,
                    -0.0210858304053545,
                    -0.030321825295686722,
                    -0.063673235476017
                ],
                [
                    -0.026463942602276802,
                    -0.05314410477876663,
                    0.0013179724337533116,
                    -0.10086314380168915,
                    -0.048804014921188354
                ],
                [
                    -0.0634608194231987,
                    -0.07764803618192673,
                    -0.12075438350439072,
                    -0.12585079669952393,
                    -0.11523034423589706
                ],
                [
                    -0.05236757919192314,
                    -0.03196646645665169,
                    -0.08516409248113632,
                    -0.08777152746915817,
                    -0.1516776978969574
                ]
            ],
            [
                [
                    0.08319540321826935,
                    0.08226257562637329,
                    0.00251024030148983,
                    0.02723683975636959,
                    0.003153320401906967
                ],
                [
                    0.06660325080156326,
                    0.08798560500144958,
                    -0.007730074226856232,
                    0.033475130796432495,
                    0.0021786256693303585
                ],
                [
                    0.03468348830938339,
                    0.11048915982246399,
                    0.022503772750496864,
                    0.020133001729846,
                    0.07429201155900955
                ],
                [
                    0.04939461871981621,
                    0.06654108315706253,
                    -0.04400475695729256,
                    -0.039900537580251694,
                    0.01473668310791254
                ],
                [
                    0.013941390439867973,
                    0.006211772561073303,
                    -0.028876692056655884,
                    -0.04506555572152138,
                    -0.03097824938595295
                ]
            ],
            [
                [
                    0.0873560681939125,
                    0.05582543462514877,
                    0.011638089083135128,
                    -0.007252078037708998,
                    -0.00034819773281924427
                ],
                [
                    0.06918133050203323,
                    0.03353340923786163,
                    -0.02087436430156231,
                    -0.005834753625094891,
                    0.004788098856806755
                ],
                [
                    0.0025304111186414957,
                    0.0024263872765004635,
                    -0.007197806145995855,
                    -0.047008685767650604,
                    0.011443443596363068
                ],
                [
                    -0.009914535097777843,
                    0.03985700383782387,
                    -0.03844436630606651,
                    -0.004282947164028883,
                    0.005690809804946184
                ],
                [
                    -0.030736209824681282,
                    0.004093542695045471,
                    -0.0457734651863575,
                    -0.007684373762458563,
                    -0.00015435076784342527
                ]
            ],
            [
                [
                    0.05607236921787262,
                    0.07188033312559128,
                    0.08605191111564636,
                    0.022625092417001724,
                    0.025617025792598724
                ],
                [
                    -0.010485922917723656,
                    0.04795152693986893,
                    0.016979318112134933,
                    -0.002869096351787448,
                    -0.052723195403814316
                ],
                [
                    0.01011819951236248,
                    -0.011308332905173302,
                    0.005721282213926315,
                    -0.020270120352506638,
                    0.023700682446360588
                ],
                [
                    -0.06188018247485161,
                    -0.08519604057073593,
                    -0.030545812100172043,
                    -0.02360423654317856,
                    -0.020271237939596176
                ],
                [
                    -0.01580328494310379,
                    -0.07556943595409393,
                    -0.03872257098555565,
                    -0.043113525956869125,
                    -0.05213184654712677
                ]
            ]
        ],
        [
            [
                [
                    -0.03221983090043068,
                    -0.04681439697742462,
                    -0.0020318697206676006,
                    -0.04609672725200653,
                    -0.06725219637155533
                ],
                [
                    -0.004029550589621067,
                    0.01132004801183939,
                    -0.05776164308190346,
                    0.02927951142191887,
                    -0.026890462264418602
                ],
                [
                    -0.03535172715783119,
                    -0.0439133495092392,
                    -0.0489937998354435,
                    -0.007670864462852478,
                    -0.05370878428220749
                ],
                [
                    -0.027183234691619873,
                    -0.10391410440206528,
                    -0.05689365789294243,
                    -0.04727965220808983,
                    -0.10520722717046738
                ],
                [
                    -0.0764036700129509,
                    -0.047022074460983276,
                    -0.05270327255129814,
                    -0.14077691733837128,
                    -0.07235521823167801
                ]
            ],
            [
                [
                    -0.04355236887931824,
                    -0.02444569766521454,
                    -0.0742180123925209,
                    -0.037465594708919525,
                    -0.01710883341729641
                ],
                [
                    -0.026307567954063416,
                    -0.020088063552975655,
                    -0.017224371433258057,
                    0.017375141382217407,
                    0.006639634724706411
                ],
                [
                    -0.013499274849891663,
                    0.03302450478076935,
                    -0.03314466401934624,
                    0.050954438745975494,
                    0.03146122768521309
                ],
                [
                    -0.022992899641394615,
                    0.029213404282927513,
                    0.043941520154476166,
                    -0.01170030515640974,
                    -0.014643674716353416
                ],
                [
                    -0.037311162799596786,
                    -0.005241326056420803,
                    0.02123427204787731,
                    0.007343470584601164,
                    0.00590141024440527
                ]
            ],
            [
                [
                    0.0050226664170622826,
                    -0.05673575401306152,
                    0.022343924269080162,
                    -0.036329515278339386,
                    -0.047831278294324875
                ],
                [
                    -0.03247039020061493,
                    -0.07008806616067886,
                    -0.018041634932160378,
                    -0.07582202553749084,
                    0.001586245489306748
                ],
                [
                    -0.0488806776702404,
                    -0.033076100051403046,
                    -0.008448898792266846,
                    0.0032890685833990574,
                    -0.043982017785310745
                ],
                [
                    -0.04454771429300308,
                    -0.056927815079689026,
                    0.0067851124331355095,
                    0.010831110179424286,
                    0.009486461989581585
                ],
                [
                    -0.03257351741194725,
                    -0.050888676196336746,
                    -0.007874305360019207,
                    -0.03006679378449917,
                    0.002538901986554265
                ]
            ],
            [
                [
                    0.046163786202669144,
                    0.0685906857252121,
                    0.040049172937870026,
                    0.03754260390996933,
                    0.050606321543455124
                ],
                [
                    0.07753492891788483,
                    0.10224470496177673,
                    0.09207481145858765,
                    0.06944748014211655,
                    0.05942019820213318
                ],
                [
                    0.11942272633314133,
                    0.0981551855802536,
                    0.05059097334742546,
                    -0.04243212938308716,
                    0.057445935904979706
                ],
                [
                    0.06446579098701477,
                    0.009025347419083118,
                    0.04061448946595192,
                    0.052003126591444016,
                    0.08231473714113235
                ],
                [
                    0.10967965424060822,
                    0.06593785434961319,
                    0.07304703444242477,
                    0.025896688923239708,
                    0.06411916017532349
                ]
            ],
            [
                [
                    -0.040577199310064316,
                    -0.040438201278448105,
                    -0.07470288127660751,
                    -0.0510876439511776,
                    0.0054024867713451385
                ],
                [
                    -0.06483051180839539,
                    -0.055241357535123825,
                    -0.08776228129863739,
                    -0.06170354411005974,
                    0.008751277811825275
                ],
                [
                    -0.0400877445936203,
                    -0.08774257451295853,
                    -0.15117552876472473,
                    -0.09860401600599289,
                    -0.014943323098123074
                ],
                [
                    -0.06263597309589386,
                    -0.17580227553844452,
                    -0.12399072200059891,
                    -0.07664696127176285,
                    0.010585916228592396
                ],
                [
                    -0.06435535103082657,
                    -0.07384178787469864,
                    -0.08095791190862656,
                    -0.06847262382507324,
                    -0.02053537592291832
                ]
            ],
            [
                [
                    0.07731282711029053,
                    0.027514711022377014,
                    0.04898473992943764,
                    0.030262405052781105,
                    0.04902525246143341
                ],
                [
                    0.023194996640086174,
                    0.039081718772649765,
                    0.03553276136517525,
                    0.06962612271308899,
                    0.06085852161049843
                ],
                [
                    -0.007705257274210453,
                    0.0071610319428145885,
                    -0.04637158289551735,
                    -0.03302621841430664,
                    -0.001081574708223343
                ],
                [
                    -0.011100896634161472,
                    -0.020876361057162285,
                    0.013832607306540012,
                    0.036582570523023605,
                    0.042840830981731415
                ],
                [
                    0.011328885331749916,
                    0.013718819245696068,
                    0.037520285695791245,
                    0.058195967227220535,
                    0.04380491003394127
                ]
            ]
        ],
        [
            [
                [
                    0.01918308064341545,
                    0.032891739159822464,
                    0.030158940702676773,
                    0.048526447266340256,
                    0.02943791076540947
                ],
                [
                    0.03490383177995682,
                    0.08262661844491959,
                    0.05720064043998718,
                    0.07890119403600693,
                    0.045086026191711426
                ],
                [
                    0.031874556094408035,
                    0.04972906783223152,
                    0.0351337306201458,
                    -0.006014736834913492,
                    -0.0164259672164917
                ],
                [
                    0.013966808095574379,
                    0.018076760694384575,
                    -0.007088517304509878,
                    -0.04035958647727966,
                    -0.0036935615353286266
                ],
                [
                    -0.0064486353658139706,
                    -0.07550272345542908,
                    -0.0446302704513073,
                    -0.04328582435846329,
                    -0.04273337125778198
                ]
            ],
            [
                [
                    0.024037878960371017,
                    0.050370216369628906,
                    0.05468584969639778,
                    0.05663615092635155,
                    0.12192144244909286
                ],
                [
                    0.08327385038137436,
                    0.0924622192978859,
                    0.10786930471658707,
                    0.06734322011470795,
                    0.08287842571735382
                ],
                [
                    0.056073810905218124,
                    0.06968451291322708,
                    0.08500129729509354,
                    0.003212934359908104,
                    0.05725208297371864
                ],
                [
                    0.04604259133338928,
                    -0.006968444213271141,
                    -0.03181017190217972,
                    -0.025505725294351578,
                    -0.04986199736595154
                ],
                [
                    0.04112565144896507,
                    -0.020119063556194305,
                    0.018497390672564507,
                    0.03290877118706703,
                    0.053080588579177856
                ]
            ],
            [
                [
                    -0.06043357029557228,
                    -0.007798852398991585,
                    0.003376905107870698,
                    -0.00496091041713953,
                    -0.049379173666238785
                ],
                [
                    -0.09597668796777725,
                    -0.06588764488697052,
                    -0.054321788251399994,
                    -0.03270099312067032,
                    -0.04286812245845795
                ],
                [
                    0.03560612350702286,
                    0.012656080536544323,
                    0.01602323353290558,
                    -0.03548245131969452,
                    -0.0544443354010582
                ],
                [
                    0.013047786429524422,
                    0.028889061883091927,
                    0.011837313883006573,
                    -0.0004115441406611353,
                    -0.03911520913243294
                ],
                [
                    -0.012182044796645641,
                    0.026461493223905563,
                    -0.005929397884756327,
                    -0.011012081056833267,
                    -0.008851601742208004
                ]
            ],
            [
                [
                    0.07289942353963852,
                    0.07785971462726593,
                    -0.04262051731348038,
                    -0.001971773337572813,
                    -0.024792730808258057
                ],
                [
                    0.04693033918738365,
                    0.049746252596378326,
                    -0.03547612950205803,
                    0.021900860592722893,
                    0.0357138067483902
                ],
                [
                    -0.012806553393602371,
                    0.022135090082883835,
                    -0.004446879029273987,
                    -0.0026250453665852547,
                    -0.003444779897108674
                ],
                [
                    -0.020154058933258057,
                    0.029213491827249527,
                    -0.03949028253555298,
                    -0.0046238042414188385,
                    0.03911691531538963
                ],
                [
                    -0.021352877840399742,
                    -0.044459301978349686,
                    -0.08776231855154037,
                    -0.07836384326219559,
                    -0.03322622925043106
                ]
            ],
            [
                [
                    0.06794222444295883,
                    0.009916957467794418,
                    -0.04122215881943703,
                    -0.04337441548705101,
                    -0.006358349230140448
                ],
                [
                    0.010598280467092991,
                    0.007910194806754589,
                    -0.032481174916028976,
                    -0.027647025883197784,
                    -0.036109499633312225
                ],
                [
                    0.0742938220500946,
                    0.06279854476451874,
                    0.051279615610837936,
                    0.07966160774230957,
                    0.03506709262728691
                ],
                [
                    0.053074393421411514,
                    0.012393117882311344,
                    0.015343842096626759,
                    0.012866604141891003,
                    -0.06112818792462349
                ],
                [
                    0.008557361550629139,
                    0.012636023573577404,
                    0.03082982823252678,
                    0.012271028943359852,
                    -0.012298495508730412
                ]
            ],
            [
                [
                    0.003870546817779541,
                    -0.029795004054903984,
                    0.009715771302580833,
                    -0.005636046640574932,
                    -0.0036826725117862225
                ],
                [
                    -0.012911258265376091,
                    -0.008734658360481262,
                    -0.04655696451663971,
                    -0.013074573129415512,
                    0.003576613962650299
                ],
                [
                    0.04882194846868515,
                    0.037076931446790695,
                    0.013790224678814411,
                    0.029881341382861137,
                    0.006499805487692356
                ],
                [
                    0.03635787218809128,
                    0.04890754818916321,
                    -0.03290211781859398,
                    0.0405292771756649,
                    -0.024670539423823357
                ],
                [
                    0.046622708439826965,
                    -0.013833408243954182,
                    0.02500021457672119,
                    -0.040973588824272156,
                    -0.08530031144618988
                ]
            ]
        ],
        [
            [
                [
                    0.002693445421755314,
                    -0.008777481503784657,
                    -0.011260265484452248,
                    -0.05813395231962204,
                    -0.011137813329696655
                ],
                [
                    0.013065751641988754,
                    0.07483731955289841,
                    -0.008574903011322021,
                    -0.08622655272483826,
                    0.030573852360248566
                ],
                [
                    0.019305530935525894,
                    0.010349228046834469,
                    -0.036109525710344315,
                    -0.04950224980711937,
                    0.03155297040939331
                ],
                [
                    0.022454729303717613,
                    -0.02546580322086811,
                    -0.008978495374321938,
                    -0.051225319504737854,
                    -0.01177952066063881
                ],
                [
                    0.03714479133486748,
                    -0.035645242780447006,
                    -0.05426608771085739,
                    -0.02353358455002308,
                    0.006597556639462709
                ]
            ],
            [
                [
                    0.015919560566544533,
                    -0.0015499526634812355,
                    0.015060126781463623,
                    -0.042239733040332794,
                    0.012084949761629105
                ],
                [
                    0.011847247369587421,
                    0.04848570376634598,
                    -0.02764473669230938,
                    -0.036448244005441666,
                    -0.024794118478894234
                ],
                [
                    0.06895862519741058,
                    -0.03890720009803772,
                    -0.06814736872911453,
                    -0.07158692926168442,
                    -0.012437826953828335
                ],
                [
                    -0.00101073132827878,
                    -0.06852859258651733,
                    -0.024532971903681755,
                    -0.070583276450634,
                    0.016344644129276276
                ],
                [
                    0.0028112903237342834,
                    -0.046750932931900024,
                    -0.07151933759450912,
                    -0.08026894181966782,
                    -0.03326472267508507
                ]
            ],
            [
                [
                    0.04228271543979645,
                    -0.02377459965646267,
                    -0.03239886462688446,
                    -0.06818921864032745,
                    -0.028729449957609177
                ],
                [
                    0.015652963891625404,
                    -0.05064726620912552,
                    -0.08819478005170822,
                    -0.08984744548797607,
                    0.013985022902488708
                ],
                [
                    -0.03496112301945686,
                    -0.05756942927837372,
                    -0.1052362471818924,
                    -0.018694346770644188,
                    -0.04859773814678192
                ],
                [
                    -0.06920082867145538,
                    -0.0931372418999672,
                    -0.07883568853139877,
                    -0.012280124239623547,
                    -0.014913213439285755
                ],
                [
                    -0.05386579781770706,
                    -0.07750889658927917,
                    -0.06142996624112129,
                    -0.05768265575170517,
                    -0.008866682648658752
                ]
            ],
            [
                [
                    0.007159221917390823,
                    -0.022127430886030197,
                    0.005043972283601761,
                    0.07029265910387039,
                    0.07048879563808441
                ],
                [
                    0.025728069245815277,
                    0.006393382791429758,
                    -0.008946508169174194,
                    0.08499100059270859,
                    0.02909395657479763
                ],
                [
                    0.02186412177979946,
                    0.01025617215782404,
                    0.05391336604952812,
                    0.013151144608855247,
                    0.006051048170775175
                ],
                [
                    -0.02899901196360588,
                    0.011191260069608688,
                    0.0009987936355173588,
                    0.03255937248468399,
                    -0.006061691325157881
                ],
                [
                    0.03531132638454437,
                    0.08662522584199905,
                    0.014423591084778309,
                    0.018652619794011116,
                    -0.018117468804121017
                ]
            ],
            [
                [
                    -0.001194459036923945,
                    -0.00423826789483428,
                    0.05327840894460678,
                    0.017284393310546875,
                    0.05327441915869713
                ],
                [
                    -0.05352647975087166,
                    0.01336589828133583,
                    0.05517154932022095,
                    0.039920639246702194,
                    0.023961618542671204
                ],
                [
                    -0.03928007557988167,
                    -0.04780394211411476,
                    0.00001224666993948631,
                    0.002163794357329607,
                    -0.010002866387367249
                ],
                [
                    -0.027200493961572647,
                    0.013900509104132652,
                    0.0063642230816185474,
                    0.020601911470294,
                    -0.027433382347226143
                ],
                [
                    -0.027668097987771034,
                    -0.019406758248806,
                    -0.04385467618703842,
                    -0.0011907455045729876,
                    -0.033103544265031815
                ]
            ],
            [
                [
                    0.07045374810695648,
                    0.04043019935488701,
                    0.027559444308280945,
                    0.08642102777957916,
                    0.05215233564376831
                ],
                [
                    0.03155352547764778,
                    0.0184947457164526,
                    0.01140679232776165,
                    -0.020690737292170525,
                    0.005317439790815115
                ],
                [
                    0.0267209280282259,
                    0.021419502794742584,
                    0.04706702381372452,
                    0.052701398730278015,
                    0.007511584088206291
                ],
                [
                    -0.039937570691108704,
                    -0.030296690762043,
                    -0.011341025121510029,
                    0.037350963801145554,
                    0.03147111460566521
                ],
                [
                    0.002032619435340166,
                    0.01407737098634243,
                    0.005869728978723288,
                    0.0036957047414034605,
                    0.00924447551369667
                ]
            ]
        ],
        [
            [
                [
                    -0.003068514633923769,
                    0.06355265527963638,
                    0.02897673286497593,
                    0.04929876700043678,
                    0.09087784588336945
                ],
                [
                    -0.013701197691261768,
                    -0.0024073682725429535,
                    -0.020407887175679207,
                    0.0008110929629765451,
                    0.05955157056450844
                ],
                [
                    -0.049699027091264725,
                    -0.030571693554520607,
                    -0.018863119184970856,
                    -0.003459876636043191,
                    -0.012178712524473667
                ],
                [
                    -0.11804638057947159,
                    -0.042666833847761154,
                    -0.03070337511599064,
                    -0.008530390448868275,
                    -0.024967510253190994
                ],
                [
                    -0.03096115030348301,
                    -0.05098763480782509,
                    -0.040663547813892365,
                    -0.0720164105296135,
                    -0.0010126162087544799
                ]
            ],
            [
                [
                    0.03723963350057602,
                    0.05214584246277809,
                    0.0668976753950119,
                    0.021195324137806892,
                    0.014769341796636581
                ],
                [
                    0.031224997714161873,
                    0.01544598862528801,
                    -0.0019925551023334265,
                    -0.0435318648815155,
                    0.01793280616402626
                ],
                [
                    0.05512375757098198,
                    0.029769770801067352,
                    0.05092605575919151,
                    -0.016366401687264442,
                    0.016503624618053436
                ],
                [
                    0.05985952913761139,
                    0.0589892715215683,
                    0.054201606661081314,
                    0.017959101125597954,
                    0.026864519342780113
                ],
                [
                    0.020373893901705742,
                    0.039553768932819366,
                    0.07198378443717957,
                    0.01652398705482483,
                    0.02026844024658203
                ]
            ],
            [
                [
                    0.013123221695423126,
                    0.06514082849025726,
                    0.052089840173721313,
                    0.07806569337844849,
                    0.0716824159026146
                ],
                [
                    -0.0030987723730504513,
                    0.03852381184697151,
                    -0.018298011273145676,
                    0.006345887668430805,
                    0.01526663824915886
                ],
                [
                    -0.02500441111624241,
                    -0.04778064414858818,
                    -0.015005691908299923,
                    -0.024778036400675774,
                    -0.00227224244736135
                ],
                [
                    -0.08793971687555313,
                    0.07421694695949554,
                    0.02102450653910637,
                    0.05933989956974983,
                    -0.00908972043544054
                ],
                [
                    -0.05251071974635124,
                    0.0422552116215229,
                    0.05667940154671669,
                    0.055828265845775604,
                    0.021748963743448257
                ]
            ],
            [
                [
                    -0.05718866363167763,
                    -0.05209469050168991,
                    -0.06502103805541992,
                    -0.0943385437130928,
                    -0.11055517196655273
                ],
                [
                    0.02351401373744011,
                    -0.020930372178554535,
                    -0.07714713364839554,
                    -0.07376930862665176,
                    -0.08314797282218933
                ],
                [
                    0.05716235190629959,
                    -0.016866594552993774,
                    -0.03278736770153046,
                    -0.07563595473766327,
                    -0.042322415858507156
                ],
                [
                    -0.04126187413930893,
                    -0.039988335222005844,
                    -0.03933184593915939,
                    -0.04550008103251457,
                    -0.02859659120440483
                ],
                [
                    -0.023251615464687347,
                    -0.02972143515944481,
                    -0.00987330637872219,
                    -0.0015830839984118938,
                    -0.012984073720872402
                ]
            ],
            [
                [
                    0.06767836213111877,
                    -0.025052564218640327,
                    0.024539820849895477,
                    -0.017739305272698402,
                    0.049233656376600266
                ],
                [
                    0.01577070914208889,
                    0.01166395004838705,
                    0.015825320035219193,
                    -0.0177595354616642,
                    0.005458884872496128
                ],
                [
                    0.019432909786701202,
                    0.00749371899291873,
                    0.01313274446874857,
                    -0.027877382934093475,
                    0.051093101501464844
                ],
                [
                    0.021972794085741043,
                    0.0364341177046299,
                    -0.04494360834360123,
                    0.039345789700746536,
                    0.032653771340847015
                ],
                [
                    0.055822793394327164,
                    0.06386666744947433,
                    0.06105336546897888,
                    0.05233218893408775,
                    0.037023354321718216
                ]
            ],
            [
                [
                    0.0459439754486084,
                    -0.03140619769692421,
                    -0.02362159825861454,
                    -0.0636594220995903,
                    0.02079220861196518
                ],
                [
                    0.053718093782663345,
                    0.029519135132431984,
                    0.02209893986582756,
                    0.0031544796656817198,
                    0.023747999221086502
                ],
                [
                    0.08468634635210037,
                    0.030933361500501633,
                    -0.02255074866116047,
                    0.023147333413362503,
                    0.08687011897563934
                ],
                [
                    0.11757563799619675,
                    0.09473330527544022,
                    0.04116375371813774,
                    0.027298668399453163,
                    -0.006492849439382553
                ],
                [
                    0.11554817110300064,
                    0.06941656768321991,
                    0.10736201703548431,
                    0.013022917322814465,
                    -0.027990130707621574
                ]
            ]
        ],
        [
            [
                [
                    -0.08677095174789429,
                    -0.06238974258303642,
                    -0.07165338844060898,
                    0.00013994677283335477,
                    -0.04077184200286865
                ],
                [
                    -0.0781240165233612,
                    -0.05394371971487999,
                    -0.030779868364334106,
                    0.017730416730046272,
                    0.005434741731733084
                ],
                [
                    -0.058445848524570465,
                    -0.0694083645939827,
                    -0.0061036101542413235,
                    -0.03555409237742424,
                    -0.0011883995030075312
                ],
                [
                    -0.0359979011118412,
                    -0.010105584748089314,
                    0.013154908083379269,
                    -0.0007650795741938055,
                    0.009993313811719418
                ],
                [
                    0.05121771991252899,
                    0.06829212605953217,
                    0.07240678369998932,
                    0.09436509013175964,
                    0.10580732673406601
                ]
            ],
            [
                [
                    -0.03490063548088074,
                    -0.03607960790395737,
                    -0.024890467524528503,
                    0.021858718246221542,
                    0.03075261600315571
                ],
                [
                    -0.044264912605285645,
                    -0.06062066927552223,
                    0.04972025379538536,
                    0.04518907889723778,
                    0.04523250833153725
                ],
                [
                    -0.05161121115088463,
                    -0.013573643751442432,
                    0.03419388830661774,
                    0.11213528364896774,
                    0.018567612394690514
                ],
                [
                    -0.006320922635495663,
                    0.0034585092216730118,
                    0.04696914181113243,
                    0.038321975618600845,
                    -0.013425542041659355
                ],
                [
                    -0.0707804337143898,
                    -0.04005250707268715,
                    -0.07386978715658188,
                    -0.04262540489435196,
                    -0.02186109870672226
                ]
            ],
            [
                [
                    -0.08681342750787735,
                    -0.06338096410036087,
                    -0.05508428066968918,
                    -0.06864763796329498,
                    0.011234717443585396
                ],
                [
                    -0.02328355610370636,
                    -0.10380367934703827,
                    -0.03671630844473839,
                    -0.05783764645457268,
                    -0.018362494185566902
                ],
                [
                    -0.08097127825021744,
                    -0.11211810261011124,
                    -0.024538692086935043,
                    -0.05567978695034981,
                    0.01490151509642601
                ],
                [
                    -0.06991936266422272,
                    -0.0789969339966774,
                    -0.018108030781149864,
                    0.020690955221652985,
                    -0.006485792808234692
                ],
                [
                    -0.02439619041979313,
                    -0.022847061976790428,
                    0.06594392657279968,
                    0.0014498489908874035,
                    0.01742378994822502
                ]
            ],
            [
                [
                    0.026422325521707535,
                    0.057854633778333664,
                    0.06414388120174408,
                    -0.03370770439505577,
                    -0.022271286696195602
                ],
                [
                    0.08527698367834091,
                    0.04210609197616577,
                    0.006856129039078951,
                    -0.009366558864712715,
                    -0.022829093039035797
                ],
                [
                    0.04633825644850731,
                    0.020090432837605476,
                    0.0036128719802945852,
                    -0.0488143265247345,
                    0.02231462299823761
                ],
                [
                    0.045474279671907425,
                    -0.05915488302707672,
                    -0.0327276811003685,
                    -0.018599506467580795,
                    0.039914555847644806
                ],
                [
                    0.015233775600790977,
                    0.021192116662859917,
                    0.015862686559557915,
                    -0.019841577857732773,
                    0.023441115394234657
                ]
            ],
            [
                [
                    0.02519099786877632,
                    -0.0011719525791704655,
                    0.015062990598380566,
                    -0.02484194003045559,
                    -0.04493560642004013
                ],
                [
                    0.022449707612395287,
                    -0.009652429260313511,
                    -0.0065463269129395485,
                    -0.025634320452809334,
                    -0.010030912235379219
                ],
                [
                    -0.02621026337146759,
                    -0.07102762907743454,
                    -0.1144459918141365,
                    -0.03331820294260979,
                    0.06716989725828171
                ],
                [
                    0.021543903276324272,
                    0.020855030044913292,
                    0.029142441228032112,
                    0.01978451758623123,
                    0.07094830274581909
                ],
                [
                    0.05054214224219322,
                    0.05730493366718292,
                    0.03705526143312454,
                    0.03522418066859245,
                    0.09186293184757233
                ]
            ],
            [
                [
                    -0.06464245915412903,
                    0.002346921246498823,
                    0.007282212842255831,
                    0.05049270763993263,
                    -0.01713283732533455
                ],
                [
                    -0.035212282091379166,
                    -0.0006316258222796023,
                    -0.030905693769454956,
                    0.003367530182003975,
                    0.06958919018507004
                ],
                [
                    -0.020799947902560234,
                    -0.09190160036087036,
                    -0.009698026813566685,
                    -0.001450663316063583,
                    0.0693526566028595
                ],
                [
                    -0.038082920014858246,
                    -0.0021952996030449867,
                    0.06199155002832413,
                    0.043430719524621964,
                    0.019137347117066383
                ],
                [
                    0.028676556423306465,
                    0.09557768702507019,
                    0.10683967173099518,
                    0.05898956209421158,
                    0.010904047638177872
                ]
            ]
        ],
        [
            [
                [
                    -0.06451603770256042,
                    -0.0918332189321518,
                    -0.043446868658065796,
                    -0.057202115654945374,
                    -0.043439265340566635
                ],
                [
                    -0.026733621954917908,
                    -0.039773911237716675,
                    -0.007481315638870001,
                    -0.00509869959205389,
                    0.03222888335585594
                ],
                [
                    -0.0419355146586895,
                    -0.008389022201299667,
                    -0.022256052121520042,
                    -0.005304798949509859,
                    -0.003759939456358552
                ],
                [
                    0.003572751535102725,
                    -0.036722905933856964,
                    -0.044444698840379715,
                    -0.04208994656801224,
                    -0.031048661097884178
                ],
                [
                    -0.042371660470962524,
                    -0.03667842224240303,
                    -0.026399726048111916,
                    0.011473114602267742,
                    0.007353676948696375
                ]
            ],
            [
                [
                    0.03379494324326515,
                    0.04949990659952164,
                    0.01416758168488741,
                    0.025646375492215157,
                    0.049217771738767624
                ],
                [
                    0.055752143263816833,
                    0.036971841007471085,
                    0.0037354605738073587,
                    0.027139397338032722,
                    0.07372396439313889
                ],
                [
                    0.006551805883646011,
                    0.040613867342472076,
                    0.0395740307867527,
                    0.039049915969371796,
                    0.08765142410993576
                ],
                [
                    0.10592784732580185,
                    0.08725949376821518,
                    0.10684766620397568,
                    0.09031721204519272,
                    0.0904698371887207
                ],
                [
                    0.08356617391109467,
                    0.014245402067899704,
                    0.017965052276849747,
                    0.05300058051943779,
                    0.07650097459554672
                ]
            ],
            [
                [
                    0.020636236295104027,
                    0.030529886484146118,
                    0.04671469330787659,
                    -0.01763499528169632,
                    -0.01280871219933033
                ],
                [
                    0.0851701945066452,
                    0.005987105425447226,
                    -0.003963286057114601,
                    -0.019464241340756416,
                    0.03353657200932503
                ],
                [
                    0.04765639826655388,
                    0.017028074711561203,
                    0.006077625788748264,
                    0.050855763256549835,
                    -0.0030024952720850706
                ],
                [
                    0.027954580262303352,
                    0.009351015090942383,
                    0.046637263149023056,
                    0.013007520698010921,
                    0.021511662751436234
                ],
                [
                    0.11871760338544846,
                    0.13727670907974243,
                    0.11150508373975754,
                    0.11098237335681915,
                    0.10256377607584
                ]
            ],
            [
                [
                    0.008019329980015755,
                    -0.03362488001585007,
                    -0.036931850016117096,
                    -0.08116825670003891,
                    -0.10021903365850449
                ],
                [
                    0.005414959508925676,
                    -0.030411371961236,
                    -0.0796537697315216,
                    -0.03579215332865715,
                    0.0049231392331421375
                ],
                [
                    -0.013225569389760494,
                    0.03864886984229088,
                    -0.03881445899605751,
                    -0.042311280965805054,
                    -0.014132827520370483
                ],
                [
                    -0.06925283372402191,
                    -0.01372547261416912,
                    -0.014558196999132633,
                    -0.01625487208366394,
                    0.00535690039396286
                ],
                [
                    -0.03917042165994644,
                    -0.006481430027633905,
                    0.025706566870212555,
                    0.01889231987297535,
                    0.014735824428498745
                ]
            ],
            [
                [
                    -0.009957262314856052,
                    -0.00129599217325449,
                    -0.016653653234243393,
                    -0.09691084921360016,
                    -0.03630831092596054
                ],
                [
                    -0.013115601614117622,
                    0.0019516664324328303,
                    -0.021757878363132477,
                    -0.0035796009469777346,
                    0.01098993793129921
                ],
                [
                    0.04079175740480423,
                    0.060829199850559235,
                    0.0196972768753767,
                    -0.023387746885418892,
                    0.027328861877322197
                ],
                [
                    -0.018916871398687363,
                    -0.005892086774110794,
                    0.04301607981324196,
                    0.020114988088607788,
                    0.0017549096373841166
                ],
                [
                    -0.017235416918992996,
                    0.06480377167463303,
                    0.0873451754450798,
                    0.13319391012191772,
                    0.07320191711187363
                ]
            ],
            [
                [
                    -0.0018236704636365175,
                    0.005236438475549221,
                    0.005723242647945881,
                    -0.027913229539990425,
                    -0.05327398329973221
                ],
                [
                    0.03024376556277275,
                    -0.02644357457756996,
                    0.018813863396644592,
                    -0.05609190836548805,
                    0.01672082208096981
                ],
                [
                    0.032338473945856094,
                    0.050735317170619965,
                    0.022494398057460785,
                    0.01007754821330309,
                    0.014277438633143902
                ],
                [
                    -0.02263009548187256,
                    0.046106260269880295,
                    0.003195802913978696,
                    0.09634894132614136,
                    0.047085750848054886
                ],
                [
                    0.0680793970823288,
                    0.10835220664739609,
                    0.10100791603326797,
                    0.10878439992666245,
                    0.09347384423017502
                ]
            ]
        ],
        [
            [
                [
                    -0.09099677950143814,
                    -0.059254396706819534,
                    -0.0583069771528244,
                    -0.014007486402988434,
                    -0.057062678039073944
                ],
                [
                    -0.06463830173015594,
                    -0.10068511962890625,
                    -0.021890057250857353,
                    -0.0925014317035675,
                    -0.03941681981086731
                ],
                [
                    -0.061068639159202576,
                    0.011715542525053024,
                    0.023810582235455513,
                    0.009944858029484749,
                    -0.055895764380693436
                ],
                [
                    -0.01964305341243744,
                    0.016124291345477104,
                    -0.0005760438507422805,
                    -0.025021979585289955,
                    0.0063980091363191605
                ],
                [
                    -0.006967200897634029,
                    -0.009659607894718647,
                    -0.018537156283855438,
                    -0.006948972120881081,
                    0.020417992025613785
                ]
            ],
            [
                [
                    0.05932651460170746,
                    0.02169514261186123,
                    0.03812187537550926,
                    0.013973495922982693,
                    0.030660446733236313
                ],
                [
                    -0.0632328987121582,
                    -0.026287300512194633,
                    -0.08452973514795303,
                    -0.07992848753929138,
                    -0.11345653980970383
                ],
                [
                    -0.025966068729758263,
                    -0.03682394698262215,
                    -0.01338664535433054,
                    -0.013166267424821854,
                    -0.006894734222441912
                ],
                [
                    0.061094775795936584,
                    0.042743418365716934,
                    0.06518182903528214,
                    0.031025219708681107,
                    -0.0018672264413908124
                ],
                [
                    0.07935840636491776,
                    0.07600722461938858,
                    0.0865950733423233,
                    0.03196512162685394,
                    0.09096858650445938
                ]
            ],
            [
                [
                    0.08981725573539734,
                    0.07293875515460968,
                    0.06180037185549736,
                    0.01954127848148346,
                    0.0765695720911026
                ],
                [
                    0.0775078535079956,
                    0.09190832078456879,
                    0.11815748363733292,
                    0.12640975415706635,
                    0.07217390835285187
                ],
                [
                    0.053633466362953186,
                    0.04889659211039543,
                    0.072117879986763,
                    0.05318306386470795,
                    0.024386128410696983
                ],
                [
                    -0.030105048790574074,
                    0.004277518950402737,
                    -0.030002307146787643,
                    -0.013204335235059261,
                    0.00028224868583492935
                ],
                [
                    -0.04108957573771477,
                    -0.02155314013361931,
                    -0.07588490098714828,
                    -0.016683785244822502,
                    -0.051971685141325
                ]
            ],
            [
                [
                    0.055112943053245544,
                    -0.020555756986141205,
                    0.045240893959999084,
                    0.03716563060879707,
                    0.04759838804602623
                ],
                [
                    0.019241882488131523,
                    0.03357657790184021,
                    0.05551369860768318,
                    0.04955291002988815,
                    0.017439570277929306
                ],
                [
                    0.011990315280854702,
                    0.01381872408092022,
                    0.023697439581155777,
                    0.01885274611413479,
                    -0.037637773901224136
                ],
                [
                    -0.01660143956542015,
                    -0.08490541577339172,
                    -0.0777265727519989,
                    -0.07666946947574615,
                    -0.05243854969739914
                ],
                [
                    -0.04479486122727394,
                    -0.09111128747463226,
                    -0.08412347733974457,
                    -0.12963183224201202,
                    -0.08668200671672821
                ]
            ],
            [
                [
                    0.04047746956348419,
                    0.06289706379175186,
                    0.0031451177783310413,
                    0.026350194588303566,
                    0.014734068885445595
                ],
                [
                    0.08560537546873093,
                    0.0728415846824646,
                    0.032656218856573105,
                    0.058033302426338196,
                    0.03300371766090393
                ],
                [
                    0.03801135718822479,
                    0.0813571959733963,
                    -0.027883434668183327,
                    0.002786242635920644,
                    -0.02430802211165428
                ],
                [
                    -0.07765498012304306,
                    -0.04631800204515457,
                    -0.10547254979610443,
                    -0.08517280966043472,
                    -0.1166372150182724
                ],
                [
                    -0.07051574438810349,
                    -0.08003757894039154,
                    -0.058714307844638824,
                    -0.08701089769601822,
                    -0.1266171932220459
                ]
            ],
            [
                [
                    0.00487004779279232,
                    0.06449379771947861,
                    0.057290975004434586,
                    0.06308940798044205,
                    -0.014057532884180546
                ],
                [
                    0.06541592627763748,
                    0.1060904935002327,
                    0.10462824255228043,
                    0.0851946771144867,
                    0.0688871443271637
                ],
                [
                    0.04802670702338219,
                    0.03451184555888176,
                    0.03727833926677704,
                    0.03196897357702255,
                    -0.004073442425578833
                ],
                [
                    -0.016364339739084244,
                    -0.08460207283496857,
                    -0.08546429127454758,
                    -0.09463287889957428,
                    -0.07850424200296402
                ],
                [
                    -0.10384272038936615,
                    -0.09535492956638336,
                    -0.11419586092233658,
                    -0.1422329843044281,
                    -0.09759941697120667
                ]
            ]
        ],
        [
            [
                [
                    -0.040300410240888596,
                    0.005558403208851814,
                    0.03131784871220589,
                    -0.010766852647066116,
                    0.035775963217020035
                ],
                [
                    0.03991342708468437,
                    -0.0253074299544096,
                    -0.00483247684314847,
                    0.031174320727586746,
                    0.006813148967921734
                ],
                [
                    0.014229499734938145,
                    0.059708911925554276,
                    0.06637514382600784,
                    0.03417176008224487,
                    -0.0004365099885035306
                ],
                [
                    -0.08310790359973907,
                    -0.02539154700934887,
                    -0.01945379562675953,
                    0.022873127833008766,
