{
    "conv1.bias": [
        0.025067956186830997,
        0.04307898797560483,
        0.05390090122818947,
        0.05572681874036789,
        -0.029145628213882446,
        0.01693459739908576
    ],
    "conv1.weight": [
        [
            [
                [
                    0.06225425750017166,
                    0.05944145983085036,
                    0.09086044738069177,
                    0.052283121964137536,
                    0.03335456526838243
                ],
                [
                    0.013983582379296422,
                    -0.012648563832044601,
                    -0.0026699835434556007,
                    -0.025673448108136654,
                    0.041652403306216
                ],
                [
                    -0.014830393833108246,
                    -0.03607369028031826,
                    -0.06418243821099168,
                    -0.03948617051355541,
                    -0.005092457868158817
                ],
                [
                    0.03335217759013176,
                    -0.059969160705804825,
                    0.027113639749586582,
                    0.011920261196792126,
                    -0.06969648320227861
                ],
                [
                    -0.021106401458382607,
                    0.05038847681134939,
                    0.006051585078239441,
                    -0.017197264824062586,
                    -0.01737133727874607
                ]
            ],
            [
                [
                    -0.02068567054811865,
                    0.01768068945966661,
                    0.05712849972769618,
                    -0.02430105209350586,
                    0.0031486842781305313
                ],
                [
                    0.026474090293049812,
                    -0.019836440682411194,
                    -0.01792997680604458,
                    0.062438610708341,
                    -0.0027184095233678818
                ],
                [
                    0.03436884190887213,
                    -0.02622552240791265,
                    -0.0033487845212221146,
                    -0.019563557114452124,
                    -0.024975853972136974
                ],
                [
                    -0.020505171734839678,
                    0.07401934813242406,
                    0.026750718476250768,
                    0.051398878917098045,
                    -0.04780671978369355
                ],
                [
                    0.05286690220236778,
                    -0.01670236699283123,
                    -0.023519448470324278,
                    -0.013098857598379254,
                    0.0068726129829883575
                ]
            ],
            [
                [
                    0.09127315320074558,
                    0.010775425471365452,
                    0.043713231454603374,
                    0.0625137121824082,
                    0.006739398653735407
                ],
                [
                    0.024526989087462425,
                    0.06560235028155148,
                    0.0654657306149602,
                    0.021674688439816236,
                    -0.003862487617880106
                ],
                [
                    0.01873875288583804,
                    -0.021855041850358248,
                    0.0048731089336797595,
                    -0.009081575088202953,
                    -0.03448521567042917
                ],
                [
                    0.017384665785357356,
                    0.06628205627202988,
                    0.04713770281523466,
                    -0.01488001924008131,
                    -0.020237228833138943
                ],
                [
                    0.0033247852697968483,
                    0.004437047056853771,
                    0.03242824599146843,
                    -0.01770780747756362,
                    0.07592152711004019
                ]
            ]
        ],
        [
            [
                [
                    0.07263140636496246,
                    0.09196566231548786,
                    0.05057912558550015,
                    0.05378011194989085,
                    0.008115311618894339
                ],
                [
                    0.06767619401216507,
                    0.00791463814675808,
                    0.10919486731290817,
                    0.04001526371575892,
                    0.05979382945224643
                ],
                [
                    -0.01237939193379134,
                    0.004192950393189676,
                    0.06463720044121146,
                    -0.017952618654817343,
                    -0.037957352586090565
                ],
                [
                    0.032198436092585325,
                    0.020109330769628286,
                    -0.006064360495656729,
                    0.00744901318103075,
                    -0.055155832786113024
                ],
                [
                    -0.03068404458463192,
                    -0.06389993155607954,
                    -0.07771527161821723,
                    -0.011604782193899155,
                    -0.02413964043080341
                ]
            ],
            [
                [
                    0.01800382509827614,
                    0.043931836262345314,
                    -0.0006480410229414701,
                    0.020055364875588566,
                    -0.022639655217062682
                ],
                [
                    0.032835211139172316,
                    0.02191063592908904,
                    -0.004697026684880257,
                    -0.017616690136492252,
                    -0.040812922175973654
                ],
                [
                    0.0009186053648591042,
                    0.012567704543471336,
                    -0.02467514108866453,
                    -0.04832853190600872,
                    -0.044160693883895874
                ],
                [
                    -0.05113699520006776,
                    0.027272549632471055,
                    0.06043580477125943,
                    -0.01862327614799142,
                    -0.10594851104542613
                ],
                [
                    -0.06923856865614653,
                    -0.0066285853790759575,
                    -0.017140693962574005,
                    -0.028175582643598318,
                    -0.1377023532986641
                ]
            ],
            [
                [
                    0.02294053789228201,
                    0.06948795448988676,
                    0.029731414280831814,
                    0.035652194754220545,
                    0.01571556832641363
                ],
                [
                    0.07812601886689663,
                    0.06438067392446101,
                    0.05692449025809765,
                    0.04878110345453024,
                    -0.03464920655824244
                ],
                [
                    0.050522180274128914,
                    -0.04891973081976175,
                    -0.001594799687154591,
                    0.028220276348292828,
                    0.009049043990671635
                ],
                [
                    -0.021871790755540133,
                    0.026738638058304787,
                    0.01149516785517335,
                    0.038457794580608606,
                    0.007949910592287779
                ],
                [
                    0.023343062959611416,
                    -0.010769634740427136,
                    0.03049861011095345,
                    -0.053377790376544,
                    0.0064934492111206055
                ]
            ]
        ],
        [
            [
                [
                    0.03659650054760277,
                    0.021134564885869622,
                    -0.047591496957466006,
                    0.033820638491306454,
                    -0.03136005159467459
                ],
                [
                    0.015569797717034817,
                    0.01270235888659954,
                    -0.04972926992923021,
                    -0.005222739186137915,
                    -0.050105478847399354
                ],
                [
                    -0.06105712312273681,
                    0.03710904228501022,
                    0.014587300014682114,
                    -0.028076820075511932,
                    -0.06979072513058782
                ],
                [
                    -0.028547318652272224,
                    -0.01249915175139904,
                    -0.0005539241246879101,
                    -0.024702897993847728,
                    0.0358887049369514
                ],
                [
                    0.05986817553639412,
                    0.044847043231129646,
                    -0.018619433045387268,
                    -0.02876266185194254,
                    -0.03687698161229491
                ]
            ],
            [
                [
                    0.004117270465940237,
                    -0.014235078822821379,
                    0.047388351522386074,
                    -0.015550194308161736,
                    -0.00569557212293148
                ],
                [
                    0.03552568610757589,
                    0.001257611089386046,
                    0.02390824956819415,
                    -0.051087197847664356,
                    -0.057993730530142784
                ],
                [
                    0.04303353955037892,
                    -0.00013080844655632973,
                    -0.03221706347540021,
                    0.00919854803942144,
                    -0.02696242555975914
                ],
                [
                    0.024856355041265488,
                    0.016664837719872594,
                    -0.01180249359458685,
                    0.00014514976646751165,
                    -0.025168593507260084
                ],
                [
                    0.051555088721215725,
                    0.021485568955540657,
                    0.0117479064501822,
                    0.11440758220851421,
                    0.010138703510165215
                ]
            ],
            [
                [
                    -0.021523195318877697,
                    0.004028100520372391,
                    0.0883648730814457,
                    0.036078041419386864,
                    -0.0314764054492116
                ],
                [
                    -0.001961049158126116,
                    0.05958032910712063,
                    0.0398464307654649,
                    0.06037933472543955,
                    0.036395032511791214
                ],
                [
                    0.03396920789964497,
                    0.11680650804191828,
                    -0.05878158658742905,
                    -0.04837817884981632,
                    -0.05182534363120794
                ],
                [
                    0.045233253855258226,
                    0.04060170566663146,
                    0.05589388823136687,
                    -0.008150235749781132,
                    -0.026368319056928158
                ],
                [
                    0.06941080093383789,
                    -0.01209979469422251,
                    0.038759141927585006,
                    0.0011533182114362717,
                    0.04919402190716937
                ]
            ]
        ],
        [
            [
                [
                    -0.05516375321894884,
                    -0.02453681582119316,
                    -0.003861064091324806,
                    -0.031597383320331573,
                    0.005669290199875832
                ],
                [
                    -0.05257416237145662,
                    -0.01871979609131813,
                    -0.05941128404811025,
                    0.06281236275390256,
                    0.011077021714299917
                ],
                [
                    -0.023159234318882227,
                    -0.051840717205777764,
                    0.0023648375645279884,
                    0.06820347439497709,
                    0.048365718219429255
                ],
                [
                    -0.008863928727805614,
                    -0.015737319455752186,
                    0.007285577477887273,
                    0.06206295406445861,
                    0.029332161881029606
                ],
                [
                    -0.08263446250930429,
                    0.027897864987608045,
                    -0.015244615264236927,
                    0.01200335193425417,
                    0.031088892370462418
                ]
            ],
            [
                [
                    -0.03376918798312545,
                    0.008142415434122086,
                    0.04192642238922417,
                    -0.026326913852244616,
                    0.013219813437899575
                ],
                [
                    -0.02051526797004044,
                    0.0017401529476046562,
                    0.054143561981618404,
                    0.024113408639095724,
                    0.010495655937120318
                ],
                [
                    -0.02042299648746848,
                    -0.07270378153771162,
                    0.07178298337385058,
                    0.07327599264681339,
                    0.01891741156578064
                ],
                [
                    -0.02032087044790387,
                    -0.01713668182492256,
                    0.0553413201123476,
                    0.11261470057070255,
                    0.013709720922634006
                ],
                [
                    -0.011008661706000566,
                    0.014088620780967176,
                    0.0349470108631067,
                    0.04712802171707153,
                    0.034476470202207565
                ]
            ],
            [
                [
                    -0.05723136727465317,
                    -0.06892223202157766,
                    -0.056259761564433575,
                    0.0042205676436424255,
                    -0.043850189074873924
                ],
                [
                    -0.03973342967219651,
                    -0.04595133103430271,
                    -0.027350261574611068,
                    -0.025453574198763818,
                    -0.008622631430625916
                ],
                [
                    -0.025921478867530823,
                    -0.06600195448845625,
                    -0.04886242747306824,
                    -0.015609615948051214,
                    -0.045739665161818266
                ],
                [
                    0.015569610055536032,
                    -0.04170644283294678,
                    -0.07842587493360043,
                    -0.019329847767949104,
                    0.036964549915865064
                ],
                [
                    -0.06009876634925604,
                    -0.0026658475399017334,
                    0.01881108619272709,
                    -0.061219329945743084,
                    -0.08432294568046927
                ]
            ]
        ],
        [
            [
                [
                    -0.04328929400071502,
                    0.002531470177927986,
                    0.00796032976359129,
                    -0.0025330130010843277,
                    0.031149927526712418
                ],
                [
                    -0.028874381445348263,
                    0.014641996938735247,
                    -0.04993834812194109,
                    -0.039766913279891014,
                    0.053673102520406246
                ],
                [
                    -0.0037357915425673127,
                    -0.10367472656071186,
                    -0.0461999773979187,
                    -0.028658222407102585,
                    0.05502543575130403
                ],
                [
                    -0.0643769174348563,
                    -0.0633526835590601,
                    -0.030806506983935833,
                    -0.04801405407488346,
                    0.028800224885344505
                ],
                [
                    -0.034274404402822256,
                    0.004881611792370677,
                    -0.05121688777580857,
                    -0.005298719275742769,
                    -0.037095287698321044
                ]
            ],
            [
                [
                    0.003931822255253792,
                    -0.05929254670627415,
                    -0.02299725404009223,
                    0.011396984104067087,
                    0.0338423817884177
                ],
                [
                    -0.02820243570022285,
                    -0.0998728983104229,
                    -0.06024816771969199,
                    -0.06314700574148446,
                    -0.01320957875577733
                ],
                [
                    -0.051221881760284305,
                    -0.06411786749958992,
                    0.014576108427718282,
                    -0.010945840738713741,
                    -0.03282769396901131
                ],
                [
                    -0.005018534604460001,
                    -0.02115134592168033,
                    -0.03676730254665017,
                    -0.02523339819163084,
                    -0.03169988701120019
                ],
                [
                    -0.00009692274034023285,
                    0.013807975687086582,
                    -0.01826703315600753,
                    -0.005386753706261516,
                    0.01773273479193449
                ]
            ],
            [
                [
                    0.03049262415152043,
                    -0.005286935018375516,
                    0.09424122609198093,
                    0.00856153666973114,
                    0.015548580791801214
                ],
                [
                    0.02391946269199252,
                    0.0020339470356702805,
                    0.011210199445486069,
                    0.05007101409137249,
                    -0.015383759047836065
                ],
                [
                    -0.05095380684360862,
                    -0.06629971181973815,
                    0.03511606343090534,
                    -0.02325451056822203,
                    0.08350607566535473
                ],
                [
                    0.005776132456958294,
                    0.04497928649652749,
                    -0.007640460506081581,
                    0.02124103158712387,
                    0.06926021724939346
                ],
                [
                    0.032954026479274035,
                    0.05782427033409476,
                    0.044108538422733545,
                    0.04914855770766735,
                    0.07078153733164072
                ]
            ]
        ],
        [
            [
                [
                    0.0682084824074991,
                    0.005510004237294197,
                    -0.02797809476032853,
                    -0.053033354808576405,
                    -0.035439494473394006
                ],
                [
                    -0.02782861329615116,
                    -0.011876869481056929,
                    -0.05223493575613247,
                    -0.051357763819396496,
                    -0.05620365869253874
                ],
                [
                    0.017601920291781425,
                    0.03370113857090473,
                    -0.037860503420233727,
                    -0.056924509117379785,
                    -0.07187640108168125
                ],
                [
                    0.013686359394341707,
                    -0.032387878745794296,
                    0.038639995735138655,
                    0.021365990513004363,
                    0.01363266259431839
                ],
                [
                    -0.07146531948819757,
                    -0.03169910633005202,
                    -0.007098805624991655,
                    -0.004305581096559763,
                    0.0198481053521391
                ]
            ],
            [
                [
                    -0.028104985132813454,
                    -0.06405023112893105,
                    -0.03415554855018854,
                    -0.03125089546665549,
                    -0.04123619827441871
                ],
                [
                    -0.025360004045069218,
                    -0.027781479060649872,
                    0.016392741123127053,
                    -0.055752151645720005,
                    -0.08384109009057283
                ],
                [
                    0.039390212623402476,
                    -0.03424617322161794,
                    0.06967227114364505,
                    -0.004938456229865551,
                    -0.038323622196912766
                ],
                [
                    0.025804401841014624,
                    -0.04645968950353563,
                    0.05187597777694464,
                    -0.02988824635394849,
                    0.03276994754560292
                ],
                [
                    0.017113512381911278,
                    0.02142841531895101,
                    0.002111179754137993,
                    -0.018884466495364904,
                    0.014685213565826416
                ]
            ],
            [
                [
                    -0.01801334973424673,
                    -0.0024780211970210075,
                    -0.05053954105824232,
                    0.005159980617463589,
                    0.013469410070683807
                ],
                [
                    0.025615377351641655,
                    -0.08862556982785463,
                    -0.04617075435817242,
                    0.02025700081139803,
                    0.013157485984265804
                ],
                [
                    -0.005571359768509865,
                    0.004408865235745907,
                    -0.02330928761512041,
                    -0.07008207635954022,
                    0.0496556949801743
                ],
                [
                    0.09948468816583045,
                    -0.00550789013504982,
                    0.025944558205083013,
                    0.011703193187713623,
                    -0.04232998564839363
                ],
                [
                    0.07744075637310743,
                    -0.020994872320443392,
                    0.02550834883004427,
                    -0.05612825695425272,
                    0.028111211257055402
                ]
            ]
        ]
    ],
    "conv2.bias": [
        0.062412729021161795,
        0.07511836988851428,
        0.0036534322425723076,
        -0.029182432685047388,
        0.001141602173447609,
        0.06064654188230634,
        0.006058186525478959,
        0.042343208100646734,
        -0.046342660672962666,
        -0.006232281215488911,
        -0.018400997039861977,
        -0.06628838926553726,
        -0.01368365716189146,
        -0.04103778852731921,
        0.05222794786095619,
        0.00038188183680176735
    ],
    "conv2.weight": [
        [
            [
                [
                    0.002246384334284812,
                    0.0395490787923336,
                    0.018869257844926324,
                    0.018502362167055253,
                    0.049790662713348866
                ],
                [
                    0.013435658533126116,
                    0.025782847544178367,
                    -0.004749563289806247,
                    0.02329236315563321,
                    0.04025663202628493
                ],
                [
                    -0.02334080112632364,
                    0.04358101572142914,
                    0.025229891296476126,
                    0.005080273374915123,
                    0.0674201775691472
                ],
                [
                    0.021767131751403213,
                    0.048044286377262324,
                    0.016791703645139933,
                    0.04781781625933945,
                    0.03255129553144798
                ],
                [
                    0.06614049337804317,
                    0.06274630757980049,
                    -0.0009507306385785341,
                    0.043541801162064075,
                    0.07970278430730104
                ]
            ],
            [
                [
                    0.010126912384293973,
                    -0.008831101120449603,
                    -0.012538040522485971,
                    0.004907520487904549,
                    0.01917895773658529
                ],
                [
                    0.004390544258058071,
                    -0.0060509799513965845,
                    -0.038823939859867096,
                    -0.0546960337087512,
                    0.007281592581421137
                ],
                [
                    0.012317531742155552,
                    -0.006098604528233409,
                    -0.03505910933017731,
                    -0.014513988047838211,
                    -0.02749028429389
                ],
                [
                    -0.006470574531704187,
                    0.011388503480702639,
                    0.04259572923183441,
                    -0.008463564678095281,
                    0.050630402634851635
                ],
                [
                    -0.018711038399487734,
                    -0.004176436923444271,
                    0.06045519630424678,
                    -0.022175929509103298,
                    -0.02942777576390654
                ]
            ],
            [
                [
                    -0.01886300416663289,
                    0.04678484075702727,
                    0.03882700111716986,
                    -0.009937309223460034,
                    0.03010843461379409
                ],
                [
                    0.004237418994307518,
                    0.0027232387801632285,
                    0.012230023625306785,
                    0.010449127294123173,
                    -0.025919260922819376
                ],
                [
                    -0.019861948443576694,
                    -0.0015031630173325539,
                    -0.01226284122094512,
                    0.0012200321070849895,
                    0.018947291187942028
                ],
                [
                    -0.02818864258006215,
                    -0.04355806834064424,
                    -0.04031745484098792,
                    -0.029528101906180382,
                    0.015237380313919857
                ],
                [
                    -0.02470940677449107,
                    -0.0034556391765363514,
                    -0.02315468294546008,
                    -0.02734658552799374,
                    0.01885177823714912
                ]
            ],
            [
                [
                    0.005135775078088045,
                    0.0070477924309670925,
                    0.035693622077815235,
                    0.06854884698987007,
                    0.026830739312572405
                ],
                [
                    -0.03941352339461446,
                    -0.01882623159326613,
                    -0.0508543056785129,
                    0.012200214201584458,
                    0.020448257215321064
                ],
                [
                    -0.026857542106881738,
                    -0.057333340868353844,
                    -0.024092991836369038,
                    -0.03518713917583227,
                    -0.024072770262137055
                ],
                [
                    -0.03523874218808487,
                    -0.023577946238219738,
                    -0.05114595219492912,
                    -0.04915089486166835,
                    -0.011967126978561282
                ],
                [
                    -0.06088032200932503,
                    -0.024966491386294365,
                    -0.01873410277767107,
                    -0.019811490084975958,
                    -0.004658721853047609
                ]
            ],
            [
                [
                    0.023106079548597336,
                    -0.022168820491060615,
                    -0.00635483767837286,
                    0.08400561939924955,
                    0.01825419522356242
                ],
                [
                    0.0004081514198333025,
                    0.024550986592657864,
                    0.032737988818553276,
                    0.03823297627241118,
                    0.03270447067916393
                ],
                [
                    0.03623997326940298,
                    -0.017214399733347818,
                    0.008566814824007452,
                    -0.0137112345546484,
                    0.019580802880227566
                ],
                [
                    -0.008187092375010252,
                    -0.014546108897775412,
                    -0.04495271993800998,
                    0.012277836911380291,
                    -0.0005597632844001055
                ],
                [
                    -0.010034595616161823,
                    0.011009293142706156,
                    -0.026687681180192158,
                    0.020640925504267216,
                    -0.025737326126545668
                ]
            ],
            [
                [
                    -0.03820104757323861,
                    -0.07065120059996843,
                    -0.03176974272355437,
                    0.015763913979753852,
                    -0.024475911632180214
                ],
                [
                    -0.026025559287518263,
                    0.01669400930404663,
                    -0.07994890375994146,
                    -0.037606682017212734,
                    -0.012274082750082016
                ],
                [
                    -0.014041587011888623,
                    -0.008356923703104258,
                    0.0032865887042135,
                    -0.021954163210466504,
                    0.02066446002572775
                ],
                [
                    0.0003154706209897995,
                    -0.015509384218603373,
                    -0.05458685103803873,
                    -0.033632565289735794,
                    -0.0251742172986269
                ],
                [
                    0.002248132601380348,
                    -0.006027244962751865,
                    0.01091058924794197,
                    -0.002687518484890461,
                    -0.022876544389873743
                ]
            ]
        ],
        [
            [
                [
                    -0.041287273401394486,
                    0.011934411246329546,
                    0.04233178636059165,
                    -0.012495412607677281,
                    -0.03690961003303528
                ],
                [
                    -0.02919454569928348,
                    0.003519405610859394,
                    -0.024903806624934077,
                    0.0007811379618942738,
                    0.056424270616844296
                ],
                [
                    -0.016327581834048033,
                    -0.05995338875800371,
                    0.006959550082683563,
                    -0.012931410921737552,
                    0.021982790902256966
                ],
                [
                    -0.024326662067323923,
                    -0.019472699612379074,
                    -0.038540407083928585,
                    -0.047049965942278504,
                    0.01321489067049697
                ],
                [
                    -0.0011622183956205845,
                    -0.0014880873495712876,
                    -0.043686649994924664,
                    -0.027600647881627083,
                    -0.0747709209099412
                ]
            ],
            [
                [
                    0.01287089055404067,
                    0.009930642321705818,
                    0.013220458757132292,
                    0.015569598646834493,
                    0.013150557409971952
                ],
                [
                    -0.025127855129539967,
                    0.027491302229464054,
                    0.03330619726330042,
                    0.006531476232339628,
                    0.012310855090618134
                ],
                [
                    -0.007526713015977293,
                    0.048021514900028706,
                    0.041569639928638935,
                    -0.004597933730110526,
                    0.03427316155284643
                ],
                [
                    0.004662967985495925,
                    -0.06945920921862125,
                    -0.02605839353054762,
                    -0.002267661038786173,
                    0.00468589982483536
                ],
                [
                    -0.06430045049637556,
                    -0.0017487126169726253,
                    -0.04167168214917183,
                    0.022400401532649994,
                    0.01360384258441627
                ]
            ],
            [
                [
                    -0.07545012634363957,
                    -0.08135737851262093,
                    -0.018799470271915197,
                    -0.07618872192688286,
                    -0.026725493400590494
                ],
                [
                    -0.06041272869333625,
                    -0.10722313076257706,
                    -0.05498413625173271,
                    -0.01525738276541233,
                    0.013712681815377437
                ],
                [
                    -0.029800419230014086,
                    -0.06655100220814347,
                    -0.03641287959180772,
                    0.03506555175408721,
                    -0.04377510887570679
                ],
                [
                    0.012073984136804938,
                    -0.08316737390123308,
                    -0.07682923506945372,
                    0.018273629248142242,
                    0.02469299454241991
                ],
                [
                    -0.02351943962275982,
                    -0.04735179618000984,
                    -0.04091114705806831,
                    -0.02426881017163396,
                    -0.03482812724541873
                ]
            ],
            [
                [
                    -0.006802510470151901,
                    0.02786106721032411,
                    0.02754870243370533,
                    -0.00999053381383419,
                    -0.008606906980276108
                ],
                [
                    -0.05075431661680341,
                    0.03682277677580714,
                    0.04748495505191386,
                    0.0005427655996754766,
                    0.017799455672502518
                ],
                [
                    -0.026591430651023984,
                    -0.011814160738140345,
                    -0.0064472053200006485,
                    0.01502622989937663,
                    0.025641803396865726
                ],
                [
                    0.05394181492738426,
                    0.023677886463701725,
                    -0.029317772132344544,
                    -0.009511704556643963,
                    0.03777038597036153
                ],
                [
                    0.05691484618000686,
                    0.06282356614246964,
                    -0.011737927794456482,
                    0.011418947018682957,
                    -0.013666936429217458
                ]
            ],
            [
                [
                    -0.02308742143213749,
                    0.0044208604376763105,
                    0.03033670163131319,
                    -0.0456810790929012,
                    -0.06066407519392669
                ],
                [
                    -0.036320802522823215,
                    -0.04029201832599938,
                    -0.024400473106652498,
                    0.049938841722905636,
                    -0.009077836402866524
                ],
                [
                    -0.017589303199201822,
                    0.02648945990949869,
                    -0.006853925995528698,
                    -0.0026522474363446236,
                    0.00852613733150065
                ],
                [
                    -0.02195467264391482,
                    -0.005526896566152573,
                    -0.010079235886223614,
                    -0.009955181274563074,
                    0.000784871750511229
                ],
                [
                    0.06295570358633995,
                    0.049212133169930894,
                    -0.005919261835515499,
                    0.010253447107970715,
                    -0.03449788910802454
                ]
            ],
            [
                [
                    -0.012811144813895226,
                    0.005206860136240721,
                    0.05108015576843172,
                    0.05072605982422829,
                    0.042443071492016315
                ],
                [
                    -0.04616250074468553,
                    0.03844986518379301,
                    0.01437330397311598,
                    0.02594715729355812,
                    -0.0047345394268631935
                ],
                [
                    0.017505564028397202,
                    0.0030274614691734314,
                    0.060078037437051535,
                    -0.026071109263284598,
                    0.008574508770834655
                ],
                [
                    0.028629394713789225,
                    0.013805655762553215,
                    0.004464457044377923,
                    0.004126494051888585,
                    0.0001259721102542244
                ],
                [
                    -0.0051913748029619455,
                    -0.04318355629220605,
                    -0.04115995718166232,
                    -0.005143459071405232,
                    0.031497646938078105
                ]
            ]
        ],
        [
            [
                [
                    0.029900293331593275,
                    0.03158681374043226,
                    -0.007399854890536517,
                    -0.030553907266948954,
                    -0.0337692815810442
                ],
                [
                    0.006158282747492194,
                    0.010946713387966156,
                    -0.012728707864880562,
                    -0.0569224045611918,
                    -0.04236339591443539
                ],
                [
                    -0.022308864630758762,
                    -0.044219435192644596,
                    -0.02537576574832201,
                    -0.020671056816354394,
                    -0.061574327759444714
                ],
                [
                    0.02444745384855196,
                    -0.0001898389309644699,
                    0.0026992838829755783,
                    -0.0013986274134367704,
                    0.005441023502498865
                ],
                [
                    -0.0057092211209237576,
                    -0.06702780351042747,
                    0.015898920595645905,
                    -0.010373461991548538,
                    -0.009036846924573183
                ]
            ],
            [
                [
                    0.0005696993321180344,
                    -0.010457018855959177,
                    0.033346135169267654,
                    0.01998159413051326,
                    0.010715392418205738
                ],
                [
                    0.015230483521008864,
                    0.004907528404146433,
                    0.04449323227163404,
                    0.005522377789020538,
                    0.05201444681733847
                ],
                [
                    -0.017567336559295654,
                    -0.012524543330073357,
                    0.007956132292747498,
                    0.016871645115315914,
                    0.0029721148312091827
                ],
                [
                    -0.026403118739835918,
                    -0.033009184335242026,
                    -0.010881442576646805,
                    0.05129419302102178,
                    0.01863596493035402
                ],
                [
                    0.002206559292972088,
                    -0.034364149905741215,
                    0.009696721856016666,
                    0.016054754378274083,
                    0.08198481053113937
                ]
            ],
            [
                [
                    0.026942101190797985,
                    0.001837432850152254,
                    -0.04259155865292996,
                    -0.055363919702358544,
                    0.008987315464764833
                ],
                [
                    -0.0012939335429109633,
                    0.009622370824217796,
                    0.02215575845912099,
                    0.030529831536114216,
                    0.004579248605296016
                ],
                [
                    0.0050347112119197845,
                    -0.009493560530245304,
                    0.0462155471323058,
                    -0.04110922780819237,
                    0.016862601973116398
                ],
                [
                    -0.0041958128567785025,
                    0.0030923448503017426,
                    -0.05045218823943287,
                    -0.05093493824824691,
                    -0.031405048444867134
                ],
                [
                    -0.02725022449158132,
                    0.0008041989058256149,
                    -0.04129679640755057,
                    -0.03619294473901391,
                    -0.07916907253093086
                ]
            ],
            [
                [
                    0.06621681278920732,
                    0.051292419200763106,
                    -0.007865961641073227,
                    0.012402661144733429,
                    -0.020116141997277737
                ],
                [
                    0.04341058013960719,
                    0.058519902639091015,
                    -0.002590392716228962,
                    0.033231838839128613,
                    -0.012762359343469143
                ],
                [
                    0.01157367299310863,
                    0.08397655934095383,
                    0.045941540971398354,
                    0.02907175407744944,
                    0.06325594987720251
                ],
                [
                    0.025756849092431366,
                    0.0494426985969767,
                    -0.009028546512126923,
                    -0.01887029269710183,
                    0.00782502198126167
                ],
                [
                    -0.005087805213406682,
                    -0.00747522059828043,
                    -0.004552733153104782,
                    -0.009197686798870564,
                    -0.02595554757863283
                ]
            ],
            [
                [
                    0.039253098890185356,
                    0.006823430652730167,
                    -0.0066156291868537664,
                    -0.01435546763241291,
                    0.0036902482388541102
                ],
                [
                    0.04819664126262069,
                    0.009607850108295679,
                    -0.000010277610272169113,
                    0.010203276528045535,
                    0.028814413119107485
                ],
                [
                    -0.007521144114434719,
                    -0.00685928319580853,
                    0.026026151259429753,
                    -0.030041497433558106,
                    0.016404883237555623
                ],
                [
                    -0.021387698594480753,
                    0.036415289621800184,
                    -0.01183180883526802,
                    0.00602016132324934,
                    0.004089429974555969
                ],
                [
                    -0.049555485136806965,
                    -0.007324114674702287,
                    -0.01729527465067804,
                    0.02127137198112905,
                    0.017324840184301138
                ]
            ],
            [
                [
                    0.014615013846196234,
                    0.02771374164149165,
                    0.04872293770313263,
                    -0.011269957874901593,
                    0.0010849835816770792
                ],
                [
                    -0.028219278901815414,
                    0.033938343287445605,
                    0.0091891682241112,
                    0.0007244851440191269,
                    -0.03228669287636876
                ],
                [
                    0.015703088138252497,
                    0.00892523919173982,
                    0.01830505341058597,
                    -0.008086542831733823,
                    0.046821003314107656
                ],
                [
                    -0.044773656176403165,
                    -0.046600168803706765,
                    -0.006382845342159271,
                    -0.01609882846241817,
                    0.0011765260715037584
                ],
                [
                    -0.005877458315808326,
                    -0.06342493614647537,
                    -0.03141717240214348,
                    -0.05262619676068425,
                    -0.03904236014932394
                ]
            ]
        ],
        [
            [
                [
                    -0.02510217111557722,
                    -0.011001638835296035,
                    0.022057044552639127,
                    -0.016169853857718408,
                    -0.03035178384743631
                ],
                [
                    -0.006898935418576002,
                    0.03857125248759985,
                    -0.045432562939822674,
                    0.036138220224529505,
                    -0.017174402251839638
                ],
                [
                    -0.03782273846445605,
                    -0.022038727067410946,
                    -0.025455526054429356,
                    0.013907411601394415,
                    -0.021716552786529064
                ],
                [
                    -0.03244015574455261,
                    -0.09660096792504191,
                    -0.03784003388136625,
                    -0.017514908220618963,
                    -0.06488719303160906
                ],
                [
                    -0.06272577866911888,
                    -0.022987869659118587,
                    -0.011784241534769535,
                    -0.07106251176446676,
                    -0.005383654497563839
                ]
            ],
            [
                [
                    -0.0304630845785141,
                    -0.014599619433283806,
                    -0.07576921489089727,
                    -0.05204580770805478,
                    -0.030111574102193117
                ],
                [
                    -0.011796370847150683,
                    -0.000843673013150692,
                    -0.004659574944525957,
                    0.017692605062620714,
                    0.001170128583908081
                ],
                [
                    0.006863605696707964,
                    0.03828447451815009,
                    -0.04623471386730671,
                    0.024324713740497828,
                    0.01215951843187213
                ],
                [
                    -0.016408353112637997,
                    0.025060173124074936,
                    0.032585471228230745,
                    -0.021992497611790895,
                    -0.01861716649727896
                ],
                [
                    -0.020833834074437618,
                    0.002748343162238598,
                    0.03556102025322616,
                    0.02761659910902381,
                    0.01722168014384806
                ]
            ],
            [
                [
                    0.004480506293475628,
                    -0.04488113895058632,
                    0.033738607773557305,
                    -0.023721152916550636,
                    -0.027467110427096486
                ],
                [
                    -0.01547912321984768,
                    -0.036228382494300604,
                    0.009969198144972324,
                    -0.04869557695928961,
                    0.025569077115505934
                ],
                [
                    -0.01853488954657223,
                    0.00962179945781827,
                    0.015533676487393677,
                    0.023603459587320685,
                    -0.0269062586594373
                ],
                [
                    -0.028097625821828842,
                    -0.02934883115813136,
                    0.019550877274014056,
                    0.014642950845882297,
                    0.014550087973475456
                ],
                [
                    -0.005485279951244593,
                    -0.0266637843742501,
                    0.0023504309356212616,
                    -0.028690997511148453,
                    0.004501634277403355
                ]
            ],
            [
                [
                    0.014118012972176075,
                    0.019716671551577747,
                    -0.0033848050516098738,
                    0.001358532696031034,
                    0.014828952495008707
                ],
                [
                    0.04365970694925636,
                    0.055498610716313124,
                    0.04628455056808889,
                    0.04087857669219375,
                    0.029589342535473406
                ],
                [
                    0.08099405141547322,
                    0.05564145836979151,
                    0.009565090760588646,
                    -0.06470330408774316,
                    0.023761130280036014
                ],
                [
                    0.021512606646865606,
                    -0.025965272914618254,
                    0.010202759876847267,
                    0.02585683690267615,
                    0.03842263016849756
                ],
                [
                    0.05913379089906812,
                    0.033383061178028584,
                    0.041236068587750196,
                    -0.0056549618020653725,
                    0.016838358715176582
                ]
            ],
            [
                [
                    -0.02210627112071961,
                    -0.031990823335945606,
                    -0.053514509461820126,
                    -0.02972755447262898,
                    0.01774890860542655
                ],
                [
                    -0.02861556480638683,
                    -0.03134050639346242,
                    -0.04690357390791178,
                    -0.018788602203130722,
                    0.03142343321815133
                ],
                [
                    0.010910069569945335,
                    -0.03400528850033879,
                    -0.08557852543890476,
                    -0.0471826100256294,
                    -0.0035315044224262238
                ],
                [
                    -0.02158700511790812,
                    -0.12136630341410637,
                    -0.07298263348639011,
                    -0.045658244751393795,
                    0.008577703265473247
                ],
                [
                    -0.02687171008437872,
                    -0.02280658483505249,
                    -0.040291526413057,
                    -0.04756843112409115,
                    -0.02321582508739084
                ]
            ],
            [
                [
                    0.045040755067020655,
                    0.0014956049708416685,
                    0.02450066863093525,
                    0.0020599365234375,
                    0.020824494305998087
                ],
                [
                    0.010279046837240458,
                    0.030489183962345123,
                    0.019874762278050184,
                    0.05121826007962227,
                    0.044109830632805824
                ],
                [
                    -0.008478525240207091,
                    0.01076497882604599,
                    -0.0443439744412899,
                    -0.03515960834920406,
                    -0.0159680200740695
                ],
                [
                    0.005869164189789444,
                    -0.008258064393885434,
                    0.013180728841689415,
                    0.016553756315261126,
                    0.009746852796524763
                ],
                [
                    0.014273390173912048,
                    0.011548181995749474,
                    0.025536525063216686,
                    0.034845029935240746,
                    0.018623026087880135
                ]
            ]
        ],
        [
            [
                [
                    0.011067855870351195,
                    0.01279886279371567,
                    0.006712027359753847,
                    0.021308339200913906,
                    -0.004101497237570584
                ],
                [
                    0.013283370062708855,
                    0.059137047501280904,
                    0.034741817973554134,
                    0.057010363321751356,
                    0.018333543557673693
                ],
                [
                    0.012579392234329134,
                    0.03831127122975886,
                    0.03872636612504721,
                    0.006797257927246392,
                    -0.011841855943202972
                ],
                [
                    0.03675479209050536,
                    0.05755066592246294,
                    0.038338870741426945,
                    -0.0024910251377150416,
                    0.007970165344886482
                ],
                [
                    0.009700384456664324,
                    -0.052224320359528065,
                    -0.02262830367544666,
                    -0.02567445975728333,
                    -0.04995090630836785
                ]
            ],
            [
                [
                    -0.03281028689525556,
                    -0.015135077759623528,
                    -0.021739612595411018,
                    -0.01776985637843609,
                    0.0587961170822382
                ],
                [
                    -0.0018306686542928219,
                    -0.007329397209105082,
                    0.008319441694766283,
                    -0.008165001636371017,
                    0.023635136894881725
                ],
                [
                    -0.025115396827459335,
                    -0.01804789574816823,
                    0.016457767225801945,
                    -0.03108193865045905,
                    0.03584779554512352
                ],
                [
                    0.018357931170612574,
                    -0.013827459519234253,
                    -0.019807706121355295,
                    0.0005431552417576313,
                    -0.016175424680113792
                ],
                [
                    0.034292517229914665,
                    -0.024668651283718646,
                    0.01656330283731222,
                    0.03241413983050734,
                    0.05045881774276495
                ]
            ],
            [
                [
                    -0.04832245595753193,
                    -0.004717207397334278,
                    0.008314715698361397,
                    -0.008749063941650093,
                    -0.060380617156624794
                ],
                [
                    -0.0373223265632987,
                    -0.002980535849928856,
                    -0.00209993589669466,
                    -0.002859086263924837,
                    -0.020823752973228693
                ],
                [
                    0.03100422490388155,
                    0.0005057314410805702,
                    0.004479951690882444,
                    -0.02429224841762334,
                    -0.04050490423105657
                ],
                [
                    -0.002425498329102993,
                    -0.001801908016204834,
                    -0.0017226158524863422,
                    0.003488838206976652,
                    -0.031726090353913605
                ],
                [
                    -0.04168401286005974,
                    -0.022145208436995745,
                    -0.05436420708429068,
                    -0.06207684986293316,
                    -0.03652377845719457
                ]
            ],
            [
                [
                    0.06909608840942383,
                    0.07977261301130056,
                    -0.020607885904610157,
                    0.026749175041913986,
                    -0.01301219267770648
                ],
                [
                    0.049158758483827114,
                    0.06432355102151632,
                    0.003003619611263275,
                    0.03400937654078007,
                    0.036529346427414566
                ],
                [
                    0.005069099483080208,
                    0.036477464251220226,
                    0.014322417788207531,
                    -0.01682430156506598,
                    -0.019096404081210494
                ],
                [
                    -0.007307459716685116,
                    0.03006302285939455,
                    -0.039067705161869526,
                    -0.0243115279590711,
                    0.019848018884658813
                ],
                [
                    0.0004097204655408859,
                    -0.036595260666217655,
                    -0.06748374365270138,
                    -0.07699066726490855,
                    -0.037044816970592365
                ]
            ],
            [
                [
                    0.06327138585038483,
                    0.012173768598586321,
                    -0.024770974880084395,
                    -0.007444554939866066,
                    0.026439156383275986
                ],
                [
                    -0.00541004678234458,
                    0.009777251863852143,
                    -0.027601261623203754,
                    -0.024991096754092723,
                    -0.023243336006999016
                ],
                [
                    0.03662636876106262,
                    0.02777512394823134,
                    0.013354647904634476,
                    0.050276282243430614,
                    0.027956850710324943
                ],
                [
                    0.02448525745421648,
                    -0.016020067501813173,
                    -0.01036235480569303,
                    -0.0029380241176113486,
                    -0.05360077228397131
                ],
                [
                    -0.00633007544092834,
                    0.000639935489743948,
                    0.017926979809999466,
                    -0.010949317831546068,
                    -0.006504968740046024
                ]
            ],
            [
                [
                    0.004912956967018545,
                    -0.024982872419059277,
                    0.018932414139271714,
                    -0.0001055784523487091,
                    -0.0014968046452850103
                ],
                [
                    -0.0038233064115047455,
                    0.008470294997096062,
                    -0.03263164695817977,
                    0.0005202200263738632,
                    0.025153529306408018
                ],
                [
                    0.032235653372481465,
                    0.019055236596614122,
                    -0.008701551705598831,
                    0.023368038702756166,
                    0.01574196631554514
                ],
                [
                    0.009716834174469113,
                    0.019687870051711798,
                    -0.05598722188733518,
                    0.03925754316151142,
                    -0.0017129029147326946
                ],
                [
                    0.02934739738702774,
                    -0.02793896122602746,
                    0.018979953485541046,
                    -0.03685619914904237,
                    -0.047856561839580536
                ]
            ]
        ],
        [
            [
                [
                    -0.008283090777695179,
                    -0.009891544934362173,
                    0.0031024564523249865,
                    -0.011119778035208583,
                    0.009861344005912542
                ],
                [
                    -0.009753134101629257,
                    0.06569463014602661,
                    0.005696421721950173,
                    -0.0431543979793787,
                    0.03633639449253678
                ],
                [
                    0.0007594171911478043,
                    0.010015872307121754,
                    -0.024850598769262433,
                    -0.025664221961051226,
                    0.02993569616228342
                ],
                [
                    0.014262273907661438,
                    -0.012001560535281897,
                    0.0015820027329027653,
                    -0.040494552347809076,
                    -0.013519054278731346
                ],
                [
                    0.028755478095263243,
                    -0.027323589893057942,
                    -0.05204587150365114,
                    -0.02190420648548752,
                    0.006750916130840778
                ]
            ],
            [
                [
                    0.01021977886557579,
                    -0.015769476420246065,
                    0.006916295271366835,
                    -0.03613062668591738,
                    0.01703081000596285
                ],
                [
                    -0.005067522171884775,
                    0.03720511158462614,
                    -0.012150519993156195,
                    -0.0039827171713113785,
                    -0.003453100100159645
                ],
                [
                    0.04753072373569012,
                    -0.04456415306776762,
                    -0.04031087574549019,
                    -0.03500145464204252,
                    0.01152772642672062
                ],
                [
                    -0.01012377644656226,
                    -0.05040803109295666,
                    0.022648850455880165,
                    -0.01997398119419813,
                    0.053236803389154375
                ],
                [
                    0.0165656081517227,
                    -0.0206186231225729,
                    -0.036006513983011246,
                    -0.05152120103593916,
                    -0.004332754760980606
                ]
            ],
            [
                [
                    0.06605553906410933,
                    0.012273339089006186,
                    0.012688227463513613,
                    -0.015996125715901144,
                    0.003584418911486864
                ],
                [
                    0.03915427206084132,
                    -0.01617477541731205,
                    -0.03626694902777672,
                    -0.02705349074676633,
                    0.06313172867521644
                ],
                [
                    0.011712295701727271,
                    0.0032064998522400856,
                    -0.034022882995486725,
                    0.048229681327939034,
                    0.0025450545363128185
                ],
                [
                    -0.01915659918449819,
                    -0.02769556175917387,
                    -0.010320088127627969,
                    0.03848074283450842,
                    0.011223569861613214
                ],
                [
                    -0.00983379318495281,
                    -0.01432403502985835,
                    0.007511836942285299,
                    -0.014104687608778477,
                    0.01908141782041639
                ]
            ],
            [
                [
                    0.007439149456331506,
                    -0.024245714652352035,
                    -0.01760090293828398,
                    0.026349227409809828,
                    0.040976115968078375
                ],
                [
                    0.02304834662936628,
                    -0.0027242645155638456,
                    -0.04087082017213106,
                    0.04583820851985365,
                    0.009656970854848623
                ],
                [
                    0.011008663568645716,
                    -0.0034843673929572105,
                    0.025204779114574194,
                    -0.018971887417137623,
                    -0.00036296749021857977
                ],
                [
                    -0.04415843277820386,
                    -0.01301667676307261,
                    -0.026237414218485355,
                    0.006868247874081135,
                    -0.007023930549621582
                ],
                [
                    0.018111197743564844,
                    0.056617052759975195,
                    -0.011110696941614151,
                    -0.0036298276972956955,
                    -0.029703074833378196
                ]
            ],
            [
                [
                    0.004555312916636467,
                    -0.012150937225669622,
                    0.026536887511610985,
                    -0.014471052680164576,
                    0.031692763510363875
                ],
                [
                    -0.04100542655214667,
                    0.010610525961965322,
                    0.035612793639302254,
                    0.015507052652537823,
                    0.015748243778944016
                ],
                [
                    -0.02014628183678724,
                    -0.03785663435701281,
                    -0.008311588782817125,
                    -0.012913926038891077,
                    -0.014412054792046547
                ],
                [
                    -0.022725852206349373,
                    0.005391345592215657,
                    -0.008131876587867737,
                    0.006527396384626627,
                    -0.04128869064152241
                ],
                [
                    -0.025364804081618786,
                    -0.022452165838330984,
                    -0.047567097237333655,
                    -0.00960183097049594,
                    -0.038595374673604965
                ]
            ],
            [
                [
                    0.05537051148712635,
                    0.014061337802559137,
                    -0.005496798199601471,
                    0.05657555628567934,
                    0.030455355998128653
                ],
                [
                    0.016566066537052393,
                    -0.011284297215752304,
                    -0.0217077148554381,
                    -0.044415990938432515,
                    -0.003522400511428714
                ],
                [
                    0.026310696615837514,
                    0.013493497739546001,
                    0.03086541499942541,
                    0.043053943547420204,
                    -0.00011386058758944273
                ],
                [
                    -0.045738537795841694,
                    -0.04497228958643973,
                    -0.03235743194818497,
                    0.013750820886343718,
                    -0.00024100544396787882
                ],
                [
                    -0.00147570064291358,
                    0.006109772250056267,
                    -0.008858287706971169,
                    -0.01773324143141508,
                    -0.021986493607982993
                ]
            ]
        ],
        [
            [
                [
                    -0.012735460652038455,
                    0.04982628975994885,
                    0.011657101102173328,
                    0.020896234549582005,
                    0.03764682076871395
                ],
                [
                    0.0014576315879821777,
                    -0.004742773249745369,
                    -0.030005902983248234,
                    -0.023314750753343105,
                    0.013476551859639585
                ],
                [
                    -0.014349127653986216,
                    -0.015107744431588799,
                    -0.013585669570602477,
                    -0.016350836725905538,
                    -0.038373648189008236
                ],
                [
                    -0.06288078590296209,
                    0.004102317150682211,
                    0.012797057628631592,
                    0.020567918079905212,
                    -0.01424037292599678
                ],
                [
                    0.027289520017802715,
                    0.006438364274799824,
                    0.015229324344545603,
                    -0.024936001747846603,
                    0.02140655741095543
                ]
            ],
            [
                [
                    0.005186920519918203,
                    0.02468455256894231,
                    0.0474985723849386,
                    -0.004067671950906515,
                    -0.020540742203593254
                ],
                [
                    0.010444020852446556,
                    0.0033815978094935417,
                    -0.006040862295776606,
                    -0.04869075212627649,
                    0.005470755510032177
                ],
                [
                    0.04037318337941542,
                    0.003164617228321731,
                    0.018560606287792325,
                    -0.05064199026674032,
                    -0.01239362359046936
                ],
                [
                    0.0366090084426105,
                    0.014408664195798337,
                    0.0073631611885502934,
                    -0.02431275136768818,
                    -0.015651216730475426
                ],
                [
                    -0.023273474536836147,
                    -0.01501526904758066,
                    0.017314718570560217,
                    -0.03424526487651747,
                    -0.031999335158616304
                ]
            ],
            [
                [
                    -0.024064966943114996,
                    0.0183832966722548,
                    0.004272833000868559,
                    0.02775811543688178,
                    0.01364417839795351
                ],
                [
                    -0.011849635629914701,
                    0.024041145108640194,
                    -0.03478471329435706,
                    -0.016641490627080202,
                    -0.019883875735104084
                ],
                [
                    -0.031100870575755835,
                    -0.04593152564484626,
                    -0.01113103423267603,
                    -0.022421542736992706,
                    -0.023084568209014833
                ],
                [
                    -0.11158901639282703,
                    0.04709217557683587,
                    0.0027994895353913307,
                    0.04235595790669322,
                    -0.017842397559434175
                ],
                [
                    -0.07743374072015285,
                    -0.007775968057103455,
                    0.012014576699584723,
                    0.02041437802836299,
                    0.01137634925544262
                ]
            ],
            [
                [
                    -0.0521662263199687,
                    -0.047899240627884865,
                    -0.056011169275734574,
                    -0.08832413936033845,
                    -0.10195278003811836
                ],
                [
                    0.004166583530604839,
                    -0.02470378950238228,
                    -0.06989465723745525,
                    -0.07356745610013604,
                    -0.07919052895158529
                ],
                [
                    0.03615346911828965,
                    -0.01673662383109331,
                    -0.02407299168407917,
                    -0.08099819417111576,
                    -0.06115397228859365
                ],
                [
                    -0.03313361154869199,
                    -0.030638580908998847,
                    -0.023793042171746492,
                    -0.05635239521507174,
                    -0.05137854116037488
                ],
                [
                    -0.0030286270193755627,
                    -0.0244372762972489,
                    -0.005115191102959216,
                    -0.023048604372888803,
                    -0.0246568750590086
                ]
            ],
            [
                [
                    0.06761698401533067,
                    -0.024755445425398648,
                    0.026402253075502813,
                    -0.010798428789712489,
                    0.052069839322939515
                ],
                [
                    0.0000392179936170578,
                    0.012991556897759438,
                    0.01822776487097144,
                    -0.014272689819335938,
                    -0.0037100324407219887
                ],
                [
                    -0.009563895873725414,
                    0.003513206960633397,
                    0.012410842580720782,
                    -0.027192418812774122,
                    0.04294983111321926
                ],
                [
                    0.007131519727408886,
                    0.01934992801398039,
                    -0.0678063640370965,
                    0.013205336406826973,
                    0.022882144316099584
                ],
                [
                    0.049322339706122875,
                    0.0369031373411417,
                    0.024996119609568268,
                    0.021402012091130018,
                    0.03153453930281103
                ]
            ],
            [
                [
                    0.037880069110542536,
                    -0.028176085092127323,
                    -0.01665271946694702,
                    -0.05262539256364107,
                    0.03359396802261472
                ],
                [
                    0.04541402403265238,
                    0.029749703593552113,
                    0.025381758343428373,
                    0.004165068356087431,
                    0.014321834198199213
                ],
                [
                    0.0632154531776905,
                    0.02694457396864891,
                    -0.017221687361598015,
                    0.030094954185187817,
                    0.08546099252998829
                ],
                [
                    0.06985507137142122,
                    0.06088306615129113,
                    0.016170407412573695,
                    0.012494815740865306,
                    -0.0031716455705463886
                ],
                [
                    0.07497149535629433,
                    0.025877362117171288,
                    0.06656859116628766,
                    -0.007896223338320851,
                    -0.017572996439412236
                ]
            ]
        ],
        [
            [
                [
                    -0.03363304864615202,
                    -0.021179140778258443,
                    -0.042245083895977587,
                    0.003334891025588149,
                    -0.034797392785549164
                ],
                [
                    -0.04748545109760016,
                    -0.033079665154218674,
                    -0.03475507441908121,
                    -0.00794765236787498,
                    -0.00799116026610136
                ],
                [
                    -0.03391348267905414,
                    -0.054487059358507395,
                    -0.013518917141482234,
                    -0.05398095306009054,
                    -0.019424643134698272
                ],
                [
                    -0.019654530100524426,
                    -0.004456478636711836,
                    0.010017240419983864,
                    -0.002822224050760269,
                    -0.00800244603306055
                ],
                [
                    0.0421014065577765,
                    0.06129096820950508,
                    0.0585835836827755,
                    0.0773298917338252,
                    0.07373468019068241
                ]
            ],
            [
                [
                    -0.03136716960580088,
                    -0.020426923874765635,
                    -0.008671773946844041,
                    -0.0015967721119523048,
                    -0.009079633397050202
                ],
                [
                    -0.017848473507910967,
                    -0.03974097175523639,
                    0.03941460745409131,
                    0.015331407077610493,
                    0.036220824578776956
                ],
                [
                    0.0019910759292542934,
                    -0.0012167226523160934,
                    0.010822336189448833,
                    0.08715699426829815,
                    0.031816378235816956
                ],
                [
                    -0.00597551534883678,
                    -0.027672134805470705,
                    0.0038506384007632732,
                    0.015612437855452299,
                    -0.013693338725715876
                ],
                [
                    -0.07687857747077942,
                    -0.048916613683104515,
                    -0.06899273209273815,
                    -0.02722939514205791,
                    -0.017575961188413203
                ]
            ],
            [
                [
                    -0.036542609333992004,
                    -0.01795565662905574,
                    -0.023597078456077725,
                    -0.04717169888317585,
                    0.03086567623540759
                ],
                [
                    0.02659135835710913,
                    -0.04295281833037734,
                    0.006372254807502031,
                    -0.0268613990774611,
                    -0.0055246606934815645
                ],
                [
                    -0.00599334022263065,
                    -0.02938778605312109,
                    0.03630606830120087,
                    -0.020799466408789158,
                    0.040366997476667166
                ],
                [
                    -0.019429288571700454,
                    -0.04901892691850662,
                    -0.007377300877124071,
                    0.024565130472183228,
                    0.010173857677727938
                ],
                [
                    -0.01132068783044815,
                    -0.026447579730302095,
                    0.048401881475001574,
                    -0.01311121229082346,
                    0.025011403486132622
                ]
            ],
            [
                [
                    0.013519900850951672,
                    0.03081869473680854,
                    0.03565860306844115,
                    -0.024559469893574715,
                    0.005626320838928223
                ],
                [
                    0.06456513702869415,
                    0.012744449544698,
                    -0.005139098968356848,
                    0.0195205919444561,
                    -0.003435622522374615
                ],
                [
                    0.03445020504295826,
                    0.010739509714767337,
                    0.020668058656156063,
                    -0.027906693052500486,
                    0.007737115956842899
                ],
                [
                    0.05460100155323744,
                    -0.04012259980663657,
                    -0.014020351693034172,
                    -0.019207091550924815,
                    0.01750862831249833
                ],
                [
                    0.027085443289251998,
                    0.03820008470211178,
                    0.022335835499688983,
                    -0.014733333140611649,
                    0.02252873295219615
                ]
            ],
            [
                [
                    0.04001143528148532,
                    -0.016720433020964265,
                    -0.0005849828012287617,
                    -0.021864905953407288,
                    -0.051711149513721466
                ],
                [
                    0.011702670715749264,
                    -0.02077994600404054,
                    0.005034143105149269,
                    -0.01410057907924056,
                    -0.0489977341494523
                ],
                [
                    -0.0050825661746785045,
                    -0.050206346437335014,
                    -0.0922914482653141,
                    -0.03568990377243608,
                    0.03232812508940697
                ],
                [
                    0.04177507106214762,
                    0.015798025182448328,
                    0.0014304970391094685,
                    -0.024388394318521023,
                    0.02579932054504752
                ],
                [
                    0.05286264605820179,
                    0.026798752136528492,
                    -0.020683316979557276,
                    -0.014932247344404459,
                    0.049865106120705605
                ]
            ],
            [
                [
                    -0.050582838244736195,
                    -0.002690011402592063,
                    0.01067757629789412,
                    0.06195267802104354,
                    -0.011193735990673304
                ],
                [
                    -0.03439401159994304,
                    -0.000043982407078146935,
                    -0.011581353901419789,
                    0.014315958134829998,
                    0.044739849865436554
                ],
                [
                    -0.007769653806462884,
                    -0.06675613159313798,
                    0.006877921288833022,
                    -0.013465747120790184,
                    0.04381271236343309
                ],
                [
                    -0.014894982799887657,
                    0.008826091885566711,
                    0.046264830976724625,
                    0.01580189378000796,
                    0.008216910064220428
                ],
                [
                    0.014487829525023699,
                    0.05608790519181639,
                    0.05099575989879668,
                    0.015764902578666806,
                    -0.0037984373047947884
                ]
            ]
        ],
        [
            [
                [
                    -0.022810072638094425,
                    -0.06393604353070259,
                    -0.03008272941224277,
                    -0.06499134935438633,
                    -0.06796508841216564
                ],
                [
                    0.009471238707192242,
                    -0.022786779794842005,
                    -0.00599073339253664,
                    -0.027825891505926847,
                    -0.005210653878748417
                ],
                [
                    0.0019705239683389664,
                    0.022690217243507504,
                    -0.007239075843244791,
                    -0.011943022545892745,
                    -0.02315235330024734
                ],
                [
                    0.050344042014330626,
                    0.019724816200323403,
                    0.01244934182614088,
                    0.000016703270375728607,
                    -0.007329894113354385
                ],
                [
                    0.009018618540721945,
                    0.023325173649936914,
                    0.042956133373081684,
                    0.069864337798208,
                    0.04202863006503321
                ]
            ],
            [
                [
                    0.010136597091332078,
                    0.037196494871750474,
                    -0.003714143589604646,
                    -0.012132256757467985,
                    -0.010641109198331833
                ],
                [
                    0.02496324945241213,
                    0.00614093988770037,
                    -0.032244496047496796,
                    -0.027177792275324464,
                    0.017870713490992785
                ],
                [
                    -0.010102125816047192,
                    0.002771367784589529,
                    -0.022006971761584282,
                    -0.036318784579634666,
                    0.02192410349380225
                ],
                [
                    0.053169095888733864,
                    0.006003980350214988,
                    0.012487097643315792,
                    -0.004860008135437965,
                    0.007724474649876356
                ],
                [
                    0.04670342803001404,
                    -0.03668728331103921,
                    -0.03879924491047859,
                    -0.012175574898719788,
                    0.014570844330592081
                ]
            ],
            [
                [
                    -0.005439444095827639,
                    -0.01005835854448378,
                    -0.008380864310311154,
                    -0.07196896616369486,
                    -0.05499091977253556
                ],
                [
                    0.06766430335119367,
                    -0.004763230448588729,
                    -0.011053717695176601,
                    -0.03387857973575592,
                    0.010418401099741459
                ],
                [
                    0.0339072085916996,
                    0.018529756926000118,
                    0.011246081441640854,
                    0.060665993951261044,
                    -0.0035999659448862076
                ],
                [
                    0.029076251201331615,
                    0.014316157437860966,
                    0.04221892519854009,
                    0.0008519070688635111,
                    0.0030240649357438087
                ],
                [
                    0.09314912091940641,
                    0.08198120212182403,
                    0.0470624715089798,
                    0.05885049235075712,
                    0.07208643201738596
                ]
            ],
            [
                [
                    -0.02220603702153312,
                    -0.05516685824841261,
                    -0.05728485947474837,
                    -0.08811988029628992,
                    -0.0813480457291007
                ],
                [
                    -0.030924544669687748,
                    -0.05451502278447151,
                    -0.0922504561021924,
                    -0.028892316680867225,
                    0.02011925121769309
                ],
                [
                    -0.03904540464282036,
                    0.03431820834521204,
                    -0.04415922239422798,
                    -0.03829086176119745,
                    -0.022553821094334126
                ],
                [
                    -0.057967971079051495,
                    0.013362494762986898,
                    -0.003949521807953715,
                    -0.02563364338129759,
                    -0.019308320013806224
                ],
                [
                    -0.016056634951382875,
                    0.006562638329342008,
                    0.02639744058251381,
                    -0.0019794718828052282,
                    -0.013595603173598647
                ]
            ],
            [
                [
                    -0.010647030547261238,
                    0.009834367781877518,
                    -0.0047863193321973085,
                    -0.07031910243676975,
                    0.008095873752608895
                ],
                [
                    -0.031779662473127246,
                    0.003176718018949032,
                    -0.017762824660167098,
                    0.014168835710734129,
                    0.024282298516482115
                ],
                [
                    0.023424773709848523,
                    0.06121636461466551,
                    0.014882233459502459,
                    -0.015930745052173734,
                    0.029970748350024223
                ],
                [
                    -0.016538930125534534,
                    -0.010964051820337772,
                    0.02058880403637886,
                    -0.01157096354290843,
                    -0.02660849504172802
                ],
                [
                    -0.027256166096776724,
                    0.02977212640689686,
                    0.03126868512481451,
                    0.07505983696319163,
                    0.03160405531525612
                ]
            ],
            [
                [
                    -0.03131157159805298,
                    -0.007832811214029789,
                    0.005354787805117667,
                    -0.012308232951909304,
                    -0.024745451286435127
                ],
                [
                    0.010925090406090021,
                    -0.0176102738478221,
                    0.04053222527727485,
                    -0.030907182954251766,
                    0.026463202200829983
                ],
                [
                    -0.009548504836857319,
                    0.03437711205333471,
                    0.03124709567055106,
                    0.020465894602239132,
                    0.012773552909493446
                ],
                [
                    -0.05482561234384775,
                    0.023510006110882387,
                    -0.017474665015470237,
                    0.08382472023367882,
                    0.0383280161768198
                ],
                [
                    0.020143899571849033,
                    0.05208424245938659,
                    0.04144622990861535,
                    0.06557232839986682,
                    0.07341211941093206
                ]
            ]
        ],
        [
            [
                [
                    -0.031003494281321764,
                    0.005072984611615539,
                    0.00365477055311203,
                    0.03034226829186082,
                    -0.024315947201102972
                ],
                [
                    0.008767012972384691,
                    -0.027374832825444173,
                    0.048423828557133675,
                    -0.024011857633013278,
                    0.003158552121021785
                ],
                [
                    -0.009513037046417594,
                    0.051514239981770515,
                    0.05443199723958969,
                    0.03344388399273157,
                    -0.04480060376226902
                ],
                [
                    0.00476769101805985,
                    0.02082700002938509,
                    -0.006094566400861368,
                    -0.031416378915309906,
                    -0.007876478717662394
                ],
                [
                    -0.005401714704930782,
                    -0.02500270213931799,
                    -0.0395114840939641,
                    -0.032835340360179543,
                    -0.019295083126053214
                ]
            ],
            [
                [
                    0.019336712546646595,
                    -0.03418112779036164,
                    -0.011984884273260832,
                    -0.03221262840088457,
                    -0.004377034725621343
                ],
                [
                    -0.04823464946821332,
                    0.007157838204875588,
                    -0.024122811388224363,
                    -0.03240729175740853,
                    -0.08207062305882573
                ],
                [
                    -0.04161815298721194,
                    -0.03672884311527014,
                    -0.011629980290308595,
                    -0.007914658635854721,
                    0.013911987654864788
                ],
                [
                    0.010111409705132246,
                    -0.013783080503344536,
                    0.008597530890256166,
                    -0.004142732437685481,
                    -0.00804686127230525
                ],
                [
                    0.016001785872504115,
                    0.007058451185002923,
                    0.019378397148102522,
                    -0.018629242898896337,
                    0.05608941218815744
                ]
            ],
            [
                [
                    0.027827903861179948,
                    0.016545368125662208,
                    0.008225624449551105,
                    -0.03380321094300598,
                    0.018981671310029924
                ],
                [
                    -0.006749050342477858,
                    -0.0008013754268176854,
                    0.03908148797927424,
                    0.05588294845074415,
                    0.007326777675189078
                ],
                [
                    0.007154615595936775,
                    0.00037134881131350994,
                    0.02901055244728923,
                    0.024848242988809943,
                    -0.008852435508742929
                ],
                [
                    -0.010581187438219786,
                    0.02620841283351183,
                    -0.012781030498445034,
                    0.005167468450963497,
                    0.025913464836776257
                ],
                [
                    -0.012256226036697626,
                    0.018408306408673525,
                    -0.04138215252896771,
                    0.017786526819691062,
                    -0.017998448573052883
                ]
            ],
            [
                [
                    0.05483890697360039,
                    -0.022204572800546885,
                    0.024499202030710876,
                    0.001433134893886745,
                    0.027883393224328756
                ],
                [
                    0.021936890436336398,
                    0.023542593698948622,
                    0.03042248380370438,
                    0.010866797529160976,
                    0.0001537146745249629
                ],
                [
                    0.006056253798305988,
                    0.01065222849138081,
                    0.015076887561008334,
                    0.007354672532528639,
                    -0.045465010683983564
                ],
                [
                    -0.013388719409704208,
                    -0.06319267908111215,
                    -0.04500902257859707,
                    -0.03693736135028303,
                    -0.05427938560023904
                ],
                [
                    -0.003768333699554205,
                    -0.03452666779048741,
                    -0.025870440062135458,
                    -0.08627211209386587,
                    -0.07054072059690952
                ]
            ],
            [
                [
                    0.022868860512971878,
                    0.04005599673837423,
                    -0.033091901801526546,
                    -0.009305551298893988,
                    -0.009347658138722181
                ],
                [
                    0.06816916819661856,
                    0.0437279911711812,
                    -0.011739079840481281,
                    0.02611284493468702,
                    0.02628709375858307
                ],
                [
                    0.06280392152257264,
                    0.099248718470335,
                    -0.0021179919131100178,
                    0.04075803373780218,
                    0.01951484428718686
                ],
                [
                    -0.020313196233473718,
                    0.03301901649683714,
                    -0.007565496693132445,
                    0.008567860815674067,
                    -0.026734421029686928
                ],
                [
                    -0.012227155077198404,
                    -0.009920283453539014,
                    0.0028296734672039747,
                    -0.024720636196434498,
                    -0.05903928726911545
                ]
            ],
            [
                [
                    -0.023133175913244486,
                    0.03303980900091119,
                    0.027771734748966992,
                    0.03346768789924681,
                    -0.038956425327342004
                ],
                [
                    0.006397692486643791,
                    0.03458441002294421,
                    0.037958170752972364,
                    0.028258268139325082,
                    0.02701649465598166
                ],
                [
                    0.015083572594448924,
                    -0.013629164546728134,
                    0.001558276591822505,
                    0.01793190324679017,
                    -0.016839246731251478
                ],
                [
                    0.002301984466612339,
                    -0.04268521023914218,
                    -0.031109675765037537,
                    -0.04401020240038633,
                    -0.0256033789482899
                ],
                [
                    -0.029661492735613137,
                    0.01057801116257906,
                    -0.00988911499734968,
                    -0.04209391388576478,
                    0.00817121285945177
                ]
            ]
        ],
        [
            [
                [
                    -0.0360860750079155,
                    -0.007699675392359495,
                    0.01545719220302999,
                    -0.030719146132469177,
                    0.0016654408536851406
                ],
                [
                    0.029075928730890155,
                    -0.04446637351065874,
                    -0.024830289359670132,
                    0.01304240757599473,
                    -0.017030400515068322
                ],
                [
