{"conv1.weight": [[[[0.021901458501815796, 0.07127228379249573, 0.0970747321844101, 0.03578856214880943, -0.0045563289895653725], [-0.004831679631024599, 0.013009235262870789, 0.010431496426463127, -0.0435204952955246, -0.0015602190978825092], [-0.03224748373031616, -0.017990224063396454, -0.06116924062371254, -0.06738172471523285, -0.04413352161645889], [0.004901777021586895, -0.07885675877332687, -0.015272860415279865, -0.03330275043845177, -0.09631124883890152], [-0.04391121864318848, 0.02767392247915268, -0.04281769320368767, -0.0641326978802681, -0.058524083346128464]], [[-0.0689980611205101, 0.03184086084365845, 0.05840917304158211, -0.056078992784023285, -0.05928071588277817], [0.015058696269989014, 0.022224055603146553, 0.001259656623005867, 0.03708282485604286, -0.06776586174964905], [0.03288579732179642, 0.013843502849340439, 0.0074876644648611546, -0.057172417640686035, -0.08425182849168777], [-0.03409750014543533, 0.07292281836271286, -0.014784245751798153, -0.008709827437996864, -0.10191994905471802], [0.040484312921762466, -0.03236986696720123, -0.0795280784368515, -0.08147687464952469, -0.0695796012878418]], [[0.12740959227085114, 0.11837839335203171, 0.12853243947029114, 0.10055726021528244, -0.0030040189158171415], [0.09757205098867416, 0.20011521875858307, 0.1708492785692215, 0.06957027316093445, -0.014362786896526814], [0.11611922085285187, 0.12689661979675293, 0.12014971673488617, 0.04830867424607277, -0.02330036088824272], [0.10776038467884064, 0.17308799922466278, 0.11270027607679367, 0.01974738948047161, 0.006234770640730858], [0.09926294535398483, 0.10171910375356674, 0.08081342279911041, 0.004837652202695608, 0.06991619616746902]]], [[[0.10834968835115433, 0.16983939707279205, 0.1650201827287674, 0.1831778734922409, 0.13244709372520447], [0.11901342868804932, 0.10166227072477341, 0.22897158563137054, 0.17045462131500244, 0.16752462089061737], [-0.011831450276076794, 0.01586144044995308, 0.0715457946062088, -0.004856356885284185, -0.023268556222319603], [-0.019915977492928505, -0.04761560261249542, -0.08701178431510925, -0.05416911840438843, -0.09082422405481339], [-0.12070902436971664, -0.17193543910980225, -0.18795645236968994, -0.09378817677497864, -0.07485438883304596]], [[0.017691869288682938, 0.0810902863740921, 0.06182275339961052, 0.09479827433824539, 0.044097598642110825], [0.04031560197472572, 0.05161649361252785, 0.03809092566370964, 0.02921341173350811, -0.017075112089514732], [-0.024429844692349434, -0.02501717396080494, -0.08072345703840256, -0.09336692839860916, -0.0789923146367073], [-0.09511600434780121, -0.039060939103364944, -0.026204871013760567, -0.08750656992197037, -0.15102118253707886], [-0.11398706585168839, -0.07395908981561661, -0.09418454021215439, -0.08303780108690262, -0.1630864292383194]], [[-0.0036860224790871143, 0.06393920630216599, 0.04444734379649162, 0.06374979764223099, 0.04230311140418053], [0.066819928586483, 0.06224355846643448, 0.05945340916514397, 0.06087896600365639, -0.029704701155424118], [0.03573492169380188, -0.07500142604112625, -0.04259541258215904, 0.0017530001932755113, -0.005544024985283613], [-0.036994751542806625, -0.005053675267845392, -0.03662027791142464, 0.008189704269170761, -0.0007353260880336165], [0.011838825419545174, -0.03867226839065552, -0.006232338957488537, -0.07079368084669113, 0.013270294293761253]]], [[[-0.016483180224895477, -0.02285897172987461, -0.08063611388206482, 0.02876126952469349, -0.01726900413632393], [-0.08789296448230743, -0.08550481498241425, -0.1319195181131363, -0.06079980358481407, -0.09804969280958176], [-0.19929450750350952, -0.0989467203617096, -0.0990748330950737, -0.11477383226156235, -0.15761683881282806], [-0.13741867244243622, -0.1107761561870575, -0.07944164425134659, -0.08361974358558655, -0.006694636307656765], [0.02612786740064621, 0.03664610534906387, -0.010754278860986233, -0.01735573448240757, -0.006486542522907257]], [[0.03096739947795868, 0.028013989329338074, 0.10500037670135498, 0.06476473063230515, 0.07880538702011108], [0.017715681344270706, -0.0065915691666305065, 0.033265694975852966, -0.017128998413681984, -0.024850331246852875], [-0.015134328976273537, -0.0543520525097847, -0.06617629528045654, 0.003321689320728183, -0.03853229805827141], [-0.008665356785058975, -0.002892573829740286, -0.007503286469727755, 0.028639106079936028, 0.009825973771512508], [0.07040081918239594, 0.07111496478319168, 0.0853690579533577, 0.1919317990541458, 0.09405667334794998]], [[0.019631892442703247, 0.06239932402968407, 0.16161617636680603, 0.12680378556251526, 0.05436413362622261], [0.01079899538308382, 0.08198754489421844, 0.07699598371982574, 0.12060452252626419, 0.0885278657078743], [0.003998934756964445, 0.08940620720386505, -0.06612440943717957, -0.02930562011897564, -0.04585887864232063], [0.017147107049822807, 0.02841615118086338, 0.07013773173093796, 0.02640102244913578, 0.0067536006681621075], [0.05093558505177498, 0.0037822131998836994, 0.08085618168115616, 0.04547411948442459, 0.09529530256986618]]], [[[-0.07189445197582245, -0.05104662477970123, 0.008197876624763012, -0.002495354041457176, 0.02108224667608738], [-0.10041382908821106, -0.10766620188951492, -0.06864871829748154, 0.11883512884378433, 0.02444121241569519], [-0.08361542969942093, -0.187874436378479, -0.01586664654314518, 0.15488027036190033, 0.06007204204797745], [-0.07367201149463654, -0.11791880428791046, 0.01014036312699318, 0.13982976973056793, 0.04389502853155136], [-0.13613373041152954, 0.007152849342674017, 0.01420792005956173, 0.034327294677495956, 0.02958790957927704]], [[-0.04478136822581291, -0.009099069982767105, 0.06054246425628662, 0.017328277230262756, 0.04493682458996773], [-0.05088065564632416, -0.061843521893024445, 0.06517808884382248, 0.10784593224525452, 0.049457017332315445], [-0.052778687328100204, -0.1692957580089569, 0.08548509329557419, 0.19918908178806305, 0.06412947922945023], [-0.054315440356731415, -0.07939961552619934, 0.0929601714015007, 0.23037099838256836, 0.06383000314235687], [-0.03828964754939079, 0.022545285522937775, 0.09778940677642822, 0.11088026314973831, 0.07479953020811081]], [[-0.06723238527774811, -0.08269844204187393, -0.044433578848838806, 0.03867984935641289, -0.014899305999279022], [-0.062649667263031, -0.09254463016986847, -0.013900796882808208, 0.04996597021818161, 0.03280332684516907], [-0.051598694175481796, -0.1395622044801712, -0.03262265399098396, 0.09239685535430908, -0.003680652240291238], [-0.013587971217930317, -0.08963661640882492, -0.04909456521272659, 0.07700399309396744, 0.07538525760173798], [-0.08913842588663101, -0.0021756307687610388, 0.05995151773095131, -0.016169404610991478, -0.06110662594437599]]], [[[-0.022223111242055893, 0.015796305611729622, 0.03984318673610687, 0.0822002962231636, 0.15725451707839966], [-0.04406172037124634, -0.008298071101307869, -0.03908034414052963, 0.03367692604660988, 0.16755345463752747], [-0.030846377834677696, -0.13341939449310303, -0.052599355578422546, 0.03264887258410454, 0.14962415397167206], [-0.08111833781003952, -0.08338350057601929, -0.012656264938414097, 0.017815783619880676, 0.11687224358320236], [-0.013902046717703342, 0.0070745814591646194, 0.005254553165286779, 0.08084345608949661, 0.0763179287314415]], [[-0.06704198569059372, -0.14532771706581116, -0.09864512085914612, -0.01694956235587597, 0.055950015783309937], [-0.11859899759292603, -0.198022723197937, -0.13952310383319855, -0.08877555280923843, 0.008120855316519737], [-0.14090868830680847, -0.15670718252658844, -0.06842165440320969, -0.03523873910307884, -0.020476074889302254], [-0.08467348664999008, -0.10647652298212051, -0.09578537940979004, -0.0423724427819252, -0.026311032474040985], [-0.04852893948554993, -0.050328753888607025, -0.045111775398254395, -0.0071477945894002914, 0.04314315691590309]], [[0.005392022896558046, -0.04055621102452278, 0.06992112845182419, 0.02401396445930004, 0.06636086851358414], [-0.014700094237923622, -0.04562126100063324, -0.014938521198928356, 0.06933781504631042, 0.04304342716932297], [-0.09533888101577759, -0.11533897370100021, 0.002619815059006214, -0.002355183707550168, 0.13638193905353546], [-0.023399656638503075, 0.010744000785052776, -0.012968902476131916, 0.056780435144901276, 0.12423402816057205], [0.03577461093664169, 0.05341468006372452, 0.07762685418128967, 0.1064048707485199, 0.1480613350868225]]], [[[0.12495141476392746, 0.000600901897996664, -0.07532637566328049, -0.08750630170106888, -0.06108127906918526], [-0.042937446385622025, -0.10229555517435074, -0.15811097621917725, -0.12959443032741547, -0.09544674307107925], [-0.05186159536242485, -0.045816097408533096, -0.11314263194799423, -0.12565390765666962, -0.11448730528354645], [-0.002419935306534171, 0.007970479317009449, 0.11739882081747055, 0.10363971441984177, 0.049167558550834656], [-0.016156544908881187, 0.09286092966794968, 0.1486135572195053, 0.15164770185947418, 0.12105033546686172]], [[0.006899682339280844, -0.09035974740982056, -0.10131535679101944, -0.08749313652515411, -0.09009241312742233], [-0.03553367406129837, -0.1080932542681694, -0.08657670766115189, -0.1379358321428299, -0.13459953665733337], [-0.009560752660036087, -0.08506673574447632, 0.016142383217811584, -0.05901259556412697, -0.07738474011421204], [0.03518914431333542, 0.009145091287791729, 0.13978590071201324, 0.06278285384178162, 0.06305649131536484], [0.0848219096660614, 0.14895077049732208, 0.15144187211990356, 0.12315072119235992, 0.09515154361724854]], [[0.007956450805068016, -0.022100260481238365, -0.10295934975147247, -0.030183635652065277, -0.011692292056977749], [0.008436339907348156, -0.16298149526119232, -0.13474127650260925, -0.045397818088531494, -0.023655084893107414], [-0.0545499250292778, -0.05127035453915596, -0.07649140059947968, -0.11704645305871964, 0.017568230628967285], [0.09462428838014603, 0.021233506500720978, 0.07936586439609528, 0.06827512383460999, -0.022567497566342354], [0.10720684379339218, 0.05828956887125969, 0.12517113983631134, 0.04289114102721214, 0.08631777763366699]]]], "conv1.bias": [0.1684848815202713, -0.07062230259180069, 0.0927419364452362, 0.11514197289943695, -0.08616188168525696, 0.05601632595062256], "conv2.weight": [[[[0.060404710471630096, 0.084066241979599, 0.040218740701675415, 0.029559466987848282, 0.08320130407810211], [0.03911465033888817, 0.029245134443044662, -0.012660759501159191, 0.03831217437982559, 0.08175981789827347], [-0.03644675388932228, 0.031631920486688614, 0.03699864447116852, 0.03506286069750786, 0.10041775554418564], [0.021244607865810394, 0.07976856082677841, 0.07639027386903763, 0.10317961126565933, 0.07864100486040115], [0.10508999973535538, 0.1363828331232071, 0.08169744163751602, 0.11891380697488785, 0.15475071966648102]], [[0.06187853962182999, 0.04221699759364128, -0.0010759999277070165, -0.03556950390338898, -0.05919462814927101], [0.06225622817873955, -0.000497306464239955, -0.06952837854623795, -0.08891036361455917, -0.03932586684823036], [0.025522787123918533, -0.033307962119579315, -0.05562150105834007, -0.010526388883590698, -0.025595318526029587], [-0.027615852653980255, 0.013301519677042961, 0.061313044279813766, -0.0053342715837061405, 0.030256053432822227], [-0.019053619354963303, 0.0028364129830151796, 0.055702779442071915, -0.04812365770339966, -0.05888567119836807]], [[-0.018789956346154213, 0.03769342228770256, 0.03011968359351158, -0.00864891055971384, 0.04888215288519859], [0.012624530121684074, 0.021980466321110725, 0.019117888063192368, 0.0011322438949719071, -0.023091884329915047], [-0.01327718049287796, -0.018596693873405457, -0.021299954503774643, -0.005951386410742998, 0.048467036336660385], [0.033863406628370285, -0.010146915912628174, -0.012571962550282478, 0.009539165534079075, 0.09392441809177399], [0.0653364360332489, 0.0802760049700737, 0.05146676301956177, 0.036808598786592484, 0.10350838303565979]], [[-0.038744691759347916, -0.022364331409335136, 0.05475681275129318, 0.09403146058320999, 0.05899321287870407], [-0.07501473277807236, 0.003122782800346613, -0.007442763075232506, 0.016809703782200813, 0.02533850073814392], [0.00019543607777450234, 0.020986946299672127, 0.005600340664386749, -0.07531736046075821, -0.06823741644620895], [0.03727703541517258, 0.030482200905680656, -0.06950635462999344, -0.14805348217487335, -0.06937368214130402], [-0.005985042545944452, -0.02401701547205448, -0.06077948585152626, -0.07890351116657257, -0.0886005237698555]], [[-0.07397103309631348, -0.09772424399852753, -0.034703969955444336, 0.07054177671670914, -0.03267287835478783], [-0.04522234573960304, 0.05514055863022804, 0.06742735952138901, 0.04040069505572319, -0.03224194794893265], [0.06929820775985718, 0.051785532385110855, 0.028818044811487198, -0.040879491716623306, -0.01475890725851059], [0.0822921097278595, 0.04121801629662514, -0.08453525602817535, -0.07489559054374695, -0.0408158041536808], [0.0367545522749424, 0.001459540450014174, -0.09625005722045898, -0.10562378168106079, -0.14282405376434326]], [[-0.04983355849981308, -0.07876913249492645, -0.01561126671731472, 0.04838504642248154, -0.0179973766207695], [-0.02963348850607872, 0.04877086356282234, -0.04192587360739708, -0.030752969905734062, -0.05975358933210373], [0.019179778173565865, 0.04250967502593994, 0.03954603895545006, -0.016433853656053543, -0.012220349162817001], [0.038590192794799805, -0.0006127059459686279, -0.06726642698049545, -0.03357904031872749, -0.03437325358390808], [-0.013774477876722813, -0.05056915432214737, -0.061925746500492096, -0.06388780474662781, -0.08713192492723465]]], [[[-0.03497480973601341, 0.001628514495678246, 0.02305428497493267, -0.004919660743325949, -0.014888415113091469], [0.002594604156911373, -0.013498644344508648, -0.04043717309832573, 0.034077081829309464, 0.08927250653505325], [0.03394349291920662, -0.07367786020040512, 0.0209833774715662, 0.043151937425136566, 0.06762832403182983], [0.022892925888299942, -0.0008946743328124285, 0.00703789945691824, 0.006004699505865574, 0.05495482683181763], [0.01728338934481144, 0.030600901693105698, 0.0035056706983596087, 0.013269520364701748, -0.03347397595643997]], [[0.03721926361322403, 0.037798114120960236, 0.025280818343162537, 0.015173922292888165, 0.01776186376810074], [0.0007470071432180703, 0.02935517020523548, 0.015591690316796303, 0.004411567468196154, 0.02282920479774475], [0.016649894416332245, 0.01689673401415348, 0.007474909536540508, -0.015948135405778885, 0.03150498494505882], [0.00990917719900608, -0.09496758133172989, -0.03048684448003769, 0.009410381317138672, 0.010782664641737938], [-0.11871422082185745, -0.04518269747495651, -0.05896097049117088, 0.014907722361385822, 0.020509080961346626]], [[-0.23396208882331848, -0.25299280881881714, -0.15787509083747864, -0.1662466675043106, -0.0750180259346962], [-0.17325948178768158, -0.22047095000743866, -0.15305447578430176, -0.105485700070858, -0.042777035385370255], [-0.14406371116638184, -0.17405225336551666, -0.12279962003231049, -0.05031977966427803, -0.09570137411355972], [-0.050142738968133926, -0.18117502331733704, -0.193795844912529, -0.08617791533470154, -0.060815561562776566], [-0.0946287140250206, -0.16666510701179504, -0.18807165324687958, -0.15770237147808075, -0.14436618983745575]], [[-0.039846859872341156, -0.0015034156385809183, 0.03811592236161232, -0.008719615638256073, -0.03579504042863846], [-0.08275096118450165, 0.05249035730957985, 0.08110670000314713, 0.0018320238450542092, -0.01268766913563013], [-0.020060217007994652, 0.046845484524965286, 0.02670476958155632, -0.0029957282822579145, 0.018225282430648804], [0.09503541886806488, 0.09431993961334229, -0.020822733640670776, -0.0326044075191021, 0.05553141608834267], [0.13510096073150635, 0.1409640610218048, -0.008273559622466564, -0.0026742215268313885, 0.010132472962141037]], [[-0.04524782672524452, -0.011260516941547394, 0.04310573637485504, -0.044320009648799896, -0.05167185887694359], [-0.0656469389796257, -0.03600307181477547, -0.010713111609220505, 0.03155442699790001, -0.037900179624557495], [-0.035995662212371826, 0.03663581237196922, -0.024095796048641205, -0.04431046172976494, -0.0013021478662267327], [0.012156390585005283, 0.02635481208562851, -0.04880818352103233, -0.05596413463354111, 0.0002053415373666212], [0.11487620323896408, 0.07348950952291489, -0.07313480228185654, -0.028804605826735497, -0.03343210369348526]], [[-0.054133180528879166, -0.016591187566518784, 0.05835051089525223, 0.0687655657529831, 0.06404989957809448], [-0.08940563350915909, 0.03381921723484993, 0.025035111233592033, 0.026654541492462158, -0.013350412249565125], [-0.029980644583702087, -0.014053651131689548, 0.04789910092949867, -0.04600975662469864, 0.001064458629116416], [0.00975634716451168, -0.006233862601220608, -0.019882243126630783, -0.0010109699796885252, 0.0030988124199211597], [0.011631246656179428, -0.0519004762172699, -0.03991866484284401, 0.015527413226664066, 0.03810290992259979]]], [[[-0.008416184224188328, -0.0026751284021884203, -0.01686714217066765, -0.08279802650213242, -0.10349903255701065], [0.005713141057640314, 0.025224100798368454, 0.018042128533124924, -0.08319562673568726, -0.07623016089200974], [0.023991072550415993, -0.001003159792162478, 0.009664776735007763, -0.027650974690914154, -0.05513762682676315], [0.07584335654973984, 0.06001454219222069, 0.055393509566783905, 0.03169890493154526, 0.04750383272767067], [0.0637604221701622, 0.005367980804294348, 0.07947362959384918, 0.03956928849220276, 0.04145440459251404]], [[0.006911008153110743, 0.015887681394815445, 0.06785637885332108, 0.03294409066438675, 0.0034461093600839376], [-0.01096236053854227, 0.024011418223381042, 0.07711382210254669, -0.0005097852554172277, 0.01155021321028471], [-0.11347179114818573, -0.06660396605730057, -0.04069133475422859, -0.060203488916158676, -0.09473595023155212], [-0.1196356862783432, -0.09435569494962692, -0.06943634897470474, -0.03183525800704956, -0.06237717717885971], [-0.06885971873998642, -0.08490116149187088, -0.02752813510596752, -0.024278219789266586, 0.07082549482584]], [[0.08910194784402847, 0.029921745881438255, -0.052447281777858734, -0.09181872010231018, -0.025619402527809143], [0.03472575172781944, 0.024126531556248665, 0.0029765081126242876, -0.027836499735713005, -0.05844935029745102], [0.0677267536520958, 0.010482581332325935, 0.018399015069007874, -0.09215686470270157, -0.04243696108460426], [-0.014024689793586731, -0.026017311960458755, -0.13503780961036682, -0.1586313247680664, -0.16340932250022888], [-0.01635202206671238, -0.0013363856123760343, -0.10248628258705139, -0.12237188220024109, -0.19569730758666992]], [[0.1336027830839157, 0.1400970220565796, -0.08293549716472626, -0.034572917968034744, 0.013387712650001049], [0.1315581500530243, 0.1533903330564499, -0.08856255561113358, 0.018258199095726013, 0.03794139251112938], [0.09732925891876221, 0.1630309522151947, -0.051305633038282394, 0.03170720115303993, 0.1300874650478363], [0.08904442191123962, 0.10918737202882767, -0.11546828597784042, -0.029506202787160873, 0.07594344764947891], [0.04411832243204117, 0.03887419402599335, -0.10906172543764114, -0.06603031605482101, 0.01574031449854374]], [[0.1641920804977417, 0.13223519921302795, -0.007020565681159496, 0.04171116277575493, 0.06695336103439331], [0.15277199447155, 0.09847720712423325, -0.04955689236521721, 0.06852995604276657, 0.08091634511947632], [0.07495849579572678, 0.0368838794529438, -0.07043031603097916, 0.027961228042840958, 0.07480794936418533], [0.015003171749413013, 0.044993240386247635, -0.12330792099237442, 0.04631310701370239, 0.06675472110509872], [-0.04844144359230995, -0.02830546721816063, -0.15103574097156525, -0.018851840868592262, 0.01136706955730915]], [[0.06939709931612015, 0.09019045531749725, 0.10631124675273895, 0.028200553730130196, 0.02063623070716858], [-0.014451723545789719, 0.04540955647826195, 0.03258868679404259, 0.02563001587986946, -0.027107594534754753], [0.011877786368131638, -0.0415651872754097, -0.004125559236854315, -0.0059735425747931, 0.047633443027734756], [-0.10794690251350403, -0.1454850733280182, -0.04370899125933647, -0.012983668595552444, -0.014252631925046444], [-0.10056401044130325, -0.15456022322177887, -0.07959578186273575, -0.0750734731554985, -0.09686965495347977]]], [[[-0.026198839768767357, -0.011932037770748138, 0.027923865243792534, -0.009313050657510757, -0.04102255776524544], [-0.009605887345969677, 0.036074988543987274, -0.050838254392147064, 0.030399378389120102, -0.018053965643048286], [-0.03373460844159126, -0.025662453845143318, -0.05084770917892456, 0.013351860456168652, -0.002832995494827628], [-0.030351635068655014, -0.1089368462562561, -0.06722863763570786, -0.015575028955936432, -0.06659861654043198], [-0.09671923518180847, -0.058669883757829666, -0.03304388374090195, -0.11622428894042969, -0.08546554297208786]], [[-0.04978375881910324, -0.014313162304461002, -0.06935317069292068, -0.05236826837062836, -0.036072663962841034], [-0.018992366269230843, -0.0016912779537960887, -0.015354260802268982, 0.00369583023712039, 0.002849302953109145], [0.003989060875028372, 0.0505128875374794, -0.013715102337300777, 0.08224155008792877, 0.08342748135328293], [-0.016602808609604836, 0.01904882863163948, 0.045844681560993195, 0.01625095121562481, 0.030698738992214203], [-0.040517982095479965, -0.024593956768512726, 0.00370579631999135, 0.00030026043532416224, 0.01575084589421749]], [[-0.025455892086029053, -0.06723527610301971, 0.034932613372802734, -0.00795147754251957, -0.024018386378884315], [0.016377314925193787, -0.00784018449485302, 0.07087796181440353, 0.01690603420138359, 0.06448642909526825], [-0.014088860712945461, 0.01322738267481327, 0.031061872839927673, 0.0039533041417598724, -0.07841811329126358], [0.012103995308279991, -0.00099283829331398, 0.060314763337373734, 0.06355758011341095, 0.027877671644091606], [-0.0647563710808754, -0.08823782205581665, -0.04675072804093361, -0.0636606216430664, -0.0450870543718338]], [[0.05493380129337311, 0.06647598743438721, 0.05059456080198288, 0.047175515443086624, 0.03832463175058365], [0.09379684180021286, 0.10179715603590012, 0.12225760519504547, 0.10600887984037399, 0.06370846182107925], [0.127828910946846, 0.10663967579603195, 0.08365564048290253, -0.014725769869983196, 0.06939319521188736], [0.072290800511837, 0.014953001402318478, 0.07631130516529083, 0.06138076260685921, 0.10071559250354767], [0.11034383624792099, 0.0671856477856636, 0.0894148051738739, 0.035468101501464844, 0.08466225862503052]], [[-0.06711910665035248, -0.069643534719944, -0.08052724599838257, -0.07432840019464493, -0.0382295660674572], [-0.07840635627508163, -0.08841154724359512, -0.0992383360862732, -0.07573357969522476, -0.020834902301430702], [-0.06854580342769623, -0.1287454068660736, -0.19330598413944244, -0.14307114481925964, -0.061682362109422684], [-0.11198687553405762, -0.25115343928337097, -0.17461860179901123, -0.11183986812829971, -0.03177608922123909], [-0.1503307968378067, -0.18620362877845764, -0.14259938895702362, -0.11680058389902115, -0.060774389654397964]], [[0.059279993176460266, 0.020626546815037727, 0.038471974432468414, 0.02003093808889389, 0.0386989563703537], [0.02166937291622162, 0.04184083640575409, 0.04209842532873154, 0.0744175985455513, 0.06628429144620895], [0.011980273760855198, 0.026236172765493393, -0.035808101296424866, -0.04286196455359459, -0.015350719913840294], [0.025035180151462555, 0.003285145154222846, 0.03156638890504837, 0.03764672204852104, 0.025309089571237564], [0.03730837628245354, 0.02149185910820961, 0.04336816072463989, 0.0608203262090683, 0.03710421547293663]]], [[[-0.015190944075584412, -0.010474886745214462, -0.0011235823621973395, 0.029213692992925644, 0.038538217544555664], [-0.018116826191544533, 0.03297191485762596, 0.03525986149907112, 0.07632976770401001, 0.06821631640195847], [-0.005166748072952032, 0.00704794330522418, 0.012233255431056023, -0.011325142346322536, -0.003062203759327531], [-0.015272933058440685, -0.02399451658129692, -0.053259193897247314, -0.07295212149620056, 0.0028935919981449842], [-0.07846317440271378, -0.16246655583381653, -0.13768760859966278, -0.09455420076847076, -0.06054922193288803]], [[0.049099233001470566, 0.059004511684179306, 0.05326322838664055, 0.07774284482002258, 0.1549871861934662], [0.05578673630952835, 0.08846897631883621, 0.12554948031902313, 0.09578131884336472, 0.08883076161146164], [0.06449684500694275, 0.08514214307069778, 0.1145307868719101, 0.03893348202109337, 0.06791125982999802], [0.04716514050960541, -0.02680559828877449, -0.05955423042178154, -0.0333237461745739, -0.048504240810871124], [0.003141216468065977, -0.0189798716455698, 0.03019065223634243, 0.04619181528687477, 0.0682733952999115]], [[-0.02599337324500084, 0.01576714776456356, 0.009737073443830013, -0.00038381092599593103, -0.048456136137247086], [-0.04064236581325531, -0.01857396587729454, -0.012902348302304745, 0.015652194619178772, 0.00042596840648911893], [0.025759221985936165, 0.021318886429071426, 0.034325581043958664, 0.007511955685913563, -0.02208707109093666], [0.04222987964749336, 0.04031939059495926, 0.03803423047065735, 0.04178967326879501, -0.0040224045515060425], [0.0002489894104655832, 0.045850422233343124, 0.013331828638911247, 0.016798464581370354, 0.020282672718167305]], [[0.11569581180810928, 0.13273654878139496, 0.003658382222056389, 0.046562135219573975, -0.015177992172539234], [0.06829401850700378, 0.07735956460237503, -0.020665546879172325, 0.03943134844303131, 0.04071822389960289], [-0.018445994704961777, -0.004203207325190306, -0.018070798367261887, -0.00433699507266283, 0.0019135010661557317], [-0.04931994527578354, -0.017994288355112076, -0.08518204838037491, -0.022497791796922684, 0.04372726380825043], [-0.07220742106437683, -0.09720040112733841, -0.12609121203422546, -0.1332603394985199, -0.03885653614997864]], [[0.12815195322036743, 0.04869113862514496, -0.023357773199677467, -0.026708561927080154, -0.004932297859340906], [0.036213815212249756, 0.008842813782393932, -0.048550598323345184, -0.05131624639034271, -0.05291932076215744], [0.05087008699774742, 0.026686061173677444, 0.03898856043815613, 0.06854241341352463, 0.011100076138973236], [0.02548934705555439, -0.03181429207324982, -0.010491463355720043, -0.016103025525808334, -0.07367468625307083], [-0.028714902698993683, -0.019793760031461716, 0.003986699040979147, -0.02831639163196087, -0.019032161682844162]], [[0.01735248602926731, -0.014589658007025719, 0.016436845064163208, -0.013217180036008358, -0.02414986677467823], [0.043526701629161835, 0.020818538963794708, -0.0366893894970417, 0.01004074513912201, 0.055702436715364456], [0.04862804338335991, 0.0356498621404171, 0.01352060679346323, 0.02057194523513317, 0.0038135226350277662], [0.02773948572576046, 0.055480360984802246, -0.02497267723083496, 0.04309949278831482, -0.009759368374943733], [0.02458573319017887, -0.026861533522605896, 0.02324182726442814, -0.023703917860984802, -0.05998659506440163]]], [[[-0.048552196472883224, -0.019551504403352737, 0.00627640075981617, -0.08167783915996552, -0.05176137015223503], [-0.04676186293363571, 0.031776223331689835, -0.06166811287403107, -0.19344544410705566, -0.0013265397865325212], [-0.03223526105284691, -0.044133637100458145, -0.12016469240188599, -0.11234576255083084, 0.0003349670150782913], [-0.016055099666118622, -0.055119823664426804, -0.04678727313876152, -0.09587525576353073, -0.06315415352582932], [0.027619654312729836, -0.03450240567326546, -0.06905608624219894, -0.06686683744192123, -0.04943046718835831]], [[0.011582126840949059, 0.0008326337556354702, 0.01694146916270256, -0.05774467810988426, -0.028788471594452858], [0.017149923369288445, 0.05206375569105148, -0.04980708658695221, -0.06360841542482376, -0.02284945733845234], [0.0431537888944149, -0.09754040837287903, -0.15801270306110382, -0.08143205940723419, 0.0023990250192582607], [-0.03675919398665428, -0.12312054634094238, -0.07333888858556747, -0.08967848122119904, 0.009046202525496483], [-0.01762680895626545, -0.07130959630012512, -0.08661218732595444, -0.08187670260667801, -0.03469839692115784]], [[0.039974745362997055, -0.044147200882434845, -0.05048995837569237, -0.04405459016561508, 0.009948721155524254], [0.015406651422381401, -0.0374152809381485, -0.07319504767656326, -0.06510414183139801, 0.05414580553770065], [-0.023078037425875664, -0.04733898863196373, -0.10834304988384247, -0.007202432490885258, -0.007860960438847542], [-0.055201105773448944, -0.09049345552921295, -0.08003158867359161, -0.013051602989435196, -0.003509013680741191], [-0.04714801907539368, -0.09197266399860382, -0.08551134914159775, -0.09185473620891571, -0.010125960223376751]], [[0.009945224039256573, -0.044413011521101, -0.021920116618275642, 0.06919694691896439, 0.09183241426944733], [-0.006474363151937723, -0.010314878076314926, -0.028390832245349884, 0.08646786957979202, 0.042952049523591995], [0.0024609456304460764, 0.02132980152964592, 0.05101264268159866, -0.011073489673435688, 0.012290176935493946], [-0.028667768463492393, 0.021836979314684868, -0.011965470388531685, -0.014995209872722626, -0.013432621024549007], [0.04270392283797264, 0.09674010425806046, 0.005642810370773077, -0.021546432748436928, -0.05559343099594116]], [[-0.012735305353999138, -0.03998282179236412, 0.03450945392251015, 0.02874986082315445, 0.0854526087641716], [-0.08493943512439728, 0.010690593160688877, 0.06074415519833565, 0.051989153027534485, 0.04782169312238693], [-0.029752282425761223, -0.03408123925328255, -0.00855160877108574, -0.022702177986502647, -0.004874789621680975], [-0.018401337787508965, 0.011273473501205444, -0.030924290418624878, -0.042871151119470596, -0.03518170118331909], [-0.004099958576261997, -0.016254663467407227, -0.07427024841308594, -0.0693688839673996, -0.05556671693921089]], [[0.06624756753444672, 0.026811374351382256, 0.025468990206718445, 0.10022557526826859, 0.0748358964920044], [0.006927985232323408, 0.02269377000629902, 0.03920821473002434, 0.005953704006969929, 0.010220793075859547], [0.02555476874113083, 0.04353947937488556, 0.0727405771613121, 0.06271559000015259, -0.005470914300531149], [-0.0366804413497448, -0.025741230696439743, -0.0034947397653013468, 0.05601183697581291, 0.03649965673685074], [0.01132116373628378, 0.01252282876521349, 0.022031884640455246, 0.035730455070734024, 0.04314766451716423]]], [[[0.027147401124238968, 0.08790212869644165, 0.028740715235471725, 0.047834884375333786, 0.09574808925390244], [-0.007434763014316559, 0.0050254021771252155, 0.0011723311617970467, 0.027177566662430763, 0.09056735038757324], [-0.05132162943482399, -0.056034643203020096, -0.019400574266910553, 0.018826905637979507, 0.0054328348487615585], [-0.09140893071889877, -0.07322502136230469, -0.03775705397129059, 0.012889932841062546, 0.010358271189033985], [0.0839015319943428, -0.04429801180958748, -0.056469324976205826, -0.06072234734892845, 0.036257099360227585]], [[0.030508272349834442, -0.00772665673866868, -0.009661841206252575, -0.05693672597408295, -0.030326221138238907], [0.02206289954483509, -0.014675033278763294, -0.08366726338863373, -0.13643254339694977, -0.03312524035573006], [0.020869260653853416, 0.015228192321956158, 0.019031431525945663, -0.07279255241155624, -0.04322202131152153], [-0.038417134433984756, 0.01896326243877411, 0.05330847576260567, 0.006883261259645224, -0.0029707651119679213], [-0.07241074740886688, -0.02548171952366829, 0.05483289435505867, 0.02489428222179413, 0.03945159167051315]], [[-0.031639184802770615, 0.060603320598602295, 0.07325605303049088, 0.12713301181793213, 0.1468152403831482], [-0.03585865721106529, 0.03296972066164017, 0.015772685408592224, 0.06678313761949539, 0.09185503423213959], [-0.11074236035346985, -0.10985169559717178, -0.052277520298957825, -0.011301291175186634, 0.03801038861274719], [-0.1921617090702057, 0.010620759800076485, -0.028490886092185974, 0.020333457738161087, -0.035492923110723495], [-0.17396622896194458, 0.0027721626684069633, 0.06738424301147461, 0.09199368953704834, 0.06711409240961075]], [[-0.04687836393713951, -0.0830429270863533, -0.07561221718788147, -0.07557693123817444, -0.07243223488330841], [0.040035173296928406, -0.010605059564113617, -0.10247956961393356, -0.07720938324928284, -0.07546874135732651], [0.013403719291090965, -0.012347663752734661, -0.0564783550798893, -0.08689241856336594, -0.06599528342485428], [-0.1514906883239746, -0.10604748129844666, -0.12138714641332626, -0.09431453794240952, -0.05016125738620758], [-0.1130504384636879, -0.1258677840232849, -0.11238015443086624, -0.0667087510228157, -0.02853289432823658]], [[0.07626065611839294, -0.025952216237783432, 0.03646009787917137, 0.03542542830109596, 0.11527044326066971], [0.03011350706219673, 0.02805887907743454, 0.027925478294491768, 0.02565852552652359, 0.038639798760414124], [-0.010036630555987358, 0.02413852885365486, 0.0007337735733017325, -0.009040466509759426, 0.04635164886713028], [-0.057238753885030746, 0.03942342847585678, -0.06776724010705948, 0.042397767305374146, 0.03633010759949684], [-0.06443080306053162, 0.026093896478414536, 0.0447080098092556, 0.08148834854364395, 0.06204472854733467]], [[-0.01412542350590229, -0.06465184688568115, -0.05599790811538696, -0.1379438191652298, -0.036009058356285095], [0.0400821827352047, -0.01878715120255947, -0.012609771452844143, -0.026141667738556862, 0.00830751284956932], [0.1770067662000656, 0.05921585112810135, -0.0443938747048378, -0.006653192453086376, 0.07291893661022186], [0.21605373919010162, 0.16955086588859558, 0.06188112497329712, 0.012050466611981392, -0.012994944117963314], [0.18124406039714813, 0.1678738296031952, 0.19843114912509918, 0.08514826744794846, 0.024939266964793205]]], [[[-0.15956680476665497, -0.14754189550876617, -0.14788542687892914, -0.017189670354127884, -0.050257906317710876], [-0.1640724539756775, -0.11144798994064331, -0.03373260796070099, 0.047832876443862915, 0.02167859859764576], [-0.11042716354131699, -0.061400994658470154, 0.011685114353895187, -0.0056285797618329525, 0.03391484543681145], [-0.027928343042731285, 0.008557322435081005, 0.01659524068236351, 0.03286275267601013, 0.08771882206201553], [0.08853021264076233, 0.09755852818489075, 0.10199511796236038, 0.1690400093793869, 0.18598751723766327]], [[-0.03686290979385376, -0.09740494936704636, -0.12436551600694656, -0.004862567409873009, 0.06349898129701614], [-0.10862436890602112, -0.15596333146095276, 0.023304177448153496, 0.07074006646871567, 0.06420926749706268], [-0.11979808658361435, -0.021800536662340164, 0.0705290362238884, 0.11920104920864105, -0.02424556575715542], [0.0012314257910475135, 0.006906489375978708, 0.006159666925668716, -0.06719842553138733, -0.09520668536424637], [-0.07030269503593445, -0.08243225514888763, -0.16682381927967072, -0.10153336077928543, -0.03794203698635101]], [[-0.10913968831300735, -0.07658301293849945, -0.05598295480012894, -0.07728449255228043, 0.033264048397541046], [0.0013691030908375978, -0.08773690462112427, -0.019184481352567673, -0.028193537145853043, 0.022445548325777054], [-0.09762696176767349, -0.1139901652932167, 0.03331322595477104, 0.019581178203225136, 0.09214410930871964], [-0.06923962384462357, -0.060863323509693146, 0.009633936919271946, 0.035275377333164215, -0.00206577661447227], [-0.03132797032594681, -0.026197604835033417, 0.04026980325579643, -0.014134428463876247, 0.015709366649389267]], [[0.004773191176354885, 0.06282985210418701, 0.1350031942129135, -0.028769362717866898, -0.1087704598903656], [0.1177506148815155, 0.0965738520026207, 0.058483902364969254, -0.07646096497774124, -0.05611415579915047], [0.09661086648702621, 0.059129927307367325, -0.028993461281061172, -0.070607028901577, 0.040042221546173096], [0.06012532487511635, -0.0926763191819191, -0.031071921810507774, -0.007825690321624279, 0.02553047426044941], [-0.001857799245044589, -0.009381518699228764, 0.034693919122219086, -0.04044060409069061, -0.03961261734366417]], [[0.030600015074014664, 0.037499960511922836, 0.09588397294282913, 0.003069806145504117, -0.03664211556315422], [0.07744812965393066, 0.061226047575473785, 0.005678212270140648, -0.08086086809635162, 0.016405653208494186], [0.024579284712672234, -0.0752008855342865, -0.17093616724014282, -0.004731207154691219, 0.13850927352905273], [0.012941703200340271, -0.004250424448400736, 0.03838817775249481, 0.045883908867836, 0.06867440789937973], [0.03807159513235092, 0.03902534022927284, 0.018217623233795166, -0.009146342054009438, 0.03279196470975876]], [[-0.08090078830718994, 0.015756377950310707, 0.012516334652900696, 0.0007415696745738387, -0.07659867405891418], [0.004298537969589233, 0.021213524043560028, -0.09343662112951279, -0.07318194955587387, 0.06243082135915756], [-0.02996210567653179, -0.17494595050811768, -0.0800146535038948, 0.03894629701972008, 0.1398015171289444], [-0.11837276071310043, -0.03872176632285118, 0.07639073580503464, 0.07257036119699478, 0.03323405608534813], [-0.016489971429109573, 0.0893750935792923, 0.08236212283372879, 0.011720795184373856, -0.02693873457610607]]], [[[-0.06400825828313828, -0.09550357609987259, -0.037421371787786484, -0.05138863995671272, -0.03259694576263428], [-0.03373236954212189, -0.04981303960084915, -0.008176403120160103, 0.008362388238310814, 0.049811217933893204], [-0.060245051980018616, -0.04714469239115715, -0.042926665395498276, 0.002589549869298935, 0.00010213913628831506], [0.005272404290735722, -0.05098087340593338, -0.034938495606184006, -0.0045884582214057446, 0.010000985115766525], [-0.01716659776866436, -0.03073730133473873, -0.012028764933347702, 0.05129697546362877, 0.0643710270524025]], [[0.029144031926989555, 0.043354883790016174, 0.004347759298980236, 0.010184943675994873, 0.04698317125439644], [0.04742259904742241, 0.030708009377121925, -0.012349854223430157, 0.010318667627871037, 0.07714337855577469], [0.006263170391321182, 0.028492441400885582, 0.010201181285083294, 0.011553670279681683, 0.06508756428956985], [0.116070955991745, 0.11247941106557846, 0.15445730090141296, 0.13353410363197327, 0.10849018394947052], [0.06938286125659943, 0.028086747974157333, 0.06756232678890228, 0.10203196108341217, 0.11609932035207748]], [[-0.01855994015932083, -0.0035089554730802774, 0.017245406284928322, -0.04651913046836853, -0.052719201892614365], [0.08658377826213837, 0.02916869893670082, 0.04980333521962166, 0.02079996094107628, 0.04519882798194885], [0.019930249080061913, 0.010748120956122875, 0.0009283425752073526, 0.042293816804885864, -0.022208455950021744], [-0.013691514730453491, -0.03138815611600876, -0.004602230153977871, -0.0477365218102932, -0.031605735421180725], [0.11296791583299637, 0.1413915455341339, 0.12230965495109558, 0.10882031917572021, 0.08312749117612839]], [[0.010249312967061996, -0.04766344279050827, -0.06954029947519302, -0.10363788157701492, -0.1455223262310028], [0.009621012955904007, -0.036937106400728226, -0.09306282550096512, -0.0655304566025734, -0.04357026144862175], [-0.02292916364967823, 0.0553719699382782, -0.03828198090195656, -0.07489224523305893, -0.051006853580474854], [-0.1321735829114914, -0.016519512981176376, -0.052325718104839325, -0.058865614235401154, 0.0007351120584644377], [-0.1652495563030243, -0.06379736959934235, -0.03053394891321659, -0.02956104837357998, 0.024295000359416008]], [[0.011649902909994125, -0.0029595480300486088, -0.023483306169509888, -0.10517319291830063, -0.05303304269909859], [0.0019652191549539566, 0.013450843282043934, -0.008435031399130821, 0.005177739541977644, -0.011601102538406849], [0.0333731546998024, 0.07913098484277725, 0.015821045264601707, -0.04299979284405708, 0.002727538114413619], [-0.05005631223320961, 0.006305275484919548, 0.017962487414479256, -0.007707622367888689, -0.009497372433543205], [-0.05361774191260338, 0.07540302723646164, 0.07726477086544037, 0.13139298558235168, 0.09686282277107239]], [[-0.03758635371923447, -0.052900031208992004, -0.06345022469758987, -0.08440665155649185, -0.06609197705984116], [-0.00472283735871315, -0.0792371854186058, -0.028706200420856476, -0.09673254936933517, 0.003094528568908572], [0.011076954193413258, 0.028806786984205246, -0.0019245656440034509, -0.022533657029271126, -0.0003450346121098846], [-0.06360059976577759, -0.0003302123805042356, -0.06204988807439804, 0.03994506597518921, 0.034619010984897614], [0.05455707758665085, 0.09443023055791855, 0.08326037228107452, 0.09422144293785095, 0.07345050573348999]]], [[[-0.035659752786159515, -0.03270360827445984, -0.049147628247737885, -0.0032800170592963696, -0.04159090667963028], [-0.07726170122623444, -0.14690211415290833, -0.038438864052295685, -0.08115678280591965, -0.03409279137849808], [-0.15706458687782288, -0.05643021687865257, 0.011480728164315224, 0.006568686105310917, -0.06283129751682281], [-0.03640575334429741, 0.024755820631980896, 0.018167080357670784, -0.0162923913449049, 0.014995032921433449], [0.029576346278190613, 0.01248319074511528, -0.012529880739748478, -0.006320272572338581, 0.0339784137904644]], [[0.07726685702800751, 0.013605603948235512, 0.02395768091082573, 0.01777821220457554, 0.0512341633439064], [-0.08644935488700867, -0.08245495706796646, -0.12748856842517853, -0.11285492032766342, -0.14777158200740814], [-0.052553873509168625, -0.03393903002142906, -0.005893236957490444, -0.03355156257748604, -0.06899235397577286], [0.027331072837114334, 0.05032966285943985, 0.07323449105024338, 0.03860980644822121, -0.01608678139746189], [0.08168614655733109, 0.07694914191961288, 0.08634094893932343, 0.030183782801032066, 0.08852478861808777]], [[0.041060566902160645, 0.05389191582798958, 0.05643317848443985, 0.012014475651085377, 0.04512091353535652], [0.11631112545728683, 0.14244739711284637, 0.1600160151720047, 0.15528438985347748, 0.07596597075462341], [0.04095907136797905, 0.0007563895196653903, 0.008504965342581272, 0.0050948793068528175, -0.019172390922904015], [-0.05814501270651817, -0.05550677701830864, -0.0948968455195427, -0.05474351346492767, -0.024476654827594757], [-0.019270259886980057, 0.010882916860282421, -0.03985214978456497, 0.03484977409243584, 0.003495910670608282]], [[-0.017933392897248268, -0.04785110801458359, 0.07545263320207596, 0.03928656131029129, 0.055480699986219406], [0.0012854522792622447, 0.04268140718340874, 0.07626781612634659, 0.029192954301834106, -0.004043114371597767], [0.04382923245429993, 0.034962091594934464, 0.016996435821056366, -0.007828660309314728, -0.07293307036161423], [0.004752259235829115, -0.08097557723522186, -0.11136352270841599, -0.08414503931999207, -0.06556496769189835], [-0.06115836650133133, -0.10562784969806671, -0.12435176223516464, -0.14492274820804596, -0.0698012039065361]], [[-0.030157912522554398, 0.04921094700694084, 0.028204498812556267, 0.016971725970506668, -0.0026021639350801706], [0.09474226087331772, 0.10837025195360184, 0.07075950503349304, 0.057154931128025055, 0.03375305235385895], [0.08327369391918182, 0.10172664374113083, -0.04463844746351242, -0.02981913648545742, -0.0562671422958374], [-0.0262007936835289, -0.016694476827979088, -0.09931284934282303, -0.03623460605740547, -0.06409754604101181], [-0.07468073070049286, -0.09752846509218216, -0.06514570862054825, -0.043201204389333725, -0.04580708220601082]], [[-0.034978728741407394, 0.05163465067744255, 0.0656275823712349, 0.05877535045146942, -0.017851222306489944], [0.11225811392068863, 0.1536039561033249, 0.13627535104751587, 0.11252690851688385, 0.09521538019180298], [0.10608502477407455, 0.06193356588482857, 0.03807295486330986, 0.04303351417183876, 0.03136796876788139], [0.0023982441052794456, -0.12587995827198029, -0.16294869780540466, -0.18031270802021027, -0.1053834930062294], [-0.15913498401641846, -0.18050019443035126, -0.18861840665340424, -0.2081136852502823, -0.16740180552005768]]], [[[-0.03089006617665291, -0.023905079811811447, 0.015329428017139435, -0.01966671273112297, 0.03498947620391846], [0.026743581518530846, -0.04175854101777077, -0.0077769216150045395, 0.033779438585042953, 0.01901455782353878], [0.018276995047926903, 0.05785014480352402, 0.07056891918182373, 0.03700565919280052, 0.003979209810495377], [-0.06688996404409409, -0.023764951154589653, -0.026935331523418427, 0.030002249404788017, 0.03701702505350113], [-0.052522026002407074, -0.08667141199111938, -0.015849553048610687, -0.03561694920063019, 0.005209844093769789]], [[0.006358378566801548, -0.030436309054493904, -0.025380518287420273, 0.05573737621307373, 0.07235250622034073], [0.012788127176463604, 0.0674436017870903, 0.032640643417835236, 0.05195152759552002, 0.045844998210668564], [0.13013722002506256, 0.08161112666130066, 0.09486600011587143, 0.028370726853609085, -0.01406505610793829], [0.13290485739707947, 0.0858447253704071, 0.059098515659570694, 0.07816158980131149, -0.06545866280794144], [0.14854760468006134, 0.06088471785187721, 0.10349918901920319, 0.06957124173641205, 0.061980944126844406]], [[0.044198889285326004, 0.08329316973686218, 0.05255478620529175, 0.0491308830678463, 0.025303523987531662], [-0.03837757930159569, -0.029210016131401062, -0.05489358678460121, -0.008056591264903545, -0.027114208787679672], [-0.025579141452908516, -0.0583467110991478, 0.00590322632342577, -0.017205312848091125, -0.05752843990921974], [0.03356192633509636, -0.00029737537261098623, 0.02019861526787281, 0.016881188377738, -0.03709740191698074], [0.07739879935979843, 0.07590627670288086, 0.03559095785021782, -0.0035436509642750025, -0.0009774973150342703]], [[-0.036041103303432465, -0.04522135853767395, -0.047172851860523224, -0.020911386236548424, -0.11767496168613434], [0.05974157899618149, -0.03447922319173813, -0.04316100478172302, -0.10437054187059402, -0.03334154933691025], [0.061488863080739975, -0.06166894733905792, -0.06305430084466934, -0.08553938567638397, -0.0004935550387017429], [0.008328688330948353, 0.02168748341500759, 0.0821421816945076, 0.025502722710371017, 0.12009299546480179], [0.008481086231768131, 0.020646989345550537, 0.01826389878988266, 0.01629195176064968, 0.10437654703855515]], [[-0.02046113647520542, -0.01864480786025524, -0.047060441225767136, -0.016239363700151443, -0.11822520196437836], [-0.006254150532186031, -0.12119422852993011, -0.10198646038770676, -0.08334177732467651, 0.00965915061533451], [0.011545589193701744, -0.0045663281343877316, 0.04315928369760513, 0.018086306750774384, 0.06341350078582764], [0.02508419193327427, -0.008750746957957745, 0.06810077279806137, 0.02449067309498787, 0.11140842735767365], [0.04596699774265289, 0.03511777147650719, 0.02961728163063526, 0.03890412673354149, 0.03659874200820923]], [[0.017007093876600266, 0.03119632974267006, -0.0028532317373901606, -0.08792172372341156, -0.06477314978837967], [0.027008237317204475, -0.06576991081237793, -0.04242048040032387, -0.047274116426706314, -0.03796447068452835], [-0.06164950877428055, -0.063143789768219, -0.023997128009796143, -0.014001669362187386, 0.012680871412158012], [0.00022719909611623734, 0.031762342900037766, 0.006698937155306339, 0.03889237716794014, 0.0018748341826722026], [0.028795745223760605, 0.039224352687597275, -0.009511423297226429, -0.03941820189356804, -0.062338657677173615]]], [[[0.03393341600894928, -0.011481130495667458, 0.0714372843503952, 0.08336437493562698, 0.06603556126356125], [-0.011201193556189537, -0.011807937175035477, 0.017587756738066673, 0.12496335804462433, 0.07438230514526367], [-0.04781337454915047, -0.07570145279169083, -0.026171227917075157, 0.017856189981102943, 0.026866160333156586], [-0.025472870096564293, -0.0757632702589035, -0.0649527832865715, -0.021789489313960075, 0.029002252966165543], [0.04836851358413696, -0.06598556041717529, -0.05556708946824074, 0.0011811289004981518, 0.05061308294534683]], [[0.03658610209822655, 0.01984218880534172, -0.01019748393446207, -0.09281136095523834, -0.045257821679115295], [0.08458076417446136, 0.00498510617762804, -0.011200107634067535, -0.12159974873065948, -0.08781179040670395], [0.0636700913310051, 0.015311484225094318, -0.03137854114174843, -0.04376983270049095, -0.10869400948286057], [-0.0033763940446078777, -0.019467724487185478, -0.03561021760106087, -0.0023752411361783743, -0.04884200915694237], [0.0005320925265550613, -0.08015803247690201, -0.10317467898130417, -0.04250509291887283, -0.0669366717338562]], [[-0.02327595464885235, -0.012544841505587101, -0.0002063610008917749, 0.048736728727817535, 0.06213575229048729], [-0.06188347563147545, -0.005208658054471016, 0.07598746567964554, 0.01875552535057068, 0.05292428284883499], [-0.043546129018068314, -0.02646872028708458, 0.045528873801231384, 0.054744552820920944, 0.024157285690307617], [-0.034040626138448715, 0.03361006826162338, 0.03082958236336708, -0.007985551841557026, 0.005310202483087778], [-0.05464577302336693, -0.005370116792619228, -0.014071179553866386, -0.007163684349507093, -0.021987292915582657]], [[-0.03600642457604408, 0.06614929437637329, 0.09122102707624435, 0.09451580047607422, 0.042660780251026154], [-0.07484186440706253, 0.040862880647182465, 0.15895678102970123, 0.15857070684432983, -0.01160476915538311], [-0.07086016237735748, 0.020883852615952492, 0.17188523709774017, 0.13524553179740906, -0.02012721076607704], [-0.11865130811929703, 0.00036094948882237077, 0.12517143785953522, 0.1060878187417984, 0.024601031094789505], [-0.07304162532091141, -0.04870767891407013, 0.06063644587993622, 0.07387539744377136, -0.015421640127897263]], [[0.03845963999629021, 0.07990876585245132, 0.10504791885614395, 0.10442279279232025, 0.01637987047433853], [0.03183554485440254, 0.061025235801935196, 0.07377658784389496, 0.06010713800787926, -0.06108943372964859], [0.04016609117388725, 0.1429627686738968, 0.12534627318382263, 0.06693222373723984, -0.10299075394868851], [0.057533733546733856, 0.10266796499490738, 0.14821156859397888, 0.0997106060385704, -0.05304364114999771], [0.029880937188863754, 0.04485499858856201, 0.15183411538600922, 0.11372335255146027, 0.012603238224983215]], [[-0.0015885148895904422, 0.001550410408526659, -0.003119200700893998, 0.03796139359474182, -0.0361071340739727], [-0.05111537128686905, -0.03929698467254639, -0.06124018505215645, -0.07777484506368637, -0.07955567538738251], [-0.005298872012645006, -0.000507056771311909, -0.09606703370809555, -0.1783663034439087, -0.09940597414970398], [0.05391547456383705, 0.05254703387618065, -0.03413331136107445, -0.18357881903648376, -0.12556242942810059], [0.03363184630870819, 0.06988219916820526, 0.017021529376506805, -0.06574606895446777, -0.06912461668252945]]], [[[0.08163885027170181, 0.026672251522541046, 0.018077729269862175, 0.03886696323752403, 0.06391342729330063], [0.01938231661915779, -0.014173895120620728, 0.0032067694701254368, -0.019409464672207832, -0.008288330398499966], [0.020421907305717468, -0.041301511228084564, -0.062264036387205124, -0.09925830364227295, -0.031216712668538094], [-0.03563273698091507, -0.016323810443282127, -0.03362192213535309, -0.002636826829984784, -0.02882574312388897], [0.006013365462422371, 0.028861096128821373, 0.016471099108457565, -0.03307342901825905, -0.045107804238796234]], [[0.032268498092889786, 0.09744325280189514, 0.08459297567605972, 0.13095277547836304, 0.08972582221031189], [0.006297840271145105, 0.0134156234562397, -0.018267394974827766, -0.016729287803173065, 0.029199820011854172], [-0.03378956764936447, -0.012530187144875526, 0.01596730761229992, 0.0612238384783268, 0.1604073941707611], [0.011300277896225452, 0.02576114982366562, -0.02025320753455162, 0.038430895656347275, 0.09838881343603134], [-0.015486381016671658, 0.05938352271914482, 0.025148216634988785, 0.03793102502822876, 0.0023869862779974937]], [[0.13112644851207733, 0.12669925391674042, 0.15271782875061035, 0.10700573772192001, 0.1335795819759369], [0.153646782040596, 0.11329545825719833, 0.10891451686620712, 0.09201411157846451, 0.05544089153409004], [0.10747792571783066, 0.05702400952577591, 0.058771297335624695, 0.08545655012130737, 0.03070095367729664], [0.08743110299110413, -0.00596002908423543, -0.03462640568614006, -0.02590673230588436, 0.04828226566314697], [0.049761172384023666, 0.02895168773829937, 0.010034596547484398, 0.017409319058060646, 0.022870004177093506]], [[-0.12349798530340195, -0.18044312298297882, -0.1800796240568161, -0.10859328508377075, -0.06422637403011322], [-0.1833934187889099, -0.1791040450334549, -0.13533613085746765, -0.10319852083921432, -0.08047215640544891], [-0.06269463151693344, -0.06127967685461044, -0.1319969892501831, -0.11125771701335907, -0.10793394595384598], [0.03159339353442192, -0.03196481615304947, -0.029039965942502022, 0.005350216291844845, -0.021237213164567947], [0.05176204815506935, 0.060860682278871536, 0.03928529843688011, 0.05577373504638672, 0.043951891362667084]], [[0.051588550209999084, 0.009583578445017338, 0.00860531348735094, 0.04269930347800255, -0.022600265219807625], [0.06667591631412506, 0.00920905638486147, 0.02694709040224552, 0.06495409458875656, 0.057615622878074646], [-0.006905859336256981, 0.018969915807247162, -0.01927516981959343, 0.0205827783793211, -0.04956596717238426], [-0.004550295881927013, -0.0239439494907856, -0.01856144145131111, -0.007482897490262985, -0.014433327130973339], [0.08273209631443024, -0.0023770907428115606, 0.005200304090976715, 0.024528758600354195, -0.07050992548465729]], [[-0.012492340058088303, -0.031881462782621384, -0.020080294460058212, -0.0478791743516922, -0.06984146684408188], [0.09039098024368286, 0.04814845323562622, 0.09298732131719589, 0.03893645480275154, 0.07257207483053207], [0.0165694672614336, 0.07005517184734344, 0.02224723808467388, 0.04674820601940155, -0.031308840960264206], [0.00923805683851242, -0.08315884321928024, -0.021829601377248764, 0.0013967322884127498, 0.001971845282241702], [-0.10378413647413254, -0.03712235763669014, -0.05515506863594055, -0.013790813274681568, -0.03433705121278763]]], [[[-0.009413808584213257, 0.03281298279762268, -0.006274544633924961, 0.059643737971782684, 0.006855350453406572], [-0.021422548219561577, 0.03593221306800842, 0.007019338198006153, -0.03790074214339256, 0.04271017760038376], [-0.006331766489893198, 0.031372103840112686, -0.006781796459108591, -0.00021632114658132195, 0.07781734317541122], [0.026368075981736183, 0.019243033602833748, -0.005188409239053726, 0.04681885614991188, 0.058281488716602325], [-0.0038973691407591105, 0.014847795478999615, 0.053983286023139954, 0.05663682147860527, 0.11916554719209671]], [[0.05476560443639755, -0.0018005522433668375, 0.011220990680158138, 0.05106515809893608, 0.025492656975984573], [-0.06800337880849838, 0.03887205943465233, 0.07629525661468506, 0.040152598172426224, -0.03574420139193535], [-0.021008985117077827, 0.11172473430633545, 0.11642458289861679, -0.02651696279644966, -0.08492357283830643], [0.10697135329246521, 0.07833277434110641, -0.03917888179421425, -0.09254457801580429, -0.09179017692804337], [0.07706717401742935, 0.025416875258088112, -0.01185046136379242, -0.05768374353647232, -0.1322595179080963]], [[-0.1126193106174469, -0.03576613590121269, 0.004217761568725109, 0.0462244376540184, 0.06733754277229309], [-0.09796765446662903, -0.08150745928287506, -0.06753821671009064, 0.005586002953350544, 0.06094299256801605], [-0.10610421746969223, -0.093785360455513, -0.05070732533931732, -0.07681894302368164, -0.00602350477129221], [-0.0961020365357399, -0.1126948893070221, -0.03524148091673851, -0.03899098187685013, -0.01835172437131405], [-0.11899921298027039, -0.0891694501042366, -0.0675589069724083, 0.005190758500248194, 0.024272289127111435]], [[0.12658268213272095, 0.16394664347171783, -0.037305690348148346, -0.025265295058488846, 0.10858233273029327], [0.060200925916433334, 0.05830254405736923, -0.027160175144672394, -0.0015023963060230017, 0.12519390881061554], [0.05159752443432808, -0.04884372279047966, -0.036543264985084534, -0.051398929208517075, 0.014835342764854431], [-0.04640424996614456, -0.1526874452829361, -0.07151616364717484, -0.054137811064720154, 0.011914415284991264], [-0.22845341265201569, -0.10461040586233139, -0.1301594078540802, -0.11978018283843994, -0.05939644202589989]], [[0.08780618757009506, 0.10209385305643082, -0.030417228117585182, 0.05310552567243576, 0.11127322912216187], [0.10859806835651398, -0.05158492922782898, -0.10341346263885498, 0.11719398945569992, 0.1579187661409378], [0.0170307457447052, -0.042724013328552246, 0.0031898031011223793, 0.08528953045606613, 0.0978325754404068], [-0.14389564096927643, -0.05914118140935898, 0.06965833902359009, 0.10783477127552032, 0.06386007368564606], [-0.14688733220100403, -0.028551848605275154, 0.040759194642305374, 0.058382291346788406, 0.07068108767271042]], [[0.03336384892463684, 0.0046459068544209, 0.00032437138725072145, 0.011640838347375393, 0.13615942001342773], [0.04018339887261391, -0.0030472842045128345, -0.011549397371709347, 0.09686119854450226, 0.1169489398598671], [-0.00811400543898344, -0.01926262490451336, 0.05182655528187752, 0.08563119918107986, 0.03470936790108681], [-0.048671234399080276, -0.01796974427998066, 0.06155848130583763, 0.07913824915885925, 0.05661970004439354], [-0.061497680842876434, -0.009660848416388035, 0.060131680220365524, 0.031027892604470253, 0.05288645997643471]]], [[[0.08283573389053345, 0.035542622208595276, 0.03498801216483116, -0.07170336693525314, -0.12549686431884766], [0.14881660044193268, 0.04216492548584938, -0.034229300916194916, -0.13095234334468842, -0.15998294949531555], [0.1410084068775177, 0.12517523765563965, -0.029186833649873734, -0.09830375760793686, -0.14018939435482025], [0.1736277937889099, 0.13787998259067535, -0.030056165531277657, -0.056618817150592804, -0.12892717123031616], [0.16140173375606537, 0.11062180250883102, 0.0064794691279530525, -0.05202433839440346, -0.07195232063531876]], [[-0.09313221275806427, 0.034376829862594604, 0.10530152916908264, 0.0553414560854435, 0.08046188950538635], [-0.07206262648105621, 0.01831355318427086, 0.05200786516070366, 0.05433414876461029, 0.050023745745420456], [0.04487321525812149, -0.027682220563292503, -0.0255594439804554, -0.009860260412096977, 0.0038197096437215805], [0.05241484194993973, -0.019180666655302048, -0.04718039929866791, -0.07264649868011475, -0.04846879094839096], [0.05352954566478729, -0.004603587556630373, -0.03728066384792328, -0.03789917752146721, -0.08975999057292938]], [[0.1474703997373581, 0.05003168806433678, -0.06041058525443077, -0.1600651890039444, -0.16222578287124634], [0.16907337307929993, 0.04401488974690437, -0.07510729879140854, -0.22019152343273163, -0.2595396041870117], [0.17300750315189362, 0.07205938547849655, -0.09277065843343735, -0.21625520288944244, -0.23892715573310852], [0.18994098901748657, 0.07939363270998001, -0.056271154433488846, -0.1547360122203827, -0.2348962426185608], [0.16124270856380463, 0.13251979649066925, 0.0585588738322258, -0.04284300655126572, -0.11929085105657578]], [[0.033135902136564255, 0.023007024079561234, 0.04675792157649994, -0.006769993342459202, -0.026716850697994232], [-0.015324873849749565, -0.13638558983802795, -0.0878966823220253, -0.026394082233309746, 0.01222351286560297], [-0.04005637764930725, -0.2608606219291687, -0.06796673685312271, 0.04803881794214249, 0.025808138772845268], [-0.060644377022981644, -0.19846591353416443, -0.025786826387047768, 0.03335428982973099, -0.005306145641952753], [-0.027176212519407272, -0.11203470826148987, -0.039058420807123184, 0.025487784296274185, 0.029833074659109116]], [[0.03377337008714676, -0.027493324130773544, 0.058591146022081375, -0.05631866306066513, 0.01879516988992691], [-0.0661633312702179, -0.0652589276432991, -0.006987042725086212, 0.05426648631691933, 0.007597893942147493], [-0.11269666999578476, -0.09058602154254913, 0.061717674136161804, 0.05994663015007973, 0.06465018540620804], [-0.1118071898818016, -0.03219394013285637, 0.049678340554237366, 0.043218839913606644, 0.09989096969366074], [-0.07382556051015854, -0.046707309782505035, 0.07013390958309174, 0.07570943236351013, 0.08920858055353165]], [[0.09902684390544891, 0.0679081380367279, 0.012163621373474598, -0.12952308356761932, -0.06436347961425781], [0.07094163447618484, 0.04139598459005356, 0.023866653442382812, -0.0860040932893753, -0.04098811745643616], [-0.09426399320363998, -0.02221662364900112, 0.029865458607673645, 0.02371889352798462, -0.026719355955719948], [-0.14372214674949646, -0.026868565008044243, -0.008893037214875221, 0.022237170487642288, 0.03414179012179375], [-0.08488069474697113, -0.046351782977581024, 0.04504422843456268, 0.050217900425195694, 0.011370117776095867]]], [[[0.0706658810377121, 0.0714637041091919, 0.0678861066699028, 0.023462757468223572, 0.038402702659368515], [0.04979366809129715, 0.10618820041418076, 0.09469004720449448, 0.0545320138335228, 0.014482411555945873], [0.042866289615631104, 0.0821121409535408, 0.04530183970928192, -0.01584428921341896, -0.03903041407465935], [0.07958944141864777, 0.036591362208127975, -0.012883423827588558, -0.0931396335363388, -0.1110537052154541], [0.06074962019920349, 0.08549609780311584, 0.02121707797050476, -0.03344528377056122, -0.02034030854701996]], [[0.07738780230283737, 0.030652878805994987, 0.01378447376191616, 0.03792722895741463, 0.07371903955936432], [0.03357504680752754, 0.05174010992050171, 0.06597566604614258, 0.022831810638308525, 0.05408491566777229], [0.032400935888290405, 0.03313296288251877, 0.06414278596639633, 0.044210586696863174, 0.0642905980348587], [0.06861060857772827, 0.05549836903810501, -0.013349346816539764, 0.036111149936914444, 0.024577412754297256], [0.08754020184278488, 0.05830300226807594, 0.04755660891532898, 0.04939224198460579, 0.015174249187111855]], [[0.04672665894031525, 0.015314373187720776, 0.01649327762424946, 0.05056075379252434, 0.0380086712539196], [-0.059335049241781235, -0.07991139590740204, -0.08723099529743195, -0.05678758770227432, 0.02883201278746128], [-0.09110923111438751, -0.020261595025658607, -0.01791922003030777, -0.015421622432768345, 0.01724245771765709], [0.01586509682238102, -0.07945510745048523, -0.06910715997219086, -0.014288888312876225, -0.033530861139297485], [-0.021359244361519814, -0.026742594316601753, -0.017872946336865425, 0.028852559626102448, 0.0739097148180008]], [[-0.07213544845581055, -0.06017959117889404, -0.05279289558529854, -0.03536764532327652, -0.10596220940351486], [-0.0016842290060594678, -0.1138015016913414, -0.10602409392595291, -0.056164104491472244, -0.15202008187770844], [-0.04439638555049896, -0.1480979472398758, -0.1638861745595932, -0.17784209549427032, -0.1362173706293106], [-0.11577660590410233, -0.23304831981658936, -0.2387239634990692, -0.22931455075740814, -0.18684127926826477], [-0.13564234972000122, -0.21332746744155884, -0.20041249692440033, -0.1994655877351761, -0.10038959980010986]], [[-0.04378204420208931, -0.01668769121170044, 0.011641733348369598, -0.020581144839525223, -0.06335067749023438], [-0.03342750668525696, -0.057429056614637375, -0.10664991289377213, -0.12050141394138336, -0.09459943324327469], [-0.10133431106805801, -0.12076283246278763, -0.10134682059288025, -0.07972844690084457, -0.13350708782672882], [-0.06262760609388351, -0.0878874808549881, -0.006392120383679867, -0.03468814864754677, -0.0017139934934675694], [0.007495312485843897, -0.048739537596702576, -0.009128178469836712, -0.007991495542228222, 0.036890797317028046]], [[0.06759537011384964, 0.11052773147821426, 0.11100131273269653, 0.10081245005130768, 0.05691492557525635], [0.04996487870812416, 0.04336022958159447, 0.04726274311542511, 0.038808032870292664, 0.008746389299631119], [-0.022400280460715294, 0.017854517325758934, -0.012771815992891788, -0.058782488107681274, -0.061376236379146576], [0.05613993480801582, 0.040481481701135635, 0.021828804165124893, 0.026682432740926743, -0.03304215520620346], [-0.008052358403801918, 0.036511555314064026, -0.004004525486379862, -0.00638655386865139, -0.002067639259621501]]]], "conv2.bias": [0.20247435569763184, 0.1981842815876007, -0.010913772508502007, 0.07509158551692963, -0.1163608729839325, 0.20435020327568054, -0.0482926145195961, 0.11020759493112564, -0.1553947627544403, -0.05536980554461479, -0.174850195646286, -0.16716843843460083, -0.024519026279449463, -0.15325385332107544, 0.1164330467581749, 0.03408404439687729], "fc1.weight": [[-0.021974332630634308, -0.03035428747534752, -0.0037068245001137257, -0.030899852514266968, -0.010221576318144798, 0.006987190805375576, -0.026093864813447, 0.021179676055908203, -0.008388335816562176, -0.04931570217013359, -0.026200365275144577, -0.02184380404651165, -0.013797716237604618, -0.008981568738818169, -0.06362209469079971, -0.013808720745146275, -0.03594546765089035, -0.0106663778424263, -0.025028755888342857, -0.06079117953777313, -0.03598332032561302, -0.04759064316749573, -0.04518283158540726, -0.039404697716236115, -0.0610746406018734, -0.022003857418894768, -0.04310297220945358, -0.012107718735933304, -0.014785489067435265, 0.018854036927223206, -0.01465598028153181, -0.03777226433157921, 0.014208382926881313, -0.04215863719582558, -0.022004907950758934, -0.019331058487296104, -0.020812926813960075, -0.04931165650486946, -0.036132849752902985, -0.014756131917238235, -0.06058593839406967, -0.034671809524297714, -0.02173013612627983, -0.04356943070888519, -0.027119575068354607, -0.04236331582069397, -0.014564651064574718, -0.06582822650671005, -0.017930440604686737, 0.004976032767444849, 0.0013361754827201366, -0.006384038366377354, 0.023836717009544373, 0.021138634532690048, -0.028720341622829437, -0.013335874304175377, -0.01188790611922741, 0.01132931001484394, 0.008907240815460682, -0.018432460725307465, -0.006490551866590977, 0.001906987396068871, 0.02066713012754917, 0.03549891337752342, -3.2540301617700607e-05, 0.009289778769016266, 0.003400936024263501, -0.004760961048305035, 0.0155496746301651, -0.02672610618174076, -0.0211759265512228, -0.0038652285002171993, -0.005451634060591459, 0.011943397112190723, 0.03824381157755852, 0.025381729006767273, -0.03494960069656372, -0.018043695017695427, -0.018641572445631027, -0.02101290598511696, 0.028733666986227036, -0.0023842542432248592, 0.004978504963219166, 0.011721712537109852, -0.009083678014576435, 0.0007013279828242958, 0.0027054015081375837, -0.014627045020461082, 0.018605560064315796, 0.02160528115928173, 0.046695683151483536, 0.010989866219460964, -0.01601487025618553, 0.024826744571328163, 0.0139039671048522, -0.007309586275368929, -0.011132827959954739, 0.0072920494712889194, -0.03224686533212662, 0.0023804784286767244, -0.0001428432879038155, 0.011541454121470451, 0.012130998075008392, 0.030096707865595818, 0.02545418031513691, 0.0023130925837904215, -0.042846351861953735, -0.009793657809495926, -0.03308044746518135, -0.022965896874666214, 0.0013675667578354478, -0.025172045454382896, 0.033680181950330734, -0.015666300430893898, 0.006842462345957756, -0.01296238973736763, -0.01187862828373909, 0.022646518424153328, -0.011839965358376503, -0.015474596060812473, -0.02630152739584446, -0.028919642791152, -0.020952044054865837, -0.03781263530254364, -0.02883942611515522, -0.013399161398410797, -0.001468813861720264, 0.007872284390032291, 0.009279121644794941, -0.021617192775011063, -0.007739315275102854, 0.0019915855955332518, -0.031863730400800705, -0.005201143678277731, -0.011623892933130264, -0.034847795963287354, -0.00927853025496006, -0.028552750125527382, -0.01404731348156929, -0.016268828883767128, -0.018903877586126328, -0.019789820536971092, -0.036025211215019226, -0.014943622052669525, -0.03328496962785721, -0.002059259684756398, -0.03662392124533653, -0.04531511291861534, -0.026496289297938347, -0.025341570377349854, -0.027041073888540268, 0.002608340932056308, -0.01696554757654667, 0.015172069892287254, 0.02097063697874546, -0.01612730883061886, 0.009710622951388359, 0.005962181370705366, -0.033895622938871384, 0.0151564572006464, 0.0010718000121414661, -0.015690183266997337, -0.000836455961689353, 0.005913875997066498, -0.01377645879983902, 0.02238190546631813, 0.014591311104595661, -0.011087022721767426, -0.014537876471877098, 0.005661400500684977, 0.0018314836779609323, 0.018148496747016907, 0.020890580490231514, -0.014635908417403698, -0.04407217353582382, -0.018915263935923576, -0.016452552750706673, -0.011262512765824795, -0.02141088992357254, -0.02811688371002674, -0.02954350784420967, -0.001240336918272078, -0.013256244361400604, -0.008585549890995026, -0.0131901940330863, 0.0024658218026161194, -0.013105912134051323, -0.01635538414120674, -0.007899320684373379, 0.0116861741989851, -0.0040276674553751945, -0.016228439286351204, -0.0006310256430879235, -0.015932833775877953, -0.03180548921227455, -0.03942912444472313, -0.006595374085009098, -0.0025030048564076424, -0.038226090371608734, -0.009666689671576023, 0.02907215990126133, -0.0267036072909832, -0.04027702286839485, 0.020512975752353668, 0.02338758111000061, 0.01713504083454609, -0.005597254727035761, -0.013364611193537712, 0.006409025751054287, 0.009334569796919823, 0.012398670427501202, 0.023191357031464577, 0.017924750223755836, 0.01150444895029068, -0.03610067442059517, -0.03327655419707298, 0.008554000407457352, 0.045671623200178146, 0.005528079811483622, -0.004541327245533466, -0.004240015987306833, 0.008341672830283642, 0.004387662746012211, 0.02804332599043846, -0.01805741712450981, 0.015577878803014755, -0.020287659019231796, -0.026922639459371567, -0.01744932122528553, -0.021686550229787827, 0.004708278924226761, -0.009317668154835701, 0.020454764366149902, 0.012216687202453613, -0.02740451879799366, -0.012550453655421734, -0.012263026088476181, 0.02912544645369053, 0.0015436087269335985, -0.019796982407569885, -0.011684736236929893, -0.005246514920145273, 0.01264779269695282, -0.004398669116199017, -0.05692225322127342, -0.024890311062335968, -0.03082892671227455, -0.0386764332652092, -0.033016398549079895, 0.003773633623495698, 0.008893399499356747, -0.01656547375023365, -0.012810492888092995, -0.023514777421951294, -0.006509004160761833, 0.015394103713333607, 0.003226903732866049, -0.017594177275896072, -0.009335888549685478, 0.01706751063466072, -0.012074027210474014, 0.00032822374487295747, -0.018107034265995026, -0.010459530167281628, -0.004749774932861328, -0.01260954886674881, 0.013702122494578362, -0.0461365170776844, -0.042821552604436874, -0.0260345246642828, -0.008600589819252491, -0.010253035463392735, 0.0014620805159211159, -0.01863517239689827, -0.0520678274333477, 0.022473836317658424, 0.014280867762863636, 0.010041870176792145, 0.010882302187383175, 0.03383331000804901, 0.027457697317004204, 0.018814485520124435, -0.017504969611763954, 0.01147689763456583, 0.01052209734916687, 0.023901456966996193, 0.03367910906672478, 0.0004461062198970467, -0.0006712675676681101, -0.007741052657365799, 0.009658749215304852, 0.028851283714175224, -0.004053879529237747, 0.016910187900066376, -0.025731174275279045, -0.029209306463599205, 0.009478729218244553, 0.028942298144102097, 0.011998042464256287, -0.009795954450964928, 0.011870980262756348, -0.022082198411226273, -0.02268543466925621, -0.022966090589761734, 0.01593068428337574, -0.019904473796486855, -0.01125959400087595, -0.03549874573945999, -0.014147384092211723, 0.004216123837977648, 0.007722542155534029, 0.012115636840462685, 0.00484814029186964, 0.027299541980028152, -0.0016423494089394808, 0.0005147187621332705, -0.00756891630589962, 0.028222938999533653, 0.0023090026807039976, -0.018825868144631386, 0.005393058992922306, -0.014625578187406063, 0.03468428924679756, -0.03063995949923992, -0.016258545219898224, -0.03821645304560661, -0.007752225734293461, -0.0382346548140049, 0.005243994295597076, -0.029112987220287323, -0.025173237547278404, -0.04357770085334778, -0.021093010902404785, -0.03131356090307236, -0.05749564617872238, -0.025422263890504837, -0.02691665105521679, -0.025057852268218994, -0.0490795373916626, -0.05096961930394173, -0.03107169270515442, -0.007868737913668156, 0.009996251203119755, -0.019638363271951675, -0.03561775013804436, -0.004013175144791603, -0.01833728514611721, -0.0011389594292268157, -0.03903527185320854, -0.019405949860811234, -0.03701162710785866, -0.01840890198945999, 0.015379488468170166, -0.024441983550786972, -0.017882544547319412, -0.007919753901660442, -0.006829983554780483, -0.010530718602240086, -0.024454087018966675, -0.02269122563302517, 0.0034301052801311016, 0.0026493039913475513, -0.000558594474568963, -0.013404252007603645, 0.0013341013109311461, -0.021376248449087143, -0.008188491687178612, -0.008757181465625763, -0.059419870376586914, 0.0034198795910924673, -0.017961518839001656, 0.00027814763598144054, -0.02632814832031727, -0.0391073152422905, -0.02105793170630932, -0.017679134383797646, 0.006028282456099987, -0.028119266033172607, -0.017193114385008812, -0.037533484399318695, -0.025537902489304543, -0.005473126191645861, -0.011861681006848812, -0.004192660097032785, -0.0070841386914253235, 0.005712142214179039, -0.030275359749794006, 0.02024228498339653, 0.011640854179859161, -0.021087657660245895, -0.02115478552877903, -0.0013271383941173553, 0.014377443119883537, 0.008361264131963253, 0.0063247885555028915, 0.004062516149133444, -0.0060113826766610146, -0.02988642081618309, -0.008249497972428799, 0.0098614152520895], [-0.013889756053686142, -0.0038586235605180264, -0.0032231099903583527, 0.007843405939638615, -0.016244811937212944, 0.004157315474003553, -0.03677511215209961, -0.021380925551056862, 0.008116152137517929, -0.0026748001109808683, 0.035599224269390106, -0.02018156833946705, -0.03736891597509384, -0.019168971106410027, 0.030883928760886192, 0.03115004301071167, -0.01386119332164526, 0.027159297838807106, 0.035903677344322205, 0.044476497918367386, 0.07944754511117935, 0.10681110620498657, 0.10643963515758514, 0.0524178184568882, 0.0874544307589531, -0.010771588422358036, -0.0023015576880425215, 0.040629733353853226, 0.06303932517766953, 0.06029752641916275, -0.0268765427172184, 0.000563872221391648, 0.02832793816924095, 0.01577368937432766, -0.04777996242046356, -0.02522028423845768, -0.05669340863823891, -0.03600826486945152, 0.021347180008888245, 0.008993623778223991, -0.00023662202875129879, -0.04291166365146637, -0.01368082594126463, 0.029539691284298897, 0.012590719386935234, -0.006872448138892651, 0.01938338577747345, 0.05163681507110596, -0.04569867253303528, -0.011057823896408081, 0.0018762008985504508, -0.029193095862865448, -0.06296531111001968, -0.010606152936816216, 0.042585019022226334, -0.07443378865718842, -0.019812069833278656, 0.0027608941309154034, -0.026478711515665054, -0.00784597359597683, -0.06893908232450485, -0.051981475204229355, -0.056905992329120636, -0.015210717916488647, 0.040164604783058167, -0.0872906967997551, -0.03418383374810219, -0.07980913668870926, -0.040090255439281464, -0.04296698421239853, -0.10130123794078827, -0.04542693495750427, 0.021022414788603783, 0.042820852249860764, -0.09104622155427933, -5.416402200353332e-05, -0.03574930503964424, -0.05975756421685219, -0.00472714938223362, 0.018541913479566574, -0.009436485357582569, -0.046145979315042496, 0.019253915175795555, 0.0805642157793045, -0.031058471649885178, 0.017986120656132698, 0.017870157957077026, 0.017848743125796318, 0.03025626391172409, 0.02791149728000164, -0.03615270555019379, 0.0020270012319087982, -0.03593669831752777, -0.010031964629888535, -0.04970382899045944, -0.07783783972263336, -0.10517163574695587, -0.10027223080396652, -0.06774740666151047, -0.06430242955684662, -0.03537008911371231, 0.015841901302337646, -0.016592008993029594, -0.026102352887392044, -0.059778690338134766, -0.01030438207089901, 0.01922440528869629, -0.0005385815165936947, -0.01094941794872284, 0.013472680933773518, -0.059212684631347656, -0.034866973757743835, 0.0026327562518417835, 0.04000364616513252, 0.0027454679366201162, -0.10620400309562683, -0.057689178735017776, -0.05355129390954971, -0.038124725222587585, -0.058889854699373245, -0.14616382122039795, -0.16746379435062408, -0.16169385612010956, -0.10851924121379852, -0.11522438377141953, -0.07756929844617844, -0.043171271681785583, 0.03902488946914673, -0.016322966665029526, -0.05639585852622986, -0.038216713815927505, 0.07380187511444092, 0.06740505993366241, 0.048620615154504776, 0.0021702831145375967, 0.038709696382284164, 0.06961006671190262, 0.12230388820171356, 0.08475467562675476, 0.06673724204301834, -0.022364996373653412, 0.04945744201540947, 0.10559958219528198, 0.057966362684965134, 0.04311586543917656, -0.034092359244823456, 0.02412000298500061, 0.061228130012750626, 0.05686023458838463, -0.011903170496225357, 0.06303442269563675, 0.12017785012722015, 0.05182698369026184, 0.00421900674700737, -0.03703554719686508, 0.045642998069524765, 0.06915480643510818, 0.04316198080778122, 0.05154283717274666, 0.039672065526247025, -0.000995804090052843, 0.01767302304506302, 0.035529907792806625, 0.049294907599687576, 0.004128307104110718, -0.05674782022833824, 0.0025509551633149385, 0.0004897518665529788, 0.011193240992724895, 0.04025694355368614, 0.0011413592146709561, -0.031941547989845276, -0.03571576625108719, 0.007592926733195782, 0.025486988946795464, -0.05422455444931984, 0.025339338928461075, 0.0009550925460644066, 0.01088886521756649, -0.009057295508682728, -0.03706234320998192, -0.0034087395761162043, -0.035094767808914185, -0.06307190656661987, 0.004959153477102518, -0.07328447699546814, -0.023040244355797768, -0.02019631676375866, -0.03888196498155594, -0.04558360576629639, -0.03219585493206978, 0.021893225610256195, 0.028583059087395668, 0.045214634388685226, -0.011692301370203495, 0.04142419248819351, 0.010971554554998875, 0.10427307337522507, 0.1019839495420456, 0.004349145106971264, -0.014661414548754692, -0.006052668672055006, 0.04584036394953728, -0.009885921142995358, -0.029319658875465393, -0.056215476244688034, -0.03603881597518921, 0.004741252399981022, -0.029772933572530746, 0.001381011912599206, -0.0204530730843544, 0.011746375821530819, 0.04035155475139618, -0.015329452231526375, -0.06890188157558441, -0.036126572638750076, -0.01209942251443863, -0.018157269805669785, 0.014287558384239674, -0.04812534898519516, -0.06828925013542175, -0.08839694410562515, -0.10325929522514343, -0.08514072746038437, -0.09653426706790924, 0.05885830149054527, 0.06953060626983643, 0.02642042376101017, -0.004431438632309437, -0.05027371272444725, -0.03641849383711815, -0.0002537837135605514, 0.024730050936341286, 0.05042203143239021, 0.049941133707761765, -0.06618212908506393, 0.018731718882918358, 0.003648660844191909, 0.029143476858735085, 0.07355599105358124, -0.03398459777235985, 0.00681636156514287, -0.017649712041020393, 0.05394453555345535, 0.04341782629489899, -0.05487045645713806, -0.012847984209656715, 0.01422340702265501, -0.01757625676691532, -0.05220826715230942, -0.0847693383693695, -0.010584061965346336, -0.010136513039469719, 0.008756800554692745, -0.035150207579135895, -0.0723864734172821, -0.04463491588830948, 0.018644744530320168, 0.01276259496808052, -0.03353169560432434, -0.10512436926364899, -0.03212906792759895, 0.00048276345478370786, 0.024872593581676483, -0.02397073805332184, -0.08373112231492996, -0.0559004545211792, -0.04322363808751106, -0.05467969551682472, -0.08601491153240204, -0.08245283365249634, -0.13807329535484314, -0.17905788123607635, -0.1565028876066208, -0.15879178047180176, 0.060917507857084274, 0.042636677622795105, 0.006388344336301088, 0.04412737861275673, 0.09118669480085373, 0.004033234901726246, 0.03671151399612427, 0.030217263847589493, 0.039217282086610794, 0.06971435993909836, -0.07652662694454193, -0.020084436982870102, 0.0530388243496418, 0.042981818318367004, 0.0733996033668518, -0.06787866353988647, -0.025105278939008713, -0.003594473237171769, 0.011334119364619255, 0.0439482107758522, -0.033812228590250015, 0.05841991305351257, 0.05037987604737282, -0.006421553436666727, 0.028637295588850975, 0.07235988229513168, 0.031611036509275436, 0.04895290359854698, 0.029216349124908447, 0.00983135774731636, 0.043953511863946915, 0.03916534036397934, 0.06352701783180237, 0.03779070824384689, -0.007573762908577919, 0.04689557105302811, 0.034993965178728104, 0.00906356517225504, 0.00709115993231535, -0.006589984521269798, 0.0004540990630630404, -0.05063147470355034, -0.03386567533016205, -0.028112459927797318, -0.01186484843492508, 0.012574641965329647, -0.03880387172102928, -0.04351481422781944, -0.033447522670030594, 0.025144726037979126, -0.01096325647085905, 0.013741005212068558, 0.01827777735888958, 0.018799010664224625, 0.0176890566945076, 0.025320900604128838, -0.015470011159777641, -0.0077616204507648945, 0.0036072260700166225, 0.0526806116104126, 0.01578654907643795, 0.03486426919698715, 0.022249508649110794, 0.023546656593680382, 0.07129299640655518, -0.03550698608160019, 0.03283313289284706, 0.0057756430469453335, 0.030615834519267082, 0.008202342316508293, -0.025829114019870758, 0.021268147975206375, -0.0054978253319859505, 0.054271481931209564, -0.08040662109851837, 0.0727003961801529, 0.06463462114334106, 0.04581490904092789, 0.051865704357624054, 0.1002439334988594, 0.08807531744241714, 0.0758395791053772, 0.01562194898724556, 0.06357517093420029, 0.045296456664800644, 0.038559895008802414, 0.07832227647304535, 0.07449336349964142, -0.00939762219786644, -0.008326911367475986, 0.05644318461418152, 0.09895075857639313, 0.058159906417131424, 0.017616646364331245, -0.06143793836236, 0.030106699094176292, 0.01571090891957283, -0.004175439476966858, 0.10169857740402222, -0.07282859086990356, -0.015318186953663826, -0.054674264043569565, -0.06619724631309509, -0.016000039875507355, -0.10328414291143417, -0.015135462395846844, -0.001468630856834352, -0.04512869194149971, 0.00933428481221199, -0.036899130791425705, 0.006530294194817543, 0.0238450076431036, -0.053372859954833984, -0.014732416719198227, 0.0029691539239138365, 0.07274749875068665, 0.02262907475233078, -0.06583654135465622, 0.0072503481060266495, -0.05410890653729439, 0.009826763533055782, -0.052839286625385284, -0.02143068052828312, -0.015298012644052505, -0.04067101702094078], [0.02812519110739231, 0.01645742356777191, 0.0017146074678748846, -0.012921268120408058, 0.02649577148258686, 0.05440426990389824, 0.02133919484913349, -0.026079824194312096, 0.03881567716598511, 0.056736502796411514, 0.055030692368745804, -0.003132072975859046, 0.013018217869102955, 0.010781075805425644, -0.016696706414222717, -0.017162805423140526, -0.05158599093556404, -0.01232135109603405, 0.020006153732538223, 0.027331842109560966, 0.05657633766531944, 0.031026922166347504, -9.190364653477445e-05, 0.03424631804227829, 0.055183324962854385, -0.016514578834176064, 0.022681493312120438, 0.025480329990386963, 0.03252214938402176, 0.04479286074638367, 0.03574283793568611, -0.005132602993398905, -0.004603040870279074, 0.013861026614904404, 0.00208871578797698, 0.02394930087029934, 0.000531305733602494, 0.014606056734919548, 0.014303375035524368, 0.016137022525072098, 0.059488069266080856, -0.008378108032047749, 0.054847050458192825, 0.006137893535196781, -0.04211914539337158, 0.01905670575797558, 0.01775834709405899, 0.07245298475027084, 0.03744705021381378, 0.01950281858444214, 0.08101978152990341, 0.004473245702683926, 0.035556573420763016, 0.059053532779216766, -0.011614738032221794, 0.02733711712062359, 0.017374368384480476, 0.016581056639552116, 0.028457775712013245, 0.015558445826172829, -0.021126454696059227, 0.01627185009419918, -0.004311377182602882, 0.004252346232533455, 0.03449408710002899, -0.006490861065685749, 0.00884046871215105, -0.005196065176278353, 0.04514335095882416, -0.025347182527184486, 0.036492034792900085, 0.033144257962703705, 0.030270757153630257, 0.052334170788526535, 0.017698487266898155, 0.019058935344219208, -0.03136340156197548, -0.0015930230729281902, -0.00829242542386055, 0.01970592699944973, -0.0038777871523052454, 0.01908987946808338, 0.028996555134654045, -0.0014528629835695028, 0.05404595658183098, 0.0012042319867759943, -0.004484693519771099, 0.024002041667699814, 0.059836678206920624, 0.07017452269792557, 0.017790408805012703, 0.030982838943600655, 0.01300875749439001, 0.04039118438959122, 0.041209958493709564, 0.015622852370142937, 0.005432088393718004, 0.013598782941699028, 0.015626780688762665, 0.018878493458032608, 0.03458019718527794, -0.011908547021448612, -0.0033108219504356384, -0.024929912760853767, -0.021838776767253876, -0.008911053650081158, 0.008608491159975529, 0.05402356758713722, 0.044773370027542114, -0.03883745148777962, 0.0004158701922278851, 0.019159825518727303, 0.027015643194317818, -0.0441640168428421, -0.030629688873887062, -0.060869377106428146, -0.03078056313097477, -0.11108208447694778, -0.05406217649579048, -0.03006267361342907, -0.045637112110853195, -0.1059289202094078, -0.15208800137043, -0.10816661268472672, -0.07385282963514328, 0.002178723691031337, -0.0219565536826849, -0.0438583679497242, 0.00971705000847578, -0.022746562957763672, 0.004230981692671776, -0.03301464393734932, -0.00709248473867774, 0.0023841839283704758, -0.0020574014633893967, 0.00374104967340827, -0.022868210449814796, 0.04900208115577698, 0.023258501663804054, -0.005350533407181501, -0.01828058995306492, 0.00832799170166254, 0.08610270172357559, 0.028216395527124405, -0.017721697688102722, -0.018543435260653496, 0.005609107669442892, 0.0507541261613369, -0.0018097457941621542, -0.004768568556755781, -0.02332272008061409, 0.011950721964240074, 0.0073910485953092575, -0.030733924359083176, -0.03572956845164299, -0.02648056671023369, -0.015324537642300129, -0.007594417780637741, 0.02880406379699707, -0.0012139618629589677, -0.012783249840140343, -0.009266648441553116, 0.0009641755023039877, 0.04719647765159607, 0.025916539132595062, 0.027208635583519936, 0.03481822460889816, 2.8800544896512292e-05, 0.03158413991332054, 0.00664387596771121, -0.003908931743353605, 0.01182486955076456, -0.036237724125385284, 0.07133849710226059, 0.09919679164886475, -0.03597591817378998, -0.0374179407954216, 0.025365658104419708, -0.04380550608038902, 0.010617471300065517, -0.03336512669920921, 0.07991970330476761, 0.06136385723948479, 0.014751238748431206, -0.006270718760788441, 0.01092237513512373, 0.07351191341876984, 0.026829730719327927, 0.02067648060619831, 0.015784654766321182, 0.008050688542425632, 0.011055462062358856, 0.011674429289996624, 0.01068512536585331, 0.0011775190941989422, 0.05478039011359215, 0.01746968738734722, 0.007279254030436277, 0.06208004802465439, 0.036897677928209305, -0.010325482115149498, -0.037541620433330536, 0.01061257440596819, -0.015724150463938713, -0.036121588200330734, 0.010744958184659481, 0.03589625284075737, 0.009308886714279652, 0.018423674628138542, -0.0503937192261219, 0.03397589921951294, 0.04291253536939621, -0.01143611129373312, 0.021404150873422623, -0.05072985589504242, 0.0126084228977561, -0.008262895978987217, 0.0018866409081965685, 0.04240376129746437, 0.04724857211112976, 0.057691916823387146, -0.003862971207126975, 0.015513979829847813, -0.003041868796572089, 0.03974880278110504, 0.034029535949230194, 0.013421446084976196, 0.019278835505247116, 0.0346667505800724, -0.010437837801873684, 0.01871303841471672, 0.03492174297571182, 0.09065238386392593, 0.03474728390574455, 0.052412815392017365, -0.01995975337922573, -0.05992230027914047, -0.005455379839986563, 0.0652349591255188, 0.01296249683946371, 0.018232418224215508, -0.02579023316502571, -0.041622940450906754, 0.004550510086119175, 0.01955213025212288, -0.0207075122743845, 0.008399354293942451, 0.016695648431777954, 0.006137431133538485, 0.03399977087974548, -0.031960442662239075, -0.07490675896406174, -0.025806255638599396, -0.03959593549370766, -0.07446188479661942, -0.03393741324543953, -0.026994194835424423, -0.02698969468474388, 0.0022070046979933977, -0.11109741777181625, -0.03398726508021355, 0.020963532850146294, 0.025625117123126984, -0.03901733085513115, -0.07028093189001083, -0.03332819044589996, -0.011765542440116405, -0.020814940333366394, -0.06557443737983704, -0.05939052999019623, 0.031136050820350647, 0.02906956523656845, -0.08059089630842209, -0.093062624335289, -0.10117208957672119, 0.002461325144395232, 0.03081689216196537, 0.023139772936701775, -0.0005875338101759553, -0.04015321657061577, -0.0004993595066480339, -0.004266208969056606, 0.015365742146968842, 0.022931793704628944, 0.004461479838937521, -0.010685942135751247, -0.05109170824289322, 0.030581817030906677, 0.016580484807491302, 0.01827089488506317, -0.022848904132843018, -0.015990570187568665, 0.031934164464473724, -0.051664289087057114, -0.07407224178314209, -0.030796345323324203, -0.007811253424733877, 0.022273318842053413, -0.02605537883937359, -0.08291585743427277, -0.04263715818524361, -0.038616616278886795, -0.05749956890940666, -0.018939396366477013, -0.021472785621881485, 0.017050620168447495, 0.04681593179702759, 0.0270017571747303, -0.011119317263364792, -0.0029935368802398443, -0.04043314605951309, -0.024602225050330162, -0.04696829989552498, -0.037666406482458115, -0.046325262635946274, 0.018996968865394592, -0.0050696213729679585, 0.014836682006716728, -0.04636967554688454, -0.03922267258167267, -0.032835979014635086, -0.021212123334407806, -0.045762207359075546, 0.008886387571692467, -0.04010218754410744, 0.0131098423153162, -0.04092796519398689, 0.0008456798386760056, -0.01287817768752575, 0.006606569513678551, -0.030612492933869362, -0.02225622534751892, 0.06184616684913635, 0.01045830175280571, -0.060633402317762375, -0.05492442473769188, -0.009865582920610905, 0.019707925617694855, -0.009052100591361523, -0.06495598703622818, -0.018803032115101814, -0.019764719530940056, -0.03902209922671318, -0.049395136535167694, -0.03330288454890251, -0.003585874568670988, 0.020588405430316925, -0.06798052787780762, -0.017483903095126152, -0.037300869822502136, -0.011301319114863873, 0.00828608963638544, 0.041678156703710556, 0.007567352615296841, -0.0201251320540905, -0.028090722858905792, 0.009113077074289322, 0.09447031468153, -0.02390369027853012, -0.04637208580970764, -0.05481375753879547, 0.006238813512027264, 0.03153479844331741, -0.014053547754883766, 0.003391672158613801, -0.10352388769388199, -0.00015823323337826878, -0.0078089251182973385, -0.024379851296544075, -0.022271744906902313, -0.023030690848827362, 0.04859787970781326, 0.004096120595932007, -0.048937056213617325, -0.03131164237856865, -0.007023381069302559, -0.03693012148141861, -0.05452597513794899, -0.05356478691101074, -0.09901580214500427, -0.009576071985065937, -0.06756676733493805, -0.0432114340364933, -0.032761573791503906, -0.08330637216567993, -0.057901669293642044, 0.009164261631667614, 0.024977542459964752, 0.03128950297832489, -0.06454512476921082, -0.044048011302948, -0.005864303559064865, -0.014280727133154869, -0.03491117060184479, -0.06307683140039444, -0.05703781172633171, -0.03630524128675461, -0.04931909590959549, -0.034991662949323654, -0.08459234237670898], [0.10133383423089981, 0.05371598154306412, 0.01849938929080963, 0.09060416370630264, 0.09053976833820343, 0.06592193245887756, 0.05284729227423668, 0.05556093156337738, 0.04004758223891258, 0.055824946612119675, 0.06594663113355637, 0.05047712102532387, 0.07005152106285095, 0.02229190245270729, 0.008078697137534618, 0.013590630143880844, 0.00018267851555719972, -0.0009800490224733949, -0.015968186780810356, -0.05743560567498207, -2.4236503577412805e-06, -0.010611994192004204, -0.0069818561896681786, -0.05319111794233322, -0.05381959676742554, -0.06736074388027191, -0.02202175371348858, -0.08134454488754272, -0.026748711243271828, 0.0032972858753055334, 0.05957411974668503, 0.022532884031534195, -0.05941047891974449, -0.01305049192160368, 0.058478374034166336, 0.07054051756858826, 0.06079776585102081, -0.005252629052847624, 0.011141115799546242, 0.035326339304447174, 0.08561956137418747, 0.037632107734680176, 0.07234926521778107, 0.027603762224316597, 0.02760949358344078, -0.00032294029369950294, 0.04209553450345993, 0.05188831686973572, 0.03410957008600235, -0.025046736001968384, -0.024365324527025223, -0.05219660699367523, -0.08231361955404282, 0.022707795724272728, -0.003342835698276758, 0.05735987797379494, 0.05321785807609558, -0.021721426397562027, 0.026316074654459953, 0.06857648491859436, 0.07949063926935196, 0.0949549674987793, -0.004907642025500536, 0.025591479614377022, 0.02540515549480915, 0.04839601367712021, 0.12338757514953613, 0.09815041720867157, 0.06515240669250488, 0.08851972222328186, -0.03581627085804939, 0.005402292124927044, 0.05801740661263466, 0.041259314864873886, 0.025747530162334442, -0.1060306653380394, -0.09476235508918762, -0.07922817766666412, -0.03888116776943207, -0.03478272631764412, 0.011810747906565666, -0.0029379965271800756, -0.09652639925479889, -0.03535142168402672, -0.011387915350496769, 0.03263360634446144, 0.03709188103675842, -0.03637935221195221, -0.03333580493927002, 0.03385520726442337, -0.0024681794457137585, 0.07506343722343445, 0.07239864021539688, 0.08811541646718979, 0.08570569008588791, 0.05724909156560898, 0.09221529215574265, 0.1328093260526657, 0.11105334013700485, 0.1199229434132576, -0.014673388563096523, -0.031949371099472046, -0.014627259224653244, 0.03930285945534706, 0.06240641698241234, -0.02180846966803074, -0.03287245333194733, -0.05742590129375458, 0.015446986071765423, 0.05136459320783615, 0.02784583903849125, 0.029129624366760254, 0.04446850344538689, 0.05045315995812416, 0.0045048948377370834, -0.00827116146683693, 0.05329393595457077, 0.041355304419994354, 0.0033096889965236187, -0.008510580286383629, -0.10983115434646606, -0.12269394099712372, -0.09241583943367004, -0.06956224888563156, -0.07091931998729706, -0.07942966371774673, -0.03565703332424164, -0.08052922785282135, -0.0803375393152237, -0.07662582397460938, -0.003960734698921442, -0.0846945196390152, -0.050689831376075745, -0.005675483960658312, 0.026152946054935455, -0.005568305030465126, -0.030316118150949478, -0.03411266207695007, -0.0073702577501535416, 0.01751674711704254, 0.0037434424739331007, 0.031786128878593445, 0.10142520815134048, 0.06579915434122086, 0.012493121437728405, -0.001982332207262516, 0.039527203887701035, 0.03137477859854698, 0.02156675048172474, -0.02407665178179741, 0.1091093122959137, 0.11766167730093002, 0.07393231987953186, -0.004844387527555227, 0.02527500130236149, 0.03593388572335243, 0.04599543660879135, 0.06999652832746506, 0.06195501610636711, 0.07525702565908432, -0.09968491643667221, 0.00538226030766964, 0.01629883237183094, 0.09054124355316162, -0.005896874703466892, -0.18366201221942902, -0.16204562783241272, -0.10621260851621628, -0.08739712089300156, -0.09711109846830368, -0.19785788655281067, -0.2285049706697464, -0.1595761924982071, -0.1361098289489746, -0.1138274297118187, -0.16863293945789337, -0.13478799164295197, -0.058087870478630066, 0.06812302768230438, 0.0895896703004837, -0.08917553722858429, 0.035866864025592804, -0.006668096873909235, 0.090706467628479, 0.08682791143655777, -0.01689351350069046, 0.043065380305051804, 0.04558131843805313, 0.05399927496910095, 0.015439900569617748, -0.02802240289747715, -0.022093936800956726, -0.03571375086903572, -0.017566589638590813, -0.01837216131389141, -0.04519674926996231, -0.03863583132624626, 0.07594241946935654, 0.0016021832125261426, -0.08631835132837296, 0.08096202462911606, 0.027947988361120224, -0.006878565065562725, -0.004052434116601944, 0.07491934299468994, 0.06788212805986404, 0.03236754983663559, 0.0887225791811943, 0.038759369403123856, 0.0790686085820198, -0.050614796578884125, 0.06307004392147064, 0.025440651923418045, -0.03509046882390976, -0.04183778911828995, -0.13540644943714142, -0.0629514828324318, -0.06444331258535385, -0.08396223187446594, -0.05965780094265938, -0.19570989906787872, -0.14217498898506165, -0.08870077133178711, -0.11020990461111069, -0.06403890997171402, 0.08199991285800934, 0.0329674668610096, -0.01759154349565506, 0.013957342132925987, 0.07070038467645645, 0.1341378092765808, 0.06706736981868744, 0.06651059538125992, 0.06668103486299515, 0.08263464272022247, 0.14543765783309937, 0.036847472190856934, 0.08800219744443893, 0.09733621776103973, 0.12270481139421463, -0.012974162586033344, -0.0032696679700165987, 0.08832180500030518, 0.04705306142568588, -0.06377878040075302, -0.055368535220623016, -0.04196133837103844, -0.026126611977815628, -0.043047282844781876, -0.09261688590049744, 0.07947620749473572, -0.0052374787628650665, -0.022908557206392288, 0.03778722509741783, 0.059123195707798004, 0.01413310132920742, -0.005508107598870993, -0.00812125951051712, -0.021088507026433945, 0.00932996440678835, -0.026276735588908195, -0.023589272052049637, 0.10367809981107712, 0.053227104246616364, -0.021684324368834496, -0.03089168854057789, -0.0011566098546609282, 0.00841546431183815, -0.04628925025463104, -0.06291340291500092, -0.13062387704849243, -0.18517640233039856, -0.18036118149757385, -0.18575657904148102, -0.20662081241607666, -0.05325869470834732, -0.01933429390192032, 0.1152367815375328, 0.00916629284620285, -0.04535822942852974, -0.037865422666072845, -0.06020103767514229, 0.03802628442645073, -0.01165391318500042, -0.000633182586170733, -0.02827376499772072, -0.062205031514167786, -0.06025794893503189, -0.014733227901160717, 0.018407519906759262, -0.060967374593019485, -0.03225334733724594, 0.0015670483699068427, 0.03937400504946709, -0.004121900536119938, -0.10500010848045349, 0.006882980931550264, -0.02251032181084156, -0.024951448664069176, -0.039293449372053146, 0.187967911362648, 0.04088275879621506, 0.010393387638032436, 0.020075593143701553, 0.11644470691680908, 0.08100622147321701, 0.023504020646214485, 0.0073533691465854645, 0.009738215245306492, 0.029633257538080215, 0.0563863180577755, -0.022159555926918983, -0.030914463102817535, -0.001929154503159225, -0.02844087965786457, 0.001407166477292776, -0.00722239026799798, 0.035023804754018784, 0.00416808295994997, 0.01171981543302536, -0.006327362265437841, -0.027150727808475494, -0.010417398996651173, 0.026445167139172554, -0.03071594424545765, -0.0280930045992136, 0.004281326197087765, 0.0387088879942894, 0.0251418836414814, 0.05261249095201492, -0.02625601924955845, 0.04861085116863251, 0.050083812326192856, 0.026555020362138748, 0.049425188452005386, 0.002261308953166008, 0.07534071803092957, 0.0009829768678173423, 0.014478721655905247, -0.022213730961084366, -0.0033634603023529053, 0.04795793816447258, 0.014237402938306332, -0.003297084243968129, -0.06354580819606781, -0.08155250549316406, -0.10947799682617188, -0.11938440799713135, -0.1485062539577484, -0.11555954813957214, -0.11915924400091171, -0.10144391655921936, 0.03169507905840874, 0.03562586009502411, -0.00775609165430069, -0.0575823076069355, -0.0062163532711565495, 0.04423164576292038, 0.028108272701501846, -0.026895729824900627, -0.006666077766567469, 0.09964963048696518, -0.028901241719722748, -0.08221680670976639, -0.05790497735142708, 0.017725354060530663, 0.0604681633412838, -0.05564339458942413, -0.05264189466834068, -0.05182894691824913, -0.13700026273727417, -0.04857036843895912, -0.137227401137352, -0.125531867146492, -0.09774559736251831, 0.07399182766675949, 0.04418015107512474, -0.025545908138155937, 0.04390043020248413, 0.08865977078676224, -0.01254953071475029, -0.004330131690949202, -0.008651241660118103, -0.008361093699932098, 0.03466292470693588, 0.01454203948378563, 0.01087900809943676, 0.03153747320175171, 0.08799149096012115, 0.062114015221595764, 0.04745633527636528, 0.02126692235469818, 0.042634714394807816, 0.07780131697654724, -0.0054716626182198524, 0.03367644548416138, -0.033253178000450134, -0.12725108861923218, -0.12500673532485962, -0.145608052611351], [0.03889095038175583, 0.0868217721581459, 0.06150820106267929, 0.0601462759077549, 0.057015787810087204, 0.03806052356958389, -0.026329966261982918, -0.025730689987540245, -0.016126614063978195, -0.012514560483396053, -0.03916487097740173, -0.04483357444405556, -0.03533855080604553, -0.016631487756967545, 0.03137698024511337, -0.02633294276893139, 0.020326634868979454, 0.062473125755786896, -0.009439402259886265, -0.03146142140030861, 0.025473497807979584, 0.009020855650305748, 0.0014269163366407156, 0.012877659872174263, -0.020969653502106667, 