{"conv1.weight": [[[[0.04071307182312012, 0.0764116570353508, 0.10084995627403259, 0.04412201792001724, -0.008439652621746063], [0.0007997860084287822, 0.010457995347678661, 0.009725171141326427, -0.04524996876716614, -0.011934999376535416], [-0.01976868137717247, -0.008590444922447205, -0.0488140732049942, -0.06045908108353615, -0.04297882318496704], [0.03229740262031555, -0.05870543420314789, -0.0021025361493229866, -0.029638158157467842, -0.10244844108819962], [-0.03143059462308884, 0.0379972830414772, -0.038313500583171844, -0.07730633020401001, -0.0791802778840065]], [[-0.06684615463018417, 0.021893737837672234, 0.05520804598927498, -0.05304384604096413, -0.07355975359678268], [0.00808048713952303, 0.014132990501821041, 0.006046521943062544, 0.039838578552007675, -0.07804284989833832], [0.03406061604619026, 0.023142442107200623, 0.03203079476952553, -0.03183617442846298, -0.07187537848949432], [-0.016283147037029266, 0.09337612241506577, 0.013578022830188274, 0.01666257530450821, -0.09061340987682343], [0.03978223353624344, -0.01892106607556343, -0.05283162742853165, -0.07223178446292877, -0.07244062423706055]], [[0.143331840634346, 0.11771922558546066, 0.13972622156143188, 0.12988914549350739, 0.005528300069272518], [0.10261232405900955, 0.2012874037027359, 0.19422735273838043, 0.099007748067379, 0.0009472126257605851], [0.1262212097644806, 0.1434270739555359, 0.1610756367444992, 0.09477514773607254, 0.011667224578559399], [0.1332249641418457, 0.19986313581466675, 0.1495172530412674, 0.05518440529704094, 0.023775525391101837], [0.09274064749479294, 0.11045869439840317, 0.10341697931289673, 0.011816342361271381, 0.062092091888189316]]], [[[0.1036190316081047, 0.1700587421655655, 0.17776839435100555, 0.20068442821502686, 0.15060679614543915], [0.108371302485466, 0.08535943925380707, 0.220329150557518, 0.1547481119632721, 0.15703082084655762], [-0.009103533811867237, 0.0007693918305449188, 0.06066656485199928, -0.011175626888871193, -0.023736227303743362], [-0.011326431296765804, -0.04073246940970421, -0.08020048588514328, -0.047638509422540665, -0.08644134551286697], [-0.10820942372083664, -0.1630939096212387, -0.18295441567897797, -0.09182716906070709, -0.07414355129003525]], [[0.016565905883908272, 0.08419296890497208, 0.084740050137043, 0.1227046474814415, 0.06724951416254044], [0.032536134123802185, 0.041675928980112076, 0.038557019084692, 0.02552458643913269, -0.014932694844901562], [-0.019049182534217834, -0.030010681599378586, -0.08437486737966537, -0.09509394317865372, -0.07850510627031326], [-0.09023559838533401, -0.0395989790558815, -0.028213538229465485, -0.0906183049082756, -0.15292346477508545], [-0.11841856688261032, -0.08417059481143951, -0.10714681446552277, -0.09692171961069107, -0.17913149297237396]], [[-0.017710216343402863, 0.05092429742217064, 0.04644441977143288, 0.0685986801981926, 0.04611140489578247], [0.05153422802686691, 0.044554710388183594, 0.05007639899849892, 0.0474148653447628, -0.04111960902810097], [0.03614509478211403, -0.08652254939079285, -0.050800520926713943, -0.006283411756157875, -0.014771676622331142], [-0.03477781265974045, -0.011723369359970093, -0.0449153371155262, -0.002983955666422844, -0.013410172425210476], [0.003846616018563509, -0.055239252746105194, -0.024783164262771606, -0.08989810198545456, -0.007571278605610132]]], [[[-0.028711358085274696, -0.03683698549866676, -0.09865735471248627, 0.006695504300296307, -0.029845640063285828], [-0.09437356144189835, -0.09157601743936539, -0.14838096499443054, -0.07044008374214172, -0.10230181366205215], [-0.1959715634584427, -0.09709673374891281, -0.113971047103405, -0.11885745823383331, -0.15958084166049957], [-0.13928841054439545, -0.10952882468700409, -0.08932379633188248, -0.0866212323307991, -0.013346279971301556], [0.015043743886053562, 0.03239454701542854, -0.018632052466273308, -0.03051803633570671, -0.01666928455233574]], [[0.032303959131240845, 0.03015955165028572, 0.10603539645671844, 0.06695457547903061, 0.09514378756284714], [0.024425264447927475, 0.0011778769548982382, 0.03349103406071663, -0.009474663063883781, -0.007646969985216856], [-0.0010607048170641065, -0.04176213964819908, -0.06782662868499756, 0.015827970579266548, -0.019181814044713974], [0.0032169008627533913, 0.012532087974250317, -0.002389832865446806, 0.046481434255838394, 0.027808139100670815], [0.0797944962978363, 0.08591395616531372, 0.0962052196264267, 0.20213131606578827, 0.10572654753923416]], [[0.004824620205909014, 0.05050621181726456, 0.14974993467330933, 0.11343128979206085, 0.056536972522735596], [0.0027954489924013615, 0.07529348880052567, 0.06384691596031189, 0.11387460678815842, 0.09271657466888428], [0.005109434016048908, 0.08827538043260574, -0.08199137449264526, -0.03192597255110741, -0.04142598435282707], [0.014339219778776169, 0.027342526242136955, 0.058421093970537186, 0.02585202269256115, 0.008597582578659058], [0.04890746995806694, 0.0029504410922527313, 0.07235908508300781, 0.03439197689294815, 0.09526640921831131]]], [[[-0.07160136103630066, -0.054167963564395905, 0.012366562150418758, 0.003762179985642433, 0.03536994382739067], [-0.11108185350894928, -0.11924409121274948, -0.0682162269949913, 0.1271471083164215, 0.041803646832704544], [-0.09993118792772293, -0.1981094777584076, -0.01944931037724018, 0.16450102627277374, 0.0684085562825203], [-0.08849970251321793, -0.12530502676963806, 0.00843419972807169, 0.1451449990272522, 0.04077652469277382], [-0.14450912177562714, 0.006922388914972544, 0.013918635435402393, 0.030153470113873482, 0.031315308064222336]], [[-0.044443849474191666, -0.020683420822024345, 0.059042636305093765, 0.01513284258544445, 0.04686563089489937], [-0.05970490723848343, -0.07781090587377548, 0.05663251504302025, 0.10545852780342102, 0.05128281190991402], [-0.0625549852848053, -0.18159529566764832, 0.07282769680023193, 0.194486603140831, 0.05225762724876404], [-0.06376880407333374, -0.09102698415517807, 0.0872100219130516, 0.2257777750492096, 0.04364869371056557], [-0.03782261535525322, 0.02260391227900982, 0.0940934345126152, 0.10480161011219025, 0.06263568252325058]], [[-0.05586622655391693, -0.08207952231168747, -0.039949286729097366, 0.04219258576631546, -0.012718407437205315], [-0.05263533070683479, -0.09260578453540802, -0.008623233065009117, 0.05904632434248924, 0.04220882058143616], [-0.04060458391904831, -0.13534316420555115, -0.023946544155478477, 0.11009320616722107, 0.0013570442097261548], [0.002060112776234746, -0.08109577745199203, -0.036567434668540955, 0.09478417783975601, 0.07352960109710693], [-0.06902985274791718, 0.016471050679683685, 0.0755302831530571, -0.004631529562175274, -0.05154958367347717]]], [[[-0.03232938423752785, 0.005113204475492239, 0.039259862154722214, 0.08224692195653915, 0.15717081725597382], [-0.043394770473241806, -0.00876691099256277, -0.03612636774778366, 0.0477934293448925, 0.19071678817272186], [-0.020983152091503143, -0.12816664576530457, -0.04887211695313454, 0.047013059258461, 0.170209601521492], [-0.07799305021762848, -0.08345982432365417, -0.0039426470175385475, 0.03228394314646721, 0.12706129252910614], [-0.01270882785320282, 0.01982083171606064, 0.014220739714801311, 0.0944899469614029, 0.0854584127664566]], [[-0.07136017829179764, -0.14558476209640503, -0.09372470527887344, -0.011851271614432335, 0.05337417498230934], [-0.11751743406057358, -0.20193803310394287, -0.13956905901432037, -0.0817921906709671, 0.019403835758566856], [-0.13907209038734436, -0.1589352935552597, -0.07151230424642563, -0.031194789335131645, -0.011052892543375492], [-0.0847940742969513, -0.11266056448221207, -0.09494248777627945, -0.03400896117091179, -0.016757937148213387], [-0.051302649080753326, -0.04760061949491501, -0.04130103439092636, 0.0023176802787929773, 0.04916878789663315]], [[0.0006179724587127566, -0.049993909895420074, 0.06462441384792328, 0.017810191959142685, 0.05217370763421059], [-0.021183252334594727, -0.05802321061491966, -0.026726076379418373, 0.06463471800088882, 0.038823120296001434], [-0.10111773014068604, -0.1276065707206726, -0.013811560347676277, -0.008021936751902103, 0.13414424657821655], [-0.03423113748431206, -0.0004962961538694799, -0.019883956760168076, 0.05465614050626755, 0.12076854705810547], [0.026051919907331467, 0.049792543053627014, 0.07356786727905273, 0.1113600805401802, 0.14588412642478943]]], [[[0.12090791016817093, -0.004065230488777161, -0.09139585494995117, -0.11228596419095993, -0.08206337690353394], [-0.05462561547756195, -0.10531533509492874, -0.17277787625789642, -0.1462794840335846, -0.11012662947177887], [-0.048369623720645905, -0.039950910955667496, -0.1024051159620285, -0.11702442169189453, -0.11761752516031265], [0.010855014435946941, 0.01928074285387993, 0.1237022876739502, 0.10283451527357101, 0.04990219697356224], [-0.011126399040222168, 0.09562239050865173, 0.14252431690692902, 0.14005352556705475, 0.12460416555404663]], [[0.02926701121032238, -0.0730476826429367, -0.09864682704210281, -0.09344564378261566, -0.09288735687732697], [-0.039082929491996765, -0.10482289642095566, -0.09051889926195145, -0.13955876231193542, -0.1321919560432434], [-0.012193286791443825, -0.08791381120681763, 0.02521275170147419, -0.04367734119296074, -0.06826531887054443], [0.03905361518263817, 0.019013524055480957, 0.14837917685508728, 0.06160594895482063, 0.07308123260736465], [0.08370967954397202, 0.1551067978143692, 0.1525271236896515, 0.12281689792871475, 0.11117012053728104]], [[0.022743789479136467, -0.011759343557059765, -0.09711655229330063, -0.028275126591324806, -0.0027112984098494053], [-0.006182403769344091, -0.16721391677856445, -0.13979783654212952, -0.0441913865506649, -0.016548076644539833], [-0.07470743358135223, -0.05842609703540802, -0.07389283180236816, -0.10624578595161438, 0.027210647240281105], [0.08602706342935562, 0.027814891189336777, 0.09130223095417023, 0.08219702541828156, -0.007895219139754772], [0.11420287936925888, 0.07581821084022522, 0.14329440891742706, 0.062155891209840775, 0.11457935720682144]]]], "conv1.bias": [0.14262709021568298, -0.07749948650598526, 0.09028696268796921, 0.11440855264663696, -0.07746545225381851, 0.0896328017115593], "conv2.weight": [[[[0.04154539480805397, 0.059317607432603836, 0.02941814251244068, 0.025047436356544495, 0.07012702524662018], [0.036292895674705505, 0.017352545633912086, -0.011217121966183186, 0.035220660269260406, 0.07550355792045593], [-0.02906130999326706, 0.040464889258146286, 0.04540718346834183, 0.046885691583156586, 0.11644334346055984], [0.02371774986386299, 0.08734496682882309, 0.07261517643928528, 0.11618885397911072, 0.10646187514066696], [0.11516664177179337, 0.14252981543540955, 0.07530877739191055, 0.12839438021183014, 0.1736321896314621]], [[0.04173213988542557, 0.04824395105242729, 0.013989520259201527, -0.02129346691071987, -0.05422002822160721], [0.052072227001190186, 0.004237352404743433, -0.09217635542154312, -0.1375487744808197, -0.043043069541454315], [0.015448316000401974, -0.040414758026599884, -0.07162788510322571, -0.02225576899945736, -0.03360901400446892], [-0.034531816840171814, 0.001927333534695208, 0.046663422137498856, -0.019781650975346565, 0.02077765204012394], [0.024051325395703316, 0.040168728679418564, 0.09449493885040283, -0.0056324489414691925, -0.02348548360168934]], [[-0.0027503001037985086, 0.046716999262571335, 0.03829067572951317, -0.010954073630273342, 0.03185342624783516], [-0.0017597888363525271, 0.010198301635682583, 0.0179117564111948, 0.006063769105821848, -0.02232106402516365], [-0.016034886240959167, -0.007196666207164526, -0.018478794023394585, -0.0024605821818113327, 0.03740039840340614], [0.04030701518058777, -0.0011699141468852758, -0.006364051252603531, 0.023340793326497078, 0.08875642716884613], [0.04884909465909004, 0.047579918056726456, 0.007948692888021469, 0.0077714258804917336, 0.07664273679256439]], [[-0.03656865656375885, -0.038602590560913086, 0.054675742983818054, 0.07949847728013992, 0.030615920200943947], [-0.09859053790569305, -0.020240675657987595, -0.003522471757605672, 0.029849467799067497, -0.009386830031871796], [-0.031008439138531685, -0.005618497729301453, 0.01167233195155859, -0.0637403279542923, -0.12951475381851196], [0.009897984564304352, 0.012243479490280151, -0.0455019474029541, -0.10683485865592957, -0.12627093493938446], [-0.022663526237010956, -0.03697754070162773, -0.042557720094919205, -0.05609799176454544, -0.12894408404827118]], [[-0.0180559940636158, -0.06526792794466019, -0.0021735518239438534, 0.0726034939289093, -0.01964731141924858], [-0.04780173301696777, 0.04810295253992081, 0.08923221379518509, 0.05198075994849205, -0.0393218956887722], [0.036154162138700485, 0.02474544756114483, 0.03060879372060299, -0.05968153104186058, -0.10978826880455017], [0.062452226877212524, 0.02446829527616501, -0.06655727326869965, -0.045007552951574326, -0.1154097393155098], [0.0253240168094635, -0.0029663441237062216, -0.10563116520643234, -0.0992586612701416, -0.1810511350631714]], [[-0.02292858622968197, -0.0576060451567173, -0.015351052395999432, 0.053566206246614456, -0.004595994483679533], [-0.015066109597682953, 0.06191151589155197, -0.03267482668161392, -0.01471329852938652, -0.03357253968715668], [-0.002379375509917736, 0.029861832037568092, 0.02381308749318123, -0.03729423135519028, -0.009426656179130077], [0.023583032190799713, -0.004895397927612066, -0.0654948279261589, -0.03485407307744026, -0.00983760878443718], [-0.032976534217596054, -0.06466475129127502, -0.0755472332239151, -0.0622345395386219, -0.06561267375946045]]], [[[-0.020945848897099495, 0.02090238407254219, 0.038252513855695724, 0.004897459410130978, 0.0015735281631350517], [0.008205276913940907, 0.005872233305126429, -0.046351704746484756, 0.01512388326227665, 0.09051519632339478], [0.03943575173616409, -0.06109519675374031, 0.008402673527598381, 0.01935361512005329, 0.06447549164295197], [0.029726721346378326, -0.010177330113947392, -0.01244241651147604, -0.016914894804358482, 0.05346331372857094], [0.024080663919448853, 0.022176718339323997, -0.016593944281339645, -0.006421955768018961, -0.03728596866130829]], [[0.04671819508075714, 0.049014750868082047, 0.03962182626128197, 0.03347506374120712, 0.03355947136878967], [-0.00031716967350803316, 0.04434272646903992, 0.035905513912439346, 0.010492498986423016, 0.024896539747714996], [0.01987895369529724, 0.028360754251480103, 0.017995016649365425, -0.009187692776322365, 0.04169701039791107], [0.02006230130791664, -0.09771983325481415, -0.05344909802079201, -0.002397702308371663, 0.0210642758756876], [-0.111838199198246, -0.041049834340810776, -0.06482250988483429, 0.014233825728297234, 0.03345269709825516]], [[-0.17799456417560577, -0.20791782438755035, -0.1337576061487198, -0.149698406457901, -0.06217868998646736], [-0.14389553666114807, -0.2269688993692398, -0.1553361415863037, -0.10306651890277863, -0.053708769381046295], [-0.1284448653459549, -0.18407121300697327, -0.132633239030838, -0.05648339167237282, -0.12758146226406097], [-0.06121623143553734, -0.20744358003139496, -0.21654970943927765, -0.10379742085933685, -0.0691257193684578], [-0.10732301324605942, -0.1976201981306076, -0.19834455847740173, -0.1400974690914154, -0.13686569035053253]], [[-0.04426443204283714, -0.0020632080268114805, 0.04654937610030174, -0.008943255990743637, -0.03811110556125641], [-0.08719157427549362, 0.0424363799393177, 0.08255456387996674, 0.006331336218863726, -0.02283121459186077], [-0.01853245310485363, 0.03373205289244652, 0.016075244173407555, 0.004725007340312004, 0.0009477274143137038], [0.10390159487724304, 0.08628492802381516, -0.03545800596475601, -0.044276975095272064, 0.035325635224580765], [0.13236021995544434, 0.13203276693820953, -0.013284247368574142, -0.009946927428245544, -0.015702972188591957]], [[-0.024326149374246597, 0.007889727130532265, 0.06286220997571945, -0.013591892085969448, -0.04353820160031319], [-0.06792556494474411, -0.028846830129623413, 0.00839858129620552, 0.06293881684541702, -0.040517475455999374], [-0.03968750685453415, 0.03117317333817482, -0.01843678019940853, -0.03143797814846039, -0.01604081131517887], [0.014345986768603325, 0.022538740187883377, -0.054334498941898346, -0.061699651181697845, -0.005272299516946077], [0.11263076961040497, 0.07387267798185349, -0.07020851224660873, -0.04193101450800896, -0.05014605447649956]], [[-0.04440925270318985, -0.0034657062496989965, 0.061678752303123474, 0.06416670233011246, 0.057461123913526535], [-0.06360124796628952, 0.06305959075689316, 0.05287669971585274, 0.0453045517206192, 0.0015652509173378348], [-0.02127842977643013, -0.005957437213510275, 0.057736266404390335, -0.05729617178440094, -0.01712450571358204], [0.006207910366356373, -0.005647757556289434, -0.012813467532396317, -0.00853805337101221, -0.014566394500434399], [0.009854025207459927, -0.06284180283546448, -0.05521241948008537, 0.008854466490447521, 0.04248804226517677]]], [[[-0.032973602414131165, -0.008405867032706738, -0.016200575977563858, -0.07599025219678879, -0.0693756639957428], [-0.012300974689424038, 0.015386287122964859, 0.0054452200420200825, -0.08834889531135559, -0.06451348960399628], [0.01403695810586214, -0.0052165621891617775, 0.01672358438372612, -0.013517212122678757, -0.04622100293636322], [0.06855559349060059, 0.05091457441449165, 0.06397852301597595, 0.03832074627280235, 0.05276704952120781], [0.03887099772691727, -0.016656221821904182, 0.07885462045669556, 0.044288519769907, 0.04263708367943764]], [[0.015197223983705044, 0.010896111838519573, 0.0637165978550911, 0.032647471874952316, 0.008693568408489227], [-0.006698821671307087, -0.005539424251765013, 0.04430346190929413, -0.024774430319666862, 0.004430284723639488], [-0.0872199535369873, -0.05112742260098457, -0.009958951734006405, -0.0010618213564157486, -0.025768326595425606], [-0.1288193017244339, -0.10207825899124146, -0.06061984598636627, -0.010589567944407463, -0.03653128817677498], [-0.10286020487546921, -0.1115809828042984, -0.03844531998038292, -0.03319766744971275, 0.056633275002241135]], [[0.0991818904876709, 0.05660519748926163, -0.025119155645370483, -0.058796074241399765, -0.02494809590280056], [0.04870760813355446, 0.04686835780739784, 0.014888273552060127, -0.009080341085791588, -0.05774783715605736], [0.056009840220212936, 0.018175380304455757, -0.0014102571876719594, -0.12154707312583923, -0.08319202065467834], [-0.02366582490503788, -0.04877198487520218, -0.15039090812206268, -0.1620892584323883, -0.16761109232902527], [-0.055884141474962234, -0.03989396244287491, -0.12317997962236404, -0.14120659232139587, -0.21153339743614197]], [[0.11366552114486694, 0.14817941188812256, -0.0712876170873642, -0.012870967388153076, 0.010078003630042076], [0.11088993400335312, 0.1775679737329483, -0.06958478689193726, 0.044640567153692245, 0.030320364981889725], [0.07567858695983887, 0.18938568234443665, -0.04098333790898323, 0.048681002110242844, 0.12785334885120392], [0.07150255888700485, 0.12138687074184418, -0.11673011630773544, -0.01681393012404442, 0.06900536268949509], [0.04367959499359131, 0.028308067470788956, -0.11020727455615997, -0.05422258749604225, 0.006015147548168898]], [[0.14462465047836304, 0.12075845152139664, -0.008599109947681427, 0.02853286825120449, 0.042135730385780334], [0.14541354775428772, 0.10356435924768448, -0.05442213639616966, 0.06082320585846901, 0.061050895601511], [0.0563054122030735, 0.05534486472606659, -0.06449104100465775, 0.027444373816251755, 0.06035017967224121], [0.0011189423967152834, 0.06301195919513702, -0.11837019771337509, 0.059703629463911057, 0.05381877347826958], [-0.046333394944667816, -0.04255988076329231, -0.1470491588115692, 0.006283471826463938, 0.011658471077680588]], [[0.08195377141237259, 0.10363680124282837, 0.12489833682775497, 0.05743403732776642, 0.05796973407268524], [0.004613089375197887, 0.048859853297472, 0.03281734883785248, 0.024146921932697296, -0.015454727225005627], [0.01675575040280819, -0.04653170332312584, -0.01902056112885475, -0.023862166330218315, 0.03047758899629116], [-0.09595847129821777, -0.14371852576732635, -0.061249345541000366, -0.018750546500086784, -0.02279331162571907], [-0.08585990220308304, -0.13320718705654144, -0.06436493247747421, -0.05737055093050003, -0.08665362000465393]]], [[[-0.03800107538700104, -0.020530376583337784, 0.028779078274965286, 0.0072912429459393024, -0.015478376299142838], [0.014532769098877907, 0.04482356458902359, -0.04317302629351616, 0.060562897473573685, -0.00888154748827219], [-0.005701116751879454, -0.028144024312496185, -0.06002182886004448, 0.030795099213719368, -0.016350947320461273], [-0.052342575043439865, -0.14235737919807434, -0.11329424381256104, -0.04301872104406357, -0.10937172919511795], [-0.15912476181983948, -0.12477166950702667, -0.11721234023571014, -0.16703873872756958, -0.13063707947731018]], [[-0.030813543125987053, -0.0018082777969539165, -0.04940657317638397, -0.03427031636238098, -0.044639796018600464], [-0.08084215968847275, -0.05077335610985756, -0.05910765379667282, -0.0024380835238844156, 0.017804579809308052], [-0.020127076655626297, 0.011382735334336758, -0.053583595901727676, 0.06494097411632538, 0.06846215575933456], [0.008079692721366882, 0.048045866191387177, 0.0692373737692833, 0.04264100268483162, 0.047454722225666046], [-0.008963286876678467, 0.02264256402850151, 0.04040897265076637, 0.01293944288045168, 0.009605415165424347]], [[-0.012490685097873211, -0.06297393888235092, 0.038009047508239746, -0.024436498060822487, -0.04674764722585678], [0.0002185436460422352, -0.023407695814967155, 0.054430801421403885, 0.00015197033644653857, 0.06731802970170975], [-0.041045669466257095, 0.00020721781766042113, 0.0089722890406847, -0.01981743983924389, -0.09794747829437256], [0.018567049875855446, -0.0018607012461870909, 0.052073437720537186, 0.043306730687618256, 0.013668883591890335], [-0.06840597093105316, -0.08751406520605087, -0.008125847205519676, -0.021090177819132805, 0.0017738665919750929]], [[0.06924934685230255, 0.07618395239114761, 0.07635010778903961, 0.05530395358800888, 0.05639472231268883], [0.10499316453933716, 0.10758800059556961, 0.13494928181171417, 0.10299621522426605, 0.0923113226890564], [0.14769722521305084, 0.10372094064950943, 0.1069093644618988, -0.020288817584514618, 0.09112215042114258], [0.08654945343732834, 0.007113039493560791, 0.07241333276033401, 0.048069484531879425, 0.1166108101606369], [0.11846842616796494, 0.053588833659887314, 0.09837260842323303, 0.04981544613838196, 0.09922149032354355]], [[-0.1022067442536354, -0.07342541962862015, -0.08876601606607437, -0.0867973193526268, -0.03729115426540375], [-0.101115882396698, -0.07953979074954987, -0.09136263281106949, -0.08253459632396698, 0.001440617605112493], [-0.0895618200302124, -0.1402265429496765, -0.20589232444763184, -0.16070502996444702, -0.0602402463555336], [-0.09927605092525482, -0.22539733350276947, -0.15796992182731628, -0.11336857825517654, -0.009868944995105267], [-0.13533887267112732, -0.15226374566555023, -0.11894840747117996, -0.08345643430948257, -0.028930779546499252]], [[0.04455573856830597, 0.011984013020992279, 0.03779519721865654, 0.024344144389033318, 0.06696910411119461], [0.02365153282880783, 0.041779547929763794, 0.04060767590999603, 0.07572939246892929, 0.0757717415690422], [-0.03695801645517349, -0.019290318712592125, -0.07549940049648285, -0.07841682434082031, -0.030655406415462494], [0.016033988445997238, 0.011197850108146667, 0.025366855785250664, 0.020368138328194618, 0.015204283408820629], [0.03815200552344322, 0.02576296404004097, 0.07352873682975769, 0.10763480514287949, 0.07861146330833435]]], [[[-0.017045389860868454, 0.004371113143861294, 0.00874073151499033, 0.024268094450235367, 0.0134913120418787], [-0.005806370172649622, 0.06447123736143112, 0.04520647972822189, 0.060318320989608765, 0.04372706264257431], [0.0055784438736736774, 0.04217609390616417, 0.015311935916543007, -0.040716513991355896, -0.00859775673598051], [-0.0010723693994805217, 0.0036392256151884794, -0.04744914546608925, -0.06773656606674194, 0.008967053145170212], [-0.06988977640867233, -0.16128511726856232, -0.11279529333114624, -0.06793831288814545, -0.0461350679397583]], [[0.021343501284718513, 0.06315645575523376, 0.08258595317602158, 0.09151820838451385, 0.16171149909496307], [0.05113247409462929, 0.08606621623039246, 0.12131983786821365, 0.07642999291419983, 0.07800250500440598], [0.07351522147655487, 0.09747650474309921, 0.12616875767707825, 0.04767882078886032, 0.08672968298196793], [0.03888097405433655, -0.028157470747828484, -0.0624624602496624, -0.02591557614505291, -0.025312254205346107], [0.009039157070219517, -0.07514408975839615, -0.01744498871266842, 0.023438356816768646, 0.05146556347608566]], [[-0.05938970297574997, -0.026981130242347717, -0.027754638344049454, -0.024939225986599922, -0.06291685998439789], [-0.05474739894270897, -0.02468365617096424, -0.02131374552845955, 0.005126648116856813, -0.014918502420186996], [0.018491163849830627, 0.005909153260290623, 0.02230096235871315, -0.01240994781255722, -0.03955775871872902], [0.05322159826755524, 0.06629310548305511, 0.055845871567726135, 0.04068658873438835, -0.005643942393362522], [0.042305685579776764, 0.06598061323165894, -0.0015482977032661438, -0.01606564223766327, -0.006919549778103828]], [[0.127589613199234, 0.14229078590869904, 0.00400911271572113, 0.058941829949617386, 0.026343941688537598], [0.0754450261592865, 0.08112496137619019, -0.03091593086719513, 0.07357335835695267, 0.06919592618942261], [-0.019682956859469414, 0.002709830878302455, -0.03028125874698162, 0.022642457857728004, 0.02694065310060978], [-0.03879774734377861, -0.009750661440193653, -0.08456534147262573, -0.016993587836623192, 0.05518299713730812], [-0.03750915452837944, -0.08026352524757385, -0.14513817429542542, -0.13945326209068298, -0.03570074215531349]], [[0.11720840632915497, 0.034698449075222015, -0.05271827057003975, -0.03264062851667404, -0.0012366767041385174], [0.025349818170070648, 0.013773300684988499, -0.05975713953375816, -0.03328193351626396, -0.0633942112326622], [0.04864906147122383, 0.03359242156147957, 0.03219622001051903, 0.0823996439576149, 0.006273448932915926], [0.03847917169332504, -0.0019258956890553236, 0.0010879571782425046, 0.0028199816588312387, -0.07183120399713516], [-0.002121256897225976, 0.0060088178142905235, -0.015791885554790497, -0.03663497790694237, -0.03197519853711128]], [[0.01181128527969122, -0.008902270346879959, 0.018960272893309593, -0.002107787411659956, 0.0024542564060539007], [0.0030450434423983097, 0.008031279779970646, -0.016914483159780502, 0.021197449415922165, 0.04751475900411606], [0.024571599438786507, 0.017649153247475624, 0.010214583948254585, 0.0344061478972435, 0.008566735312342644], [0.02639945223927498, 0.0653860941529274, -0.006345899775624275, 0.058526430279016495, -0.018284913152456284], [0.04799366742372513, -0.0012544681085273623, 0.016344496980309486, -0.04021717607975006, -0.07855413109064102]]], [[[0.012274987064301968, 0.010937407612800598, 0.0202944278717041, -0.06068786233663559, -0.03719198331236839], [0.01866469345986843, 0.041013140231370926, -0.03957069292664528, -0.17310817539691925, 0.00016951453289948404], [0.00966374110430479, -0.05411957949399948, -0.11492334306240082, -0.13059213757514954, -0.02789580449461937], [-0.005240312777459621, -0.07997637987136841, -0.04116262122988701, -0.08910857141017914, -0.05774956941604614], [0.012851362116634846, -0.08509018272161484, -0.09094864875078201, -0.059720732271671295, -0.047201015055179596]], [[0.03375856205821037, 0.02117753028869629, 0.03817150369286537, -0.035985808819532394, -0.011083869263529778], [0.02545548975467682, 0.05394528806209564, -0.06168351694941521, -0.11841604113578796, -0.07073190808296204], [0.07380557805299759, -0.06758350878953934, -0.15194807946681976, -0.13598252832889557, -0.03243614733219147], [-0.010865651071071625, -0.1133197620511055, -0.07915457338094711, -0.09687257558107376, 0.017090056091547012], [-0.015337402001023293, -0.06427542865276337, -0.07918579131364822, -0.0890861451625824, -0.024109521880745888]], [[0.05469077453017235, -0.02608567476272583, -0.028169652447104454, -0.008580435998737812, 0.05802690610289574], [0.038119614124298096, -0.014357654377818108, -0.039185404777526855, -0.02798992395401001, 0.10530246794223785], [-0.007049371488392353, -0.025052327662706375, -0.08023111522197723, 0.010140187107026577, -0.002001841552555561], [-0.015935000032186508, -0.0744103193283081, -0.08449574559926987, -0.019223487004637718, 0.0013513308949768543], [-0.025745466351509094, -0.05376416817307472, -0.03512609377503395, -0.02492082677781582, 0.06521961838006973]], [[-0.01954069547355175, -0.05140570178627968, -0.058900970965623856, 0.05719222128391266, 0.09130688011646271], [-0.007801607716828585, -0.013632496818900108, -0.021993910893797874, 0.09013089537620544, 0.04869099333882332], [-0.003878249553963542, 0.019748372957110405, 0.07174514979124069, -0.006605950649827719, 0.00746479257941246], [-0.030635904520750046, 0.03469569981098175, 0.009256193414330482, -0.017010565847158432, -0.03188808262348175], [0.049262359738349915, 0.10035232454538345, 0.022439271211624146, -0.03487980365753174, -0.04958900809288025]], [[-0.02985944226384163, -0.04683087393641472, 0.010871995240449905, 0.021959887817502022, 0.09599271416664124], [-0.07364149391651154, 0.005515254568308592, 0.05938078463077545, 0.058771371841430664, 0.05515938997268677], [-0.031484946608543396, -0.03876311704516411, 0.00693499157205224, -0.0146859809756279, -0.0229356586933136], [-0.008612205274403095, 0.015115320682525635, -0.01112330425530672, -0.03261211887001991, -0.06331699341535568], [-0.0013675530208274722, -0.012085989117622375, -0.06533114612102509, -0.07414694130420685, -0.06568244844675064]], [[0.04866115003824234, 0.01045097317546606, 0.006118570454418659, 0.10356246680021286, 0.08411114662885666], [0.015256332233548164, 0.033073343336582184, 0.052179764956235886, 0.02830742672085762, 0.03568072244524956], [0.026834068819880486, 0.053618162870407104, 0.08216866850852966, 0.072774238884449, 0.0010371492244303226], [-0.030379867181181908, -0.014364585280418396, 0.0023777829483151436, 0.04141465947031975, 0.01037693303078413], [0.025223761796951294, 0.021717041730880737, 0.015410357154905796, 0.028040612116456032, 0.03507779538631439]]], [[[0.05649572238326073, 0.12241873890161514, 0.06860474497079849, 0.054102711379528046, 0.07262178510427475], [0.026548421010375023, 0.0618077777326107, 0.0374838188290596, 0.02407974936068058, 0.052112478762865067], [-0.050639793276786804, -0.010700882412493229, 0.013704786077141762, -0.010933083482086658, -0.047446027398109436], [-0.10549752414226532, -0.05543578043580055, -0.025130024179816246, -0.039208997040987015, -0.06773886829614639], [0.010380717925727367, -0.06055578589439392, -0.06885312497615814, -0.12009462714195251, -0.04421883448958397]], [[0.03475809842348099, -0.003323934506624937, -0.023384230211377144, -0.08253824710845947, -0.04746128246188164], [0.05468141660094261, 0.011989605613052845, -0.0474817268550396, -0.09437301754951477, -0.021650422364473343], [0.01804230734705925, 0.019570495933294296, 0.02378438226878643, -0.05988802760839462, -0.03401141241192818], [-0.015379253774881363, 0.012856489047408104, 0.025899073109030724, -0.019392341375350952, -0.01612049527466297], [-0.046226534992456436, -0.017893031239509583, 0.040240053087472916, -0.002504403702914715, 0.037080444395542145]], [[-0.051465414464473724, 0.03152516484260559, 0.04397072270512581, 0.11413000524044037, 0.16106833517551422], [-0.011333681643009186, 0.051890693604946136, 0.048092760145664215, 0.09048806875944138, 0.1234554648399353], [-0.10134251415729523, -0.08343882858753204, -0.01896831765770912, 0.002468310995027423, 0.054595500230789185], [-0.20790287852287292, 0.055013395845890045, 0.020801037549972534, 0.058974187821149826, 0.00930358748883009], [-0.1831667572259903, -0.008838205598294735, 0.05237874016165733, 0.06258560717105865, 0.0385289303958416]], [[-0.02561330236494541, -0.06417591124773026, -0.08482518047094345, -0.138615682721138, -0.12286222726106644], [0.07195723801851273, -8.886744763003662e-05, -0.12161488831043243, -0.1639416366815567, -0.1063583493232727], [0.07253541797399521, 0.015047380700707436, -0.09651028364896774, -0.1610531210899353, -0.06932659447193146], [-0.07965908944606781, -0.03267915919423103, -0.10577865689992905, -0.13743959367275238, -0.039700236171483994], [-0.041716933250427246, -0.02791394293308258, -0.08943342417478561, -0.09724069386720657, -0.04558940604329109]], [[0.1156199648976326, 0.00309210573323071, 0.020464448258280754, -0.028874576091766357, 0.10976416617631912], [0.07435780763626099, 0.05423374101519585, 0.00207137200050056, -0.023600950837135315, 0.027944650501012802], [0.027135707437992096, 0.04005194455385208, -0.037969812750816345, -0.02600911445915699, 0.07358415424823761], [0.017349790781736374, 0.08304580301046371, -0.0545223243534565, 0.02596067637205124, 0.0528256893157959], [0.022724874317646027, 0.07394600659608841, 0.0437655970454216, 0.023565778508782387, 0.057837940752506256]], [[0.012923989444971085, -0.06120850890874863, -0.06456001102924347, -0.13437394797801971, -0.023293308913707733], [0.06626365333795547, -0.010755693539977074, -0.043891627341508865, -0.05974430963397026, 0.010725199244916439], [0.1986876279115677, 0.04884636029601097, -0.059866391122341156, -0.00741899199783802, 0.087335005402565], [0.20640064775943756, 0.17118564248085022, 0.07964875549077988, 0.02110433764755726, -0.024886054918169975], [0.1989118754863739, 0.175111323595047, 0.19547243416309357, 0.06831781566143036, -0.005721264984458685]]], [[[-0.09102288633584976, -0.08048024773597717, -0.1113937720656395, 0.0310338344424963, -0.0070627303794026375], [-0.06380865722894669, -0.061211369931697845, -0.04230789467692375, 0.045407794415950775, 0.030825300142169], [-0.038117580115795135, -0.05120069906115532, -0.005921203643083572, -0.024999268352985382, -0.005663057789206505], [0.0006744888960383832, 0.012940160930156708, 0.010476559400558472, 0.023250777274370193, 0.044174253940582275], [0.11016480624675751, 0.10098409652709961, 0.08368273824453354, 0.12462808191776276, 0.14508724212646484]], [[-0.05728338286280632, -0.11828086525201797, -0.13702811300754547, 0.008529447950422764, 0.07881907373666763], [-0.12061408162117004, -0.1396195888519287, 0.054659534245729446, 0.10991805046796799, 0.11042893677949905], [-0.10243017971515656, -0.02362990751862526, 0.06871595233678818, 0.14105252921581268, 0.008655526675283909], [-0.019389398396015167, -0.025310933589935303, -0.014428593218326569, -0.03737199306488037, -0.07285479456186295], [-0.0590030811727047, -0.07604996860027313, -0.15580524504184723, -0.12181233614683151, -0.05829436704516411]], [[-0.06526505947113037, -0.04008447378873825, -0.03887864574790001, -0.07241642475128174, -0.01344915758818388], [-0.014584044925868511, -0.10856938362121582, -0.01196889765560627, -0.007699294947087765, 0.06291841715574265], [-0.12409043312072754, -0.13417625427246094, 0.005166135728359222, -0.0014537174720317125, 0.07769159972667694], [-0.11662965267896652, -0.08896991610527039, 0.023964406922459602, 0.05560700222849846, 0.02134801633656025], [-0.035850971937179565, -0.036480292677879333, 0.05031129717826843, 0.0018180166371166706, 0.04831031709909439]], [[0.048939745873212814, 0.08899465948343277, 0.17966869473457336, 0.011212227866053581, -0.09703034162521362], [0.14662493765354156, 0.09537333250045776, 0.07396875321865082, -0.09192497283220291, -0.07518716901540756], [0.10392315685749054, 0.04030879586935043, -0.021406389772892, -0.09844493865966797, 0.06313260644674301], [0.06737817078828812, -0.126014843583107, -0.06565675884485245, -0.009801114909350872, 0.068763367831707], [-0.00707588717341423, -0.04111775755882263, 0.02981255203485489, -0.005650046747177839, 0.01339766662567854]], [[0.06167420372366905, 0.03507125377655029, 0.11332789808511734, -0.07008757442235947, -0.15120314061641693], [0.09051987528800964, 0.032558053731918335, 0.023172350600361824, -0.13654913008213043, -0.028726473450660706], [0.02188069559633732, -0.10395926982164383, -0.16890960931777954, -0.03658569976687431, 0.1437256783246994], [0.02157602645456791, -0.017797626554965973, 0.06054507941007614, 0.06383822858333588, 0.11104756593704224], [0.042898520827293396, 0.012549255043268204, 0.06875725090503693, 0.05302445590496063, 0.07580244541168213]], [[-0.06089557707309723, 0.012340147979557514, -0.012056849896907806, -0.026071354746818542, -0.07619915157556534], [-0.010313913226127625, -0.00819756556302309, -0.1240961030125618, -0.11478141695261002, 0.0757252648472786], [-0.024827955290675163, -0.17472520470619202, -0.09695006161928177, 0.004378382582217455, 0.13931366801261902], [-0.11299534142017365, -0.04702449589967728, 0.04689861088991165, 0.06126759946346283, 0.033028144389390945], [-0.05174868181347847, 0.04354553297162056, 0.07168757170438766, 0.052650243043899536, -0.0029806699603796005]]], [[[-0.041173215955495834, -0.07683315128087997, -0.04982293024659157, -0.07383738458156586, -0.06009814515709877], [-0.028046684339642525, -0.048396654427051544, -0.013418172486126423, -0.016134053468704224, 0.01668984442949295], [-0.06907764077186584, -0.04050220176577568, -0.03572062775492668, -0.021610435098409653, -0.03678349778056145], [0.005816916469484568, -0.032062921673059464, -0.01893373392522335, -0.030117442831397057, -0.01927390694618225], [-0.027360843494534492, -0.035293594002723694, -0.01586890034377575, 0.034338273108005524, 0.05129748210310936]], [[0.06641539931297302, 0.05850205570459366, 0.0039809755980968475, 0.0017492257757112384, 0.04593721777200699], [0.06397447735071182, 0.03601323068141937, -0.005672557279467583, 0.011173862032592297, 0.07697917520999908], [-0.016864970326423645, 0.017356092110276222, 0.008452747948467731, 0.0020748896058648825, 0.05732453987002373], [0.1011350154876709, 0.1020062267780304, 0.13795316219329834, 0.11601937562227249, 0.11364508420228958], [0.052927415817976, 0.009120987728238106, 0.05048173666000366, 0.10512840747833252, 0.1430562138557434]], [[-0.026915540918707848, -0.011561280116438866, 0.01705644652247429, -0.049186743795871735, -0.05542224645614624], [0.08833768963813782, 0.02077791839838028, 0.031242381781339645, -0.0026117877569049597, 0.0310148224234581], [0.02750246971845627, 0.021454935893416405, 0.028039252385497093, 0.06011086329817772, -0.0017729231622070074], [-0.027788951992988586, -0.046259455382823944, -0.026316707953810692, -0.07162510603666306, -0.058618735522031784], [0.13389813899993896, 0.16717655956745148, 0.13432584702968597, 0.1193423792719841, 0.09364471584558487]], [[0.005037565249949694, -0.05112982913851738, -0.025790583342313766, -0.10051905363798141, -0.11492682993412018], [-0.008878540247678757, -0.040850505232810974, -0.08614828437566757, -0.09551271796226501, -0.024142976850271225], [-0.013734540902078152, 0.05829160287976265, -0.03646264597773552, -0.061480261385440826, -0.028016285970807076], [-0.0997476577758789, -0.012726718559861183, -0.03521982580423355, -0.035025134682655334, 0.003233519848436117], [-0.1401052474975586, -0.04498983174562454, -0.014744596555829048, -0.0275628212839365, 0.00767694553360343]], [[-0.006305051036179066, -0.0023547583259642124, -0.01031136978417635, -0.11651603132486343, -0.046336013823747635], [0.0025555144529789686, 0.01692209020256996, -0.015531645156443119, -0.011158119887113571, 0.004265599884092808], [0.043974146246910095, 0.09063910692930222, 0.033265646547079086, -0.011697028763592243, 0.03092317096889019], [-0.017551235854625702, 0.011966212652623653, 0.033599067479372025, 0.013590754941105843, -0.011496536433696747], [-0.020556610077619553, 0.09527543187141418, 0.10060999542474747, 0.14384345710277557, 0.08907493203878403]], [[-0.05147818103432655, -0.028224794194102287, -0.03384733572602272, -0.07294143736362457, -0.08875762671232224], [0.0045855180360376835, -0.06091076880693436, -0.018629588186740875, -0.08778074383735657, -0.006216534413397312], [0.014399207197129726, 0.04052247852087021, 0.0008426098502241075, -0.005512764677405357, 0.01445662323385477], [-0.07017383724451065, -0.004256564658135176, -0.04095122963190079, 0.059383295476436615, 0.021680157631635666], [0.06570649892091751, 0.10909842699766159, 0.09370080381631851, 0.09407329559326172, 0.06857376545667648]]], [[[-0.037489671260118484, -0.01395450159907341, -0.03439357504248619, 0.016415681689977646, -0.022318843752145767], [-0.0755993127822876, -0.10450263321399689, -0.011212301440536976, -0.06658248603343964, -0.02936526946723461], [-0.14445005357265472, -0.02084667608141899, 0.03191034868359566, 0.017239496111869812, -0.0669390931725502], [-0.0343935564160347, 0.04212847352027893, 0.03431592881679535, 0.0044988906010985374, 0.02956433594226837], [0.026611328125, 0.0343916229903698, 0.009245764464139938, 0.018859554082155228, 0.07137569785118103]], [[0.11711952090263367, 0.04858927056193352, 0.0385822132229805, 0.018880460411310196, 0.05455709993839264], [-0.03962400183081627, -0.06982104480266571, -0.15199856460094452, -0.11711344867944717, -0.14129947125911713], [-0.052580904215574265, -0.03136743605136871, 0.04166264086961746, 0.03430565819144249, -0.02106878161430359], [0.032159868627786636, 0.04901334270834923, 0.0854518860578537, 0.046775493770837784, -0.01301124319434166], [0.08082515001296997, 0.080228790640831, 0.08941054344177246, 0.024718793109059334, 0.07396650314331055]], [[0.020769162103533745, 0.040354009717702866, 0.063219353556633, 0.01560632511973381, 0.061539892107248306], [0.10134037584066391, 0.12267259508371353, 0.15679752826690674, 0.1488405168056488, 0.08771191537380219], [0.05505991727113724, 0.034589674323797226, 0.024494435638189316, 0.009121378883719444, -0.011638033203780651], [-0.029298238456249237, -0.02226174809038639, -0.06837262213230133, -0.03930097073316574, -0.023872127756476402], [-0.030671752989292145, -0.007179722189903259, -0.056782759726047516, 0.02230985462665558, -0.008719348348677158]], [[0.014633660204708576, -0.06381745636463165, 0.06536337733268738, 0.017974475398659706, 0.06199205294251442], [0.01289514172822237, 0.04579035937786102, 0.06507062911987305, 0.0005601103184744716, -0.04010407254099846], [0.049978964030742645, 0.024968935176730156, -0.012740968726575375, -0.041722703725099564, -0.12461908161640167], [0.013968308456242085, -0.09923308342695236, -0.16786734759807587, -0.12917421758174896, -0.09918008744716644], [-0.04323844239115715, -0.1220833882689476, -0.1649979054927826, -0.16152049601078033, -0.08583659678697586]], [[-0.020717917010188103, 0.032995421439409256, 0.013771219179034233, 0.006089596543461084, 0.008997302502393723], [0.12621217966079712, 0.11467605084180832, 0.05237814411520958, 0.03855140134692192, 0.02578267641365528], [0.1174469068646431, 0.10807628929615021, -0.08521656692028046, -0.07031547278165817, -0.06774738430976868], [0.00530275097116828, -0.04934142529964447, -0.12996725738048553, -0.058095160871744156, -0.03235097602009773], [-0.018622461706399918, -0.09143076837062836, -0.07741973549127579, -0.03904766961932182, -0.043683506548404694]], [[-0.07290299981832504, 0.02800578624010086, 0.03982662782073021, 0.04750242084264755, -0.02877202443778515], [0.0985666960477829, 0.15246261656284332, 0.14329753816127777, 0.11800647526979446, 0.09174896776676178], [0.10509616136550903, 0.06401591747999191, 0.04385201632976532, 0.06232631579041481, 0.044507913291454315], [-0.0031824749894440174, -0.11033644527196884, -0.11708196252584457, -0.12690339982509613, -0.07360269129276276], [-0.09133142232894897, -0.11040643602609634, -0.1376621127128601, -0.1931837499141693, -0.1578899621963501]]], [[[-0.03798862174153328, -0.008339121006429195, 0.01987566240131855, -0.04218113049864769, 0.01652594842016697], [0.040188491344451904, -0.026564041152596474, -0.002021182095631957, 0.018956784158945084, -0.005542656406760216], [0.03214285895228386, 0.06280822306871414, 0.05890510603785515, 0.01378472987562418, -0.019235840067267418], [-0.029524877667427063, -0.011717380955815315, -0.034171849489212036, 0.0019124624086543918, -0.0026644489262253046], [-0.03691947087645531, -0.10593662410974503, -0.05617494508624077, -0.07670608162879944, -0.030036620795726776]], [[0.011425135657191277, -0.006863761693239212, -0.012211483903229237, 0.05192061513662338, 0.07880613207817078], [0.012250814586877823, 0.08202151954174042, 0.05530615150928497, 0.06542649865150452, 0.04637972265481949], [0.12099585682153702, 0.07760634273290634, 0.10118847340345383, 0.02709301933646202, -0.009193221107125282], [0.13951095938682556, 0.07188346236944199, 0.051674120128154755, 0.08098673820495605, -0.0398341566324234], [0.13113971054553986, 0.04470698535442352, 0.0911359041929245, 0.04234018176794052, 0.04611948877573013]], [[0.03528280183672905, 0.08101855963468552, 0.04104790464043617, 0.029140636324882507, 0.007654707878828049], [-0.021891262382268906, -0.015035264194011688, -0.05366002768278122, -0.023200208321213722, -0.04432942345738411], [-0.0048722256906330585, -0.048678722232580185, 0.004554896615445614, -0.016789570450782776, -0.05224892124533653], [0.025749556720256805, 0.004205303266644478, 0.02360418252646923, 0.006522410083562136, -0.038286224007606506], [0.0846363827586174, 0.08933087438344955, 0.05421902611851692, 0.00022035851725377142, -0.011317194439470768]], [[-0.027970941737294197, -0.04225821793079376, -0.02552209049463272, -0.022948535159230232, -0.16659985482692719], [0.04090429097414017, -0.04563112184405327, -0.016155684366822243, -0.11954966187477112, -0.06095985695719719], [0.046692002564668655, -0.052181728184223175, -0.04333836957812309, -0.06436140090227127, 0.009874770417809486], [0.0010361650492995977, 0.03236091881990433, 0.08949913829565048, 0.03854096680879593, 0.10971499979496002], [-0.0010956346523016691, 0.03616328909993172, 0.03862829878926277, 0.022909078747034073, 0.09334639459848404]], [[-0.025057360529899597, -0.012619735673069954, -0.03557189553976059, -0.0325898677110672, -0.16074338555335999], [-0.00777877913787961, -0.12347475439310074, -0.06220083683729172, -0.0980902686715126, -0.009733602404594421], [0.03466913849115372, 0.014493088237941265, 0.09337317943572998, 0.047463152557611465, 0.06492679566144943], [0.04660116136074066, 0.019379038363695145, 0.09331195801496506, 0.037755873054265976, 0.11286462843418121], [0.06730259954929352, 0.08597558736801147, 0.06366081535816193, 0.07796675711870193, 0.04910900071263313]], [[-0.006607311312109232, 0.013116196729242802, -0.026514403522014618, -0.09990236163139343, -0.08408841490745544], [-0.022224891930818558, -0.09687495231628418, -0.10664381831884384, -0.08372270315885544, -0.025298217311501503], [-0.08815871179103851, -0.07023891061544418, -0.03579973801970482, -0.008843366988003254, 0.023998871445655823], [-0.01555535476654768, 0.03285617753863335, 0.019704805687069893, 0.04222709313035011, -0.008521960116922855], [0.03583477810025215, 0.033470604568719864, -0.01869930699467659, -0.021623631939291954, -0.05313824117183685]]], [[[0.05532177537679672, 0.007379803340882063, 0.08732403069734573, 0.09522169083356857, 0.08377821743488312], [-0.011058169417083263, 0.004246098920702934, 0.028170662000775337, 0.13240835070610046, 0.07537495344877243], [-0.06356392055749893, -0.07572987675666809, -0.03510579094290733, 0.013167432509362698, 0.020016832277178764], [-0.049149058759212494, -0.08235058933496475, -0.07301634550094604, -0.03876159340143204, 0.012941216118633747], [0.009418701753020287, -0.08752534538507462, -0.07330835610628128, -0.01748265139758587, 0.03985898941755295]], [[0.056780360639095306, 0.024971479550004005, -0.014891098253428936, -0.09200744330883026, -0.02908335253596306], [0.08306489884853363, 0.00534721789881587, 0.0007381445029750466, -0.09871923178434372, -0.06513001769781113], [0.05216749384999275, 0.0025159772485494614, -0.05029042810201645, -0.0375121645629406, -0.09785118699073792], [0.00155904539860785, -0.05087415874004364, -0.09911656379699707, -0.05203152820467949, -0.07584333419799805], [0.008106676861643791, -0.07664313167333603, -0.12212759256362915, -0.07294516265392303, -0.09804806858301163]], [[0.014022431336343288, 0.00906019564718008, 0.023654639720916748, 0.07045219093561172, 0.0707538053393364], [0.012157454155385494, 0.04851032420992851, 0.11140642315149307, 0.03495936095714569, 0.053311724215745926], [-0.007859322242438793, 0.008469938300549984, 0.07564982026815414, 0.07435917854309082, 0.028064582496881485], [0.00041056115878745914, 0.05209902301430702, 0.04091888666152954, -0.010071497410535812, 9.583509381627664e-05], [0.0009039922151714563, 0.030714279040694237, 0.005316854454576969, -0.0035548547748476267, -0.02798009291291237]], [[-0.029887450858950615, 0.05083690583705902, 0.0761534720659256, 0.081560879945755, 0.03564172238111496], [-0.05921044945716858, 0.017032461240887642, 0.15197162330150604, 0.1483910083770752, -0.017720453441143036], [-0.020815173164010048, -0.01007811725139618, 0.16296878457069397, 0.12763789296150208, -0.03585198149085045], [-0.04948098585009575, -0.01943492330610752, 0.11025691032409668, 0.09538105130195618, -0.012538806535303593], [-0.02227477729320526, -0.0527181476354599, 0.06066601350903511, 0.05401240289211273, -0.04660903289914131]], [[0.02763460762798786, 0.06311856955289841, 0.08359956741333008, 0.08172009140253067, 0.00456552067771554], [0.0448729433119297, 0.0589308999478817, 0.07785924524068832, 0.061643149703741074, -0.049013588577508926], [0.058817654848098755, 0.13094469904899597, 0.13369639217853546, 0.06778501719236374, -0.07494951039552689], [0.08429902791976929, 0.09653531014919281, 0.1395745873451233, 0.09289414435625076, -0.05392039567232132], [0.08080167323350906, 0.05359519645571709, 0.15633048117160797, 0.09025871008634567, -0.00996589008718729]], [[-0.041807468980550766, -0.04164488986134529, -0.02718927711248398, 0.020031221210956573, -0.06994692236185074], [-0.015076857060194016, -0.015985101461410522, -0.06615151464939117, -0.09354671090841293, -0.09925974905490875], [0.02556876838207245, 0.02676677145063877, -0.11161215603351593, -0.20241189002990723, -0.1268233060836792], [0.03544611856341362, 0.05024975538253784, -0.03198472410440445, -0.19355307519435883, -0.13556073606014252], [0.04357980564236641, 0.05462971329689026, -0.00504063256084919, -0.08714543282985687, -0.0707399994134903]]], [[[0.06528068333864212, 0.02237868495285511, 0.02850944548845291, 0.055475328117609024, 0.10488180816173553], [-0.0012923387112095952, -0.03926980495452881, 0.004571816883981228, 0.0016952528385445476, 0.04272552952170372], [-0.0012702223611995578, -0.06690196692943573, -0.07008823752403259, -0.07497949153184891, -0.004725145176053047], [-0.06416375935077667, -0.0589425154030323, -0.04979463294148445, 0.0010218620300292969, -0.0366927795112133], [-0.008448425680398941, 0.00016087548283394426, 0.00988511648029089, -0.023902516812086105, -0.07383286952972412]], [[0.010308840312063694, 0.07228916883468628, 0.05044092610478401, 0.08437217772006989, 0.045194219797849655], [0.010957549326121807, 0.0073386793956160545, -0.03347555920481682, -0.02169647626578808, 0.0376005694270134], [-0.01789853535592556, -0.0064562163315713406, 0.018398426473140717, 0.06526827812194824, 0.1696215271949768], [-0.020538022741675377, -0.005703644827008247, -0.0199745986610651, 0.04332802817225456, 0.08390405774116516], [-0.030843323096632957, 0.047183454036712646, 0.02892388589680195, 0.031284090131521225, -0.03042169101536274]], [[0.1429237425327301, 0.14741747081279755, 0.18492040038108826, 0.12001001089811325, 0.12267062813043594], [0.14398883283138275, 0.10141217708587646, 0.11839018762111664, 0.10402122139930725, 0.08339124172925949], [0.12139614671468735, 0.08682659268379211, 0.08752778172492981, 0.09476862102746964, 0.039877284318208694], [0.0883750170469284, 0.031731169670820236, 0.010797684080898762, 0.00229497067630291, 0.08029370754957199], [0.04045455530285835, 0.01264299638569355, -0.0032709853257983923, -0.018667072057724, -0.0024185623042285442]], [[-0.13903219997882843, -0.16987265646457672, -0.18391695618629456, -0.1288599818944931, -0.027449360117316246], [-0.21011044085025787, -0.16735586524009705, -0.11816751211881638, -0.1208261176943779, -0.09832321107387543], [-0.10013977438211441, -0.03903091698884964, -0.07412229478359222, -0.1276153326034546, -0.1347620189189911], [0.01745736226439476, 0.0009766356088221073, 0.022173868492245674, -0.019211819395422935, -0.0234617181122303], [0.06582009792327881, 0.07066052407026291, 0.06504266709089279, 0.019382622092962265, 0.062025412917137146]], [[0.05004812031984329, 0.007377426140010357, -0.008826826699078083, 0.030865516513586044, -0.006922930013388395], [0.05523600056767464, 0.011914536356925964, 0.010732592083513737, 0.04825954884290695, 0.04410305246710777], [0.02100525051355362, 0.07351051270961761, 0.016189705580472946, 0.002342062070965767, -0.06379419565200806], [0.009705142118036747, 0.03607754781842232, 0.019155513495206833, -0.02844611369073391, -0.007660968229174614], [0.09990692138671875, 0.018241016194224358, 0.019454989582300186, 0.0037272730842232704, -0.052244409918785095]], [[0.023440876975655556, 0.0018880019197240472, 0.013929187320172787, -0.004264692775905132, -0.05977440997958183], [0.05442632734775543, 0.009624948725104332, 0.072591133415699, 0.038422562181949615, 0.0727526992559433], [-0.019605152308940887, 0.03894971311092377, 0.0005013765185140073, 0.033982135355472565, -0.036729779094457626], [0.05082277953624725, -0.050345368683338165, -0.010824736207723618, -0.012939440086483955, 0.010790007188916206], [-0.07219475507736206, -0.007970791310071945, -0.058538768440485, -0.017985444515943527, -0.03980318456888199]]], [[[-0.009431771002709866, 0.02642444707453251, 0.0027650275733321905, 0.05978512391448021, 0.010940923355519772], [-0.04043577238917351, 0.015567610040307045, 0.00690601859241724, -0.06035994365811348, 0.023143703117966652], [-0.0168807040899992, 0.025836218148469925, 0.006867685820907354, -0.013379797339439392, 0.06206502392888069], [0.014998299069702625, 0.01690191589295864, -3.927891521016136e-05, 0.03491203486919403, 0.042082298547029495], [-0.019295169040560722, 0.007165161892771721, 0.04966039955615997, 0.039246514439582825, 0.10088412463665009]], [[0.05505576357245445, 0.003124421928077936, 0.04149740934371948, 0.09010180085897446, 0.06181784346699715], [-0.05624367669224739, 0.03281891345977783, 0.07871543616056442, 0.048671163618564606, -0.026733798906207085], [-0.03390762209892273, 0.08737508952617645, 0.1042846217751503, -0.019432133063673973, -0.0693097934126854], [0.09397062659263611, 0.08360303193330765, -0.037420302629470825, -0.08748015016317368, -0.06775308400392532], [0.07616531848907471, 0.018840216100215912, -0.03765777871012688, -0.050339896231889725, -0.11302679777145386]], [[-0.11283132433891296, -0.02650144323706627, 0.00897607859224081, 0.046716589480638504, 0.05753814056515694], [-0.12080872803926468, -0.07496169954538345, -0.07312330603599548, -0.025533679872751236, 0.028576813638210297], [-0.12360364198684692, -0.10402034968137741, -0.07163605093955994, -0.0907459706068039, -0.04606874659657478], [-0.12372603267431259, -0.13431702554225922, -0.04062999412417412, -0.030757006257772446, -0.03302289545536041], [-0.10518468916416168, -0.09527972340583801, -0.08353472501039505, -0.021401137113571167, -0.0127246780321002]], [[0.12227126210927963, 0.18756304681301117, -0.0578814372420311, -0.026264386251568794, 0.08516254276037216], [0.03136979043483734, 0.09339375048875809, -0.026023289188742638, -0.010819354094564915, 0.10495276004076004], [0.03768279030919075, -0.004962767940014601, -0.030841907486319542, -0.06712570786476135, -0.019033117219805717], [-0.027066338807344437, -0.15152212977409363, -0.07653535157442093, -0.06444963067770004, -0.03316298499703407], [-0.19007821381092072, -0.1264715939760208, -0.13253463804721832, -0.1302994191646576, -0.0967734083533287]], [[0.09825348854064941, 0.11242871731519699, -0.04587787762284279, 0.057200297713279724, 0.0954117402434349], [0.09247075766324997, -0.021970169618725777, -0.11013847589492798, 0.09938732534646988, 0.13429009914398193], [0.029804488644003868, 0.001427666749805212, 0.0016027543460950255, 0.0694076344370842, 0.08562084287405014], [-0.08505721390247345, -0.055223386734724045, 0.09165230393409729, 0.12770111858844757, 0.043755579739809036], [-0.09114723652601242, -0.02479325421154499, 0.06441894918680191, 0.07522875815629959, 0.02605963498353958]], [[0.06071445718407631, 0.026209238916635513, 0.0056570908054709435, -0.004936513490974903, 0.11979525536298752], [0.04786553978919983, 0.014262959361076355, 0.017961688339710236, 0.1233609989285469, 0.10888560116291046], [0.006087015382945538, -0.025002574548125267, 0.03730197995901108, 0.0887826457619667, 0.009080073796212673], [-0.038220204412937164, -0.02944101206958294, 0.05311746895313263, 0.0905897319316864, 0.059710949659347534], [-0.05770595744252205, -0.011424158699810505, 0.06762707233428955, 0.0294395349919796, 0.030154328793287277]]], [[[0.04807700589299202, 0.0059230211190879345, 0.028617968782782555, -0.07790282368659973, -0.15479913353919983], [0.11805371940135956, 0.021565068513154984, -0.030774274840950966, -0.1218864694237709, -0.19267305731773376], [0.12296545505523682, 0.10629986226558685, -0.01983819343149662, -0.07715370506048203, -0.13440899550914764], [0.16912506520748138, 0.11886397004127502, -0.031003128737211227, -0.060419321060180664, -0.12513671815395355], [0.165553018450737, 0.07643614709377289, -0.030509280040860176, -0.062221184372901917, -0.056003693491220474]], [[-0.10697329044342041, 0.023780852556228638, 0.1118815541267395, 0.06417927891016006, 0.07987252622842789], [-0.09385193884372711, 0.006963090971112251, 0.03748010843992233, 0.039817266166210175, 0.03190470486879349], [0.03796141594648361, -0.033584579825401306, -0.039079032838344574, -0.017632663249969482, 0.007996303960680962], [0.06892573833465576, 0.0014696895377710462, -0.02124708704650402, -0.05348941683769226, -0.03499096259474754], [0.08158407360315323, 0.01315233577042818, -0.01649622432887554, -0.010902169160544872, -0.0684615895152092]], [[0.13117140531539917, 0.05173041671514511, -0.04388914629817009, -0.14466983079910278, -0.16734114289283752], [0.18882939219474792, 0.08396115154027939, -0.026597579941153526, -0.2009507119655609, -0.27899226546287537], [0.16503731906414032, 0.07063308358192444, -0.09370827674865723, -0.20578888058662415, -0.23241905868053436], [0.1698276549577713, 0.08670810610055923, -0.0440799742937088, -0.14453347027301788, -0.22878402471542358], [0.14530034363269806, 0.09406519681215286, 0.029331840574741364, -0.06391918659210205, -0.13674983382225037]], [[0.007927468977868557, 0.031161338090896606, 0.03518838435411453, -0.014042324386537075, -0.016738949343562126], [-0.0443078987300396, -0.12133118510246277, -0.0772211030125618, -0.0023504975251853466, 0.03706611692905426], [-0.057147834450006485, -0.20778679847717285, -0.0028041237965226173, 0.09462817013263702, 0.05558966472744942], [-0.08106277137994766, -0.10790275782346725, 0.04154054448008537, 0.07161765545606613, 0.01838361658155918], [-0.06375760585069656, -0.06199783459305763, 0.010186255909502506, 0.04665205255150795, 0.04242056980729103]], [[0.020059090107679367, -0.027928974479436874, 0.028273772448301315, -0.07041887938976288, 0.010232094675302505], [-0.07366900891065598, -0.06736379116773605, -0.016494382172822952, 0.05717124417424202, 0.014943350106477737], [-0.10898849368095398, -0.09080389887094498, 0.07357393205165863, 0.07934042811393738, 0.06976283341646194], [-0.11938929557800293, 0.00829821452498436, 0.08270037174224854, 0.07427685707807541, 0.11127305775880814], [-0.09152603149414062, -0.026489339768886566, 0.08122222870588303, 0.09384888410568237, 0.09231389313936234]], [[0.11166679859161377, 0.06745124608278275, 0.014385731890797615, -0.10631752014160156, -0.024694904685020447], [0.07823362201452255, 0.04357406497001648, 0.031040599569678307, -0.0698244497179985, -0.01409741397947073], [-0.07205303013324738, -0.019331954419612885, 0.029703179374337196, 0.030325019732117653, -0.016998963430523872], [-0.1255173534154892, -0.023785527795553207, 0.010311354883015156, 0.0474892258644104, 0.039746347814798355], [-0.08175558596849442, -0.04389535263180733, 0.04682502895593643, 0.060489434748888016, 0.008109522983431816]]], [[[0.04012702777981758, 0.04920187219977379, 0.06807772070169449, 0.038043610751628876, 0.03555026277899742], [0.026201851665973663, 0.0896529108285904, 0.10710106045007706, 0.06281398236751556, -0.01091786939650774], [0.008512783795595169, 0.057722751051187515, 0.053590402007102966, -0.026717647910118103, -0.07597356289625168], [0.056792501360177994, 0.009037471376359463, -0.025787627324461937, -0.12415412068367004, -0.15568087995052338], [0.055623169988393784, 0.05465789511799812, -0.008670378476381302, -0.06488674879074097, -0.0476449653506279]], [[0.09892614185810089, 0.03626219555735588, 0.021133903414011, 0.06726900488138199, 0.10979608446359634], [0.05976254120469093, 0.07078730314970016, 0.06376806646585464, 0.014508399181067944, 0.042381249368190765], [0.06829798966646194, 0.07571876049041748, 0.10316314548254013, 0.05622129887342453, 0.043062351644039154], [0.06813499331474304, 0.07908094674348831, 0.024728799238801003, 0.05793236941099167, 0.009599310345947742], [0.05941054970026016, 0.02891683578491211, 0.023791320621967316, 0.02180415391921997, -0.006326805800199509]], [[0.06120318919420242, 0.03187355771660805, 0.03967362642288208, 0.08067721873521805, 0.08031924068927765], [-0.020503783598542213, -0.027130527421832085, -0.046858254820108414, -0.020363764837384224, 0.06851466745138168], [-0.06156691536307335, 0.010085970163345337, -0.02851642109453678, -0.03207692131400108, 0.030937790870666504], [0.03511626645922661, -0.03944503515958786, -0.03712361305952072, -0.005519243888556957, -0.035002682358026505], [-0.02706104889512062, -0.04936406388878822, -0.06727802753448486, -0.036834072321653366, 0.03783831372857094]], [[-0.06278575956821442, -0.02754548005759716, -0.04566045105457306, -0.07169400155544281, -0.13693486154079437], [0.01018624659627676, -0.050870127975940704, -0.12227053195238113, -0.1335795372724533, -0.144247367978096], [-0.05296606197953224, -0.0503666028380394, -0.16953665018081665, -0.1879023164510727, -0.10351209342479706], [-0.13422757387161255, -0.1144205778837204, -0.21456193923950195, -0.16566571593284607, -0.13658683001995087], [-0.10830607265233994, -0.09169747680425644, -0.14362405240535736, -0.1706763356924057, -0.07716356217861176]], [[-0.030454415827989578, -0.0045093391090631485, -0.012218665331602097, -0.0647040531039238, -0.0996335968375206], [-0.0032290697563439608, -0.0325687937438488, -0.13000039756298065, -0.1543511301279068, -0.09554781764745712], [-0.08015847206115723, -0.08050259202718735, -0.15020698308944702, -0.1212797537446022, -0.1320938915014267], [-0.029065249487757683, -0.03497719764709473, -0.010798065923154354, -0.018074674531817436, -0.005682332906872034], [0.024253075942397118, -0.014837643131613731, -0.020282775163650513, -0.012090123258531094, 0.01434212177991867]], [[0.09389511495828629, 0.12430164963006973, 0.0987301617860794, 0.06720609962940216, 0.03417827561497688], [0.07854235917329788, 0.07536464929580688, 0.06768734008073807, 0.07221394777297974, 0.043962351977825165], [0.010774334892630577, 0.006815323140472174, -0.03947919234633446, -0.028059950098395348, 0.009019855409860611], [0.08103794604539871, 0.04592256620526314, 0.017207462340593338, 0.03559965640306473, -0.0118954386562109], [0.06526201963424683, 0.10553621500730515, 0.04153738543391228, -0.007474300917237997, -0.0305112823843956]]]], "conv2.bias": [0.19152306020259857, 0.2068151831626892, -0.014249427244067192, 0.08351586759090424, -0.12535379827022552, 0.22003507614135742, -0.05332948639988899, 0.1483587622642517, -0.13834510743618011, -0.06502699106931686, -0.16866733133792877, -0.18439190089702606, -0.05539584904909134, -0.14241378009319305, 0.1321149468421936, 0.03522661700844765], "fc1.weight": [[-0.021974332630634308, -0.03035428747534752, -0.0037068245001137257, -0.030899852514266968, -0.010221576318144798, 0.006987190805375576, -0.026093864813447, 0.015544334426522255, -0.013332312926650047, -0.04931570217013359, -0.026200365275144577, -0.02184380404651165, -0.0195901021361351, -0.008981568738818169, -0.05698731914162636, -0.013808720745146275, -0.03594546765089035, -0.0106663778424263, -0.030546478927135468, -0.05415462702512741, -0.03598332032561302, -0.04759064316749573, -0.04518283158540726, -0.03278558701276779, -0.05443960055708885, -0.015363331884145737, -0.03646181523799896, -0.005466364324092865, -0.014785489067435265, 0.018854036927223206, -0.008014708757400513, -0.03113042376935482, 0.020850112661719322, -0.0355173759162426, -0.022004907950758934, -0.01268953736871481, -0.014171014539897442, -0.042669668793678284, -0.029491864144802094, -0.014756131917238235, -0.05394429340958595, -0.028029825538396835, -0.015088172629475594, -0.04356943070888519, -0.027119575068354607, -0.035721756517887115, -0.007922759279608727, -0.05918654054403305, -0.01481445599347353, 0.00787162221968174, 0.004494819790124893, -0.0034024312626570463, 0.026815760880708694, 0.027777209877967834, -0.025805896148085594, -0.010237026959657669, -0.008945266716182232, 0.014346948824822903, 0.0155490692704916, -0.014336061663925648, -0.0034797079861164093, 0.004878388252109289, 0.02378355897963047, 0.0421409085392952, 0.006607256829738617, 0.01232965663075447, 0.0065012602135539055, -0.0017487764125689864, 0.01854695752263069, -0.023774052038788795, -0.014535238966345787, -0.0008061600383371115, -0.0024987543001770973, 0.006156370043754578, 0.04120496287941933, 0.028318889439105988, -0.03199980407953262, -0.015085442923009396, -0.0156804621219635, -0.018065134063363075, 0.031664423644542694, 0.0005744990194216371, 0.00794229470193386, 0.01469242200255394, -0.006131901405751705, 0.00362869119271636, 0.005658479407429695, -0.011669223196804523, 0.021568400785326958, 0.02454667165875435, 0.049625612795352936, 0.013935169205069542, -0.013045353814959526, 0.02778344787657261, 0.016809217631816864, -0.004396319389343262, -0.008203343488276005, 0.010230408050119877, -0.02933390438556671, 0.0052860635332763195, -0.0001428432879038155, 0.007653144188225269, 0.015087404288351536, 0.030096707865595818, 0.02833322249352932, -0.0029907580465078354, -0.042846351861953735, -0.006728616077452898, -0.03308044746518135, -0.01633744314312935, -0.004196578171104193, -0.025172045454382896, 0.038481567054986954, -0.009118380025029182, 0.013471127487719059, -0.01296238973736763, -0.009276938624680042, 0.025588059797883034, -0.008869840763509274, -0.008858694694936275, -0.023211997002363205, -0.026012711226940155, -0.017906554043293, -0.03477051109075546, -0.022198272868990898, -0.010429385118186474, 0.0015020892024040222, 0.010838814079761505, 0.012251565232872963, -0.01862568035721779, -0.004736104980111122, 0.00498996814712882, -0.028874529525637627, -0.002212666440755129, -0.00860297679901123, -0.03184004873037338, -0.00618438795208931, -0.025510137900710106, -0.011039921082556248, -0.013294139876961708, -0.01589757576584816, -0.016758939251303673, -0.03306679427623749, -0.012082445435225964, -0.030358586460351944, 0.0009304996347054839, -0.03362934663891792, -0.0423668697476387, -0.023536039516329765, -0.02311129681766033, -0.027041073888540268, 0.002608340932056308, -0.01696554757654667, 0.015172069892287254, 0.02097063697874546, -0.01612730883061886, 0.009710622951388359, 0.005962181370705366, -0.033895622938871384, 0.0151564572006464, 0.0010718000121414661, -0.015690183266997337, -0.000836455961689353, 0.005913875997066498, -0.01377645879983902, 0.02238190546631813, 0.014591311104595661, -0.011087022721767426, -0.014537876471877098, 0.005661400500684977, 0.0018314836779609323, 0.018148496747016907, 0.020890580490231514, -0.014635908417403698, -0.03743799403309822, -0.012275906279683113, -0.013134930282831192, -0.008040688000619411, -0.014772340655326843, -0.023662935942411423, -0.022907597944140434, 0.005400745198130608, -0.01026469748467207, -0.0019461209885776043, -0.009738447144627571, 0.00910155288875103, -0.006467409431934357, -0.013424486853182316, -0.004895301535725594, 0.01832425966858864, -0.0005226864595897496, -0.01344848982989788, 0.0023448392748832703, -0.009291165508329868, -0.02516673132777214, -0.03942912444472313, 4.512118175625801e-05, 0.0041391607373952866, -0.03516467288136482, -0.006196172907948494, 0.02907215990126133, -0.0267036072909832, -0.04027702286839485, 0.020512975752353668, 0.02338758111000061, 0.01713504083454609, -0.005597254727035761, -0.013364611193537712, 0.006409025751054287, 0.009334569796919823, 0.012398670427501202, 0.017299918457865715, 0.012038720771670341, 0.009639575146138668, -0.03610067442059517, -0.03327655419707298, 0.008554000407457352, 0.045671623200178146, 0.005528079811483622, -0.004541327245533466, -0.004240015987306833, 0.008341672830283642, 0.004387662746012211, 0.02804332599043846, -0.011418549343943596, 0.015577878803014755, -0.02585509978234768, -0.032732270658016205, -0.023295540362596512, -0.027588872238993645, 0.004708278924226761, -0.009317668154835701, 0.014816084876656532, 0.00640612468123436, -0.020793253555893898, -0.012550453655421734, -0.012263026088476181, 0.023507114499807358, 0.0015436087269335985, -0.019796982407569885, -0.011684736236929893, -0.005246514920145273, 0.01264779269695282, -0.010295345447957516, -0.0551171600818634, -0.024890311062335968, -0.03082892671227455, -0.044573668390512466, -0.038948286324739456, -0.0021218894980847836, 0.008893399499356747, -0.01656547375023365, -0.012810492888092995, -0.023514777421951294, -0.006509004160761833, 0.015394103713333607, 0.003226903732866049, -0.017594177275896072, -0.009335888549685478, 0.01706751063466072, -0.012074027210474014, 0.00032822374487295747, -0.024006720632314682, -0.01635405793786049, -0.004749774932861328, -0.01260954886674881, 0.007990040816366673, -0.04325798526406288, -0.039695702493190765, -0.019397497177124023, -0.008600589819252491, -0.0036238848697394133, 0.008101096376776695, -0.011995653621852398, -0.045427314937114716, 0.016627885401248932, 0.01730075478553772, 0.016682490706443787, 0.01380204688757658, 0.03683248907327652, 0.029182929545640945, 0.021801244467496872, -0.010863369330763817, 0.014387305825948715, 0.013604224659502506, 0.026572993025183678, 0.03667515516281128, 0.007088149897754192, 0.002278270898386836, -0.004701691213995218, 0.012746107764542103, 0.031909290701150894, 0.0025875847786664963, 0.019927978515625, -0.022699156776070595, -0.026231713593006134, 0.012378060258924961, 0.023455975577235222, 0.01505020260810852, -0.006523299030959606, 0.011870980262756348, -0.022082198411226273, -0.02268543466925621, -0.022966090589761734, 0.010391131974756718, -0.019904473796486855, -0.01125959400087595, -0.03549874573945999, -0.014147384092211723, 0.004216123837977648, 0.007722542155534029, 0.012115636840462685, 0.00484814029186964, 0.027299541980028152, -0.0033023126889020205, 0.0005147187621332705, -0.00756891630589962, 0.028222938999533653, 0.0023090026807039976, -0.018825868144631386, 0.005393058992922306, -0.014625578187406063, 0.03468428924679756, -0.03063995949923992, -0.016258545219898224, -0.03158266097307205, -0.007752225734293461, -0.0382346548140049, 0.005243994295597076, -0.029112987220287323, -0.018533146008849144, -0.0369541198015213, -0.021093010902404785, -0.03131356090307236, -0.05749564617872238, -0.025422263890504837, -0.02691665105521679, -0.025057852268218994, -0.0490795373916626, -0.05096961930394173, -0.03107169270515442, -0.007868737913668156, 0.016636235639452934, -0.012998312711715698, -0.03561775013804436, -0.004013175144791603, -0.01833728514611721, 0.005502726882696152, -0.03239521384239197, -0.012824131175875664, -0.03701162710785866, -0.01840890198945999, 0.015379488468170166, -0.024441983550786972, -0.017882544547319412, -0.007919753901660442, -0.006829983554780483, -0.010530718602240086, -0.024454087018966675, -0.02269122563302517, 0.0034301052801311016, 0.0026493039913475513, -0.000558594474568963, -0.013404252007603645, 0.0013341013109311461, -0.021376248449087143, -0.008188491687178612, -0.008757181465625763, -0.059419870376586914, 0.0034198795910924673, -0.017961518839001656, 0.00027814763598144054, -0.02632814832031727, -0.0391073152422905, -0.02105793170630932, -0.017679134383797646, 0.006028282456099987, -0.028119266033172607, -0.017193114385008812, -0.037533484399318695, -0.025537902489304543, -0.005473126191645861, -0.011861681006848812, -0.004192660097032785, -0.0070841386914253235, 0.005712142214179039, -0.030275359749794006, 0.02024228498339653, 0.011640854179859161, -0.021087657660245895, -0.02115478552877903, -0.0013271383941173553, 0.014377443119883537, 0.008361264131963253, 0.0063247885555028915, 0.004062516149133444, -0.0060113826766610146, -0.02988642081618309, -0.008249497972428799, 0.0098614152520895], [-0.025274552404880524, -0.016716819256544113, -0.011092841625213623, 0.0026543329004198313, -0.018942799419164658, -0.005247554276138544, -0.0337551049888134, 0.006167938467115164, 0.046449046581983566, 0.010036875493824482, 0.024227358400821686, -0.013600694946944714, -0.003816843731328845, 0.006219996139407158, 0.008876245468854904, 0.008467224426567554, 0.0035373421851545572, 0.048020243644714355, 0.0346103273332119, 0.02889789454638958, 0.08125956356525421, 0.0888594388961792, 0.08614251762628555, 0.07545321434736252, 0.08899065107107162, 0.04773380979895592, 0.030790766701102257, 0.05267941579222679, 0.010947749018669128, 0.06484712660312653, 0.002515372820198536, 0.017470497637987137, 0.04870150238275528, 0.010099044069647789, 0.008903452195227146, -0.022094575688242912, -0.03347918763756752, -0.0010994442272931337, -0.04785308986902237, 0.049869079142808914, 0.03692437708377838, 0.0033622602932155132, -0.04427093267440796, -0.015188248828053474, 0.0028080034535378218, 0.00868310034275055, 0.08844702690839767, 0.09856140613555908, 0.023522622883319855, -0.03643966466188431, -0.023754745721817017, -0.0052342587150633335, -0.11122506856918335, 0.01572515070438385, 0.00829143077135086, -0.021666735410690308, 0.022400064393877983, 0.002077592769637704, -0.038918670266866684, 0.006560853682458401, -0.013075794093310833, 0.03424139693379402, 0.03726493939757347, -0.019871670752763748, 0.04979328438639641, -0.04067334905266762, -0.009021516889333725, -0.016528727486729622, -0.06055605784058571, -0.02281404472887516, -0.0783361941576004, -0.04024666175246239, 0.041982945054769516, 0.0012611409183591604, -0.05370435491204262, 0.006981421262025833, -0.00872255302965641, -0.06270237267017365, 0.0022341895382851362, 0.005088533740490675, 0.00386891420930624, 0.014964074827730656, 0.034089431166648865, 0.042924124747514725, -0.016130521893501282, 0.002141047967597842, 0.000632588635198772, -0.0028944597579538822, 0.00595015799626708, 0.004877673462033272, -0.03841019421815872, 0.004052457865327597, 0.0020377065520733595, -0.03714314103126526, -0.033080894500017166, -0.10921816527843475, -0.12889854609966278, -0.1296359896659851, -0.12126533687114716, -0.045938823372125626, -0.048723239451646805, -0.01970132254064083, -0.05861639976501465, -0.08902299404144287, -0.09599258750677109, -0.02167784608900547, 0.011282749474048615, -0.050023335963487625, -0.06266342103481293, -0.01774439588189125, -0.04712861776351929, -0.009065398946404457, 0.022096337750554085, 0.08146613091230392, 0.05446815490722656, -0.04537369683384895, -0.058008935302495956, -0.05044257268309593, -0.013687572441995144, -0.037618134170770645, -0.12936806678771973, -0.1068107932806015, -0.13339926302433014, -0.1336129605770111, -0.13815103471279144, -0.01588192768394947, 0.009005503728985786, 0.07794167846441269, 0.051054008305072784, 0.014010929502546787, -0.021872300654649734, 0.09690318256616592, 0.09477928280830383, 0.07620441913604736, 0.02373581752181053, 0.016553815454244614, 0.11544428765773773, 0.14049191772937775, 0.07994000613689423, 0.060470230877399445, -0.0407240204513073, 0.08191797882318497, 0.09353291243314743, 0.08821629732847214, 0.015312652103602886, -0.044616375118494034, -0.020682834088802338, 0.05665131285786629, 0.019555144011974335, -0.07267318665981293, 0.040122609585523605, 0.08970902115106583, 0.03100470080971718, -0.0446600466966629, -0.07768014073371887, 0.03943831846117973, 0.047272372990846634, 0.00011804128007497638, -0.0076647005043923855, 0.0011225511552765965, 0.012724090367555618, 0.0037314819637686014, 0.011279129423201084, 0.04917231574654579, 0.02577568218111992, -0.0238374974578619, 0.0030537177808582783, 0.0019297335529699922, 0.0005803052918054163, 0.09991656988859177, -0.025076866149902344, -0.014128309674561024, 0.0003225254768040031, 0.0824139192700386, 0.09867697954177856, -0.04034062474966049, 0.03405197337269783, 0.011256278492510319, 0.09422633796930313, 0.09638703614473343, -0.0015234097372740507, 0.019870178773999214, 0.00451240548864007, 0.024044765159487724, 0.04721226915717125, 0.027274707332253456, 0.03388933092355728, 0.02381187677383423, 0.07539600133895874, -0.03933648765087128, 0.04781289026141167, 0.019346266984939575, 0.08363522589206696, 0.060926713049411774, -0.02237323299050331, 0.06912650913000107, 0.10632629692554474, 0.10049598664045334, 0.06338167935609818, 0.01588987186551094, 0.0035196479875594378, -0.011319438926875591, 0.010008588433265686, -0.032562680542469025, -0.03399263694882393, -0.049189090728759766, -0.022638853639364243, -0.01396599318832159, -0.03273836523294449, 0.037664614617824554, -0.01117322500795126, -0.010638468898832798, 0.030375847592949867, 0.021096238866448402, -0.05120288208127022, 0.009756031446158886, 0.00381091539748013, 0.017505625262856483, 0.02308051474392414, -0.016156524419784546, -0.08291107416152954, -0.045264728367328644, -0.06033899635076523, -0.05523568391799927, -0.05864240229129791, 0.0645248219370842, 0.028370721265673637, -0.06932205706834793, -0.00528253149241209, -0.0305633507668972, -0.026372434571385384, -0.01922093890607357, -0.00894903764128685, 0.029838206246495247, 0.0659598633646965, -0.0360177718102932, 0.03374443203210831, 0.023571236059069633, 0.023051880300045013, 0.06543288379907608, -0.07419762015342712, 0.03498348593711853, 0.009679608047008514, 0.02628447860479355, 0.027580982074141502, -0.06863796710968018, -0.0637638196349144, -0.04150433838367462, -0.024850107729434967, -0.02605191431939602, -0.08131121098995209, -0.01301516592502594, -0.03821225091814995, -0.046649206429719925, -0.07149462401866913, -0.07156060636043549, -0.08112481236457825, 0.005310555454343557, -0.011029037646949291, -0.01699443720281124, -0.05979122221469879, -0.015697581693530083, -0.0006710339803248644, 0.012464286759495735, -0.004547399468719959, -0.019573576748371124, -0.040881942957639694, -0.0017941145924851298, -0.04091198742389679, -0.11370956897735596, -0.08794497698545456, -0.13050833344459534, -0.08510064333677292, -0.12490774691104889, -0.19079136848449707, 0.08867790549993515, 0.049334730952978134, 0.0024271798320114613, -0.02606680616736412, -0.011267734691500664, 0.045769236981868744, 0.06008267030119896, 0.05871523171663284, -0.003496793797239661, -0.028852339833974838, 0.014990349300205708, 0.03863181173801422, 0.08930806815624237, 0.048603929579257965, 0.0015433451626449823, 0.06601236760616302, 0.106208436191082, -0.0021402977872639894, 0.037396255880594254, -0.010638558305799961, 0.03868098929524422, 0.16010673344135284, 0.06849312782287598, 0.08730927854776382, 0.00037163603701628745, 0.057296235114336014, -0.001464038621634245, 0.02586670219898224, 0.0033535922411829233, -0.014594033360481262, 0.030968789011240005, 0.03191729635000229, 0.06234373152256012, 0.03626762330532074, -0.005905288737267256, 0.044534679502248764, 0.015013380907475948, -0.002747076330706477, 0.011658811941742897, 0.02998308278620243, -0.021405281499028206, -0.05334824323654175, 0.005015199538320303, 0.017206968739628792, 0.0443800613284111, -0.006281070876866579, -0.038600336760282516, -0.02318699285387993, 0.001353250932879746, 0.08673305064439774, -0.041793450713157654, -0.03080841340124607, 0.0016246156301349401, -0.014784823171794415, -0.018553966656327248, 0.04030206426978111, 0.009202883578836918, -0.05522063747048378, -0.0437808632850647, 0.009712829254567623, 0.04333554208278656, 0.04954743757843971, -0.019311605021357536, 0.0320674292743206, 0.0476110465824604, -0.016658950597047806, 0.01717265322804451, -0.003176596248522401, 0.023365676403045654, -0.01722494512796402, -0.010235981084406376, -0.009351066313683987, -0.005857542622834444, -0.006236017215996981, -0.08682645857334137, 0.06588909775018692, 0.054790787398815155, 0.04936117306351662, 0.027875158935785294, 0.12507882714271545, 0.07332081347703934, 0.08040706813335419, 0.02492714859545231, 0.08168458938598633, 0.08667491376399994, 0.02052510343492031, 0.07907601445913315, 0.07309926301240921, 0.008793105371296406, -0.02226545289158821, 0.031594790518283844, 0.02879553847014904, 0.08788906037807465, 0.0688118115067482, -0.06976233422756195, 0.01240841019898653, 0.026673557236790657, 0.05200578272342682, 0.09620925784111023, -0.010718592442572117, -0.03897634893655777, -0.09462328255176544, -0.08508715778589249, -0.040508538484573364, -0.09364020079374313, -0.013264879584312439, -0.009960544295608997, -0.05248591676354408, 0.028347883373498917, 0.01365234050899744, -0.042150989174842834, 0.0005268615204840899, -0.06688761711120605, -0.008736103773117065, 0.0005999776185490191, 0.006683471612632275, -0.04426371678709984, -0.050073206424713135, 0.03923472389578819, -0.07088527083396912, -0.04027243331074715, -0.08804718405008316, -0.019628550857305527, -0.009612377732992172, -0.05815635994076729], [-0.007497376762330532, -0.00896355602890253, -0.007604339625686407, -0.017606502398848534, -0.027069345116615295, 0.018077729269862175, -0.028011184185743332, -0.04113670438528061, 0.014687268063426018, 0.014357290230691433, 0.025543244555592537, 0.005812568124383688, 0.01479326095432043, -0.006997707299888134, -0.013417087495326996, -0.03048209846019745, -0.04004434868693352, -0.010420374572277069, 0.011227372102439404, 0.018924565985798836, 0.0018728610593825579, -0.014870473183691502, -0.026294969022274017, 0.011433069594204426, -0.007874859496951103, 0.0018317997455596924, 0.005144747905433178, 0.018451761454343796, 0.024199681356549263, 0.03311223164200783, 0.03767086938023567, -0.02735653705894947, 0.0027730343863368034, 0.0063984268344938755, -0.00025685239234007895, -0.0008041298133321106, -0.012377073056995869, -0.010084002278745174, -0.011540362611413002, 0.012376343831419945, 0.0350271575152874, -0.0030666582752019167, 0.016964444890618324, -0.024389216676354408, -0.03456540033221245, 0.012632252648472786, 0.016666417941451073, 0.032711271196603775, 0.020550617948174477, 0.011856801807880402, 0.01978890784084797, -0.01291598193347454, 0.0048949383199214935, 0.01961914449930191, -0.02867327816784382, 0.001206358429044485, 0.005842097569257021, -0.0158743504434824, 0.0033230665139853954, -0.003865388687700033, -0.014351214282214642, 0.011007423512637615, 0.018623489886522293, -0.006693149916827679, 0.032120101153850555, -0.026012204587459564, -0.0027388709131628275, 0.023825494572520256, 0.006921031512320042, -0.04620373249053955, 0.0027547432109713554, 0.007321161217987537, -0.0041065458208322525, 0.008303401991724968, 0.014055274426937103, -0.010298168286681175, -0.051689907908439636, -0.024941520765423775, -0.04223876819014549, -0.02078264206647873, -0.024602381512522697, -0.009043767116963863, 0.0019251966150477529, -0.02728281170129776, 0.02700759284198284, -0.012749036774039268, -0.033897627145051956, 0.006084559950977564, 0.0180253516882658, 0.02426120452582836, 0.004835270810872316, 0.006213285028934479, 0.0017597860423848033, 0.003006230341270566, 0.02070802077651024, 0.0015071930829435587, -0.006262897048145533, -0.0029247046913951635, -0.022509774193167686, -0.00565199414268136, -0.02698698081076145, -0.029104866087436676, -0.035612862557172775, -0.009261674247682095, 0.011439486406743526, -0.0293726846575737, 0.0023062098771333694, 0.03052631765604019, 0.027962278574705124, -0.01886899024248123, -0.002980757737532258, -0.003067882964387536, 0.016145002096891403, -0.01619006134569645, -0.021430931985378265, -0.05747741833329201, -0.002478087553754449, -0.048224225640296936, 0.004326291382312775, -0.02179340086877346, -0.03634974732995033, -0.05072425305843353, -0.05452669411897659, -0.06276565790176392, -0.019593561068177223, -0.009829760529100895, -0.041388679295778275, -0.036177508533000946, -0.0012204402592033148, -0.04761289432644844, -0.004324720241129398, -0.04097896069288254, -0.011499142274260521, -0.01771039329469204, -0.023813635110855103, -0.01456510927528143, -0.013420873321592808, -0.009697717614471912, -0.018709924072027206, -0.025232205167412758, -0.008085517212748528, -0.009597182273864746, 0.02110057696700096, -0.01074803527444601, -0.04143991693854332, -0.00028731333441101015, -0.005059218965470791, 0.021751368418335915, -0.02044679969549179, -0.034625474363565445, -0.060129519551992416, -0.0045853909105062485, -0.015135680325329304, -0.0327809602022171, -0.02560010552406311, -0.050039615482091904, -0.023061418905854225, -0.012388378381729126, -0.0038571543991565704, -0.018851539120078087, -0.01094726100564003, -0.04210599511861801, -0.010516226291656494, 0.014054256491363049, -0.03137192502617836, -0.0076909917406737804, 0.00346571346744895, 0.01720716431736946, 0.0021380693651735783, -0.04153386875987053, -0.06253369152545929, -0.0032367368694394827, -0.05143444985151291, -0.016918377950787544, 0.01788717694580555, -0.027214791625738144, -0.022425178438425064, 0.009250805713236332, -0.03932448849081993, -0.019190898165106773, 0.012374340556561947, 0.03764905035495758, 0.022866617888212204, -0.016263140365481377, -0.0024114761035889387, 0.014289747923612595, 0.012454172596335411, 0.0015729204751551151, -0.017150867730379105, -0.01054409146308899, -0.01758090779185295, -0.021472018212080002, 0.007444750051945448, -0.013738456182181835, 0.01006417814642191, 0.004005856346338987, -0.0044738189317286015, 0.012407718226313591, 0.010654808953404427, 0.030488893389701843, -0.02089633047580719, -0.020629804581403732, 0.004032422788441181, -0.02985539101064205, -0.021764887496829033, -0.02165282890200615, 0.015482143498957157, 0.009695367887616158, 0.01426760945469141, -0.02593994140625, 0.026886239647865295, 0.027768315747380257, 0.013512511737644672, 0.009528987109661102, -0.06072039157152176, 0.020632915198802948, -0.0033732717856764793, -0.0018981454195454717, 0.048849739134311676, 0.026089847087860107, 0.011451544240117073, -0.030763449147343636, -0.02506166324019432, -0.025345472618937492, 0.005215817131102085, 0.022372176870703697, 0.0365922711789608, 0.024819131940603256, 0.02977561578154564, 0.0006472395034506917, -0.023609725758433342, 0.004115396179258823, 0.014868838712573051, 0.0020502363331615925, 0.02119787037372589, -0.012531941756606102, -0.03541727364063263, -0.006823194678872824, 0.0384521409869194, 0.018988506868481636, -0.00023419791250489652, -0.01654568314552307, -0.0009318486554548144, -0.0056806630454957485, 0.011706219986081123, -0.020885301753878593, 0.0336526520550251, 0.01601197011768818, -0.004808422178030014, 0.004769948776811361, -0.06061320751905441, -0.0742279589176178, -0.06386870890855789, -0.06035061553120613, -0.07530783861875534, -0.029240623116493225, -0.016164066269993782, -0.025097696110606194, 0.003469917457550764, -0.07863888144493103, -0.03871216997504234, 0.007313716225326061, 0.035388603806495667, -0.005265512503683567, -0.0371861457824707, -0.016357699409127235, -0.00027045165188610554, 0.013432198204100132, -0.003490092698484659, 0.002712730783969164, 0.002031955635175109, -0.001967090182006359, -0.0419325977563858, -0.011487899348139763, -0.0362667553126812, -0.010836874134838581, -0.01189812459051609, -0.010962221771478653, -0.010296549648046494, -0.06561188399791718, -0.026288004592061043, 0.006516370922327042, -0.0025344383902847767, -0.0019430674146860838, -0.008915012702345848, -0.027677761390805244, 0.013085411861538887, 0.03216938301920891, 0.016180163249373436, 0.011218260042369366, -0.03387994319200516, 0.01602097973227501, 0.022890593856573105, -0.028144976124167442, -0.04579027742147446, -0.027222229167819023, -0.03254411742091179, -0.014837377704679966, -0.003448071423918009, -0.03350032866001129, -0.05052676796913147, -0.04676904156804085, -0.05407397449016571, -0.026399601250886917, -0.010489443317055702, -0.01856035739183426, -0.010418657213449478, -0.007814516313374043, -0.030196376144886017, -0.025292759761214256, -0.0194783303886652, -0.004178819712251425, -0.026674987748265266, -0.030084194615483284, -0.03946724534034729, 0.012282372452318668, -0.03423452377319336, -0.014878117479383945, -0.051259901374578476, -0.05305307358503342, -0.027703046798706055, -0.003064104588702321, -0.02491958625614643, 0.02290775254368782, 0.0041009001433849335, -0.020150497555732727, -0.03018558770418167, -0.01849849335849285, -0.01837022602558136, 0.01456727646291256, -0.027328001335263252, -0.028255781158804893, 0.01560361497104168, -0.008318762294948101, -0.05093971639871597, -0.0002479104732628912, -0.020754333585500717, 0.016364702954888344, 0.019050423055887222, -0.05040314421057701, 0.024504223838448524, -0.015712780877947807, 0.0031702315900474787, 0.0029890236910432577, -0.02541480027139187, -0.006839397829025984, -0.001371979364193976, -0.01876215822994709, -0.009456632658839226, -0.036291126161813736, -0.04289502277970314, 0.0020249090157449245, 0.005059043411165476, -0.001231000991538167, -0.006105841137468815, -0.023044481873512268, -0.012125765904784203, 0.05591550096869469, -0.001285600708797574, -0.04759925231337547, -0.034065131098032, -0.01007639616727829, 0.024126432836055756, 0.03399801254272461, 0.012292993254959583, -0.07507370412349701, -0.022391963750123978, 0.006981539074331522, 0.04036903753876686, 0.031356751918792725, -0.046185802668333054, 0.020637135952711105, 0.007329726591706276, 0.012344020418822765, 0.02343827486038208, -0.029434751719236374, -0.04484342411160469, -0.04558771103620529, -0.05186954140663147, -0.05982918664813042, -0.012175125069916248, -0.05682728439569473, -0.034060340374708176, -0.016036497429013252, -0.03934290632605553, -0.0519951656460762, -0.0047251982614398, 0.014018419198691845, 0.009015711955726147, -0.03551710024476051, -0.024283813312649727, 0.00548891257494688, -0.00977995153516531, -0.007687270641326904, -0.016907701268792152, -0.05239700898528099, -0.02149045094847679, -0.029314136132597923, -0.0011860402300953865, -0.053389742970466614], [0.06661224365234375, 0.012791917659342289, 0.0015442371368408203, 0.030813684687018394, 0.012461315840482712, 0.03268275409936905, 0.030437037348747253, 0.027176352217793465, 0.006682069506496191, 0.02561899833381176, 0.07866310328245163, 0.04895556718111038, 0.05079295486211777, 0.02490198239684105, -0.0022092468570917845, 0.022228097543120384, -0.02971423789858818, 0.0008138693519867957, 0.025599448010325432, -0.05066448077559471, 0.02379726432263851, -0.021977758035063744, 0.011688216589391232, -0.022463873028755188, -0.040961798280477524, -0.03662529215216637, -0.03667684271931648, -0.03355526179075241, 0.021855071187019348, 0.028080223128199577, 0.032142654061317444, 0.05125705897808075, -0.051452405750751495, -0.02959057129919529, 0.026937680318951607, 0.0622112900018692, 0.0316920131444931, -0.04109129309654236, 0.020692193880677223, 0.07632604986429214, 0.10951147228479385, 0.017383214086294174, 0.028531920164823532, 0.03229806572198868, 0.05879070237278938, 0.020057840272784233, 0.024006357416510582, 0.04096328839659691, 0.033577244728803635, -0.06079569086432457, 0.029034385457634926, -0.08125710487365723, -0.0764610543847084, -0.008329156786203384, 0.013783566653728485, 0.07123720645904541, 0.020401043817400932, -0.029846593737602234, 0.016752975061535835, 0.06530819088220596, 0.06471924483776093, 0.05677700415253639, -0.021862085908651352, 0.032402198761701584, 0.035563983023166656, 0.0679449588060379, 0.10154448449611664, 0.09500087797641754, 0.08819722384214401, 0.11443299055099487, -0.04655928164720535, -0.022519053891301155, 0.06105777993798256, 0.03930208459496498, 0.032684359699487686, -0.0763891339302063, -0.11561880260705948, -0.08634999394416809, -0.04001441225409508, -0.012878053821623325, 0.011978640221059322, -0.04497501999139786, -0.1338524967432022, -0.02924986742436886, 0.011029193177819252, 0.05188582092523575, 0.037831805646419525, -0.029286883771419525, -0.05124984681606293, -0.002964312443509698, 0.021118298172950745, 0.06649640202522278, 0.03051157295703888, 0.02558613196015358, 0.03883586451411247, 0.08445844799280167, 0.13227586448192596, 0.14862973988056183, 0.10322337597608566, 0.1022016629576683, -0.04885009676218033, -0.0574822761118412, -0.023330096155405045, 0.04636773094534874, 0.08595332503318787, 0.002498074434697628, -0.027825715020298958, -0.06632871180772781, -0.021547630429267883, 0.015095705166459084, 0.019185500219464302, 0.028931939974427223, 0.04306697100400925, 0.05293123424053192, 0.024419967085123062, 0.026354292407631874, 0.039266619831323624, 0.023205574601888657, 0.008313409052789211, -0.028969809412956238, -0.10054514557123184, -0.14547193050384521, -0.09449909627437592, -0.04741325229406357, -0.030331086367368698, -0.11259641498327255, -0.0744357630610466, -0.08571583032608032, -0.05189100652933121, -0.03489813581109047, -0.002733092289417982, -0.07797975838184357, -0.035026539117097855, 0.005693902727216482, -0.004594437312334776, 0.035798005759716034, 0.008494404144585133, -0.050370581448078156, -0.002200565068051219, 0.019083447754383087, 0.004533450584858656, 0.015562799759209156, 0.07954586297273636, 0.06723172217607498, 0.0047853440046310425, -0.0033160762395709753, 0.028848905116319656, 0.01541400421410799, -0.03423134237527847, -0.05829605832695961, 0.18135562539100647, 0.12252078950405121, 0.08859619498252869, 0.0021514021791517735, 0.04950248822569847, 0.025444447994232178, 0.05600767582654953, 0.04330720379948616, 0.03992466256022453, 0.07726031541824341, -0.09085243940353394, 0.020503127947449684, 0.019773559644818306, 0.07037636637687683, 0.04047396779060364, -0.13326580822467804, -0.13461914658546448, -0.09088414162397385, -0.10551642626523972, -0.10604020953178406, -0.20160220563411713, -0.2421402633190155, -0.17540407180786133, -0.13392071425914764, -0.07061614096164703, -0.10059820115566254, -0.1174108162522316, -0.00019897484162356704, 0.0631265863776207, 0.0952201783657074, -0.018678752705454826, 0.03279189392924309, -0.00923831481486559, 0.06502120196819305, 0.1512172520160675, -0.013999775052070618, 0.06483529508113861, 0.11324243247509003, 0.16196247935295105, 0.06113315001130104, 0.0221302080899477, 0.02998952567577362, 0.015378260985016823, 0.00013060153287369758, 0.0034549322444945574, -0.08388767391443253, -0.053098950535058975, 0.03380000591278076, -0.0025408861692994833, -0.10546627640724182, 0.09260162711143494, 0.035684727132320404, -0.01629384607076645, -0.009870197623968124, 0.062015317380428314, 0.010457828640937805, 0.0016311865765601397, 0.067473404109478, 0.01772037334740162, 0.0909825786948204, -0.0768451914191246, 0.030827807262539864, 0.019118675962090492, -0.004974378272891045, -0.03592734783887863, -0.08527100086212158, -0.06043270602822304, -0.06737978011369705, -0.08194490522146225, -0.09827876091003418, -0.14790906012058258, -0.14608553051948547, -0.08411595970392227, -0.0930815115571022, -0.022559426724910736, 0.12144096195697784, -0.01773647964000702, -0.05726468935608864, -0.027905844151973724, 0.04209401458501816, 0.12411744147539139, 0.04427744448184967, 0.049766164273023605, 0.07716865092515945, 0.08531127125024796, 0.16949224472045898, 0.027880465611815453, 0.038577526807785034, 0.03776537626981735, 0.10647106915712357, -0.006035709287971258, -0.00021256184845697135, 0.08055473119020462, 0.0703609436750412, -0.004356078803539276, -0.010632295161485672, -0.04414137825369835, 0.006304924841970205, -0.010544398799538612, -0.09212270379066467, 0.0035482512321323156, -0.032043784856796265, -0.028134891763329506, 0.04726382717490196, 0.01933574490249157, 0.010149373672902584, -0.002724874997511506, -0.01487599965184927, -0.0649014487862587, -0.02244136668741703, -0.001455478253774345, -0.010760035365819931, 0.09603734314441681, 0.027546780183911324, -0.005419288761913776, 0.021484684199094772, 0.0178467258810997, 0.02648683451116085, -0.05938595160841942, -0.09995177388191223, -0.0792323499917984, -0.1897885501384735, -0.195313960313797, -0.17135319113731384, -0.19027914106845856, -0.06227278336882591, -0.015449038706719875, 0.10002432018518448, -0.020140402019023895, -0.10405337810516357, -0.040608733892440796, -0.02485639601945877, 0.03806601092219353, 0.0013052566209807992, 0.002236381871625781, -0.0691429153084755, -0.05272578448057175, -0.07947146892547607, -0.047851305454969406, 0.05018541216850281, -0.09995048493146896, -0.02388399839401245, 0.06219172105193138, 0.04741281643509865, 0.024124357849359512, -0.16504651308059692, 0.02213062159717083, 0.03240795060992241, 0.03745197132229805, -0.012680578976869583, 0.14634382724761963, -0.029631055891513824, -0.04496394842863083, -0.022308163344860077, 0.10703780502080917, 0.05804723501205444, 0.01809706538915634, -0.015900131314992905, 0.015297669917345047, 0.06280335038900375, 0.0419975146651268, -0.04238311946392059, -0.056120336055755615, 0.00019532174337655306, -0.016732744872570038, -0.03511354699730873, -0.011361337266862392, 0.06859482079744339, 0.059601400047540665, 0.05312388390302658, -0.004927697125822306, -0.02066386304795742, -0.010233196429908276, 0.046071164309978485, 0.003678482724353671, -0.026457151398062706, 0.0024274755269289017, 0.01462372113019228, -0.005716962739825249, 0.007063025608658791, 0.0481928326189518, 0.048317015171051025, 0.06901425123214722, -0.02020489051938057, 0.059648238122463226, 0.02118004858493805, 0.12070542573928833, 0.03405191749334335, 0.028957854956388474, -0.0214125644415617, 0.051680486649274826, 0.08182947337627411, 0.027119845151901245, 0.010128352791070938, -0.052950531244277954, -0.044669851660728455, -0.06441296637058258, -0.09981632232666016, -0.12505190074443817, -0.09525750577449799, -0.13846033811569214, -0.14270788431167603, 0.047331586480140686, 0.10752984881401062, -0.01392351184040308, -0.021523304283618927, 0.002149130217730999, 0.0818309560418129, 0.04854966327548027, -0.02813391387462616, -0.01767338439822197, 0.1493113785982132, 0.007653382606804371, -0.04946255311369896, -0.08012845367193222, 0.02699570544064045, 0.07610386610031128, -0.071849025785923, -0.09013774991035461, -0.0015900239814072847, -0.11398201435804367, -0.014028801582753658, -0.13186906278133392, -0.08891696482896805, -0.00413194764405489, 0.038170963525772095, 0.020741306245326996, -0.024285227060317993, 0.04902219399809837, 0.08155606687068939, 0.008443915285170078, 0.005964652169495821, 0.008324027992784977, -0.02280513569712639, -0.004048630595207214, 0.06293988972902298, 0.020283663645386696, -0.0012175027513876557, 0.06438040733337402, 0.035111118108034134, 0.09136472642421722, -0.008056385442614555, 0.008967903442680836, 0.04640921950340271, -0.005049316678196192, 0.03918193280696869, -0.06379257142543793, -0.09128624200820923, -0.024723660200834274, -0.045216020196676254], [0.017574632540345192, 0.06953544914722443, 0.04194795712828636, 0.05391913652420044, 0.06026992201805115, 0.047122932970523834, -0.035591572523117065, -0.025556987151503563, -0.00925065204501152, -0.03736107796430588, -0.016754060983657837, -0.04963601380586624, -0.024486063048243523, -0.003147670766338706, 0.0068333884701132774, -0.000873490993399173, 0.03242351859807968, 0.06643224507570267, -0.020831255242228508, 0.018952295184135437, 0.006612399127334356, 0.01119865383952856, 0.041012100875377655, 