{"conv1.weight": [[[[0.037147242575883865, 0.07160645723342896, 0.0973624661564827, 0.041872601956129074, -0.002332578646019101], [-0.003901723073795438, 0.008068331517279148, 0.013199594803154469, -0.03887234255671501, -0.003642960684373975], [-0.040554262697696686, -0.021381424739956856, -0.052300866693258286, -0.054321806877851486, -0.031188074499368668], [0.006488339509814978, -0.06975891441106796, -0.002234988147392869, -0.02084311656653881, -0.08842052519321442], [-0.04475118964910507, 0.027383260428905487, -0.038654226809740067, -0.07009246200323105, -0.06597726792097092]], [[-0.054307665675878525, 0.028201323002576828, 0.05576581507921219, -0.056759148836135864, -0.06629151850938797], [0.012368369847536087, 0.01610674522817135, 0.00849867146462202, 0.04509086534380913, -0.06876946985721588], [0.02069643884897232, 0.012690501287579536, 0.026218993589282036, -0.03175676241517067, -0.06700391322374344], [-0.035520877689123154, 0.08592539280653, 0.011167598888278008, 0.019221942871809006, -0.08474183082580566], [0.0321134515106678, -0.029564565047621727, -0.06528951972723007, -0.07411868870258331, -0.0670313909649849]], [[0.15271589159965515, 0.11879487335681915, 0.13319438695907593, 0.1142091155052185, -0.0024986034259200096], [0.10090693831443787, 0.19613225758075714, 0.1843281090259552, 0.0879383236169815, -0.009168393909931183], [0.10344146937131882, 0.12425634264945984, 0.14286960661411285, 0.07700846344232559, -0.004460903350263834], [0.10432318598031998, 0.18328514695167542, 0.140156552195549, 0.05207554250955582, 0.019136808812618256], [0.08340456336736679, 0.09611640870571136, 0.09379884600639343, 0.013832125812768936, 0.07386747002601624]]], [[[0.10730521380901337, 0.16533951461315155, 0.17343734204769135, 0.19991181790828705, 0.1441231071949005], [0.12417978048324585, 0.09607581049203873, 0.22923687100410461, 0.1693197339773178, 0.16689719259738922], [0.00015437394904438406, 0.021810945123434067, 0.0775352194905281, 0.0011536976089701056, -0.021015888080000877], [-0.01802716962993145, -0.04776464030146599, -0.08905158936977386, -0.05609802529215813, -0.09229358285665512], [-0.12479104846715927, -0.1765909045934677, -0.19386933743953705, -0.09689906984567642, -0.06979738920927048]], [[0.006060148123651743, 0.058648280799388885, 0.05657248944044113, 0.10157129913568497, 0.048651743680238724], [0.032826635986566544, 0.03612940385937691, 0.029280925169587135, 0.024037107825279236, -0.01951930858194828], [-0.022901220247149467, -0.023937923833727837, -0.07663289457559586, -0.0936388149857521, -0.08243423700332642], [-0.09890223294496536, -0.04605155065655708, -0.0342559739947319, -0.0960841253399849, -0.15780824422836304], [-0.12279166281223297, -0.08369738608598709, -0.10717260092496872, -0.0949067547917366, -0.16950826346874237]], [[-0.01205163262784481, 0.04602387174963951, 0.03849693760275841, 0.06522585451602936, 0.04288148134946823], [0.058944445103406906, 0.050374530255794525, 0.056091975420713425, 0.05712570995092392, -0.03403472155332565], [0.038293659687042236, -0.07201799005270004, -0.03887036070227623, 0.0010340034496039152, -0.008178748190402985], [-0.041215136647224426, -0.011051991023123264, -0.04366246238350868, -0.00169290229678154, -0.008688152767717838], [-0.001416881219483912, -0.049758922308683395, -0.020020540803670883, -0.08482488989830017, 0.003370323684066534]]], [[[-0.02555735968053341, -0.03497558832168579, -0.0986032485961914, 0.010639067739248276, -0.01817214861512184], [-0.09317038208246231, -0.09170018136501312, -0.1440330147743225, -0.07161474227905273, -0.09387410432100296], [-0.19928689301013947, -0.10241681337356567, -0.11353401839733124, -0.12212773412466049, -0.15331131219863892], [-0.13176564872264862, -0.10859133303165436, -0.08642879128456116, -0.08248486369848251, -0.0006247801356948912], [0.033941227942705154, 0.04241111874580383, -0.0028025927022099495, -0.012262769974768162, -0.00025898334570229053]], [[0.02432778663933277, 0.017446542158722878, 0.08871094137430191, 0.04880116134881973, 0.08235574513673782], [0.017863638699054718, -0.010150604881346226, 0.023683816194534302, -0.0257610734552145, -0.017483128234744072], [-0.009092851541936398, -0.05104660987854004, -0.07466566562652588, 0.00048187305219471455, -0.029051151126623154], [0.0038404767401516438, 0.005478512495756149, -0.009732012636959553, 0.030682450160384178, 0.015542369335889816], [0.08939357101917267, 0.08700797706842422, 0.09905469417572021, 0.19961610436439514, 0.10336808860301971]], [[0.003165320958942175, 0.04389993101358414, 0.13890843093395233, 0.10279353708028793, 0.04959208890795708], [0.00117724877782166, 0.0715656504034996, 0.0623524934053421, 0.10711344331502914, 0.09022592008113861], [0.0027986965142190456, 0.08458946645259857, -0.0801643654704094, -0.03765664994716644, -0.04382730647921562], [0.018604448065161705, 0.023753270506858826, 0.056202907115221024, 0.014159470796585083, -0.004439655691385269], [0.061081524938344955, 0.008324694819748402, 0.07850557565689087, 0.03304213657975197, 0.0842779353260994]]], [[[-0.07356315106153488, -0.05418926849961281, 0.001709028030745685, -0.0013096393086016178, 0.030418509617447853], [-0.11212589591741562, -0.11771460622549057, -0.07665986567735672, 0.12229453772306442, 0.02704375423491001], [-0.09814518690109253, -0.19682253897190094, -0.02439054474234581, 0.15207740664482117, 0.05743822455406189], [-0.0815645158290863, -0.12589700520038605, 0.003802831983193755, 0.14560075104236603, 0.059376541525125504], [-0.13766586780548096, -0.00494915759190917, 0.0038882067892700434, 0.03351324796676636, 0.052044324576854706]], [[-0.04646472632884979, -0.0137324258685112, 0.05291805788874626, 0.010588638484477997, 0.04301968589425087], [-0.05783859267830849, -0.06847214698791504, 0.06024991348385811, 0.1049308329820633, 0.04467412829399109], [-0.06369172036647797, -0.17940829694271088, 0.07493235915899277, 0.19587504863739014, 0.05745541676878929], [-0.06076119467616081, -0.08909457176923752, 0.0891566053032875, 0.23596017062664032, 0.0785403847694397], [-0.0349157452583313, 0.011278945952653885, 0.0887051448225975, 0.11233575642108917, 0.0936230793595314]], [[-0.0650077536702156, -0.0878349021077156, -0.05026758089661598, 0.03429725021123886, -0.017452813684940338], [-0.06268105655908585, -0.09378869831562042, -0.012953488156199455, 0.05370507389307022, 0.03622902184724808], [-0.05155545473098755, -0.1400020271539688, -0.029994310811161995, 0.10011626780033112, -7.414224091917276e-05], [-0.008031416684389114, -0.09031600505113602, -0.04455322399735451, 0.09404370188713074, 0.09485563635826111], [-0.07836684584617615, -0.006205858662724495, 0.05770938843488693, -0.00823068805038929, -0.04039046913385391]]], [[[-0.028338486328721046, 0.008168180473148823, 0.04594333469867706, 0.0900154709815979, 0.15238365530967712], [-0.048515819013118744, -0.014720510691404343, -0.04072408750653267, 0.04614841192960739, 0.18008330464363098], [-0.037686191499233246, -0.14172294735908508, -0.061241865158081055, 0.037587057799100876, 0.15340140461921692], [-0.08863472938537598, -0.09132014960050583, -0.012810627929866314, 0.029471997171640396, 0.11927981674671173], [-0.025786912068724632, 0.0018215534510090947, -0.003930646926164627, 0.07737056165933609, 0.06552092730998993]], [[-0.07125268876552582, -0.14423032104969025, -0.08389998227357864, 0.0007068802369758487, 0.05791216716170311], [-0.1164306029677391, -0.19860269129276276, -0.1328049600124359, -0.07042978703975677, 0.021537767723202705], [-0.1414933204650879, -0.16240794956684113, -0.07066062092781067, -0.023349475115537643, -0.013820630498230457], [-0.08133607357740402, -0.10536644607782364, -0.0865204930305481, -0.022559884935617447, -0.018003612756729126], [-0.04314581677317619, -0.043363723903894424, -0.037383031100034714, 0.005385588854551315, 0.04267221689224243]], [[-0.0006351182819344103, -0.04747020825743675, 0.07524529099464417, 0.035068754106760025, 0.07325389981269836], [-0.018532223999500275, -0.05542106553912163, -0.019091445952653885, 0.07935860753059387, 0.05595128983259201], [-0.10125477612018585, -0.12723815441131592, -0.010676136240363121, 0.002107602311298251, 0.14504732191562653], [-0.026548126712441444, 0.006888128817081451, -0.013630900532007217, 0.06610694527626038, 0.13312079012393951], [0.04189310222864151, 0.06140749156475067, 0.0822206363081932, 0.11356879770755768, 0.15351051092147827]]], [[[0.10098971426486969, -0.016407225281000137, -0.09714247286319733, -0.11089695245027542, -0.08558999001979828], [-0.044514499604701996, -0.10242685675621033, -0.16969063878059387, -0.13659730553627014, -0.09274239838123322], [-0.034224703907966614, -0.02992582879960537, -0.09057559818029404, -0.08765588700771332, -0.07251736521720886], [0.01629318669438362, 0.027105653658509254, 0.1403774470090866, 0.13242632150650024, 0.09913580119609833], [-0.008873644284904003, 0.10030227154493332, 0.15163175761699677, 0.16289833188056946, 0.1534249633550644]], [[-0.0032127811573445797, -0.09777787327766418, -0.12115415185689926, -0.1110915020108223, -0.1173248291015625], [-0.041048482060432434, -0.11347149312496185, -0.10513526946306229, -0.15147776901721954, -0.13457490503787994], [-0.008486629463732243, -0.08624006807804108, 0.01978270336985588, -0.033999405801296234, -0.04346561059355736], [0.03836624696850777, 0.017688265070319176, 0.15212930738925934, 0.07637856900691986, 0.1059815064072609], [0.09576619416475296, 0.15590836107730865, 0.1557382196187973, 0.13507021963596344, 0.12486029416322708]], [[0.012309718877077103, -0.016661837697029114, -0.10040503740310669, -0.031119175255298615, -0.01694183424115181], [0.003817143151536584, -0.16417156159877777, -0.14268606901168823, -0.04764079675078392, -0.01701626554131508], [-0.06223200634121895, -0.05929792299866676, -0.07785800099372864, -0.10366569459438324, 0.03951442614197731], [0.08676211535930634, 0.018317868933081627, 0.08419524133205414, 0.07970458269119263, 0.006384999956935644], [0.11923340708017349, 0.06399548053741455, 0.1303049772977829, 0.05276767164468765, 0.10905365645885468]]]], "conv1.bias": [0.14672932028770447, -0.07738520205020905, 0.09703673422336578, 0.10872058570384979, -0.06409832835197449, 0.0791841596364975], "conv2.weight": [[[[0.045578014105558395, 0.07423561811447144, 0.03542115539312363, 0.032810963690280914, 0.09173969179391861], [0.03775625303387642, 0.02249271050095558, -0.02362295240163803, 0.02251356840133667, 0.07240870594978333], [-0.03019978292286396, 0.025185227394104004, 0.02060762606561184, 0.031678106635808945, 0.10450572520494461], [0.020369835197925568, 0.07476712763309479, 0.06308872997760773, 0.10107866674661636, 0.08761214464902878], [0.11334653198719025, 0.1484031230211258, 0.08386275172233582, 0.12572507560253143, 0.16537216305732727]], [[0.03977375850081444, 0.03947955742478371, 0.02032236009836197, -0.0052641830407083035, -0.02934427186846733], [0.047676894813776016, 0.004458095878362656, -0.0562392883002758, -0.08881094306707382, -0.030417175963521004], [0.016069162636995316, -0.04325949773192406, -0.06861669570207596, -0.03458689898252487, -0.04805196821689606], [0.0019422037294134498, 0.020966125652194023, 0.04519382119178772, -0.029170211404561996, -0.011502793058753014], [0.01509289350360632, 0.03703783079981804, 0.0800304114818573, -0.03158673271536827, -0.055617980659008026]], [[-0.013788135722279549, 0.035228680819272995, 0.0407443605363369, 0.001610444043762982, 0.054764289408922195], [0.011540680192410946, 0.0240242388099432, 0.03317396342754364, 0.018220093101263046, -0.013674954883754253], [-0.014930997975170612, -0.005284672603011131, -0.022774042561650276, -0.01302520465105772, 0.028695574030280113], [0.036172106862068176, -0.000708794395904988, -0.012400542385876179, 0.007871333509683609, 0.08682817965745926], [0.05677067115902901, 0.05562002211809158, 0.022145841270685196, 0.029820000752806664, 0.09715268760919571]], [[-0.0677831619977951, -0.043000299483537674, 0.04293622076511383, 0.09096802771091461, 0.03795681893825531], [-0.10283403098583221, -0.04615312069654465, -0.021392041817307472, 0.02091224491596222, -0.0023907707072794437], [-0.009996749460697174, -0.02475215680897236, -0.0034646717831492424, -0.06592965126037598, -0.1064353808760643], [0.03801196068525314, 0.004814397543668747, -0.06839106976985931, -0.10659408569335938, -0.09454921633005142], [0.0036885670851916075, -0.02956143021583557, -0.023325564339756966, -0.025758778676390648, -0.07534981518983841]], [[-0.048191316425800323, -0.07631751894950867, -0.027075447142124176, 0.0710996687412262, -0.04926685988903046], [-0.051539331674575806, 0.027153439819812775, 0.0641181543469429, 0.03464064002037048, -0.03600245714187622], [0.04714458808302879, -0.007227723952382803, 0.00101547094527632, -0.06611759215593338, -0.06708259135484695], [0.07242624461650848, -0.013022647239267826, -0.08577520400285721, -0.07788456231355667, -0.07370565086603165], [0.04255523160099983, -0.031122373417019844, -0.07458728551864624, -0.06028231233358383, -0.1478874236345291]], [[-0.019318340346217155, -0.07395908236503601, -0.03772663325071335, 0.035547319799661636, -0.020188787952065468], [-0.014726189896464348, 0.056194938719272614, -0.030001981183886528, -0.009171674959361553, -0.04260054975748062], [0.019044579938054085, 0.051263537257909775, 0.04665815457701683, -0.02357477694749832, -0.032714951783418655], [0.038692764937877655, 0.023945726454257965, -0.04441051185131073, -0.03940115496516228, -0.034895069897174835], [-0.006304964888840914, -0.07022840529680252, -0.05070963501930237, -0.046544771641492844, -0.057052258402109146]]], [[[-0.06451953202486038, -0.017103664577007294, 0.019391391426324844, -0.0006539419991895556, -0.007189035415649414], [-0.017865557223558426, -0.006208602339029312, -0.03266940265893936, 0.03116537630558014, 0.09601760655641556], [0.01966976374387741, -0.05512261018157005, 0.021924380213022232, 0.02894315868616104, 0.06359286606311798], [0.010615956038236618, 0.0029651254881173372, -0.007717294152826071, -0.009786206297576427, 0.05363977327942848], [0.017570123076438904, 0.035519495606422424, -0.013950184918940067, -0.005562427919358015, -0.0454961322247982]], [[0.038015175610780716, 0.04658699035644531, 0.04727044329047203, 0.04550126567482948, 0.03228415548801422], [0.008602150715887547, 0.047258734703063965, 0.048887502402067184, 0.033619772642850876, 0.042097389698028564], [0.027389951050281525, 0.02876860275864601, 0.02157624065876007, 0.007385489996522665, 0.05917609483003616], [0.019191840663552284, -0.10121627151966095, -0.048300690948963165, -0.001497649122029543, 0.013935938477516174], [-0.14216062426567078, -0.06077864021062851, -0.07292749732732773, -0.0043611833825707436, 0.004696554504334927]], [[-0.22749781608581543, -0.2418568730354309, -0.16440452635288239, -0.16081231832504272, -0.07104342430830002], [-0.16567356884479523, -0.2199452519416809, -0.14260943233966827, -0.08550890535116196, -0.03532447665929794], [-0.1376214623451233, -0.1911618560552597, -0.12773838639259338, -0.03548470139503479, -0.09419511258602142], [-0.05727885290980339, -0.21948839724063873, -0.22315706312656403, -0.09701967984437943, -0.05622348561882973], [-0.11715400218963623, -0.2029571682214737, -0.21182405948638916, -0.15882374346256256, -0.13284580409526825]], [[-0.03703238442540169, 0.00432590302079916, 0.05655048042535782, 0.023149756714701653, -0.013822326436638832], [-0.07059197127819061, 0.04211156442761421, 0.08488859981298447, 0.028359435498714447, 0.02348988503217697], [-0.017136137932538986, 0.021130869165062904, 0.012879095040261745, 0.011529693379998207, 0.03927090764045715], [0.10091052204370499, 0.07600540667772293, -0.04111211746931076, -0.05162543058395386, 0.046475667506456375], [0.1382674276828766, 0.1289471536874771, -0.019402366131544113, -0.015360113233327866, -0.014945474453270435]], [[-0.023155570030212402, 0.011684593744575977, 0.07364211231470108, 0.0017488858429715037, -0.05079096555709839], [-0.053653229027986526, -0.030451420694589615, 0.010946628637611866, 0.0693751871585846, -0.02224757894873619], [-0.03588151931762695, 0.01522056758403778, -0.025296349078416824, -0.026827331632375717, 0.014887223020195961], [0.007475331891328096, 0.0028678085654973984, -0.0777043029665947, -0.0674772784113884, 0.0003871493972837925], [0.11033371090888977, 0.056053485721349716, -0.08900590986013412, -0.051648687571287155, -0.048441819846630096]], [[-0.04031117260456085, -0.0023678482975810766, 0.05723944306373596, 0.04863892123103142, 0.04508856683969498], [-0.050836872309446335, 0.07122166454792023, 0.043300606310367584, 0.028556285426020622, -0.011445844545960426], [-0.01343237329274416, 0.00300216325558722, 0.06768148392438889, -0.040944185107946396, -0.014069123193621635], [-0.006882103160023689, -0.0188882015645504, -0.019012799486517906, -0.006372116971760988, -0.024225428700447083], [0.005565399769693613, -0.06195098161697388, -0.0541321262717247, 0.009147747419774532, 0.023701118305325508]]], [[[-0.06410664319992065, -0.013350604102015495, -0.007994516752660275, -0.09543607383966446, -0.11552701890468597], [-0.05607859417796135, 0.005631132982671261, 0.010967987589538097, -0.09191630035638809, -0.07902538776397705], [-0.006892980542033911, -0.010224430821835995, 0.01773136295378208, -0.015990501269698143, -0.05331115424633026], [0.05542463809251785, 0.04182057827711105, 0.05776800215244293, 0.030570341274142265, 0.05081161856651306], [0.03784975782036781, -0.02329435758292675, 0.06765707582235336, 0.03764776885509491, 0.04296879842877388]], [[0.008604434318840504, -0.004648206289857626, 0.04600593447685242, 0.008076509460806847, -0.024134136736392975], [-0.058333005756139755, -0.019532939419150352, 0.04119134694337845, -0.0364064946770668, -0.0287068709731102], [-0.12512344121932983, -0.06067027151584625, -0.012723887339234352, -0.011139866895973682, -0.052305564284324646], [-0.14328891038894653, -0.10595303028821945, -0.07678995281457901, -0.039189647883176804, -0.04802817106246948], [-0.0886543020606041, -0.10669507831335068, -0.03930279612541199, -0.03707713633775711, 0.060314808040857315]], [[0.06966457515954971, 0.02571132406592369, -0.0658678337931633, -0.08467903733253479, -0.010074012912809849], [0.021753201261162758, 0.02138848602771759, -2.104083432641346e-05, -0.029403191059827805, -0.07232606410980225], [0.03424859419465065, -0.015140242874622345, -0.007409438956528902, -0.12072720378637314, -0.07223246246576309], [-0.07200551778078079, -0.09487328678369522, -0.18962188065052032, -0.19057151675224304, -0.16429094970226288], [-0.08982574194669724, -0.06810889393091202, -0.15430118143558502, -0.16126711666584015, -0.21052934229373932]], [[0.10391101241111755, 0.13749130070209503, -0.09086208045482635, -0.026906147599220276, -0.007654620800167322], [0.12080670893192291, 0.16330845654010773, -0.08483617752790451, 0.03252377733588219, 0.035658229142427444], [0.08464597910642624, 0.1859547644853592, -0.06326106190681458, 0.03937205299735069, 0.12989285588264465], [0.07203589379787445, 0.12331894040107727, -0.12910759449005127, -0.029956266283988953, 0.06222119927406311], [0.028042545542120934, 0.03555626422166824, -0.10662726312875748, -0.061127543449401855, 0.005856653675436974]], [[0.14924992620944977, 0.12354622781276703, -0.012401193380355835, 0.005091332830488682, 0.038311492651700974], [0.14426083862781525, 0.09580381214618683, -0.07135088741779327, 0.03937770426273346, 0.058403849601745605], [0.05532751604914665, 0.028864426538348198, -0.10585671663284302, 0.01901305839419365, 0.062433160841464996], [-0.0011001412058249116, 0.04485365003347397, -0.15826335549354553, 0.04715634137392044, 0.05259376019239426], [-0.07489243149757385, -0.0513269267976284, -0.16340437531471252, -0.03197239339351654, 0.00043821148574352264]], [[0.057726647704839706, 0.08670060336589813, 0.11366179585456848, 0.05491386353969574, 0.07732640206813812], [0.00711771659553051, 0.06425602734088898, 0.03911611810326576, 0.032090842723846436, -0.006876002997159958], [0.016845572739839554, -0.02438155934214592, 0.013040564954280853, -0.008664540015161037, 0.028730489313602448], [-0.0950009673833847, -0.1502431035041809, -0.05105510726571083, -0.022033656015992165, -0.05149677023291588], [-0.08458083868026733, -0.16312198340892792, -0.07835263013839722, -0.07757316529750824, -0.10108131915330887]]], [[[-0.04355960711836815, -0.03831986337900162, 0.012299886904656887, -0.02715439349412918, -0.05670180916786194], [-0.00381807005032897, 0.027601666748523712, -0.031583767384290695, 0.05996119603514671, -0.01471843384206295], [-0.014349156990647316, -0.021138492971658707, -0.02378782257437706, 0.032578982412815094, -0.01994408667087555], [-0.04560030996799469, -0.12009508162736893, -0.07873506098985672, -0.03678275644779205, -0.1103057712316513], [-0.14657241106033325, -0.11545123904943466, -0.1054125502705574, -0.1831635981798172, -0.1724320650100708]], [[-0.09533039480447769, -0.03911278396844864, -0.07942191511392593, -0.035155151039361954, 0.0025750964414328337], [-0.046269118785858154, -0.01586259715259075, -0.05804792791604996, -0.033734530210494995, -0.015607322566211224], [0.002626928500831127, 0.04883285239338875, -0.02608429826796055, 0.06605156511068344, 0.07018312066793442], [-0.00816915463656187, 0.04938613250851631, 0.08293460309505463, 0.05517702177166939, 0.05607498809695244], [-0.04675251245498657, -0.02639615908265114, -0.0009113097912631929, -0.0033793088514357805, 0.0057094222865998745]], [[0.03475939854979515, -0.02765803597867489, 0.047316305339336395, -0.01526648085564375, -0.03960451856255531], [0.016826190054416656, -0.014418579638004303, 0.05078227445483208, -0.01881389319896698, 0.04598969593644142], [-0.02171456255018711, -0.003587177023291588, 0.025667130947113037, -0.012012332677841187, -0.10134497284889221], [0.0010514071909710765, -0.004203893709927797, 0.06832382082939148, 0.051163047552108765, 0.013777331449091434], [-0.0430586151778698, -0.04906173422932625, 0.022739781066775322, -0.006010052748024464, -0.006011268123984337]], [[0.07237266004085541, 0.09997453540563583, 0.0472908653318882, 0.042475685477256775, 0.05054125562310219], [0.09667477756738663, 0.12622427940368652, 0.11101353913545609, 0.0932927131652832, 0.08022263646125793], [0.1352713406085968, 0.10428115725517273, 0.08939668536186218, -0.04610108211636543, 0.07801511883735657], [0.07582324743270874, 0.006317354738712311, 0.07352856546640396, 0.03544146940112114, 0.1007268875837326], [0.10507544130086899, 0.06156446784734726, 0.0881393626332283, 0.021238094195723534, 0.09176240116357803]], [[-0.06472067534923553, -0.05040939152240753, -0.11722782999277115, -0.0770011618733406, -0.028530197218060493], [-0.08835604041814804, -0.06842426210641861, -0.1254192590713501, -0.08482545614242554, -0.011040233075618744], [-0.07664591819047928, -0.12201262265443802, -0.20456565916538239, -0.17004342377185822, -0.06938868016004562], [-0.10091187804937363, -0.22579947113990784, -0.15819036960601807, -0.1308787316083908, -0.030722929164767265], [-0.13736818730831146, -0.1522313505411148, -0.13662488758563995, -0.11436127871274948, -0.04425254836678505]], [[0.06659439951181412, 0.018932916224002838, 0.0450710654258728, 0.0203520767390728, 0.03730365261435509], [0.025086894631385803, 0.03532000631093979, 0.037111539393663406, 0.07160838693380356, 0.06456751376390457], [-0.03816649317741394, -0.027657607570290565, -0.07991942763328552, -0.05949240177869797, -0.035194337368011475], [-0.018123354762792587, -0.012138125486671925, 0.008566033095121384, 0.018873998895287514, 0.03792576864361763], [0.023022573441267014, 0.028899090364575386, 0.06672313064336777, 0.08582355082035065, 0.06756383925676346]]], [[[0.0069986628368496895, 0.010487515479326248, 0.009944126941263676, 0.02568471059203148, 0.029161296784877777], [0.02220095321536064, 0.06716503947973251, 0.04886578023433685, 0.07130923122167587, 0.047266069799661636], [0.010489796288311481, 0.030932901427149773, 0.01529440563172102, -0.026616346091032028, -0.031698133796453476], [-0.014651005156338215, -0.013254071585834026, -0.0419551245868206, -0.07382114976644516, -0.022784274071455002], [-0.06744083017110825, -0.13354605436325073, -0.09279756247997284, -0.06848359107971191, -0.06573294848203659]], [[0.027775337919592857, 0.054995227605104446, 0.048502568155527115, 0.05711504444479942, 0.13697479665279388], [0.08498386293649673, 0.10908165574073792, 0.1274259090423584, 0.08397266268730164, 0.08972132951021194], [0.094917431473732, 0.11835743486881256, 0.12348533421754837, 0.03518908470869064, 0.05421469733119011], [0.03421475738286972, -0.01771486923098564, -0.06862296909093857, -0.060933999717235565, -0.07301408052444458], [-0.004674714058637619, -0.05175962299108505, 0.01872187666594982, 0.05019091069698334, 0.07305051386356354]], [[-0.0574273057281971, -0.0016291693318635225, 0.01694057136774063, 0.009676476009190083, -0.02828134223818779], [-0.07275176048278809, -0.026099303737282753, -0.016549525782465935, -0.005905708763748407, -0.01589668169617653], [0.019651096314191818, 0.023309871554374695, 0.04253256693482399, -0.0016270671039819717, -0.017985383048653603], [0.04431117698550224, 0.06832536309957504, 0.06163042038679123, 0.049482960253953934, -0.004311746452003717], [0.013580912724137306, 0.05715351179242134, 0.019613375887274742, 0.013408441096544266, 0.020324474200606346]], [[0.12528914213180542, 0.1204189658164978, -0.016294607892632484, 0.030321931466460228, 0.017201179638504982], [0.08385659754276276, 0.06374121457338333, -0.048608433455228806, 0.033109914511442184, 0.0536046177148819], [-0.01497825887054205, 0.003707922762259841, -0.030470067635178566, 0.0005086971214041114, 0.013065860606729984], [-0.03555034101009369, 0.0008606646442785859, -0.07483832538127899, -0.011750050820410252, 0.059111688286066055], [-0.05838992819190025, -0.09157229214906693, -0.13868841528892517, -0.1176852434873581, -0.03802783414721489]], [[0.11787193268537521, 0.03407840058207512, -0.014437875710427761, -0.008883082307875156, 0.01915176771581173], [0.03951003775000572, -0.008042645640671253, -0.05359374359250069, -0.04324141517281532, -0.057990048080682755], [0.06338575482368469, 0.041272882372140884, 0.04479683190584183, 0.07469357550144196, 0.018477648496627808], [0.046285320073366165, 0.0022384850308299065, 0.013162546791136265, 0.001721493899822235, -0.0803099200129509], [-0.008037533611059189, -0.003972929436713457, 0.005181272514164448, -0.014007359743118286, -0.04447311908006668]], [[0.01878272369503975, -0.0033792154863476753, 0.040743473917245865, 0.025069357827305794, 0.015752147883176804], [-0.011931521818041801, 0.009871197864413261, -0.014495117589831352, 0.011431862600147724, 0.026326682418584824], [0.02428683638572693, 0.02859184518456459, 0.007974173873662949, 0.02163657918572426, -0.003318749601021409], [0.034968990832567215, 0.06951359659433365, -0.014155937358736992, 0.05993378907442093, -0.008265340700745583], [0.061938654631376266, 0.0009372898493893445, 0.022045442834496498, -0.03368864208459854, -0.07494290918111801]]], [[[-0.012267271988093853, 0.011494342237710953, 0.018757103011012077, -0.04568427801132202, -0.04324696213006973], [0.011617063544690609, 0.07305718213319778, -0.041249729692935944, -0.1544514000415802, -0.04745147377252579], [-0.006838961970061064, -0.03499739617109299, -0.11404622346162796, -0.09783805161714554, -0.050798945128917694], [-0.02817942015826702, -0.06715153157711029, -0.07240849733352661, -0.10000842809677124, -0.08129822462797165], [-0.007162177003920078, -0.06011580675840378, -0.07722803205251694, -0.05363752692937851, -0.03645568713545799]], [[0.006366100162267685, 0.006346489302814007, 0.038948431611061096, -0.018295807763934135, 0.028335323557257652], [0.0013927376130595803, 0.03134942054748535, -0.06987947970628738, -0.08790508657693863, -0.04788228124380112], [0.05928299203515053, -0.10969164222478867, -0.1680845022201538, -0.12423842400312424, -0.02256929874420166], [-0.009601714089512825, -0.13512563705444336, -0.09498477727174759, -0.11052965372800827, 0.00515013886615634], [0.021699989214539528, -0.04410349577665329, -0.07889878749847412, -0.0866069346666336, -0.029363319277763367]], [[0.062394727021455765, -0.009360071271657944, -0.0060782055370509624, -0.019807832315564156, 0.024448085576295853], [0.04904237762093544, -0.010370468720793724, -0.06610798835754395, -0.08018559217453003, 0.039144549518823624], [-0.01733875647187233, -0.050265293568372726, -0.1118568703532219, -0.020993174985051155, -0.04280911013484001], [-0.046834394335746765, -0.10255628824234009, -0.09116219729185104, -0.03180075064301491, -0.011220019310712814], [-0.026405947282910347, -0.07780661433935165, -0.0653628557920456, -0.06286343187093735, 0.008410489186644554]], [[-0.005400979891419411, -0.01667872816324234, -0.012928582727909088, 0.06532179564237595, 0.07319128513336182], [-0.001994363497942686, 0.006327686365693808, -0.0008982783183455467, 0.07208017259836197, 0.020238704979419708], [0.014565382152795792, 0.01375456340610981, 0.06524056196212769, -0.02066209726035595, -0.013151944614946842], [-0.007061732467263937, 0.031749095767736435, 0.0046479543671011925, -0.00927753932774067, -0.03697699308395386], [0.07573525607585907, 0.10693598538637161, 0.021110737696290016, -0.01786726526916027, -0.0668652355670929]], [[-0.021427428349852562, -0.02675621397793293, 0.030836915597319603, 0.016930898651480675, 0.07749321311712265], [-0.08873631805181503, 0.019195279106497765, 0.05022888258099556, 0.03153939172625542, 0.03222715109586716], [-0.0412316769361496, -0.04343293234705925, -0.002422077115625143, -0.033418457955121994, -0.026586638763546944], [0.0022010724060237408, 0.01651996746659279, -0.006390129216015339, -0.033662278205156326, -0.059682078659534454], [0.015164509415626526, -0.013048438355326653, -0.06803085654973984, -0.06475448608398438, -0.07717745751142502]], [[0.07376253604888916, 0.03792823851108551, 0.04113314673304558, 0.11468829959630966, 0.07280068099498749], [0.019519943743944168, 0.024670066311955452, 0.035789281129837036, 0.005889979191124439, 0.01879829727113247], [0.03304561600089073, 0.0406380333006382, 0.06551951169967651, 0.06658466905355453, 0.023046033456921577], [-0.019025497138500214, -0.002596097532659769, 0.020137496292591095, 0.07473606616258621, 0.05546875670552254], [0.04256698861718178, 0.046462345868349075, 0.046231869608163834, 0.056491121649742126, 0.05956712365150452]]], [[[0.015739044174551964, 0.08234956115484238, 0.04501641169190407, 0.05621642246842384, 0.08876825869083405], [-0.018553484231233597, 0.01823490671813488, 0.012171812355518341, 0.03636816516518593, 0.0715983584523201], [-0.0884978324174881, -0.04951371252536774, -0.0009040582808665931, 0.01358071155846119, -0.03384950011968613], [-0.15650226175785065, -0.0977560505270958, -0.04955814406275749, -0.007165233604609966, -0.058385297656059265], [0.0047141690738499165, -0.0625702515244484, -0.06785265356302261, -0.08741200715303421, -0.020875411108136177]], [[0.031132053583860397, 0.011813436634838581, -0.0018636176828294992, -0.06211918219923973, -0.0324883796274662], [0.013947809115052223, 0.005362506024539471, -0.03889042139053345, -0.08808622509241104, -0.0053804051131010056], [-0.007509903982281685, 0.010622454807162285, 0.015978490933775902, -0.06214316561818123, -0.01338168978691101], [-0.07404398918151855, -0.017848871648311615, 0.01777905598282814, -0.02745729684829712, -0.021933838725090027], [-0.05070573836565018, -0.012415997684001923, 0.05950895696878433, 0.016768518835306168, 0.03520764037966728]], [[-7.843645289540291e-05, 0.08607363700866699, 0.09008193761110306, 0.14275307953357697, 0.1544157713651657], [-0.004170035012066364, 0.07036731392145157, 0.03931834176182747, 0.07355944067239761, 0.09409486502408981], [-0.10020887106657028, -0.09211567789316177, -0.04538361728191376, -0.021217461675405502, 0.018841708078980446], [-0.16172800958156586, 0.04767027497291565, -0.0018560976022854447, 0.0350448414683342, -0.00868652481585741], [-0.18287262320518494, -0.02600593864917755, 0.023596154525876045, 0.04390200227499008, 0.03071407601237297]], [[-0.00021371629554778337, -0.04122500866651535, -0.13175825774669647, -0.13567738234996796, -0.10765965282917023], [0.06566469371318817, -0.03166472911834717, -0.15172411501407623, -0.13798315823078156, -0.09210695326328278], [0.06852143257856369, -0.012533959001302719, -0.05768686905503273, -0.14366327226161957, -0.0516955740749836], [-0.06924784928560257, -0.06668936461210251, -0.08265578746795654, -0.13218046724796295, -0.04090254008769989], [-0.06282661855220795, -0.0782165601849556, -0.06637884676456451, -0.05430625379085541, -0.0470009371638298]], [[0.16340555250644684, 0.007328961975872517, -0.002692293608561158, -0.01791580766439438, 0.13377860188484192], [0.0955832228064537, 0.038947004824876785, 0.029482923448085785, 0.014732317067682743, 0.07849818468093872], [0.025013338774442673, 0.01810954511165619, 0.019313693046569824, -0.03022756613790989, 0.09882041811943054], [0.02092486247420311, 0.05379917472600937, -0.04309708997607231, 0.012489216402173042, 0.05377762392163277], [0.009614109992980957, 0.06564835458993912, 0.048558901995420456, 0.057354073971509933, 0.04507764056324959]], [[0.014911824837327003, -0.08905135095119476, -0.08599361777305603, -0.12443795055150986, -0.039672791957855225], [0.012887797318398952, -0.06109838932752609, -0.04030248895287514, -0.03957325965166092, -0.004500388167798519], [0.13260400295257568, 0.030749183148145676, -0.03913409262895584, 0.01124648004770279, 0.09139730036258698], [0.20435790717601776, 0.16444867849349976, 0.06629420816898346, 0.03337056562304497, 0.00453079491853714], [0.18443500995635986, 0.14817477762699127, 0.17215244472026825, 0.07197404652833939, 0.019424069672822952]]], [[[-0.09352820366621017, -0.08266215771436691, -0.11088106781244278, 0.013801728375256062, 0.006326041184365749], [-0.09977415204048157, -0.07409453392028809, -0.028635123744606972, 0.041675690561532974, 0.036108534783124924], [-0.08053944259881973, -0.05853456258773804, 0.014649985358119011, -0.02999652363359928, 0.004484802484512329], [-0.015227913856506348, 0.01292143203318119, 0.024369675666093826, 0.012606385163962841, 0.05857383459806442], [0.09955383837223053, 0.10131734609603882, 0.10935007035732269, 0.13752073049545288, 0.1337951421737671]], [[-0.021003134548664093, -0.10800264030694962, -0.11125502735376358, 0.03947078809142113, 0.10332661867141724], [-0.09496600180864334, -0.1547262817621231, 0.05774802342057228, 0.11263252794742584, 0.10232280194759369], [-0.11413586884737015, -0.003116756211966276, 0.09488928318023682, 0.14230334758758545, -0.00842243805527687], [-0.012941802851855755, 0.03303153067827225, 0.04953845962882042, -0.039429936558008194, -0.07542574405670166], [-0.08725888282060623, -0.050658877938985825, -0.15221931040287018, -0.1263316571712494, -0.07827746868133545]], [[-0.10636388510465622, -0.05143722519278526, -0.033421020954847336, -0.039938248693943024, 0.044604118913412094], [-0.008862837217748165, -0.09745701402425766, -0.00354284537024796, 0.01729675568640232, 0.07577379047870636], [-0.1441788226366043, -0.14382779598236084, 0.015619012527167797, 0.012138912454247475, 0.07786811143159866], [-0.11711139976978302, -0.05511476472020149, 0.03986360505223274, 0.0487048402428627, -0.0034233913756906986], [-0.03537052869796753, -0.024421868845820427, 0.07546255737543106, -0.004178451839834452, 0.023998085409402847]], [[0.023449713364243507, 0.08181018382310867, 0.1496671438217163, 0.01270013302564621, -0.11382696777582169], [0.14529843628406525, 0.10355585813522339, 0.042852822691202164, -0.1064501702785492, -0.04951728507876396], [0.1103409007191658, 0.048367731273174286, -0.05419779196381569, -0.08869651705026627, 0.08627907186746597], [0.05003667250275612, -0.1165400817990303, -0.05055077001452446, -0.003567466279491782, 0.06525544077157974], [-0.02353387326002121, -0.030792037025094032, 0.03481357544660568, -0.039800189435482025, -0.006555185187608004]], [[0.037331026047468185, 0.028522921726107597, 0.09285843372344971, -0.0409640334546566, -0.13722391426563263], [0.08335605263710022, 0.03302525356411934, -0.030267173424363136, -0.12652213871479034, 0.003673926694318652], [0.022778362035751343, -0.10207442194223404, -0.22837038338184357, -0.05170966312289238, 0.14329926669597626], [0.006183119956403971, -0.009232359938323498, 0.024584848433732986, 0.036926012486219406, 0.07626407593488693], [0.020766759291291237, 0.02574506215751171, 0.0161273255944252, -0.0244345311075449, 0.0302437711507082]], [[-0.09779822081327438, -0.0008068433380685747, 0.009546658024191856, -0.030242448672652245, -0.14283257722854614], [-0.027264980599284172, 0.009339774027466774, -0.09606552869081497, -0.1096368208527565, 0.045947447419166565], [-0.0474960096180439, -0.18884696066379547, -0.06530900299549103, 0.03252900764346123, 0.1206359714269638], [-0.14344042539596558, -0.07148593664169312, 0.06204747036099434, 0.06607168912887573, 0.00583110935986042], [-0.014860148541629314, 0.08102168142795563, 0.08875381946563721, 0.01546492613852024, -0.052756767719984055]]], [[[-0.07794305682182312, -0.10279703885316849, -0.05171560123562813, -0.056279074400663376, -0.03320395573973656], [-0.04334189370274544, -0.05563991516828537, -0.011813179589807987, -0.0007517820922657847, 0.04889209568500519], [-0.06809396296739578, -0.040319301187992096, -0.04576047882437706, -0.012629863806068897, 0.007026744075119495], [0.0008297754684463143, -0.05768677592277527, -0.061547961086034775, -0.03205817937850952, -0.012767142616212368], [-0.020817220211029053, -0.029130592942237854, -0.01813598722219467, 0.01844385452568531, 0.04552409425377846]], [[0.04069753736257553, 0.043217387050390244, -0.0002940334379673004, 0.014674216508865356, 0.06144162639975548], [0.05312228947877884, 0.028088485822081566, -0.0023891988676041365, 0.02229614369571209, 0.0883394181728363], [-0.01102091372013092, 0.030715055763721466, 0.027093812823295593, 0.026723552495241165, 0.083761066198349], [0.09626605361700058, 0.09825721383094788, 0.14601869881153107, 0.13444969058036804, 0.12062704563140869], [0.05751389265060425, 0.016393685713410378, 0.05624282360076904, 0.1002061665058136, 0.10639947652816772]], [[-0.010134348645806313, 0.02773968130350113, 0.06343004107475281, 0.004692186135798693, -0.008238441310822964], [0.0722665786743164, 0.02081763744354248, 0.04516235738992691, 0.022963300347328186, 0.05631222203373909], [0.031680651009082794, 0.03379077836871147, 0.03367013856768608, 0.0580696277320385, -0.0165652334690094], [-0.04432680085301399, -0.06821531057357788, -0.039830781519412994, -0.06725878268480301, -0.045977089554071426], [0.0818009153008461, 0.12056010961532593, 0.10694730281829834, 0.09767291694879532, 0.07223347574472427]], [[0.009515823796391487, -0.028591733425855637, -0.03128160536289215, -0.08175373822450638, -0.1155775636434555], [0.013317188248038292, -0.020990850403904915, -0.07937073707580566, -0.0563526377081871, -0.012370829470455647], [-0.012433338910341263, 0.05213088169693947, -0.020183559507131577, -0.05327291414141655, -0.023510465398430824], [-0.11514070630073547, -0.023162344470620155, -0.02373209409415722, -0.04048316553235054, 0.006160349119454622], [-0.15640997886657715, -0.058546457439661026, -0.00532892532646656, -0.006576140411198139, 0.009502659551799297]], [[0.013436012901365757, 0.007096696179360151, 0.012809659354388714, -0.0833369567990303, -0.05174630507826805], [0.02100040763616562, 0.013058776035904884, -0.007493702229112387, 0.014707091264426708, 0.013310101814568043], [0.06708349287509918, 0.08515467494726181, 0.05149616673588753, -0.02508024126291275, 0.029128219932317734], [-0.052563443779945374, -0.02118731290102005, 0.02939058095216751, -0.005753850564360619, -0.008914814330637455], [-0.08526308834552765, 0.05396758392453194, 0.0844864472746849, 0.12690994143486023, 0.06307397037744522]], [[0.0006619567284360528, -0.0018714769976213574, -0.0028373878449201584, -0.05202255770564079, -0.08641932159662247], [-0.005662697367370129, -0.08543343842029572, -0.03023182787001133, -0.08625631034374237, 0.001769388560205698], [0.01606065221130848, 0.023805810138583183, -0.010465476661920547, -0.017028583213686943, -0.0009492496610619128], [-0.05551540106534958, 0.020334498956799507, -0.029798921197652817, 0.06817450374364853, 0.04232698306441307], [0.03573809191584587, 0.09242073446512222, 0.09191092848777771, 0.10392143577337265, 0.08179792016744614]]], [[[-0.04921303689479828, -0.024390218779444695, -0.04128893092274666, 0.01828874833881855, -0.021344177424907684], [-0.056382182985544205, -0.08992500603199005, 0.0019970149733126163, -0.05630124360322952, -0.0328003354370594], [-0.103936567902565, -0.00728104030713439, 0.03398086503148079, 0.017709048464894295, -0.07364451140165329], [-0.02216559275984764, 0.03587612509727478, 0.018305370584130287, -0.01792074367403984, -0.007958699949085712], [0.03353787213563919, 0.024459322914481163, -0.00041542426333762705, -0.00013191693869885057, 0.020450932905077934]], [[0.1009317934513092, 0.010413347743451595, -0.004669310990720987, -0.0060090553015470505, 0.03316759318113327], [-0.057823531329631805, -0.08499174565076828, -0.13196277618408203, -0.11275722831487656, -0.14855189621448517], [0.008497912436723709, -0.003667624434456229, 0.03707139194011688, 0.037318747490644455, 0.0039055903907865286], [0.03839093819260597, 0.04121255874633789, 0.06536810845136642, 0.028390415012836456, -0.023724166676402092], [0.07494504004716873, 0.07482895255088806, 0.0810653492808342, 0.009482732973992825, 0.06061242148280144]], [[0.06104658916592598, 0.07038848847150803, 0.08305415511131287, 0.053309328854084015, 0.10934191942214966], [0.09694378823041916, 0.1181325688958168, 0.1567898392677307, 0.15917694568634033, 0.10217288136482239], [0.05957739055156708, 0.03130196034908295, 0.03138154745101929, 0.0029993182979524136, -0.021398209035396576], [-0.025080880150198936, -0.024119680747389793, -0.058422647416591644, -0.030709223821759224, -0.01092119887471199], [-0.0644850879907608, -0.03851260244846344, -0.07635773718357086, 0.005191614851355553, -0.01373912114650011]], [[0.004537857137620449, -0.043167781084775925, 0.07698719203472137, 0.05404622107744217, 0.055218517780303955], [0.009380153380334377, 0.04649052023887634, 0.0799829363822937, 0.04598739370703697, -0.011117068119347095], [0.035033538937568665, 0.018259946256875992, 0.004514176398515701, -0.02191326767206192, -0.09904755651950836], [-0.004054962191730738, -0.10667639970779419, -0.14883387088775635, -0.13798010349273682, -0.09574779868125916], [-0.06271353363990784, -0.14134496450424194, -0.14548230171203613, -0.1537158191204071, -0.07615912705659866]], [[-0.007829808630049229, 0.061861924827098846, 0.038744207471609116, 0.04818369075655937, 0.03620396554470062], [0.10187136381864548, 0.12030661851167679, 0.07045608013868332, 0.06797697395086288, 0.03901030868291855], [0.0830979198217392, 0.09997156262397766, -0.04978271201252937, -0.053786829113960266, -0.06111375615000725], [-0.01813266985118389, -0.0508154034614563, -0.12708565592765808, -0.053862735629081726, -0.04633929207921028], [-0.04567341506481171, -0.11422643065452576, -0.06330552697181702, -0.04551834613084793, -0.04829344525933266]], [[-0.01907764934003353, 0.06601780652999878, 0.07585632801055908, 0.07058275490999222, -0.020140692591667175], [0.11606872826814651, 0.15424199402332306, 0.1462446004152298, 0.12810620665550232, 0.10790624469518661], [0.09243976324796677, 0.048887524753808975, 0.021642765030264854, 0.01469898410141468, 0.0014870561426505446], [-0.004663714673370123, -0.12908948957920074, -0.1744237095117569, -0.15933889150619507, -0.08667657524347305], [-0.13759687542915344, -0.2107834666967392, -0.22767038643360138, -0.21242402493953705, -0.1304684281349182]]], [[[-0.024507973343133926, -0.003799721598625183, 0.022697145119309425, -0.018163805827498436, 0.039718277752399445], [0.05479620024561882, -0.015156549401581287, -0.0028290243353694677, 0.026701796799898148, 0.010797986760735512], [0.03851962462067604, 0.06754997372627258, 0.06004665419459343, 0.021297531202435493, -0.018424982205033302], [-0.060981385409832, -0.04125918075442314, -0.04935942962765694, -0.00041199629777111113, 0.002996541792526841], [-0.041944004595279694, -0.07248354703187943, 0.0011820351937785745, -0.03694542124867439, -0.01441611535847187]], [[0.034629225730895996, 0.0020503774285316467, 0.018412642180919647, 0.08230499923229218, 0.10190871357917786], [0.01187608577311039, 0.08126147091388702, 0.05839157849550247, 0.062008339911699295, 0.033340051770210266], [0.11875121295452118, 0.06923681497573853, 0.08359656482934952, 0.013265246525406837, -0.030999571084976196], [0.14578329026699066, 0.0831894502043724, 0.0413498617708683, 0.058353640139102936, -0.06254568696022034], [0.14342348277568817, 0.052112508565187454, 0.07461054623126984, 0.0281390231102705, 0.026131749153137207]], [[0.04750622436404228, 0.11317504942417145, 0.08934122323989868, 0.07422029972076416, 0.024316435679793358], [-0.024055063724517822, -0.02146228961646557, -0.05191992223262787, -0.012931117787957191, -0.024454757571220398], [-0.027327559888362885, -0.060566533356904984, 0.004084356594830751, -0.03717363625764847, -0.08434639871120453], [0.017468957230448723, -0.0051514580845832825, 0.002437261864542961, -0.017681730911135674, -0.07271476835012436], [0.07513647526502609, 0.07790842652320862, 0.05419104918837547, 0.007699048146605492, 0.004887380171567202]], [[-0.03398929908871651, -0.046470459550619125, -0.040345657616853714, -0.03438358008861542, -0.1537441909313202], [0.061215683817863464, -0.043705880641937256, -0.05129162594676018, -0.10179692506790161, -0.04531062766909599], [0.07420818507671356, -0.059294380247592926, -0.05289747938513756, -0.03809666633605957, 0.0032249961514025927], [0.02068178728222847, 0.024823755025863647, 0.08428966999053955, 0.04874610900878906, 0.11394879966974258], [0.016867779195308685, 0.03149848058819771, 0.032694011926651, 0.032497338950634, 0.09992494434118271]], [[-0.027268825098872185, -0.008433027192950249, -0.016392888501286507, -0.003703974187374115, -0.12658259272575378], [-0.001083490438759327, -0.14563755691051483, -0.08526835590600967, -0.06507521867752075, 0.004660936538130045], [0.04049493744969368, -0.015922725200653076, 0.07504136115312576, 0.04817868024110794, 0.043005358427762985], [0.04484869912266731, -0.02334883250296116, 0.07583381980657578, 0.02907668612897396, 0.07243479788303375], [0.06379639357328415, 0.049662377685308456, 0.047364648431539536, 0.05408570542931557, 0.020186888054013252]], [[0.020644620060920715, 0.051084425300359726, 0.021481221541762352, -0.0866478905081749, -0.09007494896650314], [0.013183745555579662, -0.08029443770647049, -0.05098013952374458, -0.025554222986102104, 0.012837402522563934], [-0.06624888628721237, -0.04881870374083519, -0.0023274042177945375, 0.005612589884549379, 0.02540104277431965], [-0.029879525303840637, 0.024766327813267708, 0.015126626938581467, 0.012235721573233604, -0.041855715215206146], [0.0360279381275177, 0.0345425009727478, -0.013060438446700573, -0.029781650751829147, -0.054360561072826385]]], [[[0.061329420655965805, 0.014837714843451977, 0.09086988121271133, 0.10401637852191925, 0.07754959166049957], [0.015310720540583134, 0.00034145190147683024, 0.022461801767349243, 0.1370786428451538, 0.07199937105178833], [-0.03940915688872337, -0.09072587639093399, -0.04492328688502312, 0.016503313556313515, 0.02057894505560398], [-0.02696981653571129, -0.08526122570037842, -0.07777046412229538, -0.028507638722658157, 0.016727548092603683], [0.0247662290930748, -0.08048036694526672, -0.06264382600784302, 0.0015469458885490894, 0.03671323508024216]], [[0.04115758091211319, 0.03569575771689415, -0.008249807171523571, -0.10714980214834213, -0.046825654804706573], [0.08495223522186279, 0.014296269044280052, 0.001577685121446848, -0.10090304166078568, -0.07991699129343033], [0.0646994411945343, 0.009118854068219662, -0.029691345989704132, -0.03465412184596062, -0.0967676043510437], [0.016996368765830994, -0.02777412161231041, -0.06873069703578949, -0.024054959416389465, -0.060751091688871384], [0.02552534081041813, -0.06160331889986992, -0.09118808805942535, -0.03411581367254257, -0.06903252005577087]], [[-0.020684614777565002, -0.02093840390443802, 0.0007899127085693181, 0.05326826497912407, 0.054206423461437225], [-0.034849293529987335, 0.01068428996950388, 0.08591493219137192, 0.009950601495802402, 0.02921784669160843], [-0.03067897818982601, 0.0017332591814920306, 0.07731428742408752, 0.07869281619787216, 0.03324037045240402], [-0.017998160794377327, 0.041295476257801056, 0.02660324238240719, -0.03206881880760193, -0.02218172326683998], [-0.04098401218652725, -0.005193672608584166, -0.01834135130047798, -0.02554732747375965, -0.04811003431677818]], [[-0.02434011548757553, 0.0710742324590683, 0.0982825756072998, 0.08112619817256927, 0.051557984203100204], [-0.09036443382501602, 0.04820329323410988, 0.17962630093097687, 0.15506623685359955, 0.007079999893903732], [-0.08785117417573929, 0.018412312492728233, 0.19659554958343506, 0.141708642244339, -0.0029803854413330555], [-0.11029883474111557, -0.010393560864031315, 0.14466620981693268, 0.11211635917425156, 0.002111096866428852], [-0.06615231931209564, -0.06292390078306198, 0.06843370199203491, 0.056589275598526, -0.04472386837005615]], [[0.019686259329319, 0.06523602455854416, 0.09220778197050095, 0.06750744581222534, 0.03376741334795952], [0.009266245178878307, 0.06084698438644409, 0.0803200751543045, 0.04228617995977402, -0.027773313224315643], [0.0044175717048347, 0.15085117518901825, 0.15256762504577637, 0.06713280081748962, -0.06444896757602692], [0.03274718299508095, 0.10109679400920868, 0.16717834770679474, 0.09163755178451538, -0.08328071981668472], [0.030192874372005463, 0.041712045669555664, 0.169672891497612, 0.08939962834119797, -0.019058289006352425]], [[-0.034645434468984604, -0.04909367486834526, -0.04138336703181267, 0.024402139708399773, -0.041039593517780304], [-0.030568111687898636, -0.017619118094444275, -0.04445512965321541, -0.06898454576730728, -0.07449792325496674], [0.03050609491765499, 0.03445184975862503, -0.07839658856391907, -0.162602499127388, -0.08382420241832733], [0.05223001539707184, 0.07186752557754517, -0.020857425406575203, -0.18423926830291748, -0.13307912647724152], [0.0231289304792881, 0.053409263491630554, -0.010864023119211197, -0.12438768148422241, -0.1118837520480156]]], [[[0.06803862005472183, 0.032674409449100494, 0.04537846893072128, 0.06204573065042496, 0.09638360887765884], [0.011696461588144302, -0.016378529369831085, 0.006987571716308594, -0.011337507516145706, 0.021713590249419212], [-0.03194195777177811, -0.06470619887113571, -0.07350236177444458, -0.10821184515953064, -0.04771355539560318], [-0.09320803731679916, -0.05024322122335434, -0.04762463644146919, -0.008012128062546253, -0.04016456753015518], [-0.02954743057489395, -0.0013300342252478004, 0.01584174484014511, -0.014590775594115257, -0.04915739968419075]], [[0.02417025901377201, 0.09416959434747696, 0.08115552365779877, 0.1273701936006546, 0.08608800172805786], [0.013442342169582844, 0.01326568704098463, -0.01769435591995716, -0.0033130329102277756, 0.06824950873851776], [0.007475268095731735, -0.003478826954960823, 0.0040252055041491985, 0.0566023588180542, 0.17776133120059967], [-0.031073540449142456, -0.02100449614226818, -0.04482113942503929, 0.022258475422859192, 0.07794586569070816], [-0.021281663328409195, 0.05327511578798294, 0.023522011935710907, 0.028786538168787956, -0.004883188288658857]], [[0.158249169588089, 0.16228249669075012, 0.1911134272813797, 0.13959796726703644, 0.14324922859668732], [0.13695281744003296, 0.11700195074081421, 0.14633691310882568, 0.14494583010673523, 0.1140872910618782], [0.12052441388368607, 0.08665988594293594, 0.08723209798336029, 0.12241349369287491, 0.07423004508018494], [0.08924499154090881, 0.021256521344184875, 0.0186929889023304, 0.025652572512626648, 0.08116291463375092], [0.022361120209097862, 0.0063837068155407906, 0.010006215423345566, 0.009562176652252674, 0.023751992732286453]], [[-0.08499519526958466, -0.15418462455272675, -0.14471204578876495, -0.0902935042977333, 0.0007599849486723542], [-0.21226127445697784, -0.20369373261928558, -0.12879815697669983, -0.09358906000852585, -0.04444434866309166], [-0.09376981109380722, -0.05954572185873985, -0.09899452328681946, -0.1189495101571083, -0.10270404070615768], [0.021825803443789482, -0.0139198899269104, -0.012462591752409935, -0.02021832950413227, -0.048696115612983704], [0.06861735880374908, 0.06223365664482117, 0.04546355456113815, 0.005408340133726597, 0.016558902338147163]], [[0.04836888983845711, -0.004711363464593887, 0.007116517052054405, 0.05203935503959656, -0.009265484288334846], [0.01425420306622982, -0.020282575860619545, 0.020460017025470734, 0.07485437393188477, 0.07885674387216568], [-0.008525769226253033, 0.02197868935763836, -0.017686612904071808, -0.0043684812262654305, -0.06257081776857376], [-0.022204043343663216, -0.019902165979146957, -0.01831299066543579, -0.06278123706579208, -0.043703269213438034], [0.09283003211021423, -0.007461934816092253, 0.006663855165243149, -0.02131364867091179, -0.08954602479934692]], [[0.02409781701862812, -0.008597860112786293, -0.03190988674759865, -0.08014772832393646, -0.0734199658036232], [0.06685956567525864, 0.03181027993559837, 0.08598309010267258, 0.05644194781780243, 0.09827221930027008], [0.010048557072877884, 0.052407559007406235, 0.004531072918325663, 0.026654092594981194, -0.05033499002456665], [0.07159343361854553, -0.046118561178445816, -0.01093435101211071, -0.015758266672492027, -0.018421325832605362], [-0.08702016621828079, -0.015118304640054703, -0.05983451381325722, -0.026922116056084633, -0.05049878731369972]]], [[[0.001820511999540031, 0.025543099269270897, -0.004972922615706921, 0.06589849293231964, 0.014636221341788769], [-0.016242289915680885, 0.026327937841415405, 0.0014507073210552335, -0.043405432254076004, 0.03509247303009033], [0.011501253582537174, 0.04312436282634735, 0.016934039071202278, 0.011687356047332287, 0.08252019435167313], [0.04280238598585129, 0.03253432735800743, 0.009814554825425148, 0.04960200563073158, 0.07091561704874039], [-0.012665007263422012, 0.007137997541576624, 0.051693275570869446, 0.046656377613544464, 0.12129266560077667]], [[0.05043419077992439, 0.011405673809349537, 0.023015381768345833, 0.06434615701436996, 0.049536045640707016], [-0.06141097471117973, 0.025507094338536263, 0.05985499918460846, 0.03142479434609413, -0.027603283524513245], [-0.008124226704239845, 0.10579363256692886, 0.10845845192670822, -0.017605477944016457, -0.08330030739307404], [0.13274702429771423, 0.10150384902954102, -0.03599153459072113, -0.1026705950498581, -0.07515960931777954], [0.10950707644224167, 0.02887663058936596, -0.04990875720977783, -0.05410683527588844, -0.09648525714874268]], [[-0.12420835345983505, -0.027008136734366417, 0.02491142600774765, 0.06349203735589981, 0.09563963115215302], [-0.11254309117794037, -0.07610558718442917, -0.08042565733194351, -0.01482608262449503, 0.05110618472099304], [-0.09539652615785599, -0.09371328353881836, -0.06850691139698029, -0.10336847603321075, -0.033990245312452316], [-0.06658973544836044, -0.0948462039232254, -0.020559091120958328, -0.022796783596277237, -0.03865998238325119], [-0.06459981948137283, -0.05686720088124275, -0.05263056233525276, 0.0055347466841340065, 0.017283130437135696]], [[0.09597404301166534, 0.13797904551029205, -0.05351215973496437, -0.04488295689225197, 0.08069217950105667], [0.012599483132362366, 0.0337606817483902, 0.0005678568850271404, -0.009319541975855827, 0.108090341091156], [0.014776766300201416, -0.08031506091356277, -0.03169520944356918, -0.05194243788719177, -0.006702241953462362], [-0.04946482926607132, -0.1946844458580017, -0.08683188259601593, -0.03109702840447426, -0.013633429072797298], [-0.22317594289779663, -0.12764832377433777, -0.13499711453914642, -0.11328193545341492, -0.11105053871870041]], [[0.08918136358261108, 0.10823312401771545, -0.010364800691604614, 0.06505321711301804, 0.14096830785274506], [0.07818039506673813, -0.04593028500676155, -0.05540795996785164, 0.09826917946338654, 0.16160063445568085], [0.007844300009310246, -0.05053602531552315, 0.04219535365700722, 0.08725976198911667, 0.10444770753383636], [-0.1031760647892952, -0.10107827186584473, 0.09761761873960495, 0.15423589944839478, 0.04008312523365021], [-0.1080106720328331, -0.04771609604358673, 0.056851085275411606, 0.0824524387717247, 0.009193362668156624]], [[0.05542009696364403, 0.015983428806066513, 0.017852792516350746, 0.03941059112548828, 0.16302871704101562], [0.04909897223114967, 0.018613353371620178, 0.010035786777734756, 0.12049156427383423, 0.12827299535274506], [0.00766791170462966, -0.033231448382139206, 0.02078557200729847, 0.07285235077142715, 0.028083249926567078], [-0.024731550365686417, -0.02535412646830082, 0.05226767063140869, 0.07361985743045807, 0.038257092237472534], [-0.040927812457084656, 0.011914373375475407, 0.08384189754724503, 0.022621339187026024, 0.010112415067851543]]], [[[0.051305145025253296, 0.0013428650563582778, 0.003076145425438881, -0.09462760388851166, -0.1381843537092209], [0.1322721391916275, 0.023880494758486748, -0.04290824010968208, -0.1260094940662384, -0.14631283283233643], [0.13509653508663177, 0.1193028911948204, -0.025320345535874367, -0.08906284719705582, -0.08552126586437225], [0.17238448560237885, 0.1380518078804016, -0.03302816301584244, -0.05380087345838547, -0.07114024460315704], [0.15669135749340057, 0.08977026492357254, -0.015698853880167007, -0.05343834310770035, -0.028754571452736855]], [[-0.10276763141155243, 0.03829241916537285, 0.12164994329214096, 0.07180019468069077, 0.09170947968959808], [-0.08276680111885071, 0.006313262972980738, 0.03710491582751274, 0.036320049315690994, 0.025926262140274048], [0.03675471246242523, -0.04510172829031944, -0.049049559980630875, -0.03366483375430107, 0.0031029931269586086], [0.046223413199186325, -0.01391556579619646, -0.041136812418699265, -0.07350491732358932, -0.024489784613251686], [0.07726617902517319, 0.019239436835050583, -0.009806822054088116, -0.006106429733335972, -0.04234534502029419]], [[0.12094433605670929, 0.04603112116456032, -0.05126955360174179, -0.12955600023269653, -0.11489485204219818], [0.1665792167186737, 0.06383425742387772, -0.03129857778549194, -0.16545231640338898, -0.20811545848846436], [0.1455564647912979, 0.03855280950665474, -0.13283948600292206, -0.2303805649280548, -0.20828500390052795], [0.17410531640052795, 0.05528509244322777, -0.08911927789449692, -0.1505274474620819, -0.2052585482597351], [0.1466694176197052, 0.10965942591428757, 0.04584913328289986, -0.03212136775255203, -0.08734749257564545]], [[0.0003216825716663152, 0.04944080486893654, 0.050318505614995956, 0.009623285382986069, -0.0075827245600521564], [-0.052427832037210464, -0.11721886694431305, -0.07650205492973328, 0.025406625121831894, 0.044837385416030884], [-0.06741848587989807, -0.23143690824508667, -0.06059686094522476, 0.09730703383684158, 0.06490197032690048], [-0.07804376631975174, -0.18527507781982422, -0.011879632249474525, 0.06537440419197083, 0.020265858620405197], [-0.07587973773479462, -0.13618747889995575, -0.01627470925450325, 0.04442606121301651, 0.03501692786812782]], [[0.028194468468427658, -0.002828476717695594, 0.04913753643631935, -0.03642812371253967, 0.04091992974281311], [-0.07153133302927017, -0.03946782276034355, -0.004455517511814833, 0.07801532745361328, 0.019643189385533333], [-0.09998054802417755, -0.10151400417089462, 0.045480579137802124, 0.0772102102637291, 0.062230776995420456], [-0.10850585252046585, -0.04314223676919937, 0.0409875325858593, 0.0638897567987442, 0.09494344145059586], [-0.10770475119352341, -0.06670017540454865, 0.08155170828104019, 0.10517609864473343, 0.09586727619171143]], [[0.1090087965130806, 0.06217362359166145, 0.006299024447798729, -0.114247165620327, -0.0410919114947319], [0.07978920638561249, 0.0508393868803978, 0.029005032032728195, -0.06279515475034714, -0.014229349792003632], [-0.09908183664083481, -0.031212644651532173, 0.028446780517697334, 0.027466431260108948, -0.024424294009804726], [-0.13761639595031738, -0.05461784824728966, -0.020470689982175827, 0.022037934511899948, 0.011937533505260944], [-0.08671362698078156, -0.03609533607959747, 0.059320561587810516, 0.05629458650946617, 0.0011106785386800766]]], [[[0.076450876891613, 0.07516028732061386, 0.0856361910700798, 0.05945401266217232, 0.06736422330141068], [0.05598637834191322, 0.10458937287330627, 0.1100051999092102, 0.07573140412569046, 0.019833046942949295], [0.013134022243320942, 0.05021447688341141, 0.0488472543656826, -0.009799987077713013, -0.04373075067996979], [0.053661592304706573, 0.002146868035197258, -0.012920944020152092, -0.07867859303951263, -0.12044976651668549], [0.06251566857099533, 0.06470154970884323, 0.022677738219499588, -0.01023948471993208, -0.022817907854914665]], [[0.10995566844940186, 0.0492657795548439, 0.03830001503229141, 0.06196797266602516, 0.08818020671606064], [0.0603480227291584, 0.06320123374462128, 0.05199665576219559, -0.006919677369296551, 0.009810994379222393], [0.06474391371011734, 0.06381018459796906, 0.09133026003837585, 0.0552452877163887, 0.06334172189235687], [0.051307015120983124, 0.06657404452562332, 0.014970551244914532, 0.05966636538505554, 0.03654716908931732], [0.059494487941265106, 0.04250440374016762, 0.04079250246286392, 0.040832895785570145, 0.010842136107385159]], [[0.04472925513982773, 0.02451532520353794, 0.03908586502075195, 0.08182885497808456, 0.06982339918613434], [-0.039993107318878174, -0.053517479449510574, -0.0674174502491951, -0.0504332073032856, 0.03227156400680542], [-0.07543821632862091, -0.01405845396220684, -0.040995847433805466, -0.07185526192188263, -0.026764292269945145], [0.030203556641936302, -0.0510004460811615, -0.06167791038751602, -0.032359492033720016, -0.05226035416126251], [-0.016969414427876472, -0.03739236667752266, -0.044993966817855835, -0.00834723375737667, 0.03957226499915123]], [[-0.07993212342262268, -0.056845299899578094, -0.07159703224897385, -0.08085931092500687, -0.13314777612686157], [0.012610682286322117, -0.05470862612128258, -0.11135774850845337, -0.07762235403060913, -0.14173421263694763], [-0.04880706965923309, -0.023295536637306213, -0.14295418560504913, -0.1669132560491562, -0.10451670736074448], [-0.1276521235704422, -0.09553708881139755, -0.16488341987133026, -0.16113458573818207, -0.14922243356704712], [-0.1256418377161026, -0.11055923998355865, -0.11915501207113266, -0.15391245484352112, -0.09441632777452469]], [[-0.07918853312730789, -0.03663668408989906, -0.0394398495554924, -0.0728493481874466, -0.10690347105264664], [-0.0513899140059948, -0.09837356209754944, -0.16291353106498718, -0.15631940960884094, -0.13812166452407837], [-0.10153411328792572, -0.1214638501405716, -0.20449766516685486, -0.11956935375928879, -0.15969082713127136], [-0.029568538069725037, -0.05444607138633728, -0.01763487420976162, -0.01508160401135683, 0.001950290985405445], [0.007910809479653835, -0.02393331192433834, -0.007888316176831722, -0.008142645470798016, 0.0035855229943990707]], [[0.06911719590425491, 0.11024120450019836, 0.09474541246891022, 0.07581474632024765, 0.05182931572198868], [0.056937914341688156, 0.0707383006811142, 0.08255431056022644, 0.07015916705131531, 0.04219073802232742], [0.002678131917491555, 0.03283854201436043, -0.0005291871493682265, -0.018310226500034332, 0.011361133307218552], [0.0931323915719986, 0.05685965344309807, 0.03000323846936226, 0.04909240081906319, -0.008864020928740501], [0.03297596424818039, 0.07135610282421112, 0.012369483709335327, -0.008295988664031029, -0.010696042329072952]]]], "conv2.bias": [0.2108146995306015, 0.20612190663814545, -0.014445377513766289, 0.07418859004974365, -0.12052863091230392, 0.21966975927352905, -0.051793016493320465, 0.13035477697849274, -0.1466909945011139, -0.050365716218948364, -0.18031033873558044, -0.16933970153331757, -0.02866504341363907, -0.15050216019153595, 0.11121714115142822, 0.036017365753650665], "fc1.weight": [[-0.021974332630634308, -0.03035428747534752, -0.0037068245001137257, -0.030899852514266968, -0.010221576318144798, 0.006987190805375576, -0.026093864813447, 0.015544334426522255, -0.013332312926650047, -0.04931570217013359, -0.026200365275144577, -0.02184380404651165, -0.0195901021361351, -0.008981568738818169, -0.05698731914162636, -0.013808720745146275, -0.03594546765089035, -0.0106663778424263, -0.030546478927135468, -0.05415462702512741, -0.03598332032561302, -0.04759064316749573, -0.04518283158540726, -0.03278558701276779, -0.05443960055708885, -0.015363331884145737, -0.03646181523799896, -0.005466364324092865, -0.014785489067435265, 0.018854036927223206, -0.008014708757400513, -0.03113042376935482, 0.020850112661719322, -0.0355173759162426, -0.022004907950758934, -0.01268953736871481, -0.014171014539897442, -0.042669668793678284, -0.029491864144802094, -0.014756131917238235, -0.05394429340958595, -0.028029825538396835, -0.015088172629475594, -0.04356943070888519, -0.027119575068354607, -0.035721756517887115, -0.007922759279608727, -0.05918654054403305, -0.01481445599347353, 0.00787162221968174, 0.004494819790124893, -0.0034024312626570463, 0.026815760880708694, 0.027777209877967834, -0.025805896148085594, -0.010237026959657669, -0.008945266716182232, 0.014346948824822903, 0.0155490692704916, -0.014336061663925648, -0.0034797079861164093, 0.004878388252109289, 0.02378355897963047, 0.0421409085392952, 0.006607256829738617, 0.01232965663075447, 0.0065012602135539055, -0.0017487764125689864, 0.01854695752263069, -0.023774052038788795, -0.014535238966345787, -0.0008061600383371115, -0.0024987543001770973, 0.006156370043754578, 0.04120496287941933, 0.028318889439105988, -0.03199980407953262, -0.015085442923009396, -0.0156804621219635, -0.018065134063363075, 0.031664423644542694, 0.0005744990194216371, 0.00794229470193386, 0.01469242200255394, -0.006131901405751705, 0.00362869119271636, 0.005658479407429695, -0.011669223196804523, 0.021568400785326958, 0.02454667165875435, 0.049625612795352936, 0.013935169205069542, -0.013045353814959526, 0.02778344787657261, 0.016809217631816864, -0.004396319389343262, -0.008203343488276005, 0.010230408050119877, -0.02933390438556671, 0.0052860635332763195, -0.0001428432879038155, 0.007653144188225269, 0.015087404288351536, 0.030096707865595818, 0.02833322249352932, -0.0029907580465078354, -0.042846351861953735, -0.006728616077452898, -0.03308044746518135, -0.01633744314312935, -0.004196578171104193, -0.025172045454382896, 0.038481567054986954, -0.009118380025029182, 0.013471127487719059, -0.01296238973736763, -0.009276938624680042, 0.025588059797883034, -0.008869840763509274, -0.008858694694936275, -0.023211997002363205, -0.026012711226940155, -0.017906554043293, -0.03477051109075546, -0.022198272868990898, -0.010429385118186474, 0.0015020892024040222, 0.010838814079761505, 0.012251565232872963, -0.01862568035721779, -0.004736104980111122, 0.00498996814712882, -0.028874529525637627, -0.002212666440755129, -0.00860297679901123, -0.03184004873037338, -0.00618438795208931, -0.025510137900710106, -0.011039921082556248, -0.013294139876961708, -0.01589757576584816, -0.016758939251303673, -0.03306679427623749, -0.012082445435225964, -0.030358586460351944, 0.0009304996347054839, -0.03362934663891792, -0.0423668697476387, -0.023536039516329765, -0.02311129681766033, -0.027041073888540268, 0.002608340932056308, -0.01696554757654667, 0.015172069892287254, 0.02097063697874546, -0.01612730883061886, 0.009710622951388359, 0.005962181370705366, -0.033895622938871384, 0.0151564572006464, 0.0010718000121414661, -0.015690183266997337, -0.000836455961689353, 0.005913875997066498, -0.01377645879983902, 0.02238190546631813, 0.014591311104595661, -0.011087022721767426, -0.014537876471877098, 0.005661400500684977, 0.0018314836779609323, 0.018148496747016907, 0.020890580490231514, -0.014635908417403698, -0.03743799403309822, -0.012275906279683113, -0.013134930282831192, -0.008040688000619411, -0.014772340655326843, -0.023662935942411423, -0.022907597944140434, 0.005400745198130608, -0.01026469748467207, -0.0019461209885776043, -0.009738447144627571, 0.00910155288875103, -0.006467409431934357, -0.013424486853182316, -0.004895301535725594, 0.01832425966858864, -0.0005226864595897496, -0.01344848982989788, 0.0023448392748832703, -0.009291165508329868, -0.02516673132777214, -0.03942912444472313, 4.512118175625801e-05, 0.0041391607373952866, -0.03516467288136482, -0.006196172907948494, 0.02907215990126133, -0.0267036072909832, -0.04027702286839485, 0.020512975752353668, 0.02338758111000061, 0.01713504083454609, -0.005597254727035761, -0.013364611193537712, 0.006409025751054287, 0.009334569796919823, 0.012398670427501202, 0.017299918457865715, 0.012038720771670341, 0.009639575146138668, -0.03610067442059517, -0.03327655419707298, 0.008554000407457352, 0.045671623200178146, 0.005528079811483622, -0.004541327245533466, -0.004240015987306833, 0.008341672830283642, 0.004387662746012211, 0.02804332599043846, -0.011418549343943596, 0.015577878803014755, -0.02585509978234768, -0.032732270658016205, -0.023295540362596512, -0.027588872238993645, 0.004708278924226761, -0.009317668154835701, 0.014816084876656532, 0.00640612468123436, -0.020793253555893898, -0.012550453655421734, -0.012263026088476181, 0.023507114499807358, 0.0015436087269335985, -0.019796982407569885, -0.011684736236929893, -0.005246514920145273, 0.01264779269695282, -0.010295345447957516, -0.0551171600818634, -0.024890311062335968, -0.03082892671227455, -0.044573668390512466, -0.038948286324739456, -0.0021218894980847836, 0.008893399499356747, -0.01656547375023365, -0.012810492888092995, -0.023514777421951294, -0.006509004160761833, 0.015394103713333607, 0.003226903732866049, -0.017594177275896072, -0.009335888549685478, 0.01706751063466072, -0.012074027210474014, 0.00032822374487295747, -0.024006720632314682, -0.01635405793786049, -0.004749774932861328, -0.01260954886674881, 0.007990040816366673, -0.04325798526406288, -0.039695702493190765, -0.019397497177124023, -0.008600589819252491, -0.0036238848697394133, 0.008101096376776695, -0.011995653621852398, -0.045427314937114716, 0.016627885401248932, 0.01730075478553772, 0.016682490706443787, 0.01380204688757658, 0.03683248907327652, 0.029182929545640945, 0.021801244467496872, -0.010863369330763817, 0.014387305825948715, 0.013604224659502506, 0.026572993025183678, 0.03667515516281128, 0.007088149897754192, 0.002278270898386836, -0.004701691213995218, 0.012746107764542103, 0.031909290701150894, 0.0025875847786664963, 0.019927978515625, -0.022699156776070595, -0.026231713593006134, 0.012378060258924961, 0.023455975577235222, 0.01505020260810852, -0.006523299030959606, 0.011870980262756348, -0.022082198411226273, -0.02268543466925621, -0.022966090589761734, 0.010391131974756718, -0.019904473796486855, -0.01125959400087595, -0.03549874573945999, -0.014147384092211723, 0.004216123837977648, 0.007722542155534029, 0.012115636840462685, 0.00484814029186964, 0.027299541980028152, -0.0033023126889020205, 0.0005147187621332705, -0.00756891630589962, 0.028222938999533653, 0.0023090026807039976, -0.018825868144631386, 0.005393058992922306, -0.014625578187406063, 0.03468428924679756, -0.03063995949923992, -0.016258545219898224, -0.03158266097307205, -0.007752225734293461, -0.0382346548140049, 0.005243994295597076, -0.029112987220287323, -0.018533146008849144, -0.0369541198015213, -0.021093010902404785, -0.03131356090307236, -0.05749564617872238, -0.025422263890504837, -0.02691665105521679, -0.025057852268218994, -0.0490795373916626, -0.05096961930394173, -0.03107169270515442, -0.007868737913668156, 0.016636235639452934, -0.012998312711715698, -0.03561775013804436, -0.004013175144791603, -0.01833728514611721, 0.005502726882696152, -0.03239521384239197, -0.012824131175875664, -0.03701162710785866, -0.01840890198945999, 0.015379488468170166, -0.024441983550786972, -0.017882544547319412, -0.007919753901660442, -0.006829983554780483, -0.010530718602240086, -0.024454087018966675, -0.02269122563302517, 0.0034301052801311016, 0.0026493039913475513, -0.000558594474568963, -0.013404252007603645, 0.0013341013109311461, -0.021376248449087143, -0.008188491687178612, -0.008757181465625763, -0.059419870376586914, 0.0034198795910924673, -0.017961518839001656, 0.00027814763598144054, -0.02632814832031727, -0.0391073152422905, -0.02105793170630932, -0.017679134383797646, 0.006028282456099987, -0.028119266033172607, -0.017193114385008812, -0.037533484399318695, -0.025537902489304543, -0.005473126191645861, -0.011861681006848812, -0.004192660097032785, -0.0070841386914253235, 0.005712142214179039, -0.030275359749794006, 0.02024228498339653, 0.011640854179859161, -0.021087657660245895, -0.02115478552877903, -0.0013271383941173553, 0.014377443119883537, 0.008361264131963253, 0.0063247885555028915, 0.004062516149133444, -0.0060113826766610146, -0.02988642081618309, -0.008249497972428799, 0.0098614152520895], [-0.0036829051095992327, 0.00918224174529314, 0.0015267448034137487, 0.018024126067757607, -0.007897366769611835, 0.017952222377061844, -0.0031575080938637257, -0.008232034742832184, 0.026094097644090652, 0.002603829139843583, 0.04124808311462402, 0.014079905115067959, -0.02294684201478958, 0.0035412285942584276, -0.002308611059561372, 0.029310226440429688, -0.0032672227825969458, 0.023061510175466537, 0.016408588737249374, 0.01957954652607441, 0.07271371781826019, 0.10057102888822556, 0.08358465880155563, 0.0665285512804985, 0.11196304857730865, -0.0032932525500655174, 0.0315045565366745, 0.08135708421468735, 0.04098844900727272, 0.007639254909008741, -0.04213317111134529, 0.025523019954562187, 0.05782431736588478, 0.007787068374454975, -0.02214837819337845, -0.014183023013174534, -0.001961148576810956, -0.00016906540258787572, -0.002884026151150465, 0.0016342736780643463, 0.005681695882230997, -0.015363608486950397, -0.0580604262650013, 0.01809665933251381, 0.0007519547361880541, 0.010543782263994217, 0.07696634531021118, 0.02243228815495968, 0.010008162818849087, 0.03224379941821098, 0.014972609467804432, -0.04876996576786041, -0.08339335769414902, 0.027223393321037292, 0.02613178826868534, -0.09394139796495438, -0.0050430092960596085, 0.08721420168876648, 0.02074405923485756, -0.026717565953731537, -0.017439190298318863, 0.008583113551139832, 0.03508215770125389, -0.032799024134874344, 0.040301717817783356, -0.02734987996518612, -0.011252686381340027, -0.037408579140901566, -0.07166916877031326, -0.04300424084067345, -0.11013954877853394, -0.03532014787197113, 0.07665594667196274, 0.06018870323896408, -0.050144124776124954, -0.006515050306916237, -0.042327649891376495, -0.11936228722333908, -0.07243002206087112, -0.007773505058139563, 0.023241188377141953, -0.04417513310909271, 0.021575964987277985, 0.043114423751831055, -0.001478072488680482, 0.03427611663937569, 0.02914383076131344, 0.03659280762076378, 0.052643999457359314, 0.06061992794275284, -0.022467492148280144, 0.02706919237971306, -0.017450394108891487, -0.045691151171922684, -0.028002893552184105, -0.06713495403528214, -0.08729645609855652, -0.04330601543188095, -0.013879519887268543, 0.013451159931719303, -0.06337284296751022, -0.00258539617061615, -0.019048983231186867, -0.021495388820767403, -0.04197987541556358, -0.011867418885231018, 0.025797894224524498, -0.01951642893254757, -0.018355192616581917, 0.0036674407310783863, -0.024909732863307, -0.016263511031866074, 0.02012263424694538, 0.05324713513255119, 0.03825860470533371, -0.07693596929311752, -0.03480598330497742, -0.03843434900045395, -0.009451610036194324, -0.030074477195739746, -0.1574360877275467, -0.12379737198352814, -0.11266778409481049, -0.09527390450239182, -0.14319510757923126, -0.11908651888370514, -0.056927379220724106, 0.030880656093358994, -0.014951235614717007, -0.09159255027770996, -0.07531887292861938, 0.08560546487569809, 0.05421897768974304, 0.012194558046758175, -0.05288773775100708, 0.050342388451099396, 0.08720767498016357, 0.08093398064374924, 0.04998288303613663, 0.02928352728486061, -0.017282098531723022, 0.05408523976802826, 0.09948219358921051, 0.05452027916908264, 0.020009785890579224, -0.03669007495045662, 0.017398223280906677, 0.06716201454401016, 0.07320693880319595, -0.0009631376597099006, -0.0038119249511510134, 0.07064671814441681, 0.030504044145345688, -0.03809787705540657, -0.039091549813747406, 0.06585435569286346, 0.07325039803981781, 0.014399656094610691, 0.00988167617470026, 0.0427585206925869, 0.017566492781043053, 0.01202394813299179, 0.015783408656716347, 0.031662389636039734, 0.02887624315917492, -0.04379734769463539, 0.008188820444047451, 0.012701133266091347, 0.042791228741407394, 0.0864899605512619, -0.06951596587896347, -0.043769486248493195, -0.06604347378015518, -0.026740727946162224, -0.019651856273412704, -0.0008760257624089718, 0.10258524119853973, 0.030960237607359886, 0.008505381643772125, 0.06802787631750107, -0.003336014924570918, -0.035223692655563354, -0.01892201416194439, -0.02013491466641426, 0.04587947949767113, -0.020474480465054512, -0.013341458514332771, 0.0012939773732796311, 0.015756968408823013, 0.037370938807725906, 0.05168204754590988, 0.05048399791121483, 0.07314413040876389, 0.10315878689289093, -0.03568391501903534, 0.07275289297103882, 0.08567766100168228, 0.06961538642644882, 0.03605841100215912, -0.010220889002084732, 0.009636756964027882, -0.00208139605820179, 0.02808886580169201, -0.03643651306629181, -0.02182839810848236, -0.0059789568185806274, -0.0443531796336174, -0.021507026627659798, -0.04435042291879654, 0.021664930507540703, 0.00296281510964036, 0.004233187064528465, 0.040768615901470184, 0.04614165797829628, -0.010421526618301868, -0.06507041305303574, -8.202726166928187e-05, 0.03278587758541107, 0.06444475799798965, -0.040904607623815536, -0.11006919294595718, -0.06946089118719101, -0.06448736786842346, -0.054469894617795944, -0.10911785066127777, 0.05688682943582535, -0.00023226867779158056, -0.041486792266368866, 0.0011133826337754726, -0.04277234151959419, -0.053449712693691254, -0.02578366920351982, 0.025898629799485207, 0.010625416412949562, 0.018807316198945045, -0.00802311860024929, 0.0965273529291153, 0.07457061856985092, 0.012076014652848244, 0.04468869790434837, -0.020468709990382195, 0.018668878823518753, -0.04186510294675827, 0.027331436052918434, 0.001761003164574504, -0.08538521826267242, -0.05522620677947998, 0.01973060332238674, 0.03786180913448334, 0.011594968847930431, -0.07837308943271637, -0.009476643055677414, -0.025049276649951935, -0.016731830313801765, -0.04798233136534691, -0.03117484226822853, -0.04911491647362709, 0.015987131744623184, 0.0019776674453169107, -0.014233671128749847, -0.08959595859050751, -0.0378718301653862, -0.015574849210679531, 0.04105093702673912, 0.029094086959958076, -0.15126557648181915, -0.06960926949977875, -0.013250166550278664, 0.010488652624189854, -0.059557050466537476, -0.13663552701473236, -0.13161318004131317, -0.09490659087896347, -0.09281250834465027, -0.16415677964687347, 0.08173245191574097, 0.056073904037475586, 0.02451830729842186, 0.023003671318292618, -0.01323547400534153, 0.04948069155216217, 0.027401452884078026, 0.027629481628537178, 0.025666387751698494, -0.05395934358239174, -0.033716265112161636, -0.018451474606990814, 0.04136241227388382, 0.04502524808049202, -0.01573825627565384, -0.01092478446662426, 0.006358163896948099, -0.011192168109118938, 0.016088292002677917, 0.02298123575747013, -0.008504776284098625, 0.05788138881325722, 0.0413065031170845, 0.02603546530008316, 0.05638189986348152, 0.04503833130002022, 0.008608070202171803, 0.027379482984542847, -0.0038626317400485277, -0.027398280799388885, 0.03009485825896263, 0.03836689889431, 0.07156173139810562, 0.042867258191108704, 0.004808514844626188, 0.030129846185445786, 0.013048677705228329, -0.011048601008951664, -0.00635929498821497, -0.014522968791425228, -0.01565558649599552, -0.04248784855008125, -0.026638805866241455, -0.024946125224232674, -0.009632106870412827, -0.0069297198206186295, -0.015710698440670967, -0.022323865443468094, -0.0418383851647377, 0.03232865408062935, -0.006383444182574749, 0.01697177067399025, -0.009861933067440987, -0.04738255962729454, -0.009753519669175148, 0.012072947807610035, -0.0027249481063336134, -0.045644406229257584, -0.03775741904973984, 0.03827015310525894, 0.004565601237118244, 0.027254393324255943, 0.027315778657794, -0.008312526158988476, 0.08689363300800323, 0.0014942693524062634, 0.05184612050652504, 0.03069196455180645, -0.00589368399232626, 0.015974972397089005, -0.010752218775451183, 0.025121504440903664, 0.026480697095394135, 0.022909201681613922, -0.05612516030669212, 0.12300556898117065, 0.09467043727636337, 0.043458811938762665, 0.02215084247291088, 0.04452589526772499, 0.07010243833065033, 0.031723491847515106, 0.02069834992289543, 0.05347399413585663, 0.06344660371541977, -0.02460482344031334, 0.033316317945718765, 0.045172370970249176, -0.00968578178435564, -0.009691743180155754, 0.026814859360456467, 0.047145742923021317, 0.10100959986448288, 0.014201942831277847, -0.11277758330106735, 0.02152247540652752, -0.007669624872505665, 0.012819102965295315, 0.063282310962677, -0.08566998690366745, -0.061566129326820374, -0.0841914638876915, -0.029604487121105194, -0.003664790652692318, -0.07396029680967331, -0.028943372890353203, -0.002467201789841056, -0.011417384259402752, 0.02156745083630085, 0.004927652422338724, -0.04451216012239456, 0.007299024146050215, -0.03171003237366676, -0.016072425991296768, -0.04201701655983925, 0.0257978867739439, 0.0245917160063982, -0.0647251307964325, -0.01876910962164402, -0.11862420290708542, 0.019811786711215973, -0.020377442240715027, 0.01730303280055523, 0.002356157172471285, -0.07417331635951996], [-0.01350177451968193, -0.019190585240721703, -0.018235472962260246, -0.027862587943673134, -0.027069345116615295, 0.012073524296283722, -0.03836854174733162, -0.04549594223499298, 0.009349789470434189, 0.009200097061693668, 0.021738305687904358, -0.002452526707202196, 0.004662547260522842, -0.019441766664385796, -0.01857350580394268, -0.03275279700756073, -0.0397782027721405, -0.012477048672735691, 0.006067886017262936, 0.013767005875706673, 0.0018728610593825579, -0.016865259036421776, -0.028518445789813995, 0.013060126453638077, -0.005479441490024328, -0.0003214898461010307, 0.0031076178420335054, 0.016127027571201324, 0.022314241155982018, 0.031044263392686844, 0.03546852990984917, -0.027138061821460724, 0.000994928297586739, 0.0036899768747389317, -0.0024786246940493584, -0.0029840448405593634, -0.014414836652576923, -0.012074310332536697, -0.014602159149944782, 0.009693963453173637, 0.03289836645126343, -0.0052082836627960205, 0.014851728454232216, -0.02722415328025818, -0.036618176847696304, 0.010550013743340969, 0.014336352236568928, 0.030101027339696884, 0.0180928036570549, 0.009546837769448757, 0.017817972227931023, -0.014329390600323677, 0.0026928954757750034, 0.02033587358891964, -0.030416127294301987, -0.0005546312313526869, 0.010656177997589111, -0.014583530835807323, 0.007911479100584984, -0.005535763222724199, -0.01608629710972309, 0.009197702631354332, 0.020897675305604935, -0.009832846000790596, 0.03046029806137085, -0.02742818370461464, -0.00399257056415081, 0.026146458461880684, 0.0045209601521492004, -0.04400618001818657, 0.0015197880566120148, 0.00536996778100729, -0.0055832527577877045, 0.005460175685584545, 0.013213668949902058, -0.01282595656812191, -0.054003726691007614, -0.027225034311413765, -0.045028261840343475, -0.023254750296473503, -0.027208760380744934, -0.011521517299115658, -0.0003208880661986768, -0.029930323362350464, 0.02462955377995968, -0.015206264331936836, -0.03602764382958412, 0.004712129943072796, 0.015878483653068542, 0.02187131531536579, 0.0024203455541282892, 0.003941241651773453, -0.0003503001353237778, 0.000605804321821779, 0.018217580392956734, -0.0009420260903425515, -0.008630672469735146, -0.005093318410217762, -0.024698829278349876, -0.00787636823952198, -0.021759526804089546, -0.024902846664190292, -0.030384283512830734, -0.004033195786178112, 0.007356768939644098, -0.024149274453520775, 0.003377667162567377, 0.028439844027161598, 0.0263430867344141, -0.013691408559679985, -0.014311970211565495, -0.008732588030397892, 0.012689662165939808, -0.018180320039391518, -0.018576575443148613, -0.06552155315876007, -0.01579453982412815, -0.05863753333687782, -0.0038530053570866585, -0.022135591134428978, -0.03558974713087082, -0.04977726936340332, -0.05555269122123718, -0.06359662860631943, -0.019666021689772606, -0.011817196384072304, -0.041107211261987686, -0.03808557614684105, -0.003491209354251623, -0.04968806728720665, -0.006285816431045532, -0.04040619730949402, -0.00855617318302393, -0.020024381577968597, -0.02590242587029934, -0.01647871546447277, -0.013865621760487556, -0.011765869334340096, -0.020669078454375267, -0.027146007865667343, -0.01047156099230051, -0.012231117114424706, 0.018816722556948662, -0.01270710863173008, -0.043416544795036316, -0.002513432875275612, -0.007878842763602734, 0.019306151196360588, -0.0223411675542593, -0.03704461082816124, -0.054901234805583954, 0.0006430634530261159, -0.00990738533437252, -0.02755245938897133, -0.020540036261081696, -0.044811490923166275, -0.020297810435295105, -0.00981953740119934, -0.0008769556297920644, -0.013623016886413097, -0.01610073633491993, -0.03781789541244507, -0.008317209780216217, 0.014041038230061531, -0.02614334598183632, -0.0076909917406737804, 0.005151872988790274, 0.008557365275919437, -0.006360296625643969, -0.03859088569879532, -0.06253369152545929, 0.0019899369217455387, -0.046207915991544724, -0.022071855142712593, 0.023111652582883835, -0.029251325875520706, -0.024136951193213463, 0.00950904842466116, -0.03835206851363182, -0.02033950202167034, 0.010164055973291397, 0.03509477525949478, 0.0206493828445673, -0.014154020696878433, -0.0037206753622740507, 0.012182949110865593, 0.00958348624408245, 0.0023408306296914816, -0.01881587505340576, -0.012475944124162197, -0.02007787674665451, -0.023756209760904312, 0.009893673472106457, -0.017577605322003365, 0.00752581050619483, 0.0018764142878353596, -0.0019102721707895398, 0.01081661693751812, 0.008085345849394798, 0.029416406527161598, -0.02089633047580719, -0.015401248820126057, 0.009151683188974857, -0.024667814373970032, -0.021764887496829033, -0.02765747718513012, 0.012839146889746189, 0.007273552007973194, 0.014273040927946568, -0.02071252278983593, 0.01822407729923725, 0.023365026339888573, 0.006175156682729721, 0.014757158234715462, -0.055492088198661804, 0.01867995224893093, -0.006804721895605326, -0.00788735132664442, 0.04285720735788345, 0.03131762146949768, 0.008979316800832748, -0.025535110384225845, -0.022941770032048225, -0.022700978443026543, 0.010436455719172955, 0.01638115756213665, 0.030591342598199844, 0.02013692632317543, 0.025274962186813354, 0.0006472395034506917, -0.023609725758433342, -4.581715620588511e-05, 0.010225748643279076, 0.0020502363331615925, 0.016039060428738594, -0.012531941756606102, -0.030191516503691673, -0.005043509881943464, 0.04035940766334534, 0.024049336090683937, -0.006237039342522621, -0.014107330702245235, 0.0016640940448269248, -0.0030082990415394306, 0.016132790595293045, -0.020885301753878593, 0.027648402377963066, 0.013425493612885475, -0.011760412715375423, 0.005856025032699108, -0.0622086226940155, -0.07274428755044937, -0.0611923523247242, -0.05753036588430405, -0.07020365446805954, -0.03524421155452728, -0.019359391182661057, -0.027858057990670204, 0.001316427020356059, -0.07576439529657364, -0.041055694222450256, -0.0032756647560745478, 0.023080233484506607, -0.008311993442475796, -0.034246157854795456, -0.02484944835305214, -0.00429878756403923, 0.01147776935249567, 0.0017378410557284951, -0.0024447953328490257, -0.0023948783054947853, -0.0008300384506583214, -0.03964904695749283, -0.009833576157689095, -0.03377286344766617, -0.008042322471737862, -0.017069952562451363, -0.007922207936644554, -0.007539279758930206, -0.06422095745801926, -0.021434597671031952, -0.0005769139970652759, -0.004275822080671787, -0.002938455669209361, -0.006179880350828171, -0.02372598461806774, 0.004920077510178089, 0.028318321332335472, 0.013886932283639908, 0.014169280417263508, -0.028651954606175423, 0.008707729168236256, 0.010047754272818565, -0.029930464923381805, -0.042847491800785065, -0.024610232561826706, -0.02731911465525627, -0.023852355778217316, 0.0008913001511245966, -0.03071305900812149, -0.05052676796913147, -0.04676904156804085, -0.05407397449016571, -0.026399601250886917, -0.010489443317055702, -0.01856035739183426, -0.010418657213449478, -0.007814516313374043, -0.030196376144886017, -0.025292759761214256, -0.02548118680715561, -0.003394439583644271, -0.024378862231969833, -0.030084194615483284, -0.03946724534034729, 0.006280561443418264, -0.032002516090869904, -0.012213780544698238, -0.04603176191449165, -0.05305307358503342, -0.027703046798706055, -0.003064104588702321, -0.030914433300495148, 0.02290775254368782, 0.0041009001433849335, -0.015920480713248253, -0.024956990033388138, -0.0135812321677804, -0.01805710978806019, 0.01682465523481369, -0.026371372863650322, -0.025564612820744514, 0.015902983024716377, -0.007934131659567356, -0.0460103377699852, -0.0002053388161584735, -0.023221906274557114, 0.01441266667097807, 0.024137228727340698, -0.045413099229335785, 0.018061883747577667, -0.018863415345549583, 0.00127744663041085, 0.001575662405230105, -0.02393387071788311, -0.01635703258216381, -0.004050097428262234, -0.0205655749887228, -0.011549519374966621, -0.032123908400535583, -0.045650664716959, 0.0018353888299316168, 0.00762829789891839, -0.004861707799136639, -0.004634058102965355, -0.023044481873512268, -0.01093655452132225, 0.05381430312991142, -0.0009218411869369447, -0.04899116978049278, -0.03921983763575554, -0.021550176665186882, 0.02426883764564991, 0.03922664001584053, 0.007135685067623854, -0.0802161693572998, -0.03145401179790497, 0.004872993100434542, 0.03976669907569885, 0.029882831498980522, -0.05022189021110535, 0.01166246272623539, 0.010098305530846119, 0.012369666248559952, 0.02181939221918583, -0.029434751719236374, -0.04484342411160469, -0.04558771103620529, -0.05186954140663147, -0.05982918664813042, -0.012175125069916248, -0.05682728439569473, -0.034060340374708176, -0.016036497429013252, -0.03934290632605553, -0.0519951656460762, -0.0047251982614398, 0.014018419198691845, 0.009015711955726147, -0.03551710024476051, -0.024283813312649727, 0.008317257277667522, -0.007045195437967777, -0.007687270641326904, -0.016907701268792152, -0.05239700898528099, -0.02149045094847679, -0.029314136132597923, -0.0011860402300953865, -0.053389742970466614], [0.08319365978240967, 0.028660643845796585, 0.027422407642006874, 0.07073894143104553, 0.05467545613646507, 0.06286028772592545, 0.0607510507106781, 0.05441459268331528, 0.022926686331629753, 0.0639713779091835, 0.0993717610836029, 0.05971714109182358, 0.053584638983011246, 0.04110027849674225, 0.034579019993543625, 0.02704852633178234, 0.009860233403742313, 0.051970597356557846, 0.0536203533411026, -0.014656287617981434, 0.012338104657828808, 0.004559743218123913, 0.04055346921086311, -0.0010828807717189193, -0.01813419535756111, -0.11121457070112228, -0.05519295483827591, -0.06895038485527039, -0.03731317073106766, -0.0007883008220233023, 0.027028217911720276, 0.027725350111722946, -0.05473935604095459, -0.06176130846142769, 0.034442272037267685, 0.0617387481033802, 0.03851501643657684, -0.0023377141915261745, 0.01947617158293724, 0.03303123265504837, 0.09446711838245392, 0.0023976368829607964, 0.03423122689127922, 0.013673745095729828, 0.022461101412773132, 0.03636303171515465, 0.017815187573432922, 0.044660333544015884, 0.0019053672440350056, -0.049366775900125504, 0.037292689085006714, -0.09369712322950363, -0.10961747914552689, 0.046849530190229416, -0.022793198004364967, 0.07851368933916092, 0.023663442581892014, -0.0790310800075531, 0.0056445421651005745, 0.02279074862599373, 0.0636366754770279, 0.06616439670324326, -0.07886122912168503, -0.04563407972455025, -0.00765624362975359, 0.0955275371670723, 0.12554115056991577, 0.07585998624563217, 0.05432587489485741, 0.06990547478199005, 0.019271640107035637, 0.056912608444690704, 0.08759105950593948, 0.0438927561044693, 0.003790885442867875, -0.09130706638097763, -0.10082916170358658, -0.08993649482727051, -0.015567082911729813, -0.03190390393137932, -0.009764745831489563, -0.02994539961218834, -0.13648928701877594, -0.05713804066181183, -0.0007565966225229204, 0.022633781656622887, 0.0023042333777993917, -0.06382785737514496, -0.03192252665758133, 0.048823483288288116, 0.01728919707238674, 0.05062815174460411, 0.06255154311656952, 0.09912892431020737, 0.10244328528642654, 0.08976372331380844, 0.10658913105726242, 0.1415727287530899, 0.11563645303249359, 0.13051702082157135, 0.015578755177557468, -0.03967970982193947, -0.011292465031147003, 0.06853163987398148, 0.10904055088758469, -0.02016245760023594, -0.03663555532693863, -0.037277400493621826, 0.03363107517361641, 0.029817430302500725, -0.0006433332455344498, -0.0015564090572297573, 0.02980009652674198, 0.04386704042553902, 0.007085503078997135, 0.003387894481420517, 0.03888335078954697, -0.013440738432109356, -0.03181367367506027, -0.031868163496255875, -0.09651196002960205, -0.11856602132320404, -0.08094488084316254, -0.06363276392221451, -0.05814461037516594, -0.08036597073078156, -0.01841825246810913, -0.051808085292577744, -0.07336311042308807, -0.06564895063638687, 0.013770123943686485, -0.035898275673389435, -0.05692058801651001, -0.025371553376317024, 0.010370929725468159, 0.03179006278514862, -0.023431148380041122, -0.028489893302321434, -0.013835704885423183, -0.023400232195854187, 0.03401106595993042, 0.01703963428735733, 0.10876670479774475, 0.032524965703487396, -0.007688634563237429, 0.027357298880815506, 0.03685564175248146, 0.008479577489197254, -0.011242487467825413, -0.019439244642853737, 0.14474032819271088, 0.1181170642375946, 0.0606808178126812, 0.01886638067662716, 0.06542301177978516, 0.05139411240816116, 0.0800299420952797, 0.05898004397749901, 0.07063665986061096, 0.07568191736936569, -0.061723776161670685, 0.06856229156255722, 0.049435053020715714, 0.09941507875919342, 0.021496521309018135, -0.14419735968112946, -0.09564244747161865, -0.061157286167144775, -0.07462728768587112, -0.10598622262477875, -0.22338971495628357, -0.25494781136512756, -0.18007341027259827, -0.1555941253900528, -0.10117940604686737, -0.15537020564079285, -0.1417766511440277, -0.01964689791202545, 0.08003916591405869, 0.06591860949993134, -0.11316283047199249, -0.02208731696009636, 0.003705182345584035, 0.06864415109157562, 0.08005136251449585, -0.05660027638077736, 0.06183590739965439, 0.11754138022661209, 0.10714372247457504, 0.050786472856998444, 0.04612218961119652, 0.04458685219287872, -0.059457406401634216, 0.02358321286737919, -0.002201886149123311, -0.03660573065280914, -0.009987980127334595, 0.06296446174383163, 0.005957148037850857, -0.055713433772325516, 0.06109157204627991, 0.029849285259842873, -0.009133751504123211, 0.0022074473090469837, 0.04718462750315666, 0.03875261917710304, 0.02508378028869629, 0.11191438883543015, 0.0415816456079483, 0.08810671418905258, -0.0715252012014389, 0.03238055855035782, 0.013349623419344425, -0.025167852640151978, -0.0539834126830101, -0.11600099503993988, -0.04599371552467346, -0.050963301211595535, -0.041426461189985275, -0.054011113941669464, -0.1720653474330902, -0.19369684159755707, -0.10791195929050446, -0.11836956441402435, -0.06416353583335876, 0.0723261907696724, -0.02895793877542019, 0.0021168049424886703, 0.03657272085547447, 0.05518554896116257, 0.1197042241692543, 0.041780006140470505, 0.034660715609788895, 0.043031953275203705, 0.08932630717754364, 0.12904416024684906, -0.005640034098178148, 0.030492912977933884, 0.05817446857690811, 0.10737273097038269, 0.007946575991809368, 0.024073127657175064, 0.10596062988042831, 0.08786562085151672, -0.0019807685166597366, -0.025133350864052773, -0.013468285091221333, -0.005535675212740898, -0.024888111278414726, -0.12831467390060425, 0.057167403399944305, -0.049866173416376114, -0.030373966321349144, 0.06745100766420364, 0.06070404872298241, 0.022876860573887825, -0.026063598692417145, 0.0004984185216017067, -0.023653805255889893, -0.020997069776058197, 0.00046760289114899933, -0.008385087363421917, 0.07792573422193527, 0.004707430023699999, -0.02164199762046337, -0.0010856366716325283, 0.01645311899483204, -0.002210749313235283, -0.0675133541226387, -0.05493073910474777, -0.09176433086395264, -0.1878388226032257, -0.1736859828233719, -0.16590185463428497, -0.1987212896347046, -0.0993957594037056, -0.04483812302350998, 0.14233890175819397, -0.040269214659929276, -0.05625276267528534, -0.08648695796728134, -0.09469278156757355, 0.00472119078040123, -0.046794820576906204, -0.015322580002248287, -0.04020087793469429, -0.09592962265014648, -0.12394223362207413, -0.04351329430937767, -0.001322561758570373, -0.06349671632051468, 0.018385253846645355, 0.017714109271764755, 0.01555012259632349, -0.02341945841908455, -0.13117970526218414, 0.05758011341094971, 0.009331323206424713, -0.03589419275522232, -0.03542393818497658, 0.17738761007785797, 0.018870554864406586, -0.015234733000397682, 0.009167689830064774, 0.140676811337471, 0.08371484279632568, 0.03393175080418587, -0.010309413075447083, 0.032501377165317535, 0.10941706597805023, 0.05352366715669632, -0.030151139944791794, -0.031079266220331192, 0.032433830201625824, -0.008209076710045338, -0.00436668936163187, -0.0037012307438999414, 0.05339093133807182, 0.012252655811607838, 0.045063357800245285, 0.034330133348703384, -0.015874719247221947, -0.004793700762093067, 0.04078755900263786, -0.017163842916488647, -0.01866212487220764, -0.001983202528208494, 0.007188328076153994, 0.0440368577837944, 0.04360118880867958, -0.01668006181716919, 0.024336038157343864, 0.046651896089315414, 0.005796384997665882, 0.011185486800968647, -0.024322504177689552, 0.046597227454185486, -0.014210039749741554, -0.03877449408173561, -0.03736234828829765, 0.035539496690034866, 0.0682406798005104, -0.0162260290235281, -0.021281857043504715, -0.042083919048309326, -0.05075612664222717, -0.04424833133816719, -0.11406837403774261, -0.14936475455760956, -0.11989228427410126, -0.0440988764166832, -0.13144461810588837, -0.01497777458280325, 0.06661370396614075, -0.02963836118578911, -0.00015660272038076073, -0.027999233454465866, 0.0689300075173378, 0.029312679544091225, -0.09603992849588394, 0.009776054881513119, 0.079948291182518, 0.04656301438808441, -0.06404087692499161, -0.11210024356842041, 0.05091087892651558, 0.09594276547431946, -0.02265198715031147, -0.08589712530374527, -0.021429242566227913, -0.15194563567638397, -0.0298612117767334, -0.1439516246318817, -0.12886744737625122, -0.016986537724733353, 0.06948131322860718, 0.034136418253183365, 0.02381870523095131, 0.08669476211071014, 0.13478045165538788, 0.012537973001599312, 0.011954447254538536, 0.025797510519623756, 0.010653018020093441, 0.056889720261096954, 0.017810141667723656, 0.00634771678596735, 0.02256452850997448, 0.05364356189966202, 0.07637235522270203, 0.03897954523563385, -0.0014979204861447215, 0.01885438710451126, 0.09211783111095428, 0.02393031306564808, -0.005311910528689623, -0.08152829855680466, -0.12631188333034515, -0.028641395270824432, -0.05775512382388115], [0.02782023511826992, 0.06267043203115463, 0.051363326609134674, 0.04268082231283188, 0.046366963535547256, 0.022711731493473053, -0.025715306401252747, -0.05795565992593765, -0.0020942415576428175, -0.015964876860380173, -0.01538352482020855, -0.061180390417575836, -0.020619072020053864, 0.011893391609191895, 0.041943538933992386, -0.033017512410879135, 0.040890105068683624, 0.06363172829151154, -0.02457781694829464, 